2.408891450613737106e-04 6.873683538287878036e-03 -5.610018502920866013e-03 2.577948383986949921e-02 7.465406320989131927e-03 -2.161985635757446289e-02 -1.683849655091762543e-02 -1.223246654262766242e-04 -1.321122795343399048e-02 6.914027966558933258e-03 5.839712452143430710e-03 -8.633885532617568970e-03 -1.067603379487991333e-02 1.004793681204319000e-02 7.860513404011726379e-03 8.510454557836055756e-03 1.048480160534381866e-02 4.156572278589010239e-03 -2.213055850006639957e-04 8.739067241549491882e-03 8.146665059030056000e-03 1.478182151913642883e-02 -1.461414620280265808e-02 -5.206498783081769943e-03 -3.297965507954359055e-03 -1.284158136695623398e-02 4.350066592451184988e-04 8.257990702986717224e-03 -4.678373690694570541e-03 -2.785671735182404518e-03 1.098989415913820267e-02 -2.679387666285037994e-02 1.145923789590597153e-02 1.391673646867275238e-02 5.419536959379911423e-03 -4.655060358345508575e-03 2.943276986479759216e-02 -1.559475623071193695e-02 1.870589214377105236e-03 1.169494166970252991e-02 9.234709665179252625e-03 -5.430291406810283661e-03 -1.085301191778853536e-04 -4.039555322378873825e-03 9.525155648589134216e-03 -4.488567821681499481e-03 -1.771103241480886936e-03 -7.743219844996929169e-03 1.637610024772584438e-03 -7.999294437468051910e-03 -6.803460419178009033e-03 3.437986830249428749e-03 -6.967142107896506786e-04 -1.008763210847973824e-03 -7.168754382291808724e-05 1.083522755652666092e-02 -6.130408495664596558e-03 1.137214712798595428e-02 2.554458333179354668e-03 -9.203469380736351013e-03 6.553751416504383087e-03 4.455259186215698719e-04 -2.945699030533432961e-03 1.175208389759063721e-02 1.235375460237264633e-02 3.157047089189291000e-03 2.506648004055023193e-02 -2.019632793962955475e-02 3.899546107277274132e-03 -1.272370852530002594e-02 -2.082150604110211134e-04 3.371624625287950039e-04 5.292920861393213272e-03 -2.622433565557003021e-02 -2.347722416743636131e-03 -1.044281665235757828e-02 -2.374229254201054573e-03 5.291788838803768158e-03 -1.222580857574939728e-02 7.283380255103111267e-04 2.167400903999805450e-02 1.043139677494764328e-02 1.124083157628774643e-02 5.053143948316574097e-03 -5.943920463323593140e-03 -2.124766074120998383e-02 -1.930655352771282196e-02 -6.465255282819271088e-03 1.244960003532469273e-03 -1.982749672606587410e-03 -7.285611703991889954e-03 -1.481895986944437027e-02 -3.747437847778201103e-03 1.103366166353225708e-02 -1.856957562267780304e-03 -4.161615797784179449e-04 2.618380123749375343e-03 -3.428823547437787056e-03 4.647977184504270554e-03 8.482894860208034515e-03 -2.101491391658782959e-02 -9.334004484117031097e-03 -2.860813401639461517e-03 -1.422489807009696960e-02 8.505580946803092957e-03 -7.041622418910264969e-03 -4.084113985300064087e-03 -5.311449058353900909e-03 -4.148599691689014435e-03 -7.459271233528852463e-03 4.369308706372976303e-03 1.266750600188970566e-02 3.188907401636242867e-03 -6.708660162985324860e-03 1.046889834105968475e-02 -1.280314195901155472e-02 1.781475613825023174e-03 -2.175119705498218536e-03 -2.469239523634314537e-03 4.116671625524759293e-03 -2.258912473917007446e-02 1.758825848810374737e-03 -7.915875758044421673e-04 3.630821593105792999e-03 -3.733059158548712730e-03 -1.546385698020458221e-03 -1.390355266630649567e-02 1.396297384053468704e-02 -1.220888225361704826e-03 4.563532769680023193e-03 -4.123555030673742294e-03 2.320087887346744537e-02 3.995072329416871071e-04 1.417929073795676231e-03 4.516220185905694962e-03 -5.141437519341707230e-03 1.070047821849584579e-02 -6.245427764952182770e-03 3.861938836053013802e-03 -5.015759728848934174e-03 2.274374477565288544e-03 7.715732324868440628e-03 1.632987707853317261e-02 -3.767830552533268929e-03 4.334007855504751205e-03 9.542359039187431335e-03 -9.144331328570842743e-03 5.970429163426160812e-03 -9.055882692337036133e-04 -9.168704855255782604e-04 -6.836571730673313141e-03 -5.285166669636964798e-03 1.276993844658136368e-02 -1.595413312315940857e-02 -9.421736933290958405e-03 1.738476194441318512e-02 6.073507945984601974e-03 4.531641025096178055e-03 8.161111734807491302e-03 -3.081245347857475281e-03 -1.707340357825160027e-03 1.573098707012832165e-03 4.369395319372415543e-03 3.985505085438489914e-03 1.731172553263604641e-03 3.558999858796596527e-03 1.286021154373884201e-02 9.018131531774997711e-03 -3.072462975978851318e-03 -1.871969364583492279e-02 -6.598061881959438324e-03 -1.494695805013179779e-02 -1.185957714915275574e-02 -5.873217247426509857e-03 -7.519369479268789291e-03 -6.675779586657881737e-04 -7.964755408465862274e-03 -8.963076397776603699e-03 -1.688542217016220093e-02 -1.249728258699178696e-02 -1.095728599466383457e-03 -2.956403652206063271e-03 -1.608248217962682247e-03 5.046661943197250366e-03 2.940654987469315529e-03 6.902270019054412842e-03 3.334736393298953772e-04 -1.054815482348203659e-02 2.925949404016137123e-03 -7.652509026229381561e-03 -1.127422880381345749e-02 -5.920234136283397675e-03 -2.941352548077702522e-03 3.708866424858570099e-03 3.323026699945330620e-03 2.296111546456813812e-03 2.528030239045619965e-02 -2.779218601062893867e-03 -1.261162105947732925e-03 -1.798729761503636837e-03 -3.980370238423347473e-03 -6.107470253482460976e-04 -2.663603052496910095e-02 2.978712879121303558e-02 -6.186198908835649490e-03 7.659499533474445343e-03 -1.354150567203760147e-02 2.713742200285196304e-03 1.003848016262054443e-02 -9.959383867681026459e-03 7.056066300719976425e-03 -8.332534693181514740e-03 2.183798700571060181e-03 1.320087909698486328e-02 -1.767905079759657383e-03 1.030520442873239517e-02 8.979901322163641453e-04 -1.322528626769781113e-02 -1.154500059783458710e-03 3.481812076643109322e-03 -3.621475116233341396e-05 -2.388470340520143509e-03 -7.724798750132322311e-03 2.410285407677292824e-03 -1.140423584729433060e-02 1.433362998068332672e-02 8.939354447647929192e-04 -1.706260809442028403e-04 -8.155499584972858429e-03 -5.803997162729501724e-03 2.243998833000659943e-02 -1.379649806767702103e-02 7.319020107388496399e-03 -5.795333068817853928e-03 -3.251312882639467716e-04 2.211134647950530052e-03 1.222473941743373871e-02 -1.130231469869613647e-02 1.218606252223253250e-03 5.548440851271152496e-03 3.540778066962957382e-03 1.042835693806409836e-02 -6.230696570128202438e-03 -1.004959922283887863e-02 4.496337845921516418e-03 -2.125083701685070992e-03 6.478332914412021637e-03 6.532270461320877075e-03 1.706586219370365143e-02 -1.382453180849552155e-02 -1.670834608376026154e-03 2.544247731566429138e-02 -2.975258277729153633e-03 8.853617124259471893e-03 1.441801316104829311e-03 4.523150157183408737e-03
-7.776495069265365601e-03 -9.536151774227619171e-03 -2.815914712846279144e-02 -7.863255217671394348e-03 4.649399314075708389e-03 -3.923276811838150024e-02 1.071522757411003113e-02 -2.213085815310478210e-02 -1.191718410700559616e-02 -7.916907779872417450e-03 -1.559735462069511414e-02 5.653987172991037369e-03 1.517717633396387100e-02 9.386657620780169964e-04 -6.598442792892456055e-03 -1.544797141104936600e-02 4.059176892042160034e-03 2.283045090734958649e-02 -1.132673397660255432e-02 -9.282143786549568176e-03 1.072247512638568878e-02 4.894693382084369659e-03 6.950427312403917313e-03 -1.804706081748008728e-02 2.294496167451143265e-03 -1.009759306907653809e-02 1.634510047733783722e-02 5.007955245673656464e-03 -1.948671997524797916e-03 -2.958314958959817886e-03 2.607605978846549988e-02 2.556258440017700195e-02 3.258927911520004272e-02 -2.097053220495581627e-03 -1.768874749541282654e-02 -1.111397426575422287e-02 1.626006513833999634e-02 1.599949970841407776e-02 -8.754369802772998810e-03 1.192892668768763542e-03 6.812852807343006134e-04 -8.581848815083503723e-03 1.904123276472091675e-02 7.667700294405221939e-03 -1.435353048145771027e-02 -5.242079962044954300e-03 1.022747624665498734e-02 -4.086126573383808136e-03 -6.876222789287567139e-03 1.095900894142687321e-03 -1.910928636789321899e-02 -1.532073225826025009e-02 1.131862401962280273e-02 6.465329788625240326e-03 2.230331301689147949e-03 6.259257905185222626e-03 2.087980043143033981e-03 1.351266913115978241e-02 2.989476080983877182e-03 -2.167532918974757195e-03 5.761343054473400116e-03 -1.003701332956552505e-02 2.850475348532199860e-02 5.508173722773790359e-03 5.885276943445205688e-03 3.655886277556419373e-03 8.807620033621788025e-04 1.614866405725479126e-02 -3.887076163664460182e-03 5.217167548835277557e-03 1.027198415249586105e-02 -3.671174868941307068e-03 2.672976581379771233e-03 3.695909678936004639e-02 -2.311649732291698456e-03 7.986960932612419128e-03 7.586068823002278805e-04 -1.923147775232791901e-02 4.626272711902856827e-04 4.082181956619024277e-03 6.095982389524579048e-04 1.690356619656085968e-02 -6.430229172110557556e-03 1.073317322880029678e-02 -7.806293200701475143e-03 5.635911133140325546e-03 7.797194179147481918e-03 3.881880780681967735e-03 -2.334490790963172913e-02 1.586140319705009460e-02 -1.385175273753702641e-04 -9.118746384046971798e-04 1.881295442581176758e-02 1.100607961416244507e-02 -2.177710644900798798e-02 8.441594429314136505e-03 4.114435985684394836e-03 6.255195010453462601e-03 -4.054395481944084167e-03 -1.261392794549465179e-02 -2.167035266757011414e-02 -1.948142424225807190e-02 -1.663478091359138489e-02 2.817850001156330109e-02 1.078913174569606781e-02 -2.261751098558306694e-03 3.608410479500889778e-03 9.011884219944477081e-03 1.950877159833908081e-02 1.527850609272718430e-02 -2.844320423901081085e-02 4.603620246052742004e-02 3.047979809343814850e-02 8.315363898873329163e-03 1.870401762425899506e-02 1.566082611680030823e-02 -1.453917752951383591e-02 8.859369903802871704e-03 1.399524509906768799e-02 -7.248864974826574326e-03 5.927374120801687241e-03 -1.301730953855440021e-04 5.196820572018623352e-02 1.041158754378557205e-02 2.962556434795260429e-03 1.618340052664279938e-02 -1.181379426270723343e-02 -1.471381448209285736e-02 5.102714058011770248e-03 4.570142365992069244e-03 -7.466711569577455521e-03 1.628314703702926636e-02 3.478193655610084534e-03 -2.036473527550697327e-02 1.730040460824966431e-02 1.991196162998676300e-02 -7.464691996574401855e-03 -9.105256758630275726e-03 1.898539625108242035e-02 -5.779430735856294632e-03 -6.469467189162969589e-03 -1.467826403677463531e-02 3.330431180074810982e-03 -1.950524747371673584e-02 -4.368930531200021505e-04 -1.078947167843580246e-02 2.299576532095670700e-03 3.784760087728500366e-02 7.251540664583444595e-03 1.628473773598670959e-02 -6.269558798521757126e-03 -8.704531006515026093e-03 6.311147008091211319e-04 2.386310137808322906e-03 3.739103907719254494e-03 6.273704115301370621e-03 -1.292121410369873047e-02 5.014294758439064026e-03 -3.231877926737070084e-03 -4.375151358544826508e-03 -2.618281636387109756e-03 6.675192620605230331e-03 -1.305111031979322433e-02 5.311591085046529770e-03 2.101644687354564667e-02 -6.536302156746387482e-03 -1.302910875529050827e-02 -9.562557563185691833e-03 4.259263630956411362e-03 3.595015406608581543e-02 -5.539061035960912704e-03 1.527309417724609375e-03 -8.843190036714076996e-03 4.555210005491971970e-03 -4.249615594744682312e-03 6.500845309346914291e-03 2.184151162509806454e-05 2.730487473309040070e-02 5.840692203491926193e-03 -1.670470461249351501e-03 -4.061956889927387238e-03 5.230315495282411575e-03 -1.798011921346187592e-02 1.819563843309879303e-02 -1.499641593545675278e-02 -2.555213170126080513e-03 2.251898637041449547e-03 2.123118750751018524e-02 -2.522848546504974365e-03 -2.096438035368919373e-02 1.477842568419873714e-03 -2.091731643304228783e-03 -2.394812181591987610e-02 2.448133938014507294e-02 -1.124327257275581360e-02 -3.269228618592023849e-03 -2.133540995419025421e-02 -1.422294136136770248e-02 -8.691046386957168579e-03 -5.850918591022491455e-03 -2.293410338461399078e-02 1.631671562790870667e-02 8.780297823250293732e-03 4.452439956367015839e-03 4.094533622264862061e-03 -1.478741597384214401e-02 -2.529400773346424103e-02 3.256819024682044983e-02 1.378145185299217701e-03 3.219940885901451111e-02 -1.945705525577068329e-02 1.252330653369426727e-02 -3.690814226865768433e-02 6.771604064851999283e-03 1.852997811511158943e-03 -2.027589594945311546e-03 1.069457735866308212e-03 -1.001930702477693558e-02 -8.401580853387713432e-04 1.927732490003108978e-02 1.758841983973979950e-02 6.156720686703920364e-03 -7.246503140777349472e-03 -6.400744430720806122e-03 1.940510584972798824e-03 3.209724556654691696e-03 -4.156202485319226980e-04 6.827951292507350445e-04 -6.425160448998212814e-03 5.563012789934873581e-03 7.502079097321256995e-05 1.067058532498776913e-03 1.552393427118659019e-03 9.542562998831272125e-03 -1.240308210253715515e-02 5.865851999260485172e-04 4.725944716483354568e-03 -2.727385843172669411e-03 2.963403938338160515e-03 -3.817551210522651672e-02 6.650376599282026291e-03 9.474410675466060638e-03 -1.317491848021745682e-02 8.373925229534506798e-04 -2.266904897987842560e-02 -1.401299238204956055e-02 4.025503061711788177e-03 1.369627844542264938e-02 1.596125960350036621e-02 1.370088104158639908e-02 1.049168873578310013e-02 1.499186735600233078e-02 -1.455888152122497559e-03 -1.609498821198940277e-02 3.428431227803230286e-03 -2.121772244572639465e-02
-3.912238869816064835e-03 1.235999539494514465e-02 2.503509633243083954e-02 -6.163451354950666428e-03 -1.630695624044165015e-04 -3.652475401759147644e-02 1.050401479005813599e-02 6.575097795575857162e-03 -1.264592912048101425e-02 8.322431240230798721e-04 -1.605483889579772949e-02 1.684575900435447693e-02 -2.043828181922435760e-02 7.074571214616298676e-03 -5.813251715153455734e-03 -2.201050892472267151e-02 3.259215131402015686e-02 1.272998488275334239e-04 3.630460239946842194e-03 -2.752822078764438629e-02 -1.561070233583450317e-02 -2.644480764865875244e-02 2.224872587248682976e-03 1.035861484706401825e-02 3.307157009840011597e-02 -1.813168078660964966e-02 7.827697321772575378e-03 -2.289045602083206177e-02 3.181761130690574646e-03 -4.257588181644678116e-03 2.928937599062919617e-02 3.192196041345596313e-02 5.109139718115329742e-03 1.089803408831357956e-02 3.764945082366466522e-03 7.217993494123220444e-03 6.541313137859106064e-03 8.602675981819629669e-03 1.447397284209728241e-03 1.399117894470691681e-02 1.863047480583190918e-02 1.587680540978908539e-03 -2.660829015076160431e-02 -5.212005693465471268e-03 -1.523441821336746216e-02 4.412126261740922928e-03 -1.058329478837549686e-03 -1.354996394366025925e-02 -1.385729201138019562e-02 9.442958398722112179e-04 4.316845908761024475e-03 2.250022720545530319e-03 2.172753028571605682e-02 9.296828880906105042e-03 -2.259601373225450516e-03 -7.811850809957832098e-05 -2.328555332496762276e-03 1.959753222763538361e-02 -1.104868203401565552e-02 2.786727808415889740e-02 2.568697743117809296e-02 2.056014165282249451e-02 -4.245915450155735016e-03 -1.721161534078419209e-03 1.738765276968479156e-02 8.806776255369186401e-03 -2.416311763226985931e-02 1.433606073260307312e-02 -2.956100972369313240e-03 7.034619338810443878e-04 1.022200193256139755e-02 4.630577750504016876e-04 -1.664245501160621643e-02 7.281750906258821487e-03 -1.054933387786149979e-02 3.700700774788856506e-02 2.473454177379608154e-02 -1.144729740917682648e-02 -1.368383062072098255e-03 -1.577150076627731323e-02 3.921012394130229950e-03 -4.633402451872825623e-03 1.807598769664764404e-02 -3.044030163437128067e-03 -1.813868293538689613e-03 -6.431173998862504959e-03 -5.877664778381586075e-03 7.622351404279470444e-04 4.421845078468322754e-03 -1.084687560796737671e-02 1.796991191804409027e-02 -1.770527684129774570e-03 -1.743079861626029015e-03 2.676846645772457123e-02 -9.708943776786327362e-03 -3.064288524910807610e-03 -1.332330703735351562e-02 -2.788381651043891907e-02 1.418121624737977982e-02 -1.370664685964584351e-02 1.556396298110485077e-02 -1.423140708357095718e-02 -1.592551730573177338e-02 -1.386738847941160202e-02 -1.018408685922622681e-03 4.605599213391542435e-03 -8.628250099718570709e-03 8.011447265744209290e-03 -6.866980809718370438e-03 -5.241436301730573177e-04 -1.261224737390875816e-03 -5.115687847137451172e-03 2.017497457563877106e-02 6.460309028625488281e-03 -2.307013794779777527e-02 4.034064710140228271e-03 -8.405055850744247437e-03 5.920673254877328873e-03 6.515510031022131443e-04 5.254633724689483643e-03 4.304040595889091492e-02 -4.042795859277248383e-03 5.760835483670234680e-04 2.156465873122215271e-02 6.945093162357807159e-03 6.109930109232664108e-03 1.025408133864402771e-02 1.650498807430267334e-02 -1.236316096037626266e-02 -1.445464137941598892e-02 7.454203907400369644e-03 1.570908725261688232e-02 -6.579155568033456802e-03 -1.086247060447931290e-02 -6.723198108375072479e-03 -1.849833130836486816e-02 -3.098899498581886292e-03 3.025637706741690636e-03 -1.344958413392305374e-02 2.022444969043135643e-03 -6.601396482437849045e-03 4.186187405139207840e-03 5.039461888372898102e-03 -5.951463244855403900e-03 -5.347631406038999557e-03 4.969249130226671696e-04 7.064161822199821472e-03 -8.288763463497161865e-03 -5.321740172803401947e-03 -1.468592416495084763e-02 -1.999750919640064240e-02 -1.216936856508255005e-02 -1.974766701459884644e-02 -8.562537841498851776e-03 1.133392937481403351e-02 -1.121470937505364418e-03 9.873275645077228546e-03 -3.649773774668574333e-03 -9.119345806539058685e-03 1.805473351851105690e-03 1.271164231002330780e-02 -1.860646065324544907e-03 -3.739107167348265648e-03 -4.020280204713344574e-03 -2.749028243124485016e-02 4.863373469561338425e-03 9.276292286813259125e-03 3.464315086603164673e-02 1.220859680324792862e-02 -1.529166288673877716e-02 -1.744669489562511444e-02 5.538417492061853409e-03 -7.856667973101139069e-03 -1.714779809117317200e-02 -1.494543720036745071e-02 1.259941887110471725e-02 -1.067254997906275094e-04 -2.311029098927974701e-02 -4.074269963894039392e-04 -4.185086581856012344e-03 4.681820981204509735e-03 -1.484487205743789673e-02 -2.992098964750766754e-02 -4.728360567241907120e-03 1.259898301213979721e-03 -8.443605154752731323e-03 5.098485387861728668e-03 1.505277492105960846e-02 -1.510558184236288071e-02 -1.278053224086761475e-02 -1.570983673445880413e-03 4.932276904582977295e-03 1.036478206515312195e-02 -1.154238358139991760e-02 3.349484468344599009e-04 -3.004685416817665100e-02 -5.381733924150466919e-02 1.971611753106117249e-03 -3.664168296381831169e-03 2.218744345009326935e-02 1.905768527649343014e-03 -1.739476807415485382e-02 4.528572782874107361e-03 -8.855029940605163574e-03 -4.184272512793540955e-02 5.218711681663990021e-03 -3.937584813684225082e-03 4.483698867261409760e-03 1.190199702978134155e-02 6.230854429304599762e-03 2.202933840453624725e-02 2.928375964984297752e-03 3.440115600824356079e-02 8.297583088278770447e-03 1.074905134737491608e-02 1.071652211248874664e-02 -1.262268703430891037e-02 6.249596364796161652e-03 1.431262865662574768e-02 2.409640140831470490e-02 -1.581231132149696350e-02 -1.102321781218051910e-02 -2.099494263529777527e-02 -1.058530434966087341e-02 7.547712884843349457e-03 -6.878030952066183090e-03 7.642995566129684448e-03 7.013574242591857910e-03 4.811343736946582794e-03 2.550429664552211761e-03 -4.174628760665655136e-03 -7.000058889389038086e-03 -5.642296280711889267e-03 8.671869523823261261e-03 -7.848379202187061310e-03 1.344625838100910187e-02 -3.450919408351182938e-03 3.030376508831977844e-03 -1.332486141473054886e-02 1.259662490338087082e-02 1.120519079267978668e-02 -2.625106833875179291e-03 3.707368671894073486e-02 2.612725645303726196e-02 1.240899786353111267e-02 -3.768637834582477808e-04 -6.808163598179817200e-03 -8.115275762975215912e-03 -9.456548839807510376e-03 6.215324974618852139e-04 -1.902089826762676239e-02 -6.625059526413679123e-03 -7.724681403487920761e-03 -6.060711108148097992e-03 -2.137412130832672119e-02 1.463466603308916092e-02
-8.107051253318786621e-03 -6.000268273055553436e-03 3.194904711563140154e-04 1.616501249372959137e-02 -7.295409217476844788e-03 -8.749768137931823730e-03 9.608149528503417969e-03 2.482457086443901062e-02 3.236277494579553604e-03 3.393575549125671387e-02 7.912117987871170044e-03 2.051055617630481720e-02 -1.550405565649271011e-02 2.982236444950103760e-03 -2.336974442005157471e-02 -1.599446870386600494e-02 -6.556157022714614868e-03 2.159354917239397764e-04 1.105476357042789459e-02 6.691392045468091965e-03 -7.315868861041963100e-04 -2.655381895601749420e-02 -1.718519814312458038e-02 -6.067854352295398712e-03 -9.692244930192828178e-04 -7.002118043601512909e-03 2.087887004017829895e-02 -2.991538494825363159e-02 7.036764640361070633e-03 2.189525635913014412e-03 1.166548859328031540e-02 1.044553983956575394e-02 -8.057130500674247742e-03 -1.080697984434664249e-03 1.970121450722217560e-02 5.087903235107660294e-03 -2.434083260595798492e-03 -3.119662171229720116e-03 -9.394799359142780304e-03 2.348514972254633904e-03 -1.046798005700111389e-02 1.405679807066917419e-02 9.969543665647506714e-03 -5.452326731756329536e-04 -8.686440996825695038e-03 -1.593356207013130188e-02 1.128742285072803497e-02 -1.855272985994815826e-02 -2.297707833349704742e-03 -2.203636057674884796e-02 8.235061541199684143e-03 1.373615395277738571e-02 1.136277709156274796e-02 5.001634359359741211e-03 -1.383507507853209972e-03 -8.070402545854449272e-04 1.992014469578862190e-03 -4.329455085098743439e-03 -2.396167628467082977e-02 7.088455837219953537e-03 6.508880760520696640e-03 -8.462643250823020935e-03 5.031805951148271561e-03 -5.426741205155849457e-03 2.525399439036846161e-03 -2.979392418637871742e-03 1.855375245213508606e-02 3.373005427420139313e-03 -5.581156816333532333e-03 1.289305090904235840e-02 3.923518583178520203e-03 -7.465431699529290199e-04 1.831746660172939301e-02 1.500911731272935867e-02 3.676796564832329750e-03 7.095766253769397736e-03 -8.771135471761226654e-03 -2.544857561588287354e-04 2.220818569185212255e-04 -3.326176083646714687e-04 -1.279292907565832138e-02 1.205485779792070389e-02 3.968840755987912416e-04 -1.527405926026403904e-03 3.358498681336641312e-03 9.419786743819713593e-03 1.567403227090835571e-02 -2.198221534490585327e-02 -1.076229475438594818e-02 -2.637785114347934723e-02 -1.964728347957134247e-02 1.706309989094734192e-02 -3.797275014221668243e-03 -1.101761683821678162e-02 4.267838783562183380e-03 -1.809731498360633850e-02 -6.736318115144968033e-03 -4.716982599347829819e-03 3.971636760979890823e-03 9.531093761324882507e-03 2.776047028601169586e-02 1.236029900610446930e-02 -1.076753996312618256e-02 -1.848985999822616577e-02 -1.157589256763458252e-02 9.123721159994602203e-03 2.670419774949550629e-02 -1.533410884439945221e-02 8.334714220836758614e-04 5.528903566300868988e-03 -2.333381399512290955e-02 3.331399708986282349e-02 -1.113466080278158188e-02 8.175578899681568146e-03 -8.138216100633144379e-03 3.217014251276850700e-03 4.588141571730375290e-03 1.002630963921546936e-02 3.060317365452647209e-03 -1.146538928151130676e-02 1.203015446662902832e-02 -3.485442139208316803e-03 1.658843713812530041e-03 7.621521595865488052e-03 -9.127532131969928741e-03 1.372267864644527435e-02 -1.225148327648639679e-03 1.391279324889183044e-02 6.840514019131660461e-03 3.493592841550707817e-03 5.412220954895019531e-03 2.161398297175765038e-03 5.541432648897171021e-03 7.734753657132387161e-03 4.350986331701278687e-03 4.916117992252111435e-03 1.878668181598186493e-02 -2.896664477884769440e-02 -2.159005729481577873e-03 -1.082525961101055145e-02 -1.708103902637958527e-02 -2.339170500636100769e-02 9.793045930564403534e-03 -1.381368655711412430e-02 1.201261766254901886e-02 6.303336005657911301e-03 3.221528371796011925e-03 1.003683544695377350e-03 5.297594238072633743e-03 1.234896574169397354e-02 3.724960843101143837e-03 3.120151115581393242e-03 -2.596351318061351776e-02 9.683064185082912445e-03 -1.222781185060739517e-02 3.851872310042381287e-02 1.108638476580381393e-02 1.677768304944038391e-02 1.365509256720542908e-02 5.677354056388139725e-03 -8.331306278705596924e-03 2.508821710944175720e-02 1.330066152149811387e-04 6.208157632499933243e-03 -1.168109104037284851e-02 2.425023913383483887e-02 7.136159576475620270e-03 -1.036279555410146713e-02 -6.696707103401422501e-03 -1.901342160999774933e-02 -1.971021108329296112e-02 2.404390461742877960e-02 -2.956038713455200195e-02 -8.965417742729187012e-03 1.223760843276977539e-02 2.690529637038707733e-02 -9.152279235422611237e-03 6.877394858747720718e-03 -8.957021869719028473e-03 1.712498604319989681e-03 7.692254614084959030e-03 -3.004764020442962646e-02 -2.835100516676902771e-03 -3.133780555799603462e-03 -1.852127164602279663e-02 -1.846742071211338043e-02 -1.830612681806087494e-02 5.976627580821514130e-03 -2.450366131961345673e-02 3.869147738441824913e-03 -7.024575490504503250e-03 1.384570635855197906e-02 3.513727337121963501e-03 -3.546599298715591431e-02 1.167379971593618393e-02 7.866539061069488525e-03 -3.752025216817855835e-02 1.923591014929115772e-03 -2.368236333131790161e-02 -4.769642371684312820e-03 1.585824228823184967e-02 -9.328398853540420532e-03 -1.619733497500419617e-02 -6.659243255853652954e-03 -7.377217989414930344e-04 -1.761855930089950562e-02 -2.650791779160499573e-02 -9.750026278197765350e-03 -1.812214730307459831e-03 -1.706655696034431458e-02 -1.873859949409961700e-02 3.108051372691988945e-03 -1.468053646385669708e-02 1.999914646148681641e-02 -1.064629852771759033e-02 8.845404721796512604e-03 -1.504360511898994446e-02 -3.202095394954085350e-04 -9.263451211154460907e-03 2.757228910923004150e-03 -7.853929884731769562e-03 -1.765262713888660073e-04 -2.075933106243610382e-02 -3.272805595770478249e-03 1.689453050494194031e-02 4.580786451697349548e-03 -1.785366609692573547e-02 6.918487604707479477e-03 -4.910576622933149338e-03 2.843332244083285332e-03 1.766292005777359009e-02 2.330554183572530746e-03 -2.600886113941669464e-02 2.810713776852935553e-04 -7.939790375530719757e-04 9.491602890193462372e-03 -6.675887387245893478e-03 -2.520864270627498627e-02 -1.658210530877113342e-02 -1.308992411941289902e-02 -5.491601303219795227e-03 2.876653335988521576e-03 1.134511083364486694e-02 -1.669348776340484619e-02 1.743373647332191467e-02 -9.512619115412235260e-03 8.075885474681854248e-03 8.602024987339973450e-03 -1.613734103739261627e-02 -2.066561393439769745e-02 6.825201213359832764e-03 2.034706412814557552e-04 3.168718249071389437e-04 -1.231906819157302380e-03 -5.907251499593257904e-03 1.174230035394430161e-02
6.916796322911977768e-03 -8.380568586289882660e-03 3.837235737591981888e-03 3.164746612310409546e-02 -8.238885551691055298e-03 6.349420174956321716e-03 -6.140133365988731384e-03 -1.322498079389333725e-02 -7.424514740705490112e-03 -2.108773775398731232e-02 -3.102608397603034973e-02 4.947719862684607506e-04 1.086640916764736176e-02 5.188121460378170013e-03 -9.637850336730480194e-03 -1.002651080489158630e-02 4.043359775096178055e-03 2.594356425106525421e-02 1.210292801260948181e-02 -9.940400719642639160e-03 -2.906457521021366119e-02 7.628125138580799103e-03 6.904665380716323853e-03 -1.059557404369115829e-02 3.792398376390337944e-03 -3.006150014698505402e-02 1.104860100895166397e-02 -2.220249548554420471e-02 -1.537480577826499939e-02 2.136839175364002585e-04 1.047562155872583389e-02 -1.679693697951734066e-03 -1.729628071188926697e-02 2.811132557690143585e-02 -5.139298737049102783e-03 3.377266984898597002e-04 -6.993836723268032074e-03 -1.392758102156221867e-03 -1.029130257666110992e-02 -2.029965445399284363e-02 -4.937733523547649384e-03 3.916822373867034912e-02 -6.340179126709699631e-03 -5.141732282936573029e-03 3.293278568889945745e-04 -3.219037316739559174e-03 -1.122241187840700150e-02 -2.483229152858257294e-02 2.314249519258737564e-03 -2.675221487879753113e-02 -3.198914229869842529e-03 -5.600600852631032467e-04 -8.472880836052354425e-06 -1.286172494292259216e-02 -5.360782612115144730e-03 -4.018805455416440964e-03 2.428600937128067017e-02 1.993847265839576721e-02 -1.510409824550151825e-02 1.531053986400365829e-02 2.656795457005500793e-02 -1.150821056216955185e-02 1.637646183371543884e-02 5.547501891851425171e-02 -7.785092573612928391e-03 2.230962738394737244e-03 2.670628018677234650e-02 1.152956485748291016e-02 4.014236386865377426e-03 3.469462692737579346e-02 -1.869661360979080200e-02 -7.794039323925971985e-03 -1.199188455939292908e-02 2.429181011393666267e-03 -1.058978773653507233e-02 1.538034249097108841e-02 -2.459559123963117599e-03 -5.187322385609149933e-03 -1.502447947859764099e-02 -3.490994218736886978e-03 -2.111018402501940727e-03 1.439899578690528870e-02 5.810352042317390442e-03 8.571441285312175751e-03 9.732635226100683212e-04 1.114996615797281265e-02 -4.006330389529466629e-03 -5.501683801412582397e-03 7.647123187780380249e-03 -8.647249080240726471e-03 -1.278038881719112396e-02 3.281381214037537575e-03 1.044550677761435509e-03 -1.990344747900962830e-02 3.540274128317832947e-02 1.553633157163858414e-02 -1.520668715238571167e-02 2.159462776035070419e-03 -2.467481978237628937e-02 4.303568508476018906e-03 1.864662976004183292e-03 6.187997292727231979e-03 1.106537319719791412e-02 -1.639165356755256653e-02 8.657303638756275177e-03 -2.014294639229774475e-02 -1.767124515026807785e-03 2.228962443768978119e-02 -1.300459355115890503e-02 5.919539835304021835e-03 -7.617766968905925751e-03 -2.036718651652336121e-02 2.703797363210469484e-04 9.074728586710989475e-04 -4.561014473438262939e-03 -3.586597507819533348e-03 1.220955885946750641e-02 -1.247247774153947830e-02 1.010574586689472198e-02 -3.151423297822475433e-03 2.264728024601936340e-02 -8.537449175491929054e-04 -5.555364768952131271e-03 1.006600446999073029e-02 -3.059899667277932167e-03 2.675520954653620720e-03 1.991273276507854462e-02 2.323440462350845337e-02 1.493300776928663254e-02 -1.239153463393449783e-02 1.790795661509037018e-02 -8.089167065918445587e-03 -2.922152727842330933e-02 -2.480497583746910095e-03 -2.296388894319534302e-02 1.649094745516777039e-02 7.952171377837657928e-03 1.044788584113121033e-02 7.956128567457199097e-03 3.782411338761448860e-03 2.640756592154502869e-02 2.380072884261608124e-02 -3.472413518466055393e-04 1.532710622996091843e-02 1.174069475382566452e-03 6.001552101224660873e-03 2.630246570333838463e-03 2.343473955988883972e-03 -2.453251508995890617e-03 -1.542648673057556152e-02 -5.509799811989068985e-03 1.349796727299690247e-02 -2.720080688595771790e-02 -1.387794129550457001e-02 6.791428662836551666e-03 3.822603076696395874e-02 2.218243293464183807e-02 1.168351434171199799e-02 -7.584795355796813965e-03 4.210737999528646469e-03 1.276206894544884562e-04 1.655031554400920868e-02 1.367203658446669579e-03 -6.466199643909931183e-03 -1.882829330861568451e-02 1.703470246866345406e-03 -1.634155958890914917e-02 1.955253444612026215e-02 -5.675388500094413757e-03 -2.816531807184219360e-03 -3.666045144200325012e-02 -2.857393771409988403e-02 2.190141472965478897e-03 8.631675504148006439e-03 4.562479630112648010e-02 3.184965997934341431e-02 -8.820646442472934723e-03 -3.105308301746845245e-02 3.879833268001675606e-03 9.561777114868164062e-04 -1.151084713637828827e-02 1.008577086031436920e-02 2.013679407536983490e-02 1.276544295251369476e-02 -1.465443987399339676e-02 1.446065120398998260e-02 -1.686272583901882172e-02 -6.137634161859750748e-03 4.713573958724737167e-03 -6.450218614190816879e-03 2.145820064470171928e-03 6.979417055845260620e-03 1.193929463624954224e-02 -1.697104051709175110e-02 4.253827035427093506e-03 -4.473476670682430267e-03 -2.423531375825405121e-02 -7.552168332040309906e-03 1.805407553911209106e-02 1.053909305483102798e-03 2.227076329290866852e-02 3.590001026168465614e-03 9.264237247407436371e-03 -1.304758992046117783e-02 3.378868103027343750e-02 -1.750945672392845154e-02 9.641008451581001282e-03 -1.619659829884767532e-03 1.187130156904459000e-02 -1.276120077818632126e-02 -1.317064184695482254e-02 -1.696167699992656708e-02 2.566359192132949829e-02 -2.757579786702990532e-03 3.696764120832085609e-03 6.212336942553520203e-03 -6.871233228594064713e-03 1.480110455304384232e-03 2.291316632181406021e-03 2.053604833781719208e-02 6.967759691178798676e-03 -1.820295117795467377e-02 -1.376808970235288143e-03 4.448553081601858139e-03 5.789491813629865646e-03 -8.368545211851596832e-03 -2.212313003838062286e-02 -6.320545449852943420e-03 -1.505762245506048203e-02 -4.168719518929719925e-03 9.108005091547966003e-03 -1.187597680836915970e-02 1.198746915906667709e-02 -6.613407284021377563e-03 3.058047732338309288e-03 -4.186854697763919830e-03 1.647719647735357285e-03 -5.544296000152826309e-03 6.254233885556459427e-03 -3.559506684541702271e-02 1.177851948887109756e-02 -9.364618919789791107e-03 -4.559535533189773560e-03 1.038429047912359238e-02 -7.087113801389932632e-03 -1.942921988666057587e-02 6.082595791667699814e-03 -2.483804943040013313e-03 -8.750233799219131470e-03 2.128734486177563667e-03 1.634358242154121399e-02 6.542182527482509613e-03 -4.156512673944234848e-03 1.765873469412326813e-02 -9.686836972832679749e-03 -1.499495003372430801e-02
-1.404104474931955338e-02 1.344759250059723854e-03 -8.975856937468051910e-03 -1.149777974933385849e-02 -7.582249119877815247e-03 -1.225239317864179611e-02 3.898067632690072060e-03 -6.162490230053663254e-03 -4.383621737360954285e-03 -1.196048315614461899e-02 -1.459175068885087967e-02 4.184452118352055550e-04 2.954448573291301727e-03 7.422795519232749939e-03 -1.148219220340251923e-02 -1.188122481107711792e-02 -3.515962976962327957e-03 -9.338547475636005402e-03 4.729634150862693787e-03 -2.959568053483963013e-02 -5.693743936717510223e-03 9.474433958530426025e-03 -2.376738935708999634e-02 -2.000802429392933846e-03 1.550212409347295761e-02 2.530221827328205109e-03 -3.030376741662621498e-03 1.558300759643316269e-02 5.504010245203971863e-03 1.567571051418781281e-02 1.910844119265675545e-03 1.469557639211416245e-02 1.816339977085590363e-02 9.072722867131233215e-03 8.467836305499076843e-03 1.194095704704523087e-03 -6.978068966418504715e-03 -1.082158554345369339e-02 -3.233245760202407837e-02 3.865965455770492554e-02 6.062698084861040115e-03 -1.207191776484251022e-02 -1.335395872592926025e-02 -5.727520212531089783e-03 4.532832652330398560e-02 -5.504418630152940750e-03 1.763973198831081390e-02 2.016701363027095795e-02 -2.010849490761756897e-02 5.871815606951713562e-03 8.854184299707412720e-03 -8.271860890090465546e-03 7.659444236196577549e-04 -7.928600534796714783e-03 -6.788688711822032928e-03 4.795205779373645782e-03 -2.857223711907863617e-02 -1.955748535692691803e-02 5.960499867796897888e-03 -1.182322762906551361e-02 -5.570086068473756313e-04 9.818113408982753754e-03 -4.276785766705870628e-04 -2.054239995777606964e-02 1.337685808539390564e-02 5.960780661553144455e-03 5.133042577654123306e-03 -6.717561278492212296e-03 -1.165639609098434448e-02 -2.565264329314231873e-02 7.491747848689556122e-03 -1.446304842829704285e-03 7.601908873766660690e-03 1.222411543130874634e-02 -2.038778923451900482e-02 1.677208207547664642e-02 1.825524121522903442e-02 -7.926544174551963806e-03 -6.088729482144117355e-03 1.861255988478660583e-02 2.003349363803863525e-02 -1.774249016307294369e-03 1.810531248338520527e-03 7.905079983174800873e-04 -1.194434822537004948e-03 1.767341792583465576e-02 8.220113231800496578e-04 1.884555444121360779e-02 1.113450899720191956e-02 -2.375059388577938080e-02 2.588344551622867584e-02 1.407878659665584564e-02 -9.665977209806442261e-03 1.772044808603823185e-03 -3.116520307958126068e-02 -1.427828334271907806e-02 -3.028805134817957878e-03 -1.362144364975392818e-03 -2.152545191347599030e-02 2.938907220959663391e-02 3.624743223190307617e-02 -8.356215432286262512e-03 -5.418272688984870911e-03 -1.204061415046453476e-02 6.631345022469758987e-03 -7.675676606595516205e-03 -2.413009759038686752e-03 -8.611439727246761322e-03 3.255306510254740715e-03 3.369434736669063568e-03 1.328077446669340134e-02 5.838425830006599426e-03 2.065458334982395172e-02 -1.777053251862525940e-02 -2.340630069375038147e-02 5.549685563892126083e-03 1.496041845530271530e-02 1.344097219407558441e-02 -2.046330366283655167e-03 2.004183130338788033e-03 -5.070939194411039352e-03 -3.518454032018780708e-03 6.444655358791351318e-03 7.602999452501535416e-03 -5.593085195869207382e-03 -6.820420268923044205e-03 4.606879316270351410e-03 4.337961785495281219e-03 -8.830800652503967285e-03 2.658763667568564415e-03 8.851723396219313145e-04 -3.285487415269017220e-03 3.501676721498370171e-03 -3.799461573362350464e-02 -3.259639069437980652e-02 2.184150740504264832e-02 -2.417974919080734253e-02 9.722686372697353363e-03 -9.733580052852630615e-03 -5.014055874198675156e-03 4.334663972258567810e-03 6.383316940627992153e-04 7.989771664142608643e-03 1.122454064898192883e-03 2.984646707773208618e-03 1.644268073141574860e-02 2.809164673089981079e-02 1.532579306513071060e-02 -6.126430816948413849e-03 8.618764579296112061e-03 -6.868012715131044388e-03 1.260619051754474640e-02 8.172952570021152496e-03 2.067883964627981186e-03 -5.588588770478963852e-03 2.462354302406311035e-02 1.180518884211778641e-03 -9.980416856706142426e-03 -8.388418355025351048e-04 -6.836831104010343552e-03 -2.275607082992792130e-03 -4.491479776334017515e-04 -8.388990536332130432e-03 -2.587303752079606056e-03 -6.477257236838340759e-03 -8.072615601122379303e-03 3.857435658574104309e-03 -2.058658376336097717e-02 -1.344041991978883743e-02 1.222576946020126343e-02 1.413925737142562866e-02 -2.723051421344280243e-02 -1.712449267506599426e-02 9.444902651011943817e-03 5.477899219840764999e-03 1.015899609774351120e-02 1.074571534991264343e-02 -2.148930216208100319e-03 -5.650642327964305878e-03 7.067016325891017914e-03 -6.117036566138267517e-03 3.740971442312002182e-03 1.581232994794845581e-02 1.047151978127658367e-03 -1.165250316262245178e-02 4.803296644240617752e-03 -9.959235787391662598e-03 4.115912131965160370e-03 2.199972514063119888e-03 -2.100855577737092972e-03 -4.525167867541313171e-03 1.990902982652187347e-02 -3.190570324659347534e-02 1.602169312536716461e-02 -1.781401410698890686e-02 6.839286535978317261e-03 3.858771175146102905e-02 6.439317017793655396e-03 6.320799235254526138e-03 -1.272267982130870223e-04 -7.177780847996473312e-03 1.751068234443664551e-02 -4.955711774528026581e-03 -2.248022146522998810e-02 3.624925157055258751e-03 8.346420712769031525e-03 -9.192636236548423767e-03 3.122329339385032654e-02 4.519416950643062592e-03 -3.402655944228172302e-03 9.705999866127967834e-03 -1.846933364868164062e-02 -9.690030477941036224e-03 3.205638378858566284e-02 -1.428081281483173370e-02 8.137255907058715820e-03 5.275765433907508850e-03 -4.214508458971977234e-03 3.649003629107028246e-04 -2.205793932080268860e-02 3.887134836986660957e-03 -5.258767399936914444e-03 1.038705743849277496e-02 -7.924289442598819733e-03 -2.808038890361785889e-02 -5.584873259067535400e-03 -3.321332857012748718e-02 -6.303520407527685165e-03 -7.358422037214040756e-03 9.250737726688385010e-03 2.405392704531550407e-03 -3.812203416600823402e-03 1.186873205006122589e-02 -4.112011287361383438e-03 -3.511314513161778450e-03 1.712338253855705261e-02 7.550008129328489304e-03 -1.897831633687019348e-02 1.529001258313655853e-02 7.071992382407188416e-03 6.783843506127595901e-03 1.891235937364399433e-03 5.399090237915515900e-03 -4.533951636403799057e-03 6.100054364651441574e-03 -1.158663351088762283e-02 8.172421716153621674e-03 -1.035881601274013519e-02 3.868153551593422890e-03 9.402063442394137383e-04 -2.822390291839838028e-03 2.065997570753097534e-02 1.400151103734970093e-02 -1.450712420046329498e-02 2.298698201775550842e-02 -3.962947521358728409e-04
1.846439205110073090e-02 1.155315339565277100e-02 -2.718864707276225090e-03 1.745657250285148621e-02 7.453723810613155365e-04 1.441774331033229828e-02 -1.529545756056904793e-03 8.401241153478622437e-03 1.072289515286684036e-02 6.653255783021450043e-03 -7.441727910190820694e-03 -1.161428540945053101e-02 8.445240557193756104e-03 -1.133304671384394169e-03 4.688590764999389648e-03 -3.046593395993113518e-03 1.762378960847854614e-04 -9.301365353167057037e-03 -1.479813072364777327e-04 9.680089540779590607e-03 3.309440333396196365e-03 -1.396424043923616409e-02 3.697214880958199501e-03 -8.265439420938491821e-03 -1.323875784873962402e-02 -5.582219455391168594e-03 -5.430478136986494064e-03 -6.349565926939249039e-03 1.153171993792057037e-02 -1.242416794411838055e-03 -3.479492443148046732e-04 -7.151854224503040314e-03 -2.210841327905654907e-02 -7.192016579210758209e-03 1.110775116831064224e-02 1.603666134178638458e-02 7.393375504761934280e-03 1.629015058279037476e-02 -1.407888019457459450e-03 2.313977893209084868e-04 2.559118904173374176e-02 -6.115702912211418152e-03 7.179093547165393829e-03 5.777645739613035403e-08 -1.926564960740506649e-03 -1.183799561113119125e-02 3.652984043583273888e-03 4.541142843663692474e-03 -1.213717833161354065e-02 -1.146859861910343170e-02 5.882357247173786163e-03 -2.695953007787466049e-04 -9.628208354115486145e-03 -1.168604474514722824e-03 1.675203675404191017e-03 3.714940976351499557e-03 7.329113315790891647e-03 -1.136119384318590164e-02 4.025603178888559341e-03 -1.760172657668590546e-02 -1.404900010675191879e-02 -1.348782237619161606e-02 -1.549066789448261261e-02 1.851507835090160370e-02 -1.675846870057284832e-03 -7.945991121232509613e-03 -5.743545014411211014e-03 -7.979914546012878418e-03 -1.102604903280735016e-03 1.635813526809215546e-02 -5.609813611954450607e-03 4.749730229377746582e-03 -2.842866117134690285e-03 6.988048087805509567e-03 7.688235957175493240e-03 1.719358377158641815e-02 7.229200564324855804e-04 -5.074701271951198578e-03 6.704882252961397171e-03 4.404812119901180267e-03 -4.043856170028448105e-03 2.543059876188635826e-03 -8.311293087899684906e-03 4.865133669227361679e-03 2.226876094937324524e-02 3.545416053384542465e-03 9.405785240232944489e-04 2.022821456193923950e-02 -1.997552899410948157e-04 -5.884326528757810593e-04 -9.974103420972824097e-03 -1.344468910247087479e-04 5.451707635074853897e-03 -1.393830496817827225e-02 -3.113951068371534348e-03 -1.067918725311756134e-03 1.739745773375034332e-02 -6.958575453609228134e-03 1.194342388771474361e-03 1.706051267683506012e-02 -2.394392713904380798e-02 2.415894530713558197e-03 8.058832027018070221e-03 1.435868907719850540e-02 -9.458516724407672882e-03 -1.775444019585847855e-03 -5.776388105005025864e-03 -4.357833880931138992e-03 -1.602152828127145767e-03 1.096571050584316254e-02 -6.833366118371486664e-03 -1.531317550688982010e-02 -1.194535172544419765e-03 1.863692328333854675e-02 -5.935233202762901783e-04 -1.041857339441776276e-02 -7.381914649158716202e-03 6.880471482872962952e-03 -1.243644487112760544e-02 -1.338511519134044647e-02 -2.628125483170151711e-03 -3.542100545018911362e-03 -1.027814857661724091e-02 -9.704736992716789246e-03 -1.115746702998876572e-02 -3.716592211276292801e-03 5.958055146038532257e-03 -2.489397535100579262e-03 -1.176944561302661896e-02 3.125773370265960693e-02 9.700273163616657257e-03 -8.972008712589740753e-03 -5.048696883022785187e-03 9.383709169924259186e-03 1.354767591692507267e-03 -3.883880097419023514e-03 1.264955010265111923e-02 1.641433313488960266e-02 -1.259067375212907791e-02 -3.290588967502117157e-03 1.069498993456363678e-02 -3.632134757936000824e-04 -1.780497375875711441e-03 -3.553366521373391151e-03 -3.001663135364651680e-03 9.410884231328964233e-04 -3.258046926930546761e-03 -4.685607738792896271e-03 -6.293457467108964920e-03 1.606632024049758911e-02 8.905663155019283295e-03 -1.638790033757686615e-02 -4.985797218978404999e-03 5.620739422738552094e-03 3.296799259260296822e-03 3.844282124191522598e-03 -1.259350776672363281e-02 -8.534567430615425110e-03 7.624086458235979080e-03 1.359621901065111160e-02 -3.645714139565825462e-03 1.704804250039160252e-03 -1.294828020036220551e-03 4.860399756580591202e-03 1.190088503062725067e-02 1.426675473339855671e-03 -7.189515046775341034e-03 4.788256250321865082e-03 2.384108724072575569e-03 8.630929514765739441e-03 -5.237041623331606388e-04 3.862117882817983627e-03 -1.066124998033046722e-02 -4.622440785169601440e-03 -4.472285509109497070e-03 -5.871582776308059692e-03 1.943563693203032017e-03 -1.125403563492000103e-03 -4.326684400439262390e-03 -1.154922647401690483e-03 -1.112543419003486633e-02 1.678805239498615265e-02 -7.570812595076858997e-04 1.187585853040218353e-02 -1.178717240691184998e-03 -2.167969942092895508e-02 2.127293869853019714e-02 -3.415865590795874596e-03 5.091008730232715607e-03 2.284818701446056366e-02 -6.003364920616149902e-03 8.900237269699573517e-03 -2.622544998303055763e-03 -1.788209658116102219e-03 1.327063608914613724e-02 1.904564327560365200e-03 1.359389349818229675e-02 2.632676623761653900e-03 4.231474827975034714e-03 -7.362309377640485764e-03 -9.500182233750820160e-03 5.219737067818641663e-03 -8.729445107746869326e-05 -6.791897583752870560e-03 6.879373453557491302e-03 9.005754254758358002e-03 4.396345466375350952e-03 1.130279526114463806e-02 1.014880021102726460e-03 -7.811753894202411175e-04 5.505932960659265518e-03 -7.593313697725534439e-03 -1.616954250494018197e-05 -7.666645688004791737e-04 -1.365716848522424698e-02 3.660924034193158150e-03 -1.382751204073429108e-02 -4.211909137666225433e-03 4.533868283033370972e-03 -1.151371281594038010e-02 2.217057161033153534e-02 7.153761573135852814e-03 1.902717514894902706e-03 5.023190169595181942e-04 -1.386967254802584648e-03 -1.018177904188632965e-02 -4.768012091517448425e-03 -3.015908412635326385e-03 -7.559082470834255219e-03 1.047165319323539734e-02 -1.563141308724880219e-02 1.882319571450352669e-03 -4.289420321583747864e-03 1.125252223573625088e-03 -6.588143296539783478e-03 -7.853488437831401825e-03 -6.996531505137681961e-03 5.121553316712379456e-03 -1.905621611513197422e-04 5.197265185415744781e-03 1.598668098449707031e-02 -4.055748693645000458e-03 6.230550818145275116e-03 -1.437706407159566879e-03 -3.836698306258767843e-04 9.323130361735820770e-03 -1.548815984278917313e-02 -4.228412173688411713e-03 4.649406182579696178e-04 -1.220914535224437714e-03 6.765450350940227509e-03 -1.520416117273271084e-03 -4.860299173742532730e-03 1.874836627393960953e-03 -5.376554559916257858e-03 -5.942338611930608749e-03
-1.195865310728549957e-02 -4.169167485088109970e-03 -5.389362922869622707e-04 -6.326695438474416733e-03 -7.515770848840475082e-03 -9.795092046260833740e-03 -6.441643927246332169e-03 -1.320851314812898636e-02 4.502478055655956268e-03 -3.447012230753898621e-02 3.615716472268104553e-02 2.262193895876407623e-02 -8.729272522032260895e-03 6.766583770513534546e-03 1.151020545512437820e-02 -3.615119494497776031e-03 2.164909616112709045e-02 -1.106252335011959076e-02 -1.003122422844171524e-02 3.136689960956573486e-02 -1.111721713095903397e-02 -2.427287166938185692e-03 -1.542754471302032471e-03 1.405280921608209610e-02 -3.547899890691041946e-03 8.335188031196594238e-03 5.436480045318603516e-03 1.367098931223154068e-02 -1.380747463554143906e-02 8.608618751168251038e-03 -1.349548809230327606e-02 -1.508378330618143082e-02 7.322283927351236343e-03 5.062283948063850403e-03 1.172998920083045959e-02 1.531989220529794693e-02 -9.679633192718029022e-03 -1.101594511419534683e-02 4.568736534565687180e-03 -1.013885368593037128e-03 -1.582422293722629547e-02 -3.802775463555008173e-04 7.113624829798936844e-03 -9.481823071837425232e-03 9.353973902761936188e-03 -2.487740851938724518e-02 -5.859842058271169662e-03 8.068620227277278900e-04 3.827780112624168396e-02 9.982485324144363403e-03 2.338892081752419472e-03 4.928728099912405014e-03 1.798884011805057526e-03 2.099926397204399109e-02 5.063207354396581650e-03 -7.930209860205650330e-03 2.089288644492626190e-02 3.954187966883182526e-03 -2.209405973553657532e-02 -2.488734200596809387e-02 -1.790715754032135010e-02 1.108573377132415771e-02 -3.271493827924132347e-03 -8.671346120536327362e-03 -1.473035756498575211e-02 -8.979688398540019989e-03 -2.449171990156173706e-02 -2.085786499083042145e-02 -3.742167726159095764e-03 -2.007189672440290451e-03 3.653054824098944664e-03 -1.130477152764797211e-02 -4.186946898698806763e-03 -5.979391746222972870e-03 -1.055873557925224304e-02 -4.242707975208759308e-03 -4.003482405096292496e-03 2.240384183824062347e-02 1.040726806968450546e-02 1.143383234739303589e-02 -1.934104831889271736e-03 -1.316983345896005630e-02 -1.368451025336980820e-02 9.337809868156909943e-03 7.178863976150751114e-03 1.966286636888980865e-02 -3.678856045007705688e-02 -1.288190018385648727e-02 2.205139491707086563e-03 -6.188066210597753525e-03 1.804256625473499298e-02 -4.872359335422515869e-03 1.161360088735818863e-02 -7.734867278486490250e-03 -1.932563632726669312e-02 -1.728773489594459534e-02 -1.494193635880947113e-02 8.083268068730831146e-03 -1.247092033736407757e-03 1.824257150292396545e-02 1.562425121665000916e-02 -7.939764298498630524e-03 1.156952232122421265e-02 -1.035942323505878448e-02 -2.836377546191215515e-02 -2.223393134772777557e-02 -2.629269659519195557e-02 -5.639420356601476669e-03 5.643612894346006215e-05 -8.958740159869194031e-03 2.284488640725612640e-02 3.665255382657051086e-03 -2.050980739295482635e-02 2.023086138069629669e-02 1.725162938237190247e-02 1.768118329346179962e-02 7.506784517318010330e-03 -1.096345949918031693e-02 -1.435226108878850937e-02 1.121302600950002670e-03 1.302034780383110046e-02 -2.902396488934755325e-03 -4.530895873904228210e-02 -2.447495702654123306e-03 5.409065634012222290e-03 -2.369458228349685669e-02 -9.895394556224346161e-03 -3.332723630592226982e-03 5.929667036980390549e-03 -6.694887299090623856e-03 -1.051666121929883957e-02 -3.012047335505485535e-02 5.676215048879384995e-03 1.856317557394504547e-02 -3.600470721721649170e-02 3.345774253830313683e-03 1.305400487035512924e-02 -1.173164136707782745e-02 1.748924260027706623e-03 -1.574446447193622589e-02 -1.651922054588794708e-02 2.232602424919605255e-02 -9.986462071537971497e-03 1.534688938409090042e-02 6.277970038354396820e-03 -2.678937092423439026e-02 -1.772901788353919983e-02 -8.834167383611202240e-03 -3.011609241366386414e-02 -5.870398133993148804e-03 -1.030734367668628693e-02 1.772965863347053528e-02 1.437355205416679382e-02 -5.673584993928670883e-03 -2.498774789273738861e-03 -1.351595949381589890e-02 -3.631924837827682495e-02 -8.984830230474472046e-03 -3.663465753197669983e-02 -6.434626993723213673e-04 -1.629601232707500458e-02 2.589224092662334442e-02 1.428170688450336456e-02 2.571854274719953537e-03 -6.308355368673801422e-03 9.635206311941146851e-03 -1.099383924156427383e-02 1.674752496182918549e-02 -4.192461259663105011e-03 8.858288638293743134e-03 -1.599845563760027289e-04 1.415808685123920441e-02 3.673571627587080002e-04 -2.948957728222012520e-03 3.078570589423179626e-03 -9.437866508960723877e-03 -2.813750691711902618e-02 -7.287226617336273193e-03 3.544972976669669151e-03 1.046485267579555511e-02 -2.511666901409626007e-02 7.894551381468772888e-03 -7.240024395287036896e-03 3.204148262739181519e-03 1.576817780733108521e-02 -7.145890034735202789e-03 1.670427247881889343e-02 2.918189391493797302e-02 1.268195826560258865e-02 -1.362559013068675995e-02 1.376203540712594986e-02 -4.839424043893814087e-03 3.284455090761184692e-02 1.208794652484357357e-03 -1.795770414173603058e-02 -6.077382713556289673e-04 1.411747001111507416e-02 1.355382148176431656e-02 4.723105113953351974e-03 1.077911723405122757e-02 1.865418069064617157e-02 -3.768890630453824997e-03 4.656541161239147186e-03 2.148186787962913513e-02 -3.677425906062126160e-02 -1.030284911394119263e-02 -1.226170454174280167e-03 -8.482367265969514847e-04 2.005235292017459869e-02 -5.545873194932937622e-03 8.254638873040676117e-03 -7.211251184344291687e-03 4.147019237279891968e-03 -2.416870929300785065e-02 -2.425971906632184982e-03 -5.974185653030872345e-03 7.801202009432017803e-04 -1.724169217050075531e-02 -1.187767740339040756e-02 8.396801538765430450e-03 -6.632332690060138702e-03 1.131700072437524796e-02 -8.438350632786750793e-03 -1.779701211489737034e-03 -1.049791276454925537e-02 7.470800075680017471e-03 3.502708626911044121e-03 1.149728707969188690e-02 1.533120032399892807e-02 2.493901178240776062e-02 -3.497244557365775108e-03 2.969065681099891663e-03 -1.411488372832536697e-02 -9.705730713903903961e-03 6.432272959500551224e-03 1.843958016252145171e-04 2.741710050031542778e-03 -7.928650826215744019e-03 2.437695488333702087e-02 -2.587848901748657227e-02 -2.876346185803413391e-02 -1.722455769777297974e-02 -2.983688190579414368e-02 -3.222139552235603333e-02 -1.878564944490790367e-03 1.470133382827043533e-02 3.940803185105323792e-02 -6.026208400726318359e-03 1.524141710251569748e-02 7.091535720974206924e-03 5.079634487628936768e-03 -5.904541816562414169e-03 8.518989197909832001e-03 -1.001781225204467773e-02 1.157959643751382828e-02 1.848428510129451752e-02
-1.549142878502607346e-02 8.821528404951095581e-03 2.700578607618808746e-02 -2.844700962305068970e-02 -1.529120607301592827e-03 3.267223946750164032e-03 -2.230798825621604919e-03 -5.059637129306793213e-03 -1.477475860156118870e-03 -1.215113792568445206e-02 5.904121324419975281e-03 -2.556697092950344086e-02 9.548070840537548065e-03 -1.433634664863348007e-02 -1.052273716777563095e-02 2.506220340728759766e-02 6.789077538996934891e-03 9.415844455361366272e-03 3.505243733525276184e-02 -5.493279080837965012e-03 -1.432488206773996353e-02 -1.963936164975166321e-02 -8.837733417749404907e-03 2.165708132088184357e-02 -7.797186844982206821e-04 1.919749937951564789e-02 1.005183998495340347e-02 2.065982855856418610e-02 -1.554780825972557068e-02 4.361870232969522476e-03 -7.159474771469831467e-03 -1.529678609222173691e-02 8.775248192250728607e-03 -7.112003397196531296e-03 2.880497195292264223e-04 -7.250168826431035995e-03 3.322797641158103943e-02 2.209823578596115112e-02 -5.689829122275114059e-03 -2.221564017236232758e-02 1.942128315567970276e-02 -1.308788079768419266e-02 -1.830201223492622375e-02 4.213884472846984863e-03 1.578964851796627045e-02 7.348734885454177856e-03 2.884761616587638855e-02 2.005731314420700073e-02 1.314958930015563965e-02 1.887245918624103069e-03 -2.496567368507385254e-02 1.610696502029895782e-02 -8.722651749849319458e-03 1.774589717388153076e-02 2.601437969133257866e-03 4.023391753435134888e-02 5.078514572232961655e-03 -1.464546751230955124e-02 -1.488604396581649780e-02 -2.938295155763626099e-02 -1.466645300388336182e-02 -2.067759446799755096e-02 -1.445686072111129761e-02 -2.125442028045654297e-03 -3.831637324765324593e-03 1.199499052017927170e-02 2.963490411639213562e-02 -1.865444891154766083e-02 5.968391778878867626e-04 2.422262169420719147e-02 1.757981139235198498e-03 7.455675397068262100e-03 -2.297764085233211517e-02 -7.481668144464492798e-03 -7.561158854514360428e-04 -2.296833880245685577e-02 -3.661709371954202652e-03 5.227533983998000622e-04 -1.447275187820196152e-02 6.687543354928493500e-03 1.071848440915346146e-03 2.019340544939041138e-02 2.226775884628295898e-02 3.569974331185221672e-03 -2.195761725306510925e-02 -2.696057409048080444e-02 -1.951142330653965473e-03 1.700595207512378693e-02 1.193780358880758286e-02 -2.899532439187169075e-03 -4.659484140574932098e-03 -1.938932389020919800e-02 -3.430972807109355927e-03 1.328860595822334290e-02 5.546214058995246887e-03 -2.502551116049289703e-02 1.641829125583171844e-02 -7.589863147586584091e-03 -6.646574474871158600e-03 -3.374182153493165970e-03 3.912654356099665165e-04 -1.493751257658004761e-02 1.099524367600679398e-02 -5.843769293278455734e-03 -1.077471766620874405e-02 6.969650276005268097e-03 5.910642445087432861e-03 1.412975019775331020e-03 1.460024435073137283e-02 -2.651404403150081635e-02 -5.443290341645479202e-03 -9.033951908349990845e-03 3.742425004020333290e-03 1.428800076246261597e-02 2.897894382476806641e-02 -9.586610831320285797e-03 9.719705209136009216e-03 -1.317368447780609131e-02 -1.845521735958755016e-03 5.254413466900587082e-03 -8.955579251050949097e-03 1.959948986768722534e-02 -7.711234036833047867e-03 -2.329927682876586914e-02 -6.045119953341782093e-04 1.533576473593711853e-02 -1.513168029487133026e-02 -6.594306323677301407e-03 -7.843824103474617004e-03 2.217780612409114838e-02 -7.275072857737541199e-04 1.171495392918586731e-02 -1.487132068723440170e-02 2.979627624154090881e-02 2.792139351367950439e-02 -4.017257597297430038e-03 -1.637879014015197754e-02 5.267837550491094589e-03 -4.839903675019741058e-03 -2.407810837030410767e-02 -1.754063367843627930e-02 -1.554907648824155331e-03 7.397293578833341599e-03 9.296860080212354660e-04 -6.896585691720247269e-03 -1.535692345350980759e-02 1.095258397981524467e-03 9.307155385613441467e-03 -9.912597946822643280e-03 4.310725780669599771e-04 -8.254462853074073792e-03 -1.918240077793598175e-02 1.543108141049742699e-03 1.362954638898372650e-02 -9.871409274637699127e-03 6.511033046990633011e-03 -1.410162635147571564e-02 1.038491260260343552e-02 4.861781373620033264e-03 1.979015395045280457e-02 -1.273748930543661118e-02 6.544198840856552124e-03 -2.710145525634288788e-02 -1.353094354271888733e-02 -2.547776326537132263e-03 7.987480494193732738e-04 1.731735095381736755e-02 -2.119071036577224731e-02 -6.535242777317762375e-03 9.766647592186927795e-03 -3.717119991779327393e-02 2.387525327503681183e-02 -8.656910620629787445e-03 -6.118432153016328812e-03 2.699695061892271042e-03 -4.121483303606510162e-03 -1.738776639103889465e-02 -9.912993991747498512e-04 1.150372903794050217e-03 2.300854399800300598e-02 -2.812505140900611877e-02 4.661065060645341873e-03 5.829324014484882355e-03 -1.410802733153104782e-02 7.625473197549581528e-03 -1.269759517163038254e-02 -4.123626742511987686e-03 1.649434491991996765e-02 1.210053544491529465e-02 1.055128220468759537e-02 2.398890210315585136e-03 -1.582578383386135101e-02 -6.450794753618538380e-04 5.738966632634401321e-03 1.265827752649784088e-02 1.141518168151378632e-02 3.882197896018624306e-03 -1.784510724246501923e-02 4.788935650140047073e-03 1.469980366528034210e-02 2.512818761169910431e-02 2.716758660972118378e-02 5.952172912657260895e-03 -7.029717322438955307e-03 1.171987131237983704e-02 -2.082444168627262115e-02 1.314456015825271606e-02 -8.784198435023427010e-04 4.260368645191192627e-03 -9.667802602052688599e-03 -4.750793334096670151e-03 1.705473475158214569e-02 1.024791318923234940e-02 1.593376509845256805e-02 -4.024330526590347290e-02 3.772661788389086723e-03 -1.728139072656631470e-02 -1.588485948741436005e-02 4.570327582769095898e-04 2.123669534921646118e-02 -1.718137226998806000e-02 6.814842112362384796e-03 2.246583811938762665e-03 -1.792738027870655060e-02 1.268529426306486130e-02 6.639759521931409836e-05 6.483516655862331390e-03 2.920798258855938911e-03 -1.206551864743232727e-02 5.595295224338769913e-03 -9.182003326714038849e-03 7.002631668001413345e-03 -4.996611271053552628e-03 3.122520633041858673e-03 -1.702109538018703461e-02 8.363347500562667847e-03 3.361407434567809105e-03 -7.557517383247613907e-03 1.383979432284832001e-02 3.109059669077396393e-02 -1.535845547914505005e-02 4.925692453980445862e-03 1.426751725375652313e-03 -3.342283889651298523e-03 -7.447254844009876251e-03 2.618061378598213196e-02 8.953103795647621155e-03 2.573796734213829041e-02 6.674197502434253693e-03 -1.784370251698419452e-04 -2.990598557516932487e-03 -1.304794009774923325e-02 5.515155382454395294e-03 -9.454505518078804016e-03 1.128668314777314663e-03 9.856523945927619934e-03
1.946468255482614040e-03 -1.832089386880397797e-02 -5.792100913822650909e-03 -2.087471261620521545e-02 2.229795791208744049e-02 6.826882017776370049e-04 1.504384540021419525e-02 1.266533159650862217e-03 3.859361261129379272e-02 1.132050622254610062e-02 -2.405252680182456970e-02 -1.361589040607213974e-02 -1.275305263698101044e-02 5.202511325478553772e-03 1.023972034454345703e-02 1.758405007421970367e-02 -3.570828994270414114e-04 6.388625130057334900e-03 4.726793617010116577e-03 -4.520871210843324661e-03 2.276806335430592299e-04 1.873104833066463470e-02 1.035233121365308762e-02 -4.213725682348012924e-03 6.714412302244454622e-05 2.256063185632228851e-02 1.914823986589908600e-02 -7.517799269407987595e-03 -8.069211617112159729e-03 1.291875820606946945e-02 6.560556124895811081e-03 -5.944723263382911682e-03 1.028771325945854187e-02 -3.533545648679137230e-03 -6.376710254698991776e-03 -6.685709580779075623e-03 9.917717427015304565e-03 -6.574323866516351700e-03 2.989532425999641418e-03 3.977435990236699581e-04 -2.216701023280620575e-02 -5.561757832765579224e-03 -1.436159666627645493e-02 6.041087210178375244e-03 2.852503769099712372e-02 -3.941943868994712830e-03 -1.118578761816024780e-02 2.123761177062988281e-02 6.984553299844264984e-03 -2.153792185708880424e-03 -1.558022294193506241e-02 -5.437695886939764023e-03 -1.745411008596420288e-02 7.464459165930747986e-03 -1.100236549973487854e-02 -2.434187335893511772e-03 5.921545089222490788e-04 -2.129674702882766724e-02 1.890630647540092468e-02 5.953452549874782562e-03 -2.828087285161018372e-02 7.281530648469924927e-03 1.213658228516578674e-02 -1.100765168666839600e-02 -9.126684628427028656e-03 -1.327505242079496384e-02 -2.895505912601947784e-02 3.878803923726081848e-03 2.625297056511044502e-03 -6.702885497361421585e-03 -1.993255317211151123e-02 -1.994181983172893524e-02 -3.521008766256272793e-04 -8.057923056185245514e-03 -1.335833873599767685e-02 -2.871357137337327003e-03 7.890249253250658512e-04 -7.045806851238012314e-03 1.231240667402744293e-02 -1.491129025816917419e-02 8.186084218323230743e-03 7.184809073805809021e-03 -4.069145768880844116e-03 -1.249682717025279999e-02 -1.761673018336296082e-02 5.961370188742876053e-03 1.685558445751667023e-02 7.016312330961227417e-03 5.262136925011873245e-03 -1.126646064221858978e-02 -7.984034717082977295e-03 -3.042454365640878677e-03 -1.854804344475269318e-02 -1.120993588119745255e-02 -4.434639122337102890e-03 4.810725525021553040e-02 3.603553050197660923e-04 1.246300339698791504e-02 -2.954974398016929626e-02 -2.061469480395317078e-02 -8.654397912323474884e-03 9.426502510905265808e-03 7.949582301080226898e-03 -1.220546080730855465e-03 -2.668112982064485550e-03 -2.182736247777938843e-02 -4.468485247343778610e-03 1.732800528407096863e-02 3.032683860510587692e-03 -2.692062780261039734e-02 -1.909638755023479462e-02 -2.529498748481273651e-02 2.485311403870582581e-02 1.896978728473186493e-02 -1.008781697601079941e-02 -1.747331232763826847e-03 -1.617659698240458965e-03 -9.592530317604541779e-03 -2.925629541277885437e-02 -6.364407483488321304e-03 -2.205355092883110046e-03 2.207993064075708389e-03 8.625396527349948883e-03 9.014035575091838837e-03 -1.971919648349285126e-02 -2.049889415502548218e-03 3.406591946259140968e-03 -1.757371355779469013e-03 5.914113484323024750e-03 5.962141323834657669e-03 5.074804183095693588e-03 -5.032986402511596680e-03 -1.487949583679437637e-02 -1.221127901226282120e-02 1.191983651369810104e-02 1.867709122598171234e-02 -3.024681843817234039e-02 -9.616217575967311859e-03 -2.121728612110018730e-04 1.810024259611964226e-03 -1.323245186358690262e-02 1.716314349323511124e-03 3.099330235272645950e-03 -1.809300482273101807e-02 -3.067625127732753754e-02 -7.221347186714410782e-04 1.164040993899106979e-02 1.447263546288013458e-02 -1.050833240151405334e-02 1.120231463573873043e-03 -9.344530291855335236e-03 -6.793845444917678833e-03 -1.994813093915581703e-03 -6.806010846048593521e-03 -2.327224239706993103e-03 6.006780313327908516e-04 1.947578624822199345e-03 5.613311193883419037e-03 1.071501895785331726e-02 -4.633658565580844879e-03 -2.914562635123729706e-02 5.096076987683773041e-03 -1.536696311086416245e-02 -5.532482638955116272e-03 -5.403974791988730431e-04 -1.748000457882881165e-02 1.672044955193996429e-02 -2.554994309321045876e-03 -6.553814746439456940e-04 -1.964971609413623810e-02 -1.087601762264966965e-02 9.079809533432126045e-04 -2.909737639129161835e-03 6.706646177917718887e-03 -4.693078342825174332e-03 9.384886361658573151e-04 -2.637907862663269043e-02 -1.380876079201698303e-02 -2.208575420081615448e-02 1.184606458991765976e-02 -2.552911639213562012e-02 -1.631681062281131744e-02 -2.217187546193599701e-03 -5.945632699877023697e-03 4.303246736526489258e-03 -1.888877153396606445e-02 2.375045791268348694e-03 2.055165823549032211e-03 1.080017164349555969e-02 -1.049824710935354233e-02 -1.023735571652650833e-02 -1.441393699496984482e-02 4.778899252414703369e-03 -1.029206090606749058e-03 1.126464363187551498e-02 1.753074675798416138e-02 1.843969896435737610e-02 -2.398827672004699707e-02 3.301666676998138428e-02 3.125322051346302032e-03 -7.950876839458942413e-03 2.759832143783569336e-02 -2.518775872886180878e-04 2.113895025104284286e-03 -2.264017006382346153e-03 -4.503312986344099045e-03 1.046325732022523880e-02 -2.912936266511678696e-03 3.456419333815574646e-03 1.130062248557806015e-02 1.349806319922208786e-03 1.671981997787952423e-02 -2.291930466890335083e-02 -1.096335053443908691e-02 1.571386866271495819e-02 1.744731888175010681e-02 8.268043398857116699e-03 -1.823030598461627960e-02 2.331731654703617096e-02 1.532605756074190140e-02 1.805837079882621765e-02 5.031482316553592682e-03 -8.831926621496677399e-03 -8.039054460823535919e-03 -1.806476153433322906e-02 -2.973726950585842133e-02 -1.256193965673446655e-03 -2.537951339036226273e-03 -8.087472990155220032e-03 2.114534564316272736e-02 1.247157622128725052e-02 -1.209219545125961304e-02 1.143942028284072876e-02 1.277586678043007851e-03 1.003065798431634903e-02 5.723729729652404785e-03 9.587546810507774353e-03 1.180426031351089478e-02 -5.052301101386547089e-03 1.869514212012290955e-02 2.273435704410076141e-02 2.341391704976558685e-02 3.200978972017765045e-03 1.329094171524047852e-02 -1.582155935466289520e-02 5.138907115906476974e-03 -1.283549796789884567e-02 -1.745418272912502289e-02 3.854721784591674805e-03 2.354994649067521095e-03 -6.050415337085723877e-03 -3.590610867831856012e-04 -1.417576614767313004e-02 1.648985035717487335e-02 1.968585886061191559e-02 2.650406211614608765e-02
-1.271143648773431778e-02 -1.392671652138233185e-02 -8.475989103317260742e-03 2.476963214576244354e-03 2.718155644834041595e-02 -1.785662211477756500e-02 8.456857874989509583e-03 2.693573758006095886e-02 -1.198405306786298752e-02 -2.248088596388697624e-03 1.318217255175113678e-02 -2.422860451042652130e-02 -1.067898608744144440e-02 1.368634495884180069e-02 -1.237107627093791962e-02 7.541375234723091125e-03 -2.380859293043613434e-02 5.219613667577505112e-03 1.937699690461158752e-02 -4.148097650613635778e-05 2.611145144328474998e-03 1.377550512552261353e-02 -1.718432875350117683e-03 -2.072096988558769226e-02 6.975042168051004410e-03 -2.175047434866428375e-02 1.395724900066852570e-02 1.348669920116662979e-02 -4.034478333778679371e-04 -3.488320857286453247e-03 -5.943048279732465744e-03 -1.298097241669893265e-02 -2.351044304668903351e-02 -8.716216310858726501e-03 -1.239299681037664413e-02 2.703772298991680145e-02 3.773680422455072403e-03 -2.553246449679136276e-03 -1.932105794548988342e-02 6.055235397070646286e-03 -1.065427903085947037e-02 -1.227417611517012119e-03 4.791285027749836445e-04 1.631388999521732330e-02 6.133825052529573441e-03 -2.918489277362823486e-03 -1.975398883223533630e-02 6.410194095224142075e-03 1.184463780373334885e-02 -1.844953186810016632e-02 3.144191810861229897e-03 5.507144145667552948e-03 -1.394692715257406235e-02 3.114239545539021492e-03 1.341033168137073517e-02 1.527684158645570278e-03 -1.654266193509101868e-02 -7.070995401591062546e-03 -1.565920934081077576e-02 1.421379111707210541e-02 8.538194932043552399e-03 -2.521536080166697502e-03 -1.165701169520616531e-02 -1.384540926665067673e-02 -1.477007195353507996e-02 3.265129862484172918e-06 -3.367716446518898010e-03 1.119419652968645096e-02 -1.342735439538955688e-02 -9.629298583604395390e-04 1.932527404278516769e-03 6.477302405983209610e-03 -2.922961721196770668e-03 5.650684703141450882e-03 -8.388651534914970398e-03 7.552046328783035278e-03 3.342365380376577377e-03 -1.568589918315410614e-02 3.704277332872152328e-03 2.064741216599941254e-03 1.243460923433303833e-03 -8.947877213358879089e-03 -9.444875642657279968e-03 -1.973383873701095581e-02 -1.133074238896369934e-02 -2.045487985014915466e-03 2.389154769480228424e-02 -2.558980486355721951e-04 3.240306628867983818e-03 3.420600667595863342e-02 3.241867292672395706e-03 -5.957939662039279938e-03 4.392702132463455200e-03 -3.940165508538484573e-03 -1.244635879993438721e-02 -4.298062529414892197e-03 -3.518396755680441856e-03 1.639360748231410980e-02 2.105972496792674065e-03 1.019874587655067444e-02 -3.529999870806932449e-03 7.605561055243015289e-03 -2.353603718802332878e-03 5.592457018792629242e-03 -3.156699240207672119e-03 1.067470572888851166e-02 -1.463019382208585739e-02 -7.031169719994068146e-03 2.668448165059089661e-02 -1.690405979752540588e-02 1.166865415871143341e-02 9.012207388877868652e-03 -2.160098403692245483e-02 3.050168044865131378e-02 3.988978278357535601e-04 -8.014517370611429214e-04 1.728059491142630577e-03 9.721025824546813965e-03 -2.527289278805255890e-02 2.599122375249862671e-02 -3.438399732112884521e-02 2.158220857381820679e-02 -1.167166419327259064e-02 -5.302430596202611923e-03 9.488231502473354340e-03 -8.022928610444068909e-03 -2.697914605960249901e-03 8.009568788111209869e-03 4.015293717384338379e-02 9.070239961147308350e-03 -9.925808757543563843e-03 6.923764012753963470e-03 1.064489595592021942e-02 7.525480032199993730e-05 -1.601856946945190430e-02 -1.219936460256576538e-02 -1.412443537265062332e-02 -5.934712011367082596e-03 1.849922724068164825e-02 -1.730736927129328251e-03 -3.920824092347174883e-04 -1.457256171852350235e-02 -9.084072895348072052e-03 4.772848449647426605e-03 4.024591296911239624e-03 2.478983812034130096e-02 -1.460161642171442509e-03 9.147822856903076172e-03 -1.231477968394756317e-02 -1.073382049798965454e-02 4.620260559022426605e-03 3.744273632764816284e-02 8.539105765521526337e-03 -5.699369590729475021e-03 3.616170579334720969e-05 -4.637394566088914871e-03 -9.633829817175865173e-03 2.530997060239315033e-02 3.344990313053131104e-02 1.202350109815597534e-02 -2.323231101036071777e-02 -9.893524460494518280e-03 -2.732655964791774750e-02 -4.513403866440057755e-03 -4.229488782584667206e-03 -1.563321566209197044e-03 1.241659466177225113e-02 4.892892204225063324e-03 -4.971066489815711975e-03 -2.935660537332296371e-03 9.572385810315608978e-03 3.475528210401535034e-03 -5.030836910009384155e-03 -1.959055894985795021e-03 1.156995631754398346e-02 -1.198938023298978806e-02 -4.801061004400253296e-03 -8.142014965415000916e-03 -5.349412560462951660e-03 -2.762157004326581955e-03 -3.216478973627090454e-02 -1.857943646609783173e-02 1.859134994447231293e-02 7.687378209084272385e-03 -2.571322955191135406e-02 -1.253490429371595383e-02 2.985312230885028839e-02 9.865694679319858551e-03 1.339654158800840378e-02 8.040519431233406067e-03 2.182985842227935791e-02 -1.212743017822504044e-02 -1.805027597583830357e-03 7.693467778153717518e-04 -8.966360241174697876e-03 1.894965581595897675e-02 2.465630881488323212e-02 1.960353692993521690e-03 7.609101478010416031e-03 3.168937563896179199e-02 4.203459247946739197e-03 1.237666420638561249e-02 -3.987456113100051880e-02 -2.363514527678489685e-02 -7.821817882359027863e-03 -2.712793881073594093e-03 -2.853034529834985733e-03 8.737733587622642517e-03 -1.188074704259634018e-02 5.267153959721326828e-03 1.451720762997865677e-02 1.202384009957313538e-02 4.610615316778421402e-03 1.766815967857837677e-02 -1.833206415176391602e-02 -1.602893881499767303e-02 1.514876447618007660e-02 -7.942361757159233093e-03 9.413154795765876770e-03 -1.156033109873533249e-02 -5.338214577932376415e-06 -2.755293250083923340e-02 -1.764263771474361420e-02 -9.552940726280212402e-03 -1.451796758919954300e-02 5.924262106418609619e-03 6.909023970365524292e-03 1.064999774098396301e-02 1.108432468026876450e-02 -3.458382328972220421e-03 -2.842559106647968292e-02 -1.323835272341966629e-02 -4.100101999938488007e-03 -1.634503155946731567e-02 -1.441532559692859650e-02 1.669865101575851440e-02 -1.256912294775247574e-02 2.827180922031402588e-02 1.047153305262327194e-02 -2.634559012949466705e-02 -8.380508050322532654e-03 -1.709579676389694214e-02 -9.237894788384437561e-03 5.812673829495906830e-03 -3.371996805071830750e-02 -6.116175092756748199e-03 -3.745638579130172729e-02 2.792315185070037842e-02 -1.070351223461329937e-03 2.705705352127552032e-02 -2.295232936739921570e-02 -1.178865134716033936e-02 -1.183718815445899963e-02 3.071180777624249458e-03 -4.346410278230905533e-03 -4.280405119061470032e-03
1.785105653107166290e-02 -1.016518473625183105e-02 -5.682318937033414841e-03 8.475829381495714188e-04 3.588162828236818314e-03 2.038330538198351860e-03 1.170455943793058395e-03 -8.788322098553180695e-03 2.767117880284786224e-02 4.273755848407745361e-02 -4.638745915144681931e-03 5.243941675871610641e-03 1.487378682941198349e-02 -2.012272737920284271e-02 -1.383398193866014481e-03 1.506941393017768860e-02 -1.195750478655099869e-02 3.735843347385525703e-04 -2.887172158807516098e-03 8.731182664632797241e-03 -9.244963526725769043e-03 -1.789354905486106873e-02 4.777756053954362869e-03 1.319082570262253284e-03 1.493768114596605301e-02 -6.833093706518411636e-03 -1.304909773170948029e-02 -1.057104207575321198e-02 -3.781219711527228355e-03 -4.067738074809312820e-03 1.965009607374668121e-03 -5.352559965103864670e-03 -2.065231790766119957e-03 -4.173927474766969681e-03 -3.690514713525772095e-03 1.614566147327423096e-02 -6.573766935616731644e-03 -3.259236691519618034e-03 1.594103686511516571e-02 -1.007412094622850418e-02 2.113149315118789673e-02 3.142418572679162025e-03 -1.009979285299777985e-02 -1.408109068870544434e-02 1.474424265325069427e-03 -1.116187777370214462e-02 3.603196889162063599e-02 2.728296210989356041e-03 -8.735980838537216187e-03 2.372710499912500381e-03 -8.351528085768222809e-03 -2.424554526805877686e-02 -1.656094100326299667e-03 1.485550031065940857e-02 -2.157961018383502960e-03 6.697200587950646877e-04 -2.363117039203643799e-02 -6.647870410233736038e-03 3.361788578331470490e-03 -1.756418310105800629e-02 1.178427692502737045e-02 -7.057855371385812759e-03 1.986287068575620651e-03 -2.439465606585144997e-03 1.998797431588172913e-02 -1.422085519880056381e-02 -1.166452839970588684e-02 -1.446786522865295410e-02 1.485301181674003601e-02 -3.677128115668892860e-04 6.607245188206434250e-03 7.869504392147064209e-03 1.204794086515903473e-02 1.241428311914205551e-02 -3.161568567156791687e-02 -7.487715920433402061e-04 -6.823075469583272934e-03 -1.516176946461200714e-02 3.620409220457077026e-02 2.002613618969917297e-02 1.922186277806758881e-02 -2.845160197466611862e-03 -7.563920225948095322e-03 1.231081667356193066e-03 4.421634133905172348e-03 -5.473861005157232285e-03 8.585674688220024109e-03 -2.644082531332969666e-03 -1.786619797348976135e-02 -1.017987076193094254e-02 -6.411327514797449112e-03 7.634403300471603870e-04 1.930906437337398529e-02 -7.334107649512588978e-04 1.464441604912281036e-02 -2.034062519669532776e-02 2.724225260317325592e-02 -4.841944202780723572e-03 -4.223957192152738571e-03 2.593053132295608521e-02 -9.968230500817298889e-03 2.152706030756235123e-03 -1.089845132082700729e-02 1.015953160822391510e-02 -5.836646072566509247e-03 1.166021451354026794e-03 5.439671687781810760e-03 2.563838846981525421e-03 -1.209299080073833466e-02 1.142625231295824051e-02 -1.355135720223188400e-02 -1.740535721182823181e-02 -3.700159955769777298e-03 -4.305383190512657166e-03 -1.161601394414901733e-02 1.362284272909164429e-02 3.156583756208419800e-03 1.380415167659521103e-02 4.496505483984947205e-03 -9.015627205371856689e-03 -1.932116970419883728e-02 -1.262726495042443275e-03 -3.548797592520713806e-02 -2.441835822537541389e-03 3.125904826447367668e-03 -1.081150118261575699e-02 -2.476859837770462036e-03 9.672982618212699890e-03 -4.244208801537752151e-03 -1.860805973410606384e-02 1.736866310238838196e-02 1.243275683373212814e-02 4.068979527801275253e-03 -3.694300772622227669e-03 1.019967906177043915e-02 5.539521574974060059e-03 -1.131950411945581436e-02 2.542571350932121277e-02 -1.949328114278614521e-03 -3.686034306883811951e-02 -6.908230949193239212e-03 2.574580535292625427e-02 -3.085563704371452332e-02 2.587417326867580414e-02 6.169520318508148193e-03 2.510719466954469681e-03 4.211217164993286133e-03 -1.771471649408340454e-02 -1.132304593920707703e-02 1.183751039206981659e-03 3.783553605899214745e-03 1.439340040087699890e-02 -2.127516345353797078e-04 -2.415849827229976654e-02 -1.313365623354911804e-02 2.504441188648343086e-03 -2.720447489991784096e-03 2.608345635235309601e-02 3.119037020951509476e-03 9.537996375001966953e-04 -4.879599437117576599e-03 8.135237731039524078e-03 -2.463815733790397644e-03 -3.196566598489880562e-03 -4.138190415687859058e-04 -4.754859022796154022e-03 -5.613855551928281784e-03 -2.398354932665824890e-03 9.293403476476669312e-03 -3.776494180783629417e-03 -5.515621043741703033e-03 7.482886780053377151e-03 6.760549731552600861e-03 -7.510949391871690750e-03 1.257477607578039169e-02 -9.454471059143543243e-03 8.920658729039132595e-04 -1.420943066477775574e-02 8.474757894873619080e-03 8.697283454239368439e-03 1.136686559766530991e-02 3.190699266269803047e-03 -7.571680471301078796e-04 6.492996122688055038e-03 1.567608676850795746e-03 2.264902461320161819e-03 -3.355933818966150284e-03 4.011366982012987137e-03 9.790537878870964050e-04 -1.001787092536687851e-02 1.095604803413152695e-02 9.873173199594020844e-03 -1.018035318702459335e-02 1.941070193424820900e-03 -1.306961663067340851e-02 1.764673367142677307e-02 2.485514618456363678e-03 9.698426350951194763e-03 -1.301139313727617264e-02 2.689162269234657288e-03 2.976958826184272766e-02 -1.104856003075838089e-02 -4.463298246264457703e-03 1.518603879958391190e-02 -8.238098584115505219e-03 1.388133689761161804e-02 -9.578282013535499573e-03 6.364086177200078964e-03 1.407913491129875183e-02 5.323873483575880527e-04 1.452086027711629868e-02 -8.282864466309547424e-03 1.521373167634010315e-03 -5.392991442931815982e-05 -5.180358421057462692e-03 -1.939534582197666168e-02 1.086541567929089069e-03 -2.887225709855556488e-02 -3.450254676863551140e-03 3.159400308504700661e-03 8.121770806610584259e-03 1.213190704584121704e-02 5.514541640877723694e-03 -2.371289953589439392e-02 9.278210811316967010e-03 -1.578162424266338348e-02 2.014392521232366562e-03 -9.685149416327476501e-03 1.317858882248401642e-02 -2.825637813657522202e-03 -1.486629713326692581e-03 3.603752469643950462e-03 4.663602448999881744e-03 1.857376284897327423e-02 -1.573923602700233459e-02 -4.814784973859786987e-03 1.604328863322734833e-02 1.169488206505775452e-02 -2.662324579432606697e-03 -1.372573245316743851e-02 -1.395129412412643433e-02 -4.122375976294279099e-03 9.512391872704029083e-03 -2.670081332325935364e-02 1.601420517545193434e-04 -1.104554533958435059e-02 -1.629414735361933708e-03 -2.099495148286223412e-03 -1.241343794390559196e-03 -7.720961235463619232e-03 1.642180606722831726e-03 -8.838026784360408783e-03 -2.219813177362084389e-03 -1.210510599776171148e-04 1.125712972134351730e-02 2.633200958371162415e-03
1.868704520165920258e-02 2.839293796569108963e-03 -4.423057660460472107e-03 8.281160145998001099e-03 -2.595545910298824310e-02 -4.785586893558502197e-02 3.413603082299232483e-02 2.960347943007946014e-02 4.704223538283258677e-04 6.040142849087715149e-03 4.581707343459129333e-02 6.868083495646715164e-03 -1.677167415618896484e-02 6.136862095445394516e-03 2.616562880575656891e-02 2.435444109141826630e-02 1.651787944138050079e-02 5.042652413249015808e-02 4.044650122523307800e-02 4.819353297352790833e-02 3.154801437631249428e-03 -3.532980382442474365e-02 1.682022586464881897e-02 -3.093607258051633835e-03 3.882201388478279114e-02 -1.706612855195999146e-02 -1.028145663440227509e-02 1.113317254930734634e-02 7.022171746939420700e-03 -1.061271410435438156e-02 3.381269983947277069e-03 2.165224216878414154e-02 -2.193371765315532684e-02 7.711494341492652893e-03 1.866755075752735138e-02 2.343307947739958763e-03 2.472418546676635742e-02 4.855530709028244019e-02 -2.653340809047222137e-03 -2.124260924756526947e-02 -9.020237484946846962e-04 2.188834175467491150e-02 8.446139283478260040e-03 4.733389988541603088e-02 -1.979336515069007874e-02 -1.257522776722908020e-02 -1.871618814766407013e-02 -3.127587027847766876e-03 -7.499317172914743423e-03 -1.647565886378288269e-02 -2.615968510508537292e-02 1.629572547972202301e-02 -1.991213113069534302e-02 -2.425538934767246246e-02 -7.442313712090253830e-03 3.276787698268890381e-02 -2.692041546106338501e-02 9.346826933324337006e-03 5.374298989772796631e-02 -3.615581989288330078e-02 4.332313314080238342e-02 3.288004547357559204e-02 -8.697515353560447693e-03 -4.582161828875541687e-02 1.706312783062458038e-02 -1.272249501198530197e-03 2.198527194559574127e-02 2.800055546686053276e-03 3.706404566764831543e-02 -5.126741714775562286e-03 -2.424254640936851501e-02 2.944563515484333038e-02 1.739437878131866455e-02 -1.432792865671217442e-03 -1.470485818572342396e-03 1.851178333163261414e-02 1.057142578065395355e-02 -1.709038019180297852e-02 -9.145770221948623657e-03 5.878753215074539185e-02 1.689536124467849731e-02 5.604453384876251221e-02 2.745398320257663727e-03 8.255589753389358521e-03 1.133783347904682159e-02 -2.465545572340488434e-02 -2.105666324496269226e-02 4.167102277278900146e-02 5.867636576294898987e-02 -2.364809624850749969e-02 -2.743041608482599258e-03 2.525209216400980949e-03 3.364628879353404045e-03 -2.838212251663208008e-02 1.283591426908969879e-02 -1.240350119769573212e-02 -2.647789381444454193e-02 -2.219111844897270203e-02 -2.634238265454769135e-02 1.227813423611223698e-03 -5.647858604788780212e-03 2.851372212171554565e-02 5.107534304261207581e-02 -4.897742532193660736e-03 -2.844688855111598969e-02 -1.078014262020587921e-02 -2.986234612762928009e-02 3.813581913709640503e-02 4.543646052479743958e-02 -3.678241046145558357e-03 -1.967429649084806442e-03 3.002830035984516144e-02 5.870558787137269974e-03 1.881510205566883087e-02 1.154690980911254883e-02 -2.212732797488570213e-03 3.696792945265769958e-02 -1.018386427313089371e-02 1.407332159578800201e-02 6.069102790206670761e-03 -7.195393554866313934e-03 5.217859521508216858e-02 3.962750546634197235e-03 -7.401923183351755142e-03 5.450573936104774475e-02 -2.410316467285156250e-02 1.011566710076294839e-04 2.867776155471801758e-02 -1.110463961958885193e-02 -1.880828407593071461e-03 -1.722293905913829803e-02 -5.490974057465791702e-03 1.855179667472839355e-02 -9.578691795468330383e-03 -8.832423947751522064e-03 1.514619775116443634e-02 -3.993379883468151093e-03 8.982002735137939453e-03 -7.828915491700172424e-03 -3.202266618609428406e-02 3.065197728574275970e-02 -3.465177491307258606e-03 1.932911982294172049e-04 -1.678773202002048492e-02 -1.187156606465578079e-02 1.340614538639783859e-02 -6.967156194150447845e-03 2.823160775005817413e-02 1.563843339681625366e-02 -3.294318541884422302e-02 3.799766674637794495e-02 2.997540682554244995e-02 1.124103274196386337e-02 1.539618708193302155e-02 -3.425203636288642883e-02 5.669769365340471268e-03 -6.576383020728826523e-03 1.741331815719604492e-02 1.145479455590248108e-02 -7.884627208113670349e-03 -1.227596588432788849e-02 1.326462253928184509e-02 3.179557248950004578e-02 -3.143930807709693909e-02 -3.348964080214500427e-02 -1.290548127144575119e-02 2.227111719548702240e-02 -1.562512014061212540e-03 2.830922789871692657e-02 -1.492909621447324753e-02 -1.438373234122991562e-02 -7.959001814015209675e-04 8.159790188074111938e-03 -2.979462966322898865e-02 3.702736273407936096e-02 1.613640971481800079e-02 -1.669909060001373291e-02 2.514364384114742279e-02 2.889079228043556213e-02 7.875147275626659393e-03 9.527874179184436798e-03 -3.644439205527305603e-02 2.872877009212970734e-02 1.053446531295776367e-02 1.017554197460412979e-02 -2.187638171017169952e-02 -9.205019101500511169e-03 6.734055001288652420e-03 3.316963324323296547e-03 -1.645218953490257263e-02 3.903041779994964600e-02 -1.370077207684516907e-02 -3.154795244336128235e-02 2.019094675779342651e-02 -3.013088181614875793e-02 7.139910012483596802e-03 -2.843305654823780060e-02 -2.453996334224939346e-03 -8.648223243653774261e-03 1.873190701007843018e-02 -1.752075925469398499e-02 -6.153396680019795895e-04 3.117752930847927928e-05 -9.923789650201797485e-03 1.375003834255039692e-03 2.690362930297851562e-02 1.109372172504663467e-02 -1.606887206435203552e-02 2.364765293896198273e-02 1.277023227885365486e-03 7.835534401237964630e-03 -1.557408832013607025e-02 -3.345641121268272400e-02 4.296499770134687424e-03 9.404874406754970551e-03 -1.049327012151479721e-02 1.014238782227039337e-02 -1.452394481748342514e-02 -1.361547596752643585e-02 1.672135107219219208e-02 2.380875125527381897e-02 3.441745042800903320e-02 2.127246931195259094e-02 -1.008337829262018204e-02 7.275376468896865845e-03 -1.224453281611204147e-02 -9.833726799115538597e-04 -4.390972852706909180e-02 3.593124821782112122e-02 -1.858576759696006775e-02 -3.947377949953079224e-02 -2.470334246754646301e-02 1.159145776182413101e-02 -1.619456708431243896e-02 4.324418306350708008e-02 2.834091174008790404e-05 3.377725556492805481e-02 2.040095627307891846e-02 1.848850958049297333e-02 -2.609314862638711929e-03 2.782643714454025030e-04 -1.703339815139770508e-02 2.133411727845668793e-02 2.639812882989645004e-03 2.517427317798137665e-02 -3.057108074426651001e-02 8.518000249750912189e-04 9.886469691991806030e-03 -2.115382812917232513e-02 3.303221985697746277e-02 1.868967525660991669e-02 1.710101403295993805e-02 3.093014098703861237e-02 -1.805992424488067627e-02 -1.460245996713638306e-02 2.380950003862380981e-02
