-4.315911605954170227e-02 -5.688811466097831726e-02 1.411501616239547729e-01 -1.003728955984115601e-01 6.855747103691101074e-02 -1.110510826110839844e-01 -3.562301024794578552e-02 3.302959725260734558e-02 -1.077579781413078308e-01 1.044518128037452698e-01 1.716381125152111053e-02 -2.090312540531158447e-02 1.281960122287273407e-02 1.034896448254585266e-01 7.316420972347259521e-02 -9.950149804353713989e-03 5.213788151741027832e-02 2.659645304083824158e-02 -5.725718289613723755e-02 -4.564774781465530396e-02 4.226853325963020325e-02 8.693405240774154663e-02 -2.134046517312526703e-02 -2.557420730590820312e-01 1.845393180847167969e-01 9.429647028446197510e-02 -5.524039268493652344e-02 -3.013077005743980408e-02 -1.875166967511177063e-02 1.896756887435913086e-01 -1.022986322641372681e-01 -1.886771023273468018e-01 -6.196403875946998596e-02 -3.167089074850082397e-02 -1.769498288631439209e-01 -1.282159686088562012e-01 3.096315264701843262e-02 3.355652093887329102e-02 4.276628792285919189e-02 -8.030884712934494019e-02 -4.162905737757682800e-02 -1.044982597231864929e-01 -6.956008821725845337e-02 -1.965235620737075806e-01 5.415768176317214966e-02 -5.041225254535675049e-02 -9.501425549387931824e-03 3.936249762773513794e-02 -1.070628222078084946e-02 3.137956664431840181e-04 8.492792397737503052e-02 4.982512444257736206e-02 -6.320972461253404617e-03 -7.001792639493942261e-02 4.963159188628196716e-02 2.157511562108993530e-02 8.062576502561569214e-02 8.838530629873275757e-02 -7.856921106576919556e-02 5.965591222047805786e-02 1.610080599784851074e-01 -2.952915988862514496e-02 -1.121296510100364685e-01 1.032634600996971130e-01 4.313688725233078003e-02 6.390561908483505249e-02 1.610258370637893677e-01 -7.231835275888442993e-02 3.879326954483985901e-02 -9.098558686673641205e-03 8.608859777450561523e-02 7.623942196369171143e-02 -8.425632864236831665e-02 4.903404042124748230e-02 -9.448871016502380371e-02 1.124547123908996582e-01 -1.665681004524230957e-01 -2.384854294359683990e-02 -9.929703921079635620e-02 1.459875982254743576e-02 -1.539734303951263428e-01 -2.861636877059936523e-02 -1.194107532501220703e-02 5.727906525135040283e-02 -2.894518524408340454e-02 -3.185021504759788513e-02 -1.117279604077339172e-01 -1.235103979706764221e-02 -9.460613131523132324e-02 5.824149027466773987e-02 -8.090585470199584961e-02 -2.020975388586521149e-02 -8.090803772211074829e-02 3.949510306119918823e-02 1.381205208599567413e-02 -8.724240213632583618e-02 -2.791540697216987610e-02 -1.232791319489479065e-02 -8.525685220956802368e-02 -8.346742391586303711e-02 -2.971410751342773438e-02 4.636580124497413635e-02 9.394663572311401367e-02 1.153960600495338440e-01 -2.671278454363346100e-02 6.890257447957992554e-02 -7.760468870401382446e-02 -1.286813616752624512e-01 -1.796680986881256104e-01 -5.611746013164520264e-02 4.770458210259675980e-03 -6.436801701784133911e-02 -9.467728435993194580e-02 8.437541872262954712e-02 -8.792112022638320923e-02 -2.760363183915615082e-02 -8.041211962699890137e-02 9.151525795459747314e-02 3.925140202045440674e-02 8.123913779854774475e-03 1.169561967253684998e-02 4.720522463321685791e-02 -4.656974598765373230e-02 -7.157391309738159180e-02 1.122772619128227234e-01 8.532679826021194458e-02 -1.018355712294578552e-01 -1.603259332478046417e-02 -6.983795762062072754e-02 1.260443357750773430e-03 1.874240189790725708e-01 7.483200728893280029e-02 6.680381018668413162e-03 -7.060871273279190063e-02 6.833690404891967773e-02 -1.141949743032455444e-02 5.286671593785285950e-02 -9.205644577741622925e-02 -5.597169697284698486e-02 1.175341084599494934e-01 -1.301959250122308731e-02 7.081393897533416748e-02 -1.870599575340747833e-03 4.230587929487228394e-02 4.909548908472061157e-02 -7.238557189702987671e-02 -7.939676195383071899e-02 3.881708160042762756e-02 -1.555850952863693237e-01 1.770486682653427124e-01 -6.176910549402236938e-02 1.948599703609943390e-02 1.355341449379920959e-02 -1.898422837257385254e-01 3.524725139141082764e-02 5.359002202749252319e-02 2.745841816067695618e-02 1.531391777098178864e-02 -8.640806376934051514e-02 -1.138887181878089905e-02 -3.014853224158287048e-03 2.730337344110012054e-02 8.052487857639789581e-03 -7.796712219715118408e-02 -7.876391708850860596e-02 -9.966919571161270142e-02 7.739561051130294800e-02 1.000912953168153763e-02 -3.619914501905441284e-02 -5.119182169437408447e-02 -3.368495032191276550e-02 5.175672844052314758e-02 2.291146479547023773e-02 9.333398938179016113e-02 5.412927642464637756e-02 -4.474497586488723755e-02 -1.002701297402381897e-01 -2.096806466579437256e-02 -6.596574932336807251e-02 -1.383770853281021118e-01 9.645861387252807617e-02 -4.679959639906883240e-02 9.139161556959152222e-02 1.545418519526720047e-02 -8.960449695587158203e-02 -5.751449242234230042e-02 -1.058098748326301575e-01 -1.817413419485092163e-02 2.477874048054218292e-02 8.114615455269813538e-03 -1.649782210588455200e-01 1.206536218523979187e-02 -1.593490503728389740e-02 2.574075944721698761e-02 -6.961961090564727783e-02 -2.093661725521087646e-01 -2.032646685838699341e-01 -2.456201463937759399e-01 1.636714935302734375e-01 1.734158955514431000e-03 1.660457104444503784e-01 2.119814790785312653e-02 -2.700005471706390381e-02 4.267631843686103821e-02 3.772817924618721008e-02 4.339341074228286743e-02 -5.552431941032409668e-02 1.821185797452926636e-01 -6.322226673364639282e-02 4.084755107760429382e-02 -8.222155272960662842e-02 1.441561877727508545e-01 1.146093755960464478e-01 -3.258657176047563553e-03 9.608887881040573120e-02 1.460785120725631714e-01 3.944196924567222595e-02 8.833420276641845703e-02 3.508890420198440552e-02 1.368529796600341797e-01 -9.593919664621353149e-02 -6.864616274833679199e-02 -9.685478173196315765e-03 1.152857299894094467e-02 -2.816994488239288330e-02 9.070218354463577271e-02 -3.986202180385589600e-03 -8.047604560852050781e-02 -7.719622924923896790e-03 7.408069819211959839e-02 -1.020854115486145020e-01 -6.609047204256057739e-02 5.880794953554868698e-03 -7.939661294221878052e-02 -1.760902442038059235e-02 -4.661833867430686951e-02 6.113077700138092041e-02 7.677119970321655273e-02 -1.562916040420532227e-01 -1.281705684959888458e-02 1.357334107160568237e-01 -1.023340225219726562e-01 -9.549319744110107422e-03 6.156345829367637634e-02 -6.138758361339569092e-02 1.973755285143852234e-02 -9.504842571914196014e-03 5.512389354407787323e-03 6.403487920761108398e-02 1.692641228437423706e-01 -1.446281820535659790e-01 2.491635642945766449e-02 -9.466037154197692871e-02 -2.636476233601570129e-02 2.981931343674659729e-02 1.101984903216362000e-01
5.154148116707801819e-02 -4.026967287063598633e-02 5.074117332696914673e-02 -2.464372850954532623e-02 8.995868847705423832e-04 -1.424527633935213089e-02 -4.925357922911643982e-02 9.064327180385589600e-02 -4.440317675471305847e-02 9.128491394221782684e-03 -4.462696239352226257e-02 -3.702905774116516113e-02 -2.359261550009250641e-02 -1.347709596157073975e-01 -1.097364574670791626e-01 3.806497156620025635e-02 -5.343184340745210648e-03 9.584073722362518311e-02 8.624150604009628296e-02 -2.339069917798042297e-02 4.692704230546951294e-02 4.825722426176071167e-02 -2.670927345752716064e-02 1.024714484810829163e-01 4.651815071702003479e-02 -1.905273832380771637e-02 -1.217766404151916504e-01 1.230495274066925049e-01 -1.065231021493673325e-02 5.252273380756378174e-02 1.471740752458572388e-01 -7.691519707441329956e-02 6.063561886548995972e-02 -7.128181308507919312e-02 2.581585347652435303e-01 -1.174769252538681030e-01 3.940216451883316040e-02 1.081723570823669434e-01 2.030817866325378418e-01 -1.733909733593463898e-02 -7.368921488523483276e-02 3.453675657510757446e-02 1.128248404711484909e-02 -4.557094350457191467e-02 8.839311450719833374e-02 -1.979014649987220764e-02 1.166132315993309021e-01 -7.152664661407470703e-02 4.506718367338180542e-02 -1.831302046775817871e-02 -9.070646762847900391e-02 -4.963168129324913025e-02 -5.409984663128852844e-02 -4.819349572062492371e-02 -4.440308734774589539e-02 2.451339513063430786e-01 7.359331101179122925e-02 -6.577099859714508057e-02 -1.264117956161499023e-01 -2.113392390310764313e-02 -6.877756118774414062e-02 -8.906211704015731812e-02 -8.291941136121749878e-02 6.679008901119232178e-02 -1.151563301682472229e-01 1.181971933692693710e-02 1.293199211359024048e-01 6.413271278142929077e-02 6.078146398067474365e-02 -1.084436848759651184e-02 8.107414841651916504e-02 3.658864274621009827e-02 -2.502820789813995361e-01 1.646773517131805420e-01 -1.079531013965606689e-02 -5.353329330682754517e-02 7.459542155265808105e-02 -3.556146845221519470e-02 -2.186468616127967834e-02 1.860466902144253254e-03 9.313549846410751343e-02 4.319956898689270020e-02 -8.782136440277099609e-02 7.638254016637802124e-02 -1.407273560762405396e-01 -5.283888056874275208e-02 9.690453112125396729e-02 7.952906936407089233e-02 -1.553630381822586060e-01 -1.385440230369567871e-01 -6.532689183950424194e-02 1.101403310894966125e-01 -6.100982427597045898e-02 1.022835150361061096e-01 -7.017043977975845337e-02 3.713935613632202148e-02 -9.308718889951705933e-02 -2.652284204959869385e-01 1.298295110464096069e-01 1.748025603592395782e-02 7.230600714683532715e-02 1.624692790210247040e-02 -1.029647365212440491e-01 1.123451441526412964e-01 -5.257388576865196228e-03 -1.527642309665679932e-01 -4.593337699770927429e-02 -9.227380901575088501e-02 5.822396278381347656e-02 -1.751607358455657959e-01 6.811099592596292496e-03 -3.423788025975227356e-02 2.419106604065746069e-04 7.894407212734222412e-02 -7.026743143796920776e-02 1.401698291301727295e-01 2.055068761110305786e-01 -9.112933278083801270e-02 -2.029662393033504486e-02 -1.010722890496253967e-01 9.011835604906082153e-02 -6.445066630840301514e-02 1.284117847681045532e-01 3.928585350513458252e-02 -7.287511974573135376e-02 1.066028848290443420e-01 1.711486279964447021e-01 -2.306181751191616058e-02 9.137371927499771118e-02 -2.741052396595478058e-02 1.018187180161476135e-01 1.052104979753494263e-01 1.528440117835998535e-01 1.875602640211582184e-02 3.319464251399040222e-02 4.137737676501274109e-02 1.080513931810855865e-02 3.043140843510627747e-02 -6.664483994245529175e-02 -1.421096324920654297e-01 -7.813313975930213928e-03 4.332160949707031250e-02 1.141568087041378021e-02 6.647332757711410522e-02 2.818485908210277557e-02 -1.108623743057250977e-01 3.606477379798889160e-02 5.035713780671358109e-03 -6.581456214189529419e-02 1.353560388088226318e-01 -1.352635025978088379e-01 4.716367460787296295e-03 -8.316669613122940063e-02 4.387942701578140259e-02 -5.533793941140174866e-02 2.545364759862422943e-02 -6.833036243915557861e-02 -1.413923799991607666e-01 8.359883911907672882e-03 1.757531762123107910e-01 5.744400247931480408e-02 7.927900552749633789e-02 -1.659027636051177979e-01 1.440011709928512573e-02 9.932572953402996063e-03 5.314177274703979492e-02 -1.308517903089523315e-01 -7.359518110752105713e-02 5.222901329398155212e-02 -9.300687233917415142e-04 -7.779656443744897842e-03 -9.462033212184906006e-02 -9.202902205288410187e-03 -3.134096786379814148e-02 5.801219120621681213e-02 -8.309154771268367767e-03 5.093716084957122803e-02 4.996808245778083801e-02 1.031476482748985291e-01 1.250975579023361206e-01 6.613261252641677856e-02 1.285635586827993393e-02 4.780168458819389343e-02 2.895803004503250122e-02 -2.458541654050350189e-02 1.380844507366418839e-02 -1.002999395132064819e-01 -7.849784195423126221e-02 -2.093413621187210083e-01 -1.021568384021520615e-02 -1.577749848365783691e-02 -2.190882861614227295e-01 3.584319353103637695e-02 4.233027249574661255e-02 1.670245081186294556e-01 -1.378313899040222168e-01 1.875326633453369141e-01 -1.754730753600597382e-02 2.523639239370822906e-02 4.537568241357803345e-02 1.348905861377716064e-01 8.454734086990356445e-02 1.046765893697738647e-01 3.674257919192314148e-02 -5.701103433966636658e-02 -2.128597348928451538e-01 6.083092838525772095e-02 -9.126750379800796509e-02 -5.915218219161033630e-02 -1.525598671287298203e-02 2.471842616796493530e-02 4.182896018028259277e-02 -2.751684747636318207e-02 -9.302780777215957642e-02 2.176940441131591797e-01 -6.777429580688476562e-02 -8.476299792528152466e-02 -1.033666655421257019e-01 -1.639955490827560425e-01 1.184408664703369141e-01 1.594386994838714600e-02 1.817754656076431274e-01 -8.150638081133365631e-03 6.573227792978286743e-02 1.207166239619255066e-01 1.531898509711027145e-03 -1.931182444095611572e-01 2.859774045646190643e-02 -2.539394609630107880e-02 1.183057799935340881e-01 1.403572559356689453e-01 1.369745433330535889e-01 1.324026379734277725e-02 3.480555862188339233e-02 4.230688884854316711e-02 1.236130576580762863e-02 1.489992737770080566e-01 -4.949121922254562378e-02 3.788283839821815491e-02 3.695804625749588013e-02 -3.926101699471473694e-02 6.662591546773910522e-02 -3.508048877120018005e-02 6.438551098108291626e-02 2.072121575474739075e-02 -2.920591272413730621e-02 -1.644649170339107513e-02 3.684384748339653015e-02 1.017720848321914673e-01 1.212813928723335266e-01 -7.407868746668100357e-03 -6.556615233421325684e-02 1.383435130119323730e-01 -1.447405666112899780e-02 3.175977244973182678e-02 7.126063108444213867e-02
6.202934309840202332e-02 -5.777321755886077881e-02 6.480863690376281738e-02 6.175475567579269409e-02 -2.131042815744876862e-02 8.093648403882980347e-02 3.939141333103179932e-02 -1.288202404975891113e-01 -8.447014540433883667e-02 7.158785592764616013e-03 -2.998917549848556519e-02 -4.777694866061210632e-02 1.044713482260704041e-01 -1.738789379596710205e-01 6.784164905548095703e-02 1.355644464492797852e-01 -2.486131526529788971e-02 -5.840008333325386047e-02 -1.388717442750930786e-01 -1.751516014337539673e-03 3.742968663573265076e-02 -4.845678806304931641e-02 8.814287930727005005e-02 -3.760792911052703857e-01 1.322802901268005371e-01 1.233185231685638428e-01 2.356508374214172363e-02 -1.322283297777175903e-01 1.517134606838226318e-01 1.025389134883880615e-02 4.331116378307342529e-02 -1.878220140933990479e-01 -1.074185818433761597e-01 9.954784810543060303e-02 -4.595390558242797852e-01 -9.223224222660064697e-02 -1.894683688879013062e-01 5.172727629542350769e-02 -3.653825446963310242e-02 2.208785526454448700e-02 -8.185275644063949585e-02 -1.489750891923904419e-01 -5.185405537486076355e-02 -9.216821193695068359e-02 -1.328694671392440796e-01 -1.130453944206237793e-01 3.728278353810310364e-02 5.141955986618995667e-02 2.211537444964051247e-03 -8.714918047189712524e-02 -4.749455451965332031e-01 -1.978931427001953125e-01 -1.026910915970802307e-01 4.996379837393760681e-02 2.233039140701293945e-01 -1.867016106843948364e-01 -2.265032976865768433e-01 -1.824285537004470825e-01 -1.993488892912864685e-02 -1.276859547942876816e-02 -6.209381297230720520e-02 -1.123243849724531174e-02 -8.362312614917755127e-02 1.053078323602676392e-01 9.271693974733352661e-02 4.210296552628278732e-03 -3.497132658958435059e-02 1.777533292770385742e-01 1.165714412927627563e-01 7.272461801767349243e-02 -1.236011162400245667e-01 1.188845466822385788e-02 8.900676667690277100e-02 -2.123757032677531242e-03 -9.827828407287597656e-02 1.146055059507489204e-03 9.123477339744567871e-02 -1.568631641566753387e-02 9.445155411958694458e-02 1.649870071560144424e-03 -2.332781255245208740e-01 -9.394371509552001953e-02 -1.345810145139694214e-01 -2.598952651023864746e-01 2.069141268730163574e-01 1.332772802561521530e-02 -2.208423614501953125e-01 -2.564922571182250977e-01 6.928142905235290527e-02 9.013342857360839844e-02 2.534300684928894043e-01 -2.074057608842849731e-01 -4.858907312154769897e-02 -7.322473824024200439e-02 -6.409518420696258545e-02 -2.018288373947143555e-01 -4.439991712570190430e-02 1.052766442298889160e-01 -8.670311421155929565e-02 1.621668785810470581e-01 1.412319839000701904e-01 -1.677937954664230347e-01 -3.396292403340339661e-02 -1.114554032683372498e-01 4.703051596879959106e-02 1.630618274211883545e-01 1.349518597126007080e-01 5.716565623879432678e-02 -2.479777932167053223e-01 9.128475934267044067e-02 -1.770020127296447754e-01 7.914572488516569138e-04 -7.404533773660659790e-02 8.669707179069519043e-02 -2.837532758712768555e-02 -2.989045083522796631e-01 -1.253304779529571533e-01 3.095329366624355316e-02 1.599252969026565552e-01 8.807561546564102173e-02 6.860975921154022217e-02 1.208497211337089539e-02 -2.386055737733840942e-01 -7.076009362936019897e-02 7.285767048597335815e-02 -2.976326830685138702e-02 -7.874327152967453003e-02 4.262085258960723877e-02 -1.440411526709794998e-02 4.655034840106964111e-02 2.837223187088966370e-02 7.194838672876358032e-02 -1.991556137800216675e-01 -1.987840980291366577e-01 5.791493877768516541e-02 -1.288852244615554810e-01 -1.452203560620546341e-02 -1.322565823793411255e-01 1.904074400663375854e-01 9.493137896060943604e-02 -2.506363205611705780e-02 -9.386556595563888550e-02 -1.067735031247138977e-01 -1.580735109746456146e-02 -1.015239804983139038e-01 1.918872743844985962e-01 -2.739822678267955780e-02 -7.691758126020431519e-02 1.615678369998931885e-01 -1.655882745981216431e-01 4.530958458781242371e-02 -2.749345824122428894e-02 7.057207077741622925e-02 -5.033709108829498291e-02 -1.134327352046966553e-01 3.377398103475570679e-02 -6.848927587270736694e-02 2.118431730195879936e-03 -1.084248870611190796e-01 -4.690017178654670715e-02 6.222903355956077576e-02 5.135700479149818420e-02 5.199684575200080872e-02 -1.286627203226089478e-01 5.470536276698112488e-02 -2.235383838415145874e-01 2.777955122292041779e-02 1.428238898515701294e-01 7.104820758104324341e-02 -2.213875800371170044e-01 1.025663465261459351e-01 9.286744892597198486e-02 -1.006651595234870911e-01 -1.375422230921685696e-03 -1.113783717155456543e-01 5.184819921851158142e-02 -2.287782579660415649e-01 -6.259332597255706787e-02 -2.934367395937442780e-03 -5.305903777480125427e-02 3.212108090519905090e-02 -4.352864623069763184e-02 1.596584916114807129e-01 2.355737239122390747e-02 2.837322838604450226e-02 3.993071243166923523e-02 -1.504007875919342041e-01 -1.307102143764495850e-01 -8.613137900829315186e-02 -1.439930796623229980e-01 -1.177214980125427246e-01 5.805515870451927185e-02 1.432138830423355103e-01 -9.047592431306838989e-02 -1.431939452886581421e-01 6.280653923749923706e-02 -2.572384476661682129e-01 -1.157089546322822571e-01 -1.038896888494491577e-01 1.226625442504882812e-01 -1.295484006404876709e-01 8.204988390207290649e-02 3.486865013837814331e-02 -2.259077504277229309e-02 1.694073900580406189e-02 3.800340369343757629e-02 2.175354026257991791e-02 1.967046223580837250e-02 8.761673420667648315e-02 1.114079579710960388e-01 -6.280289590358734131e-02 -4.591022804379463196e-02 3.975218534469604492e-02 2.747734487056732178e-01 -6.843522936105728149e-02 -3.732828423380851746e-02 2.547003142535686493e-02 7.573310285806655884e-02 -3.155187889933586121e-02 -2.381508052349090576e-02 -1.150395795702934265e-01 4.004979506134986877e-02 -9.064062684774398804e-02 -6.963616609573364258e-02 -1.044556573033332825e-01 1.055156588554382324e-01 -4.300297796726226807e-02 1.137432828545570374e-01 -2.957575023174285889e-02 9.765093214809894562e-03 -5.870042368769645691e-02 8.500813692808151245e-02 -4.757509753108024597e-02 -4.445987287908792496e-03 1.906186342239379883e-02 6.216483563184738159e-02 4.627373069524765015e-03 -4.716874659061431885e-02 -3.122498840093612671e-02 8.333491533994674683e-02 1.959223672747612000e-02 -1.234651505947113037e-01 -7.115526497364044189e-02 5.782284587621688843e-02 1.275672693736851215e-03 -1.242757774889469147e-02 1.367045938968658447e-01 -1.352700293064117432e-01 -8.535190671682357788e-02 -1.365918219089508057e-01 1.283182017505168915e-02 9.235263615846633911e-02 -1.273278892040252686e-01 -1.418035626411437988e-01 9.901173412799835205e-02 -6.799962371587753296e-02
-3.197176754474639893e-02 4.878667742013931274e-02 -4.547479376196861267e-02 2.611924707889556885e-02 7.164883613586425781e-02 1.503075212240219116e-01 -1.390402205288410187e-02 4.522152245044708252e-03 3.675400279462337494e-03 4.370362684130668640e-02 1.383038014173507690e-01 1.152083501219749451e-01 -6.653229147195816040e-02 2.015389204025268555e-01 6.686851382255554199e-02 -1.123843714594841003e-01 -2.419240027666091919e-02 7.620668411254882812e-02 2.375558018684387207e-02 9.878233075141906738e-02 7.830881327390670776e-02 2.081276625394821167e-01 -2.866702899336814880e-02 -1.099174022674560547e-01 3.170447796583175659e-02 -7.220157235860824585e-02 7.944728434085845947e-02 -1.438796669244766235e-01 -5.664555355906486511e-02 6.226924806833267212e-02 -3.482470661401748657e-02 8.793175220489501953e-03 -3.581510856747627258e-02 -1.337917000055313110e-01 1.008465886116027832e-01 2.770469756796956062e-03 3.610816597938537598e-02 1.937356144189834595e-01 4.248096048831939697e-02 8.682930469512939453e-02 3.840884566307067871e-02 -8.064012974500656128e-02 -1.077783703804016113e-01 -1.240471936762332916e-02 9.562497586011886597e-02 -7.787018269300460815e-02 -1.047164797782897949e-01 -5.415392667055130005e-02 -1.182622183114290237e-02 4.584640637040138245e-02 -9.827475994825363159e-02 4.857924208045005798e-02 3.623993694782257080e-02 1.300152838230133057e-01 1.517331749200820923e-01 -5.457528308033943176e-02 1.233836039900779724e-01 -6.331390887498855591e-02 -6.822514533996582031e-02 1.014073267579078674e-01 -9.208200126886367798e-02 -9.372073411941528320e-02 6.890737265348434448e-02 -3.485929220914840698e-02 1.213490515947341919e-01 1.039787009358406067e-01 1.364872455596923828e-01 5.306583829224109650e-03 -9.393181651830673218e-03 -1.013101562857627869e-01 -7.877218723297119141e-02 9.471062570810317993e-02 1.393023282289505005e-01 4.328074678778648376e-02 2.155085057020187378e-01 2.707899920642375946e-02 -2.421240694820880890e-02 4.869590327143669128e-02 -1.153782475739717484e-02 7.041615992784500122e-02 1.824458092451095581e-01 1.532837897539138794e-01 1.423809677362442017e-01 5.535979568958282471e-02 -8.575636893510818481e-02 7.807762920856475830e-02 -6.092053279280662537e-02 -4.185003042221069336e-02 6.977900117635726929e-02 3.074741549789905548e-02 -7.268856465816497803e-02 -3.865986689925193787e-02 1.558071468025445938e-02 6.708205491304397583e-02 -6.009177491068840027e-02 1.404953896999359131e-01 1.376974396407604218e-02 4.372317343950271606e-02 1.959573775529861450e-01 -3.215422853827476501e-02 1.095147430896759033e-01 1.933453418314456940e-02 -5.910642072558403015e-02 9.409664571285247803e-02 1.375759094953536987e-01 -1.634556502103805542e-01 4.016475379467010498e-02 -5.583650991320610046e-02 -5.217906087636947632e-03 8.188897371292114258e-02 1.515479236841201782e-01 1.639610715210437775e-02 1.541601773351430893e-02 -1.234355047345161438e-01 -8.993887901306152344e-02 4.385765641927719116e-02 -4.446465522050857544e-02 -1.091924384236335754e-01 1.193155422806739807e-01 -9.941979497671127319e-02 1.261628121137619019e-01 -3.785433992743492126e-02 1.757180541753768921e-01 -9.476421028375625610e-02 -6.265698373317718506e-02 1.247281208634376526e-01 -9.402599930763244629e-02 -9.519959986209869385e-02 -3.780193999409675598e-02 -6.930535286664962769e-02 -3.842610865831375122e-02 -2.182249911129474640e-02 -2.033712342381477356e-02 -1.110812351107597351e-01 -1.151625812053680420e-01 -6.703149527311325073e-03 7.488775998353958130e-02 1.066376715898513794e-01 5.584900826215744019e-02 2.122730761766433716e-02 9.756769239902496338e-02 1.306761652231216431e-01 -1.014914270490407944e-02 8.999957144260406494e-02 6.575025618076324463e-02 -3.563464432954788208e-02 1.589503288269042969e-01 -2.273354977369308472e-01 -5.119379609823226929e-02 -5.438762530684471130e-02 -1.498936563730239868e-01 -8.133971691131591797e-02 -5.728973075747489929e-02 1.182699128985404968e-01 -2.745258994400501251e-02 -2.389775216579437256e-02 -1.330641210079193115e-01 -5.894655734300613403e-02 2.920958027243614197e-02 -6.611668318510055542e-02 8.363824337720870972e-02 1.467997860163450241e-02 9.287704527378082275e-02 8.397830277681350708e-02 1.126981452107429504e-01 1.048524305224418640e-01 -2.383834868669509888e-02 -3.527220338582992554e-02 -1.266041845083236694e-01 1.382487360388040543e-02 1.929357647895812988e-02 -1.367354486137628555e-02 -2.473035641014575958e-02 -1.087597608566284180e-01 -6.577047705650329590e-02 1.503196656703948975e-01 -2.365914173424243927e-02 7.010579854249954224e-02 9.878528304398059845e-03 1.020789891481399536e-01 1.377694774419069290e-02 -5.486300960183143616e-02 -6.124687194824218750e-02 -6.250214576721191406e-02 6.397027987986803055e-03 1.070598885416984558e-01 -7.330852746963500977e-02 2.364284545183181763e-01 -4.058875888586044312e-02 -6.538831442594528198e-02 4.972963780164718628e-02 1.322816964238882065e-02 -1.951074600219726562e-02 1.588044166564941406e-01 -1.179929939098656178e-03 -1.682118140161037445e-02 1.935103982686996460e-01 -4.636298492550849915e-02 -8.228889852762222290e-02 -2.338511496782302856e-02 -1.901319026947021484e-01 -1.302655693143606186e-02 -5.872069671750068665e-02 -3.274352848529815674e-02 -5.978102236986160278e-02 2.139464393258094788e-02 7.870564609766006470e-02 -9.047950059175491333e-02 1.121858507394790649e-01 5.385233461856842041e-02 1.895984113216400146e-01 1.532333437353372574e-02 -1.778201572597026825e-02 2.407640963792800903e-02 1.584822684526443481e-01 -3.936707507818937302e-03 -4.797748290002346039e-03 1.567265205085277557e-02 -1.248666942119598389e-01 1.632786095142364502e-01 -8.494776487350463867e-02 3.610236570239067078e-02 -1.128305774182081223e-02 -9.632181376218795776e-03 2.489937469363212585e-02 4.519306495785713196e-02 1.219643354415893555e-01 1.209935396909713745e-01 9.570156782865524292e-02 3.414946049451828003e-02 5.392794683575630188e-02 -3.866018354892730713e-02 -4.046773537993431091e-02 3.140795975923538208e-02 1.831693947315216064e-02 1.121315732598304749e-01 -1.997093297541141510e-02 8.560549467802047729e-02 4.460537433624267578e-02 -5.976864323019981384e-02 9.925619512796401978e-02 3.169512376189231873e-02 -1.225788444280624390e-01 -1.083170846104621887e-01 -3.351612016558647156e-02 1.035457700490951538e-01 -7.096218876540660858e-03 1.666559725999832153e-01 -8.532003313302993774e-02 -9.965403378009796143e-02 -7.157620787620544434e-02 1.849364787340164185e-01 9.350392222404479980e-02 4.499794170260429382e-02 1.295132040977478027e-01 -6.613478809595108032e-02
-1.001092344522476196e-01 5.805911123752593994e-02 -3.445005789399147034e-02 -3.557704016566276550e-02 -4.733111336827278137e-02 1.046720147132873535e-01 -7.857700437307357788e-02 1.411289274692535400e-01 -4.951352253556251526e-03 -1.036952212452888489e-01 1.004559323191642761e-01 1.107450425624847412e-01 6.674482021480798721e-03 -1.395604163408279419e-01 9.217907208949327469e-04 -5.953773856163024902e-02 -9.312943369150161743e-02 3.321097046136856079e-02 -4.478614032268524170e-02 2.088454924523830414e-02 -1.135807763785123825e-02 7.788131386041641235e-02 1.909348517656326294e-01 1.314472854137420654e-01 1.785685718059539795e-01 7.753113750368356705e-03 -3.029369749128818512e-02 -6.995894014835357666e-02 -1.580197550356388092e-02 -4.775932058691978455e-02 -6.033100187778472900e-02 7.486557215452194214e-02 3.832146152853965759e-02 -3.177705034613609314e-02 -1.729367114603519440e-02 1.738653928041458130e-01 -3.367746481671929359e-03 3.001125156879425049e-02 1.326538473367691040e-01 1.578517705202102661e-01 9.692862629890441895e-02 3.263660520315170288e-02 -6.357733905315399170e-02 5.219775438308715820e-02 5.770515277981758118e-02 2.544597163796424866e-02 -4.644851759076118469e-02 9.016412496566772461e-02 -1.794553846120834351e-01 7.453133910894393921e-02 2.027668505907058716e-01 1.602542251348495483e-01 1.069501265883445740e-01 -3.686155378818511963e-02 2.063765004277229309e-02 -2.422182448208332062e-02 -1.537137031555175781e-01 1.721657216548919678e-01 -1.653354428708553314e-02 7.597694545984268188e-02 1.790314912796020508e-01 5.855090916156768799e-02 1.296199411153793335e-01 -5.341096594929695129e-02 3.632168844342231750e-02 6.589309312403202057e-03 1.393147557973861694e-01 -9.087477624416351318e-02 -2.015703767538070679e-01 -4.203153401613235474e-02 5.951189249753952026e-02 3.238083422183990479e-02 7.408489286899566650e-02 -4.559071362018585205e-02 6.445005536079406738e-02 -1.157843023538589478e-01 5.391259118914604187e-02 -1.539202057756483555e-03 1.715003997087478638e-01 -8.967224508523941040e-02 9.368673712015151978e-02 9.010286629199981689e-02 -1.170243173837661743e-01 -4.182720929384231567e-02 -1.715431362390518188e-01 4.833457246422767639e-02 -3.089942596852779388e-02 -5.019829049706459045e-02 8.380890823900699615e-03 8.156497776508331299e-02 -1.222035363316535950e-01 6.763152778148651123e-02 -3.854328393936157227e-02 5.862067267298698425e-02 1.220148056745529175e-01 -1.493482887744903564e-01 -2.183282934129238129e-02 1.198100820183753967e-01 1.452895998954772949e-01 6.810909509658813477e-02 -1.480093505233526230e-02 1.461781747639179230e-02 -8.600730448961257935e-02 3.205255791544914246e-02 -1.464496745029464364e-04 -6.917257606983184814e-02 1.244756206870079041e-01 5.869316682219505310e-02 -5.296082049608230591e-02 -6.751690804958343506e-02 6.874089688062667847e-02 9.482330828905105591e-02 6.263893097639083862e-03 -8.868571370840072632e-02 -9.402754157781600952e-02 -8.044968545436859131e-02 -4.496116936206817627e-02 -1.650716811418533325e-01 7.865508645772933960e-02 7.016522437334060669e-02 -1.182035729289054871e-02 -1.964196562767028809e-02 6.049401313066482544e-02 -3.583002462983131409e-02 4.877696931362152100e-02 3.072386234998703003e-02 1.557550020515918732e-02 1.099349372088909149e-02 3.127111867070198059e-02 -4.710668325424194336e-02 -4.820482805371284485e-02 2.400610223412513733e-02 3.879794850945472717e-02 5.848811566829681396e-02 -1.045029014348983765e-01 -9.377792477607727051e-02 -1.664953492581844330e-02 -1.099888160824775696e-01 -3.315167874097824097e-02 2.475422807037830353e-02 4.087206441909074783e-03 -7.081923633813858032e-02 -4.965171217918395996e-02 5.380876827985048294e-03 4.106855764985084534e-02 -2.759295515716075897e-02 6.326264888048171997e-02 1.139780580997467041e-01 1.327798143029212952e-02 -5.386505648493766785e-02 -4.948710557073354721e-03 6.043879687786102295e-02 -8.635400235652923584e-02 8.168706297874450684e-02 -4.414974711835384369e-03 -2.028450965881347656e-01 1.754564493894577026e-01 3.016833215951919556e-02 -2.223832905292510986e-02 -6.223362311720848083e-02 5.038795247673988342e-02 2.114721573889255524e-02 1.632867902517318726e-01 -1.927909790538251400e-03 1.343830209225416183e-02 1.640528738498687744e-01 -1.757815480232238770e-01 1.729459464550018311e-01 3.205816447734832764e-02 1.552205998450517654e-02 3.441261500120162964e-02 -1.139967292547225952e-01 4.366185516119003296e-02 -3.967409580945968628e-02 6.653558462858200073e-02 5.057494714856147766e-02 -6.786116212606430054e-02 7.214072626084089279e-03 -8.178035914897918701e-02 -1.021638810634613037e-01 3.093159496784210205e-01 6.720946729183197021e-02 -5.794932320713996887e-02 5.160538107156753540e-02 -9.441987425088882446e-02 -1.398398429155349731e-01 -1.906533911824226379e-02 -7.987443357706069946e-02 3.838345780968666077e-02 -1.081447489559650421e-02 -2.875941805541515350e-02 -7.085149735212326050e-02 7.802575826644897461e-02 -6.435912102460861206e-02 1.079570874571800232e-01 6.200271099805831909e-02 1.743222326040267944e-01 -2.735908329486846924e-02 6.988325715065002441e-02 -1.216765865683555603e-01 4.103482514619827271e-02 6.077644601464271545e-02 -1.597737520933151245e-01 2.222090028226375580e-02 -8.685038425028324127e-03 9.477059543132781982e-02 -9.044944494962692261e-02 1.138693690299987793e-01 1.828471664339303970e-03 5.680997297167778015e-02 1.901290193200111389e-02 -1.279324144124984741e-01 -7.278218120336532593e-02 3.734550625085830688e-02 -4.421682283282279968e-02 -2.529762499034404755e-02 -1.914586499333381653e-02 -1.307533979415893555e-01 1.151438057422637939e-02 1.314979325979948044e-02 4.839804023504257202e-03 -2.563723362982273102e-02 -5.647294968366622925e-02 -4.026637226343154907e-02 -1.616039276123046875e-01 -1.469401866197586060e-01 -3.691616654396057129e-02 1.466371268033981323e-01 1.171569675207138062e-01 1.791130602359771729e-01 1.164248436689376831e-01 -1.282970905303955078e-01 -4.522500559687614441e-02 7.359152287244796753e-02 -3.999918699264526367e-02 1.794672571122646332e-02 -6.330002099275588989e-02 1.154614686965942383e-01 6.627488136291503906e-02 2.466208999976515770e-03 -1.032700613141059875e-01 -6.307973712682723999e-02 -8.077725768089294434e-02 -1.897487938404083252e-01 8.708196133375167847e-02 -2.666231803596019745e-02 -9.809984266757965088e-02 -1.251611113548278809e-02 9.573471546173095703e-02 -4.921810328960418701e-02 5.482376739382743835e-02 -1.474744081497192383e-01 1.891809515655040741e-02 2.660402655601501465e-02 -7.198915630578994751e-02 5.421600863337516785e-02
-1.024381592869758606e-01 7.695074379444122314e-02 -4.536191001534461975e-02 4.425914213061332703e-02 7.408112287521362305e-02 1.546617150306701660e-01 -5.146232992410659790e-02 8.452130109071731567e-02 1.599821597337722778e-01 -8.409244567155838013e-02 5.162033252418041229e-03 6.137904152274131775e-02 -2.296741753816604614e-01 -5.793729051947593689e-02 -2.139627700671553612e-03 1.713236719369888306e-01 6.733683496713638306e-02 -1.579061001539230347e-01 1.432574540376663208e-01 -3.520128130912780762e-02 -1.291858851909637451e-01 -2.046044543385505676e-02 -4.862182587385177612e-02 8.343310654163360596e-02 -4.467736557126045227e-02 -9.254900366067886353e-02 4.545203875750303268e-03 6.501100957393646240e-02 1.098430901765823364e-02 -4.260317608714103699e-02 -6.405007839202880859e-02 9.584730118513107300e-02 2.845538221299648285e-02 -1.027630455791950226e-02 3.445973619818687439e-02 -1.297886669635772705e-02 7.599117606878280640e-02 -2.542490884661674500e-02 5.654029175639152527e-02 1.204021573066711426e-01 8.682820945978164673e-02 3.148876130580902100e-02 1.106661930680274963e-01 5.371972918510437012e-02 4.991529136896133423e-02 1.530846506357192993e-01 -1.957801729440689087e-01 3.207314014434814453e-02 -9.148710966110229492e-02 1.486043781042098999e-01 2.136141061782836914e-01 7.982980459928512573e-02 -1.472726371139287949e-02 -3.907919861376285553e-03 -1.028241217136383057e-01 -1.517373174428939819e-01 3.664192184805870056e-02 -2.373021468520164490e-02 2.826939709484577179e-02 1.423388440161943436e-02 4.354588314890861511e-02 -1.743996888399124146e-01 -3.353149071335792542e-02 -5.316455662250518799e-02 9.938486665487289429e-02 -2.378922700881958008e-02 -1.602186635136604309e-02 -3.640061011537909508e-03 7.932121306657791138e-02 7.467641681432723999e-02 8.998125791549682617e-02 -1.923806406557559967e-02 4.489373788237571716e-02 -1.662493348121643066e-01 -8.704002015292644501e-03 1.579052507877349854e-01 -9.153239428997039795e-02 8.001159876585006714e-03 1.498687118291854858e-01 -2.075801230967044830e-02 3.227821737527847290e-02 5.892331711947917938e-03 1.031363569200038910e-02 -1.440633647143840790e-02 -2.515996396541595459e-01 1.185977682471275330e-01 5.514290183782577515e-02 -6.547513604164123535e-02 9.205128997564315796e-02 2.808538079261779785e-02 7.863704860210418701e-02 -8.178462833166122437e-02 -5.833339691162109375e-02 -1.548049598932266235e-01 1.455088239163160324e-02 5.643283575773239136e-02 -4.051780700683593750e-02 3.981889039278030396e-02 -1.417967379093170166e-01 -1.660255156457424164e-02 -9.308072924613952637e-02 5.132447555661201477e-02 -7.691910117864608765e-02 7.183261215686798096e-02 1.355962604284286499e-01 1.187374815344810486e-01 1.434091031551361084e-01 3.893361240625381470e-02 -3.690060600638389587e-02 1.585522294044494629e-01 1.538305431604385376e-01 5.589901283383369446e-02 7.911260426044464111e-02 -1.012056171894073486e-01 -3.608703240752220154e-02 -2.824239432811737061e-01 6.602425873279571533e-02 -6.282417476177215576e-02 -4.698267206549644470e-03 -3.112496249377727509e-02 4.719732329249382019e-02 6.586397439241409302e-02 -4.313990846276283264e-02 6.927844136953353882e-02 -4.990155994892120361e-02 -6.552992016077041626e-02 -1.878186129033565521e-03 3.782082349061965942e-02 -3.192989528179168701e-02 1.558445841073989868e-01 3.290395066142082214e-02 4.204327613115310669e-02 9.376986883580684662e-03 -6.880417466163635254e-02 -1.521307416260242462e-02 1.127263531088829041e-02 5.140936747193336487e-02 5.657668784260749817e-02 -1.161615923047065735e-02 -8.124577812850475311e-03 1.641961932182312012e-02 -6.161129847168922424e-02 -5.206657573580741882e-02 5.730031058192253113e-02 7.653678953647613525e-02 -1.558852344751358032e-01 -1.215302757918834686e-02 7.754816208034753799e-03 -1.354212034493684769e-02 -3.249201923608779907e-02 1.119342911988496780e-02 1.878551207482814789e-02 2.252912335097789764e-02 7.447070628404617310e-02 -1.689716614782810211e-02 -9.170053899288177490e-02 2.317360043525695801e-02 8.167079091072082520e-02 3.319364041090011597e-02 8.050141483545303345e-02 -2.893569320440292358e-02 -2.857907414436340332e-01 -4.604834690690040588e-02 -3.246955201029777527e-02 -1.794206723570823669e-02 1.408500671386718750e-01 -1.276835799217224121e-01 3.800162812694907188e-03 4.438695032149553299e-03 1.413349062204360962e-01 -2.420909851789474487e-01 1.660302579402923584e-01 5.613494664430618286e-02 -6.987560540437698364e-02 -1.232612431049346924e-01 -7.864045351743698120e-02 4.039439931511878967e-02 -6.596706062555313110e-02 1.257647424936294556e-01 -3.451264277100563049e-02 5.170284584164619446e-02 -5.022089928388595581e-03 5.696278065443038940e-02 -9.010154753923416138e-02 3.750461339950561523e-02 -3.364302590489387512e-02 -3.038679808378219604e-02 -2.499605156481266022e-02 1.865984350442886353e-01 -2.447058819234371185e-02 -1.701783156022429466e-03 8.057010173797607422e-02 1.893252320587635040e-02 2.256512455642223358e-02 -6.080420315265655518e-02 6.010362133383750916e-02 1.753727048635482788e-01 -1.485432386398315430e-01 5.515613034367561340e-02 -8.193884044885635376e-02 -9.053119271993637085e-02 3.388190269470214844e-02 1.322474051266908646e-02 -2.319497615098953247e-02 3.996518626809120178e-02 -2.584112063050270081e-02 9.359133243560791016e-02 -9.367234073579311371e-03 -1.414837539196014404e-01 1.133703738451004028e-01 -8.974182605743408203e-02 -5.369795486330986023e-02 -6.599418073892593384e-02 1.828357204794883728e-02 4.211864992976188660e-02 8.239123038947582245e-03 4.161272570490837097e-02 -4.005898535251617432e-02 -2.039345800876617432e-01 -3.051579929888248444e-02 1.079559605568647385e-02 1.046189889311790466e-01 -1.217930912971496582e-01 -3.759024664759635925e-02 1.806751452386379242e-02 1.119775231927633286e-02 7.912801951169967651e-02 -5.845203250646591187e-02 1.759500801563262939e-01 -4.813618957996368408e-02 1.234004274010658264e-01 1.785927563905715942e-01 1.363253891468048096e-01 -8.327478170394897461e-02 -1.046429798007011414e-01 5.979475006461143494e-02 -6.668947637081146240e-02 9.692262113094329834e-02 6.672900915145874023e-02 -4.454406443983316422e-03 3.383390232920646667e-02 -1.815057694911956787e-01 3.554816544055938721e-02 -2.819136716425418854e-02 3.494683280587196350e-02 -2.942615747451782227e-02 -2.076903581619262695e-01 2.448367699980735779e-02 -3.100379705429077148e-01 -3.913920372724533081e-02 1.018155813217163086e-01 -3.950115293264389038e-03 -3.170106187462806702e-02 2.016365081071853638e-01 -5.772863328456878662e-02 1.640859246253967285e-01
1.343709602952003479e-02 1.622825860977172852e-01 1.292007323354482651e-02 3.373062610626220703e-02 -4.193291068077087402e-02 1.571327298879623413e-01 3.650410100817680359e-02 -3.314590081572532654e-02 -2.665973640978336334e-02 -8.536125719547271729e-02 1.362271755933761597e-01 6.009363010525703430e-02 -3.452726174145936966e-03 -2.218296006321907043e-02 -8.331023855134844780e-04 2.229199931025505066e-02 1.015461832284927368e-01 -1.731646060943603516e-02 1.023860741406679153e-02 -6.653544306755065918e-02 -4.166165739297866821e-02 1.567580103874206543e-01 2.131529524922370911e-02 -1.649935990571975708e-01 8.979208767414093018e-02 8.008752763271331787e-02 9.274372458457946777e-02 -5.499124526977539062e-02 -1.045073047280311584e-01 -1.066359784454107285e-02 -1.993388831615447998e-01 -9.146989881992340088e-02 1.182980835437774658e-01 9.551897644996643066e-02 -7.959976047277450562e-02 -5.790051445364952087e-02 -1.854191422462463379e-01 1.976651372388005257e-03 -1.095816679298877716e-02 -1.218668743968009949e-02 9.304865449666976929e-02 1.496156957000494003e-02 -2.078774124383926392e-01 -7.843618094921112061e-02 -4.733607918024063110e-02 -6.434376537799835205e-02 5.214363709092140198e-02 7.576186209917068481e-02 -2.769861894194036722e-04 -2.034597657620906830e-02 -1.797396540641784668e-01 -1.673292517662048340e-01 -2.193390391767024994e-02 -2.868429291993379593e-03 7.093340158462524414e-02 1.205761078745126724e-02 -9.723839163780212402e-02 -1.772188693284988403e-01 -1.131556481122970581e-01 4.119056463241577148e-02 1.309288144111633301e-01 -2.309709489345550537e-01 -5.063188448548316956e-02 1.055729575455188751e-02 -9.519523382186889648e-02 -1.616219803690910339e-02 1.299197506159543991e-02 -1.095321178436279297e-01 -6.163208931684494019e-02 2.641485817730426788e-02 -5.382809415459632874e-02 1.447462290525436401e-01 8.382306247949600220e-02 -3.901530802249908447e-02 -8.701303973793983459e-03 1.711212098598480225e-01 2.366062812507152557e-02 -2.990059740841388702e-02 1.588864773511886597e-01 1.996192187070846558e-01 -1.633400321006774902e-01 2.751015312969684601e-02 -1.240364313125610352e-01 -4.339306429028511047e-02 -9.518697857856750488e-03 6.258519738912582397e-02 -7.316883653402328491e-03 -5.172227695584297180e-02 1.712111979722976685e-01 -1.210808083415031433e-01 6.523897498846054077e-02 -1.248458251357078552e-01 -4.304929450154304504e-02 -1.134916208684444427e-02 4.494770243763923645e-02 -1.435940265655517578e-01 7.215090095996856689e-02 6.606065481901168823e-02 -2.762548392638564110e-03 1.139693800359964371e-02 -1.199752911925315857e-01 5.958203598856925964e-02 -3.695108741521835327e-02 8.038334548473358154e-02 1.387869268655776978e-01 -2.437355183064937592e-02 -9.537067264318466187e-02 1.008099764585494995e-01 5.891319364309310913e-02 1.898163110017776489e-01 -2.987709082663059235e-02 -1.059134397655725479e-02 1.230157241225242615e-01 -5.579615384340286255e-02 -1.197002232074737549e-01 -2.142808437347412109e-01 -7.722374051809310913e-02 -5.141137540340423584e-02 8.695211261510848999e-02 1.103663519024848938e-01 -4.060289356857538223e-03 6.667263805866241455e-02 -1.248739808797836304e-01 1.307779848575592041e-01 -6.681348383426666260e-02 -7.940404117107391357e-02 -1.275881975889205933e-01 1.169928833842277527e-01 -6.652853637933731079e-02 -2.562674134969711304e-02 2.207717671990394592e-02 -7.176534086465835571e-02 1.515483707189559937e-01 -1.503307372331619263e-01 -8.789173513650894165e-02 -4.032494872808456421e-02 1.036903262138366699e-02 -4.350788891315460205e-02 -4.898749291896820068e-02 7.014276832342147827e-02 3.272357210516929626e-02 1.141598969697952271e-01 1.148624122142791748e-01 8.501700311899185181e-02 4.994328692555427551e-02 6.528396904468536377e-02 1.255393028259277344e-01 -8.413368836045265198e-03 -8.231463143602013588e-04 5.831929296255111694e-02 2.247903682291507721e-02 -2.120132744312286377e-02 -9.859574586153030396e-02 3.618283197283744812e-02 -2.517793513834476471e-02 -1.256374269723892212e-01 1.170875728130340576e-01 1.291957497596740723e-01 -4.091380536556243896e-02 8.309592492878437042e-03 8.663406595587730408e-03 1.708370447158813477e-02 3.733231499791145325e-02 -6.973712891340255737e-02 5.536211654543876648e-02 -1.164398738183081150e-03 -8.675957471132278442e-02 7.720566540956497192e-02 -2.034074254333972931e-02 -1.324557960033416748e-01 -5.348189175128936768e-02 2.192575931549072266e-01 -1.121703386306762695e-01 -1.504594646394252777e-02 -1.009859368205070496e-01 3.277656808495521545e-02 1.026384830474853516e-01 -6.627965718507766724e-02 -6.424114108085632324e-02 -3.555542603135108948e-02 -9.230192750692367554e-03 -1.078518405556678772e-01 -1.851837337017059326e-01 8.005633950233459473e-02 -3.392381221055984497e-02 9.941539168357849121e-02 1.511558443307876587e-01 8.750237524509429932e-02 1.953181438148021698e-02 7.344029145315289497e-04 -1.303999125957489014e-01 -1.718236953020095825e-01 -2.617693133652210236e-02 -7.170770317316055298e-02 6.171323359012603760e-02 -9.341252595186233521e-02 -1.000655367970466614e-01 -2.432143837213516235e-01 4.896803572773933411e-02 -2.773420885205268860e-02 -3.016425855457782745e-02 1.304113864898681641e-01 -5.174347758293151855e-02 1.069944053888320923e-01 4.886486381292343140e-02 8.211708813905715942e-02 4.652427136898040771e-02 -4.432325810194015503e-02 4.622576385736465454e-02 1.126777231693267822e-01 -7.395707815885543823e-02 -1.004851907491683960e-01 7.137238979339599609e-02 6.913696229457855225e-02 -1.152209863066673279e-01 -9.213113225996494293e-03 1.075261011719703674e-01 1.702331751585006714e-01 2.612968385219573975e-01 4.608748853206634521e-02 -1.367410272359848022e-01 -5.235168710350990295e-02 -3.375601395964622498e-02 -4.213520139455795288e-02 -1.017694268375635147e-02 -1.031370251439511776e-03 1.352984756231307983e-01 -5.710504949092864990e-02 9.976351261138916016e-02 1.636673510074615479e-01 -1.345650479197502136e-02 -1.065565124154090881e-01 3.567056264728307724e-03 -7.439713180065155029e-02 -1.757450960576534271e-02 -2.793331816792488098e-02 -5.113873630762100220e-02 -1.963436901569366455e-01 1.870007440447807312e-02 1.404120177030563354e-01 -5.095958244055509567e-03 -1.170262694358825684e-01 2.230021404102444649e-03 1.826331466436386108e-01 -1.815802045166492462e-02 -5.357815697789192200e-02 -8.186483383178710938e-02 -1.008330807089805603e-01 -1.988440603017807007e-01 6.578781455755233765e-02 -1.379191130399703979e-01 1.707802712917327881e-01 -2.943450212478637695e-02 8.440909907221794128e-03 4.948686435818672180e-02 1.189892962574958801e-01
-1.049593985080718994e-01 -3.485132381319999695e-02 4.425062984228134155e-02 -1.225280165672302246e-01 9.586732834577560425e-03 1.251698192209005356e-02 -3.976791724562644958e-02 -8.525536395609378815e-03 -7.713347673416137695e-02 -3.160591050982475281e-02 1.007003486156463623e-01 -1.863120198249816895e-01 -1.885551512241363525e-01 7.579724490642547607e-02 1.723628044128417969e-01 6.443525850772857666e-02 -7.834865897893905640e-02 -1.313807517290115356e-01 -6.908673048019409180e-02 -1.249193027615547180e-01 4.788947850465774536e-02 1.172750964760780334e-01 -9.574318304657936096e-03 7.563401013612747192e-02 2.002159133553504944e-02 1.904850751161575317e-01 7.666757702827453613e-02 -1.199226244352757931e-03 -5.168941989541053772e-02 -1.126973405480384827e-01 -1.400255858898162842e-01 -1.488872915506362915e-01 5.591033399105072021e-02 3.782941773533821106e-02 6.457678973674774170e-02 2.571598440408706665e-02 -1.649800688028335571e-03 -3.555100411176681519e-02 -7.804170995950698853e-02 1.324086338281631470e-01 3.806426189839839935e-03 8.581329882144927979e-02 1.416527777910232544e-01 -1.765924878418445587e-02 -9.461087174713611603e-03 -5.004068464040756226e-02 1.201706589199602604e-03 3.600503504276275635e-02 1.505417376756668091e-01 -1.977131934836506844e-03 -2.094881795346736908e-02 -3.322584927082061768e-02 9.371449798345565796e-02 3.559453412890434265e-02 -5.499922484159469604e-02 -7.782099395990371704e-02 -6.028177961707115173e-02 -3.215798735618591309e-02 3.289999207481741905e-03 1.433646827936172485e-01 3.546985611319541931e-02 -2.438385225832462311e-02 -1.089369878172874451e-01 -3.632665798068046570e-02 5.506147071719169617e-02 6.446265429258346558e-02 1.110869348049163818e-01 -5.698295310139656067e-02 -1.180839687585830688e-01 1.121440008282661438e-01 -1.544631570577621460e-01 8.622994273900985718e-02 1.316238893195986748e-03 4.509263858199119568e-02 9.138143807649612427e-02 9.688977152109146118e-02 1.739774830639362335e-02 3.432643041014671326e-02 5.085417069494724274e-03 2.361890971660614014e-01 8.501260727643966675e-02 -1.326860636472702026e-01 1.274011936038732529e-02 -7.405026257038116455e-02 -3.874021023511886597e-02 -7.273899763822555542e-02 -9.720008820295333862e-02 -3.449028730392456055e-02 -3.820697218179702759e-02 1.397412121295928955e-01 8.267278224229812622e-02 -1.365263164043426514e-01 -5.865805223584175110e-02 9.610074758529663086e-02 -1.595908850431442261e-01 -7.459844648838043213e-02 3.795803338289260864e-02 1.301525235176086426e-01 9.880854189395904541e-02 7.336850464344024658e-02 1.233261302113533020e-01 1.390793472528457642e-01 4.987736791372299194e-02 6.343435961753129959e-03 -6.311200559139251709e-02 -4.387037083506584167e-02 3.069222904741764069e-02 8.345128968358039856e-03 6.475768238306045532e-02 -1.270446926355361938e-01 -1.000062972307205200e-01 1.398617327213287354e-01 -7.858986407518386841e-02 1.149348840117454529e-01 -9.867916256189346313e-02 -8.026959747076034546e-02 3.019782155752182007e-02 1.616496145725250244e-01 2.961272560060024261e-02 1.015059128403663635e-01 -4.352542012929916382e-02 -8.790145069360733032e-02 7.042112946510314941e-02 -1.215900480747222900e-01 4.714651033282279968e-03 8.022995293140411377e-02 -5.264672636985778809e-02 6.779908388853073120e-02 5.985069647431373596e-02 1.063028872013092041e-01 -9.517298080027103424e-03 -7.087324559688568115e-02 -4.176181182265281677e-02 -5.763784795999526978e-02 2.330571413040161133e-02 -1.227467204444110394e-03 -2.458228357136249542e-02 -1.179481483995914459e-02 -2.640978246927261353e-02 3.630648553371429443e-02 -5.875157192349433899e-03 4.852707684040069580e-02 9.565070271492004395e-03 -4.757861047983169556e-02 -8.837612718343734741e-02 7.589962333440780640e-02 3.088452294468879700e-02 -1.678026765584945679e-01 -1.724620610475540161e-01 1.291219294071197510e-01 -1.354322955012321472e-02 4.603724926710128784e-02 -2.465881779789924622e-02 -1.308301091194152832e-02 1.885454356670379639e-02 6.417803000658750534e-03 -1.271322369575500488e-01 5.740839987993240356e-02 8.677779883146286011e-02 1.202262938022613525e-01 -2.745744585990905762e-02 -2.029961906373500824e-03 -1.667090654373168945e-01 -1.646815240383148193e-01 5.576245952397584915e-03 -9.178511053323745728e-02 2.338978275656700134e-02 -8.349316567182540894e-02 3.236213326454162598e-02 -9.456322342157363892e-02 2.372074499726295471e-02 8.494564890861511230e-02 2.291085384786128998e-02 9.472533315420150757e-02 -6.695694476366043091e-02 7.575455307960510254e-02 -1.839600875973701477e-02 -1.324468553066253662e-01 -2.435340359807014465e-02 -1.011690944433212280e-01 4.997543245553970337e-02 -1.407247632741928101e-01 7.150687277317047119e-02 1.961323767900466919e-01 -2.539223805069923401e-02 -2.273778244853019714e-02 8.784101158380508423e-02 2.832097373902797699e-02 -2.879928238689899445e-02 5.041935667395591736e-02 -1.600394248962402344e-01 -7.930359244346618652e-02 1.534458845853805542e-01 -6.055987626314163208e-02 -1.021180208772420883e-02 4.548835381865501404e-02 -2.754484713077545166e-01 -1.595952361822128296e-01 2.288803644478321075e-02 1.238154470920562744e-01 8.489133417606353760e-02 -1.018111407756805420e-01 -1.080175936222076416e-01 1.252568960189819336e-01 5.407023802399635315e-02 3.838095813989639282e-02 4.161529615521430969e-02 -4.117920249700546265e-02 2.497576363384723663e-02 1.227119006216526031e-02 -1.143076829612255096e-02 2.003176882863044739e-02 6.434137374162673950e-02 1.531191915273666382e-01 2.883966313675045967e-03 1.668532639741897583e-01 -7.275987416505813599e-02 3.444482758641242981e-02 6.577860098332166672e-03 5.223180726170539856e-02 1.284352540969848633e-01 1.214256603270769119e-02 9.812241047620773315e-02 -3.352365642786026001e-02 -3.221049606800079346e-01 1.001837402582168579e-01 3.493026597425341606e-03 -5.467798560857772827e-02 1.027407497167587280e-01 2.184494957327842712e-02 -1.357776485383510590e-02 3.993616625666618347e-02 3.804320096969604492e-02 -1.670251935720443726e-01 -1.990569978952407837e-01 -4.743680730462074280e-02 -3.322908654808998108e-03 2.095702476799488068e-02 1.306603383272886276e-02 1.282310187816619873e-01 2.055878564715385437e-02 -4.046699404716491699e-02 4.298846423625946045e-02 6.071475148200988770e-02 -8.946824073791503906e-02 -1.539693176746368408e-01 1.252493709325790405e-01 8.065099827945232391e-03 -2.269460558891296387e-01 1.242858357727527618e-02 -8.231910318136215210e-02 7.509620487689971924e-02 7.034052163362503052e-02 3.052746877074241638e-02 5.036924034357070923e-02 1.081203222274780273e-01
-7.499434798955917358e-02 -2.294521778821945190e-03 -5.266400426626205444e-02 8.783454447984695435e-02 1.050303056836128235e-01 -4.722421988844871521e-02 1.629648059606552124e-01 7.791658490896224976e-02 -1.717201918363571167e-01 1.547184735536575317e-01 5.098399147391319275e-02 2.011657878756523132e-02 6.062525510787963867e-02 1.302485466003417969e-01 -3.065082430839538574e-02 1.330211758613586426e-02 1.777613162994384766e-02 2.572698891162872314e-01 6.683003902435302734e-02 -1.037679538130760193e-01 -3.719640523195266724e-02 1.526250094175338745e-01 -5.906175356358289719e-03 -3.289097547531127930e-02 4.949522763490676880e-02 5.879638716578483582e-03 -1.525294929742813110e-01 -6.600613705813884735e-03 -4.832020401954650879e-02 -7.912773638963699341e-03 -9.260620176792144775e-02 1.156816631555557251e-01 4.134901612997055054e-02 -5.281062051653862000e-02 -1.720992662012577057e-02 4.925024881958961487e-02 -1.947973668575286865e-01 1.005338877439498901e-02 1.087113097310066223e-01 -1.135710924863815308e-01 1.361708492040634155e-01 7.029539346694946289e-02 6.306988000869750977e-02 1.821146905422210693e-02 1.411510109901428223e-01 5.801301449537277222e-02 -7.016317546367645264e-02 8.564174175262451172e-02 9.044566750526428223e-02 -6.507507711648941040e-02 1.655667126178741455e-01 -9.357782453298568726e-02 3.375441581010818481e-02 2.151176631450653076e-01 1.160186529159545898e-01 -1.743591129779815674e-01 -8.684836328029632568e-02 2.952207345515489578e-03 5.887398868799209595e-02 -1.332886219024658203e-01 3.476619720458984375e-02 -1.247397959232330322e-01 5.225390195846557617e-02 9.510029852390289307e-02 1.025580540299415588e-01 3.054667264223098755e-02 8.052929490804672241e-02 -1.358779072761535645e-01 -1.847955882549285889e-01 -2.248052358627319336e-01 1.218140404671430588e-02 3.071770071983337402e-02 -2.160438522696495056e-02 -1.025311127305030823e-01 1.638483405113220215e-01 -1.460582613945007324e-01 7.763191312551498413e-02 3.307763021439313889e-03 -1.017297524958848953e-02 -1.185197532176971436e-01 -1.626074165105819702e-01 -3.768429532647132874e-02 9.173746802844107151e-04 -1.078084558248519897e-01 8.945632725954055786e-03 -7.907521724700927734e-02 1.380979269742965698e-01 6.510295718908309937e-02 4.007761366665363312e-03 -1.112116500735282898e-01 1.661402583122253418e-01 2.096077799797058105e-02 9.458426386117935181e-02 -8.425739593803882599e-03 4.096328094601631165e-02 -1.689770966768264771e-01 6.198582798242568970e-02 -6.850982457399368286e-02 5.311843380331993103e-02 -2.018625885248184204e-01 -1.009263470768928528e-01 1.540795117616653442e-01 -1.483908295631408691e-01 5.276394262909889221e-02 5.026197433471679688e-02 -9.324421174824237823e-03 1.279339194297790527e-01 3.024787455797195435e-02 -1.383785903453826904e-01 -1.364758014678955078e-01 2.434945199638605118e-04 1.157207321375608444e-02 -1.721980720758438110e-01 -4.245035350322723389e-02 3.267043456435203552e-02 -9.276666492223739624e-02 2.511267736554145813e-02 9.576899558305740356e-02 -1.195089891552925110e-01 4.481808841228485107e-02 -3.217351064085960388e-02 2.544135041534900665e-02 2.003801167011260986e-01 1.214295439422130585e-02 1.673001534072682261e-04 4.302682727575302124e-02 -2.402083948254585266e-02 2.394497394561767578e-02 1.715947389602661133e-01 -4.197980836033821106e-02 -1.033635288476943970e-01 -1.335926800966262817e-01 6.419256329536437988e-02 1.806692779064178467e-02 3.637152537703514099e-02 1.137987896800041199e-01 -8.403936028480529785e-02 -1.508648693561553955e-02 1.120245382189750671e-01 1.301790680736303329e-02 -1.219396367669105530e-01 1.023028567433357239e-01 8.306479081511497498e-03 -3.713699430227279663e-02 1.658534072339534760e-02 4.382644221186637878e-02 -4.915377497673034668e-02 2.219286188483238220e-02 -3.740283101797103882e-02 2.038109675049781799e-02 6.573824584484100342e-02 2.138777822256088257e-02 1.062728688120841980e-01 -5.909316614270210266e-02 -2.896111458539962769e-02 1.025169268250465393e-01 -7.650533318519592285e-02 8.484175056219100952e-02 4.610844328999519348e-02 -9.140289388597011566e-03 4.478799551725387573e-02 8.830884099006652832e-02 -1.109396014362573624e-02 6.983475387096405029e-02 1.085899211466312408e-02 1.186489537358283997e-01 1.489449739456176758e-01 1.112636551260948181e-01 8.767974213697016239e-04 -8.481328189373016357e-02 -2.144333273172378540e-01 4.504531621932983398e-02 7.712325453758239746e-02 -1.097730025649070740e-01 -7.774906605482101440e-02 -8.286225050687789917e-02 7.121905684471130371e-02 2.334260754287242889e-02 1.240215227007865906e-01 3.965053334832191467e-02 -7.863825559616088867e-02 -1.921455934643745422e-02 1.634764373302459717e-01 9.641914069652557373e-02 1.213365644216537476e-01 5.277847126126289368e-02 -6.453403085470199585e-02 -9.405753575265407562e-03 1.169532388448715210e-01 6.965152174234390259e-02 -3.372590243816375732e-02 -7.094897329807281494e-02 -2.553136646747589111e-02 -1.795052736997604370e-02 -3.727798163890838623e-02 4.134530172450467944e-05 3.136106207966804504e-02 -2.761107683181762695e-02 -1.155205443501472473e-02 1.486865431070327759e-01 -1.257184743881225586e-01 -3.184650093317031860e-02 4.848293215036392212e-02 5.050864070653915405e-02 -2.776288986206054688e-02 -1.138122081756591797e-01 -1.357040256261825562e-01 6.810418330132961273e-03 9.241333603858947754e-02 6.598672270774841309e-02 -2.511634491384029388e-02 9.205934405326843262e-02 -5.930152535438537598e-02 5.243961513042449951e-02 -3.178620338439941406e-02 4.588505625724792480e-02 -4.953472409397363663e-03 7.683602720499038696e-02 -1.872144937515258789e-01 -1.544662099331617355e-02 -7.662265747785568237e-02 1.516278553754091263e-02 5.025104433298110962e-02 -1.945273876190185547e-01 -8.734157681465148926e-02 1.102537475526332855e-02 5.766859650611877441e-02 7.101893424987792969e-02 -1.306045055389404297e-01 9.857260435819625854e-02 -2.751638367772102356e-02 -5.650998279452323914e-02 1.259029358625411987e-01 -1.796572841703891754e-02 1.132349744439125061e-01 1.560031343251466751e-02 -1.219825148582458496e-01 -4.466991126537322998e-02 -1.658562123775482178e-01 8.947307616472244263e-02 -4.008512198925018311e-02 -2.279817312955856323e-02 5.788210779428482056e-02 2.242447882890701294e-01 1.016056351363658905e-02 -9.189151972532272339e-02 9.651236236095428467e-03 -7.046683877706527710e-02 -1.003480777144432068e-01 -6.870154291391372681e-02 1.841109991073608398e-01 5.911084357649087906e-03 3.131853789091110229e-02 -1.424649804830551147e-01 4.043443873524665833e-02 -1.373232528567314148e-02
3.968733549118041992e-02 4.481559619307518005e-03 4.052363336086273193e-02 1.480748802423477173e-01 5.597232282161712646e-02 -1.529296338558197021e-01 -5.221923813223838806e-02 -4.209905862808227539e-02 9.155129641294479370e-02 4.556474462151527405e-02 -1.244014222174882889e-02 -3.019148707389831543e-01 5.119076371192932129e-02 -8.254722505807876587e-02 1.914555206894874573e-02 6.372644752264022827e-02 6.705649197101593018e-02 1.627470552921295166e-02 -1.128527373075485229e-01 -2.525902986526489258e-01 -5.904404073953628540e-02 2.956227585673332214e-02 1.179787293076515198e-01 -2.831659615039825439e-01 1.052913814783096313e-01 -1.526898741722106934e-01 1.086215823888778687e-01 -2.282170206308364868e-02 6.856249179691076279e-03 1.393815595656633377e-02 -7.409068942070007324e-02 2.347503602504730225e-02 2.403984591364860535e-02 1.057588905096054077e-01 -1.096772700548171997e-01 -1.143497452139854431e-01 -7.811278849840164185e-02 3.875886276364326477e-02 4.216711968183517456e-02 5.603645741939544678e-02 -1.404525805264711380e-02 -4.353346303105354309e-03 -1.957152038812637329e-02 -1.088583245873451233e-01 -1.677251905202865601e-01 -2.082874625921249390e-01 1.234885156154632568e-01 1.291908621788024902e-01 -2.783057838678359985e-02 1.764290928840637207e-01 1.671794205904006958e-01 4.126666858792304993e-02 -2.379485778510570526e-02 5.315951630473136902e-02 -2.039510291069746017e-03 -5.542722716927528381e-02 -2.212890982627868652e-01 -1.036374047398567200e-01 -2.259182780981063843e-01 1.161288321018218994e-01 -4.340388998389244080e-02 -1.543188542127609253e-01 -4.394872859120368958e-02 9.580598026514053345e-02 1.133867539465427399e-02 -8.175175637006759644e-03 2.152721025049686432e-02 -1.586158126592636108e-01 8.745467290282249451e-03 -6.596612185239791870e-02 6.881562620401382446e-02 7.884925603866577148e-02 -7.583652436733245850e-02 8.336178958415985107e-02 6.207372620701789856e-02 -3.272265894338488579e-03 3.241597488522529602e-02 1.501560211181640625e-01 -1.458817720413208008e-02 -4.918890446424484253e-02 1.626380160450935364e-02 9.501311928033828735e-02 4.841471556574106216e-03 -9.910508990287780762e-02 -1.171826869249343872e-01 2.094940654933452606e-02 -2.519317902624607086e-02 -9.244393557310104370e-02 8.935122191905975342e-02 7.077543437480926514e-02 2.008416801691055298e-01 -2.169739753007888794e-01 -5.745492875576019287e-02 4.548939410597085953e-03 -8.738551288843154907e-02 -2.434802502393722534e-01 6.499864906072616577e-02 -1.023506298661231995e-01 -6.609841436147689819e-02 -2.950975485146045685e-02 7.622868567705154419e-02 -8.849553763866424561e-02 9.732090681791305542e-02 2.101574651896953583e-02 5.059483647346496582e-02 -1.125061139464378357e-01 1.638330891728401184e-02 -9.575353562831878662e-02 -2.139576151967048645e-02 -6.120977178215980530e-02 -9.049051254987716675e-02 -5.269500613212585449e-02 4.753537941724061966e-03 -2.799936756491661072e-02 2.622419781982898712e-02 -1.143933646380901337e-02 -1.189319118857383728e-01 -9.259670227766036987e-02 -8.480963110923767090e-02 6.628511101007461548e-02 -5.601449520327150822e-04 9.704427421092987061e-02 -4.147756099700927734e-02 -1.197366192936897278e-01 -7.848149538040161133e-02 1.872382611036300659e-01 -6.555744260549545288e-02 6.094162911176681519e-02 -1.008958220481872559e-01 1.064449101686477661e-01 1.584028601646423340e-01 -4.805212095379829407e-02 3.361485200002789497e-03 -4.478962719440460205e-02 -2.868369780480861664e-02 -3.526862710714340210e-02 -3.827470541000366211e-02 -8.950408548116683960e-02 -1.871985755860805511e-02 9.786233305931091309e-03 7.460229098796844482e-02 -9.840185940265655518e-02 6.549720466136932373e-02 3.288227319717407227e-02 -9.850547462701797485e-02 -9.798311628401279449e-03 -1.272907108068466187e-01 1.113731563091278076e-01 2.978491038084030151e-02 -6.681530922651290894e-02 -1.018355786800384521e-01 1.340664923191070557e-01 -3.322115167975425720e-02 -6.118119135499000549e-02 -2.827186137437820435e-02 4.881800338625907898e-02 -8.250974118709564209e-03 1.840995810925960541e-02 1.040051952004432678e-01 3.276472678408026695e-03 3.363768756389617920e-02 2.798900194466114044e-02 7.601583749055862427e-02 -9.926268458366394043e-02 7.137555629014968872e-02 -2.563263988122344017e-03 4.459896683692932129e-02 -1.493355724960565567e-02 1.967924088239669800e-02 -7.287015020847320557e-02 -9.242997318506240845e-02 7.557771354913711548e-02 1.942163519561290741e-02 -8.776473999023437500e-02 -5.670767277479171753e-02 1.214234307408332825e-01 -1.506171971559524536e-01 -1.163572594523429871e-01 9.904044866561889648e-02 -2.341371774673461914e-01 -3.020670963451266289e-03 -1.259046643972396851e-01 8.682612329721450806e-02 1.049567237496376038e-01 -3.079713322222232819e-02 1.208065729588270187e-02 7.040028274059295654e-02 -6.687397509813308716e-02 -1.538346111774444580e-01 -2.529479796066880226e-03 -2.986131422221660614e-02 -1.855790615081787109e-01 5.111373960971832275e-02 1.868441328406333923e-02 -8.894424885511398315e-02 -1.137084588408470154e-01 -1.252196431159973145e-01 -1.201584585942327976e-03 -6.446021609008312225e-03 2.195924147963523865e-02 4.290249664336442947e-03 -8.073661476373672485e-02 9.934990853071212769e-02 1.509274989366531372e-01 -3.142661228775978088e-02 -6.819019466638565063e-02 6.793176289647817612e-03 -1.334287971258163452e-02 9.657138586044311523e-02 -2.469876110553741455e-01 7.020477205514907837e-02 7.696662098169326782e-02 -3.585207462310791016e-02 -3.784414008259773254e-02 1.631821990013122559e-01 2.539888620376586914e-01 1.897291839122772217e-02 5.474444944411516190e-03 -6.145597994327545166e-02 2.618678100407123566e-02 -6.107201427221298218e-02 8.941530250012874603e-03 4.334291815757751465e-02 -8.489225059747695923e-02 1.164475977420806885e-01 8.511545509099960327e-02 -9.462123853154480457e-04 4.092329647392034531e-03 -6.015978381037712097e-02 -6.605477631092071533e-02 -3.142788708209991455e-01 -6.276265531778335571e-02 6.272832397371530533e-03 3.334416076540946960e-03 5.477264523506164551e-03 4.521707072854042053e-02 8.107220381498336792e-02 8.178626000881195068e-02 -1.420864555984735489e-02 -1.121281180530786514e-02 -3.316462412476539612e-02 -4.805676639080047607e-02 -2.125462293624877930e-01 6.381924450397491455e-02 2.856523543596267700e-02 7.450660318136215210e-02 -5.363931134343147278e-02 -6.457098573446273804e-02 -2.080759033560752869e-02 2.463776171207427979e-01 -1.907046884298324585e-01 1.613235771656036377e-01 5.997561383992433548e-03 8.812389522790908813e-02 -2.906840480864048004e-02 2.650426141917705536e-02
-5.959135293960571289e-02 1.662309095263481140e-02 1.540912091732025146e-01 5.082233622670173645e-02 2.494200468063354492e-01 1.487279683351516724e-01 1.796337589621543884e-02 -1.529812347143888474e-02 7.571025937795639038e-02 -1.100586168467998505e-02 8.739317208528518677e-02 -6.001833826303482056e-03 -8.029161393642425537e-02 -1.735939644277095795e-02 1.534519791603088379e-01 1.649501621723175049e-01 -1.070829108357429504e-02 -6.801631301641464233e-02 -8.714636415243148804e-02 -6.271938979625701904e-02 -6.724733393639326096e-03 2.306637912988662720e-01 -1.844100281596183777e-02 -2.237993478775024414e-01 5.082881078124046326e-02 4.928660392761230469e-02 2.820684947073459625e-02 -1.522695273160934448e-01 3.078625909984111786e-02 5.736579373478889465e-02 -2.077094316482543945e-01 -6.453493237495422363e-02 -5.582463741302490234e-02 1.050927117466926575e-01 -2.697702348232269287e-01 -2.884516306221485138e-02 -3.109141588211059570e-01 -3.269445151090621948e-02 -8.982657641172409058e-02 -1.299211680889129639e-01 -5.195393040776252747e-02 -1.386079043149948120e-01 -7.701437920331954956e-02 -8.298689872026443481e-02 -3.695501759648323059e-02 -4.089874774217605591e-02 -9.225401282310485840e-02 1.231227740645408630e-01 6.003165617585182190e-02 -5.184382200241088867e-02 8.982307463884353638e-02 -1.156060397624969482e-01 -5.113837122917175293e-02 1.439598053693771362e-01 2.764100767672061920e-02 -1.964202225208282471e-01 -7.485056668519973755e-02 -5.371471866965293884e-02 -1.123288124799728394e-01 1.140779852867126465e-01 2.202916704118251801e-02 -1.770451068878173828e-01 -1.908141821622848511e-01 -2.155878581106662750e-03 5.108274146914482117e-02 -2.697510644793510437e-02 4.788294900208711624e-03 -1.311835460364818573e-02 1.128866747021675110e-01 7.382335513830184937e-02 4.058185219764709473e-02 -7.074621319770812988e-02 1.316740214824676514e-01 -8.448152244091033936e-02 -2.186120301485061646e-01 1.540857404470443726e-01 1.478143185377120972e-01 1.787662878632545471e-02 6.392454355955123901e-02 9.720924496650695801e-02 -1.559431701898574829e-01 -8.704964071512222290e-02 -4.045613110065460205e-02 -2.827345430850982666e-01 1.968635246157646179e-02 -1.134756859391927719e-02 -9.678117185831069946e-02 -1.118483692407608032e-01 1.204610019922256470e-01 1.748261302709579468e-01 1.726617813110351562e-01 -3.774107694625854492e-01 4.335969313979148865e-02 -2.276591956615447998e-02 -5.110583454370498657e-02 -5.922176316380500793e-02 6.323780119419097900e-02 7.487085461616516113e-02 -1.842816919088363647e-02 6.894187629222869873e-02 -2.634996734559535980e-02 -1.085644066333770752e-01 1.126615237444639206e-02 -2.588961422443389893e-01 1.465931832790374756e-01 -7.931048981845378876e-03 3.158284425735473633e-01 1.555837243795394897e-01 -5.508307833224534988e-03 1.220095381140708923e-01 -9.888259321451187134e-02 -9.031531214714050293e-02 -1.095570102334022522e-01 -8.464302867650985718e-02 1.024879962205886841e-01 -1.810592710971832275e-01 -1.592030823230743408e-01 3.759296610951423645e-02 1.969863176345825195e-01 1.453283615410327911e-02 -1.651826053857803345e-01 1.680478304624557495e-01 -1.859973967075347900e-01 -7.345617562532424927e-02 9.622065722942352295e-02 3.758846968412399292e-02 -1.631401032209396362e-01 9.430252015590667725e-02 -1.643742507440038025e-05 3.540285304188728333e-02 6.098875403404235840e-02 1.096006110310554504e-02 -6.881452351808547974e-02 -1.869179755449295044e-01 -4.573482647538185120e-02 -1.127156242728233337e-01 6.060332432389259338e-02 1.109240483492612839e-02 1.338878124952316284e-01 8.387731760740280151e-02 4.152017831802368164e-02 1.962348818778991699e-02 -1.321138534694910049e-02 -3.669373458251357079e-03 -4.886012757197022438e-04 9.590325504541397095e-02 -6.519723683595657349e-02 4.268259182572364807e-02 2.548992633819580078e-01 -1.359269469976425171e-01 1.253607571125030518e-01 1.477973721921443939e-02 1.186547651886940002e-01 -2.132012844085693359e-01 3.362556174397468567e-02 -7.023080717772245407e-03 1.636946573853492737e-02 7.917857915163040161e-02 -1.831856518983840942e-01 -3.109790198504924774e-02 7.229031063616275787e-03 -4.953176528215408325e-02 7.509160786867141724e-02 -7.013399153947830200e-02 -4.577673226594924927e-02 -4.961066320538520813e-02 2.290786989033222198e-02 1.899491101503372192e-01 1.263084355741739273e-02 -1.966533511877059937e-01 -8.167055994272232056e-02 6.604183465242385864e-02 -9.203442931175231934e-02 -5.376842990517616272e-02 -1.000922173261642456e-01 1.966028846800327301e-02 -3.216256573796272278e-02 -2.778514623641967773e-01 2.296007610857486725e-02 -2.511220872402191162e-01 -8.116985857486724854e-02 -9.008215367794036865e-02 4.285959899425506592e-02 -4.018173087388277054e-03 -3.791489405557513237e-03 1.046418920159339905e-01 9.810466319322586060e-02 -4.787983000278472900e-02 -1.046559307724237442e-02 -8.811264485120773315e-02 -1.263142377138137817e-02 3.143015131354331970e-02 -5.324156954884529114e-02 -9.979250282049179077e-02 -1.716458946466445923e-01 -6.068506045266985893e-04 -4.295144602656364441e-02 1.461765915155410767e-02 2.867526561021804810e-02 7.235077023506164551e-02 -1.923091113567352295e-01 5.449529737234115601e-02 -5.686238035559654236e-02 6.761740893125534058e-02 -6.205332279205322266e-02 1.985118091106414795e-01 3.178543597459793091e-02 1.486079394817352295e-01 3.019443713128566742e-02 3.638439252972602844e-02 -3.991616889834403992e-02 -1.399798989295959473e-01 1.757578551769256592e-01 1.270393580198287964e-01 -6.056634709239006042e-02 -3.480128571391105652e-02 5.499188601970672607e-02 9.074626863002777100e-02 1.817933097481727600e-02 -5.421965196728706360e-02 -9.686560928821563721e-02 -6.960624456405639648e-02 1.182636618614196777e-02 -5.347131565213203430e-02 -1.956890970468521118e-01 8.411059528589248657e-02 5.357115343213081360e-02 1.317433714866638184e-01 -3.518123552203178406e-02 6.820587813854217529e-02 -9.613028168678283691e-02 -5.180561542510986328e-02 5.653403699398040771e-03 -1.126163676381111145e-01 1.192190572619438171e-01 5.618952214717864990e-02 4.380010813474655151e-02 7.501769810914993286e-02 -1.210734806954860687e-02 4.975382611155509949e-02 -6.765098869800567627e-02 -9.007190912961959839e-02 -8.682999759912490845e-02 -7.011717651039361954e-03 -3.684011846780776978e-02 -1.625523865222930908e-01 1.087205670773983002e-02 -2.007639408111572266e-02 -3.283692896366119385e-01 3.672569245100021362e-02 1.253316700458526611e-01 1.270491778850555420e-01 -9.324601292610168457e-02 3.166328743100166321e-02 9.960415959358215332e-02 -1.423829942941665649e-01
-4.200097545981407166e-02 -2.019398659467697144e-01 2.899020723998546600e-02 6.471443921327590942e-02 -1.287296563386917114e-01 9.664984047412872314e-02 -7.663382589817047119e-02 -5.749933794140815735e-02 -1.104044169187545776e-01 -7.142811268568038940e-02 -1.238000988960266113e-01 -1.972671598196029663e-02 -2.592226024717092514e-03 7.645959034562110901e-03 -7.252387702465057373e-02 -9.042394906282424927e-02 1.143899038434028625e-01 -2.028563804924488068e-02 -5.271129310131072998e-02 1.794239133596420288e-01 6.403106451034545898e-02 8.203523606061935425e-02 1.058633998036384583e-01 1.225367933511734009e-01 -3.360510617494583130e-02 1.887156045995652676e-03 -1.355408281087875366e-01 -4.116141423583030701e-02 2.551839128136634827e-02 -1.127501130104064941e-01 -2.778169326484203339e-02 4.330496490001678467e-02 6.357376277446746826e-02 1.475076675415039062e-01 1.273954510688781738e-01 -7.328781485557556152e-02 -7.212256640195846558e-02 4.208724945783615112e-02 6.866771727800369263e-02 3.975580632686614990e-02 2.388638108968734741e-01 -5.210092291235923767e-03 1.571829169988632202e-01 5.278809368610382080e-02 8.500333130359649658e-02 -1.029148548841476440e-01 1.277715060859918594e-02 -1.362101733684539795e-01 1.190284490585327148e-01 1.339563876390457153e-01 6.185971945524215698e-02 -1.541127562522888184e-01 1.328814215958118439e-02 8.805561810731887817e-03 -1.237790957093238831e-01 -4.240424558520317078e-02 -2.366755157709121704e-03 -5.501453578472137451e-02 -3.087694011628627777e-02 -7.364184409379959106e-02 1.112505979835987091e-02 3.148981928825378418e-02 -2.772603556513786316e-02 -1.093035563826560974e-01 -1.374674588441848755e-01 2.127003110945224762e-02 1.323401629924774170e-01 -1.104093641042709351e-01 2.753882110118865967e-01 -4.929914698004722595e-02 4.468812793493270874e-02 1.406607478857040405e-01 -5.405697599053382874e-02 5.837222933769226074e-02 -5.261871218681335449e-02 -3.515046834945678711e-02 6.048227474093437195e-02 -1.162101700901985168e-02 -6.316547095775604248e-02 -1.188126131892204285e-01 -6.122113391757011414e-02 -4.836346209049224854e-02 4.169517382979393005e-02 2.254528924822807312e-02 -5.725847184658050537e-02 7.749779522418975830e-02 -2.291643321514129639e-01 -9.359607845544815063e-02 1.875305324792861938e-01 -7.561260461807250977e-02 5.233881622552871704e-02 -1.221732329577207565e-02 -4.004284739494323730e-02 1.239411532878875732e-02 -1.012809202075004578e-01 8.187547326087951660e-02 -1.669958978891372681e-01 -2.155764400959014893e-02 -6.114312261343002319e-02 -1.268101334571838379e-01 -2.451694197952747345e-02 -4.166702553629875183e-02 3.928351774811744690e-02 1.675308048725128174e-01 -4.353734105825424194e-02 -9.603203833103179932e-02 -6.092421337962150574e-02 -4.674905911087989807e-02 -9.914563596248626709e-02 -3.342331945896148682e-02 -1.827100813388824463e-01 1.189573481678962708e-01 6.480375677347183228e-02 -6.525150686502456665e-02 -6.328950822353363037e-02 2.677251026034355164e-02 4.997556284070014954e-02 -1.717996597290039062e-02 -5.337936058640480042e-02 -3.475061617791652679e-03 3.081934712827205658e-02 1.418268531560897827e-01 -5.055182799696922302e-02 -4.527918249368667603e-02 -4.395022243261337280e-02 5.632685869932174683e-02 1.786016076803207397e-01 -1.078358367085456848e-01 2.019021958112716675e-01 8.795276284217834473e-02 -9.057297371327877045e-03 1.783829778432846069e-01 1.843669638037681580e-02 -7.345579564571380615e-02 5.633415654301643372e-02 -5.375138670206069946e-02 9.992148727178573608e-03 4.204684495925903320e-02 6.260015815496444702e-02 -1.427194029092788696e-01 -8.058883994817733765e-02 -4.816959798336029053e-02 1.076231375336647034e-01 -5.852291360497474670e-02 -5.003812164068222046e-02 -3.129341825842857361e-02 1.812709569931030273e-01 -3.367777541279792786e-02 -1.995690464973449707e-01 -9.610669314861297607e-02 -1.265174448490142822e-01 -1.379494741559028625e-02 4.418057948350906372e-02 9.324506670236587524e-02 -5.830093845725059509e-02 1.206529438495635986e-01 2.671967726200819016e-03 -3.097360394895076752e-02 -1.145843118429183960e-01 3.518459200859069824e-02 2.844287641346454620e-02 -3.316659480333328247e-02 -7.384443283081054688e-02 -2.018052712082862854e-02 6.828273087739944458e-02 4.530064389109611511e-02 4.199481103569269180e-03 3.997283428907394409e-02 7.511755451560020447e-03 -5.573102831840515137e-02 -4.748315364122390747e-02 4.903250932693481445e-02 3.336990997195243835e-02 6.029544398188591003e-03 1.318177133798599243e-01 3.628768026828765869e-02 -1.988252997398376465e-02 -8.883929997682571411e-02 -1.305090785026550293e-01 1.973517239093780518e-01 1.053330153226852417e-01 4.408952593803405762e-02 1.149814724922180176e-01 6.285787373781204224e-02 -4.590640962123870850e-02 1.963924849405884743e-03 -6.722097098827362061e-02 -2.583546377718448639e-02 3.855773806571960449e-02 -3.864451125264167786e-02 -2.364495396614074707e-01 7.493712753057479858e-02 -7.930558919906616211e-02 -1.273302286863327026e-01 -9.735929965972900391e-02 -9.606247395277023315e-02 2.575198113918304443e-01 -5.927716847509145737e-04 5.474406853318214417e-02 1.203410550951957703e-01 1.036344096064567566e-01 1.008426174521446228e-01 5.891252774745225906e-03 2.020809799432754517e-01 1.434176564216613770e-01 -7.300283294171094894e-03 -5.216817557811737061e-02 2.751214616000652313e-02 -3.579755499958992004e-02 -7.921426557004451752e-03 -3.214770555496215820e-02 1.801238507032394409e-01 -1.046024113893508911e-01 7.371960580348968506e-02 -8.317596279084682465e-03 6.434641778469085693e-02 -4.301348328590393066e-02 -1.167134195566177368e-02 1.310899504460394382e-03 8.886109292507171631e-02 -1.798052638769149780e-01 -1.781985908746719360e-01 -1.017527002841234207e-02 7.783313095569610596e-02 -7.000742852687835693e-02 -1.066119745373725891e-01 9.988331049680709839e-02 6.744604557752609253e-02 1.635042391717433929e-02 3.144374489784240723e-02 2.090955376625061035e-01 -1.011245995759963989e-01 -8.124424493871629238e-04 1.325584109872579575e-02 -6.142193824052810669e-02 8.425498753786087036e-02 -9.550831466913223267e-02 -1.791039016097784042e-03 3.763287141919136047e-02 -1.325042694807052612e-01 -5.527360737323760986e-02 -1.130074933171272278e-01 8.042640984058380127e-03 -4.579241201281547546e-02 1.733518242835998535e-01 7.558514829725027084e-03 1.609001681208610535e-02 2.423939667642116547e-02 -1.214149594306945801e-02 -2.128389477729797363e-02 4.859265312552452087e-02 8.686790242791175842e-03 1.938046067953109741e-01 3.907901048660278320e-02 -2.627853490412235260e-02 -1.666145771741867065e-01
-1.295900344848632812e-01 1.002338677644729614e-01 -7.711519300937652588e-02 -2.404225617647171021e-02 2.138767838478088379e-01 -4.893884807825088501e-02 -6.024149060249328613e-02 -7.708054035902023315e-02 -1.632792502641677856e-01 1.502572372555732727e-02 -3.320133080706000328e-03 3.370994934812188148e-03 2.621050179004669189e-02 1.409250199794769287e-01 9.743371605873107910e-02 -4.928438365459442139e-02 -1.014507957734167576e-03 -8.935047686100006104e-02 -2.816860005259513855e-02 -2.142567932605743408e-02 5.473836883902549744e-02 1.430971473455429077e-01 -8.396846055984497070e-02 5.133644491434097290e-02 1.076946482062339783e-01 5.217843875288963318e-02 3.387180343270301819e-02 8.673224598169326782e-03 3.426926210522651672e-02 -1.928701996803283691e-02 -9.190541692078113556e-03 -1.733090728521347046e-01 -5.468808487057685852e-02 7.989131659269332886e-02 8.538448810577392578e-02 5.590595304965972900e-03 1.160766258835792542e-01 -5.246888473629951477e-02 -7.811290770769119263e-02 -1.360054910182952881e-01 8.982709795236587524e-02 7.769060134887695312e-02 -6.202584132552146912e-02 6.105945259332656860e-02 -2.019582688808441162e-02 -4.849194362759590149e-02 1.063580960035324097e-01 -1.884650625288486481e-02 2.278476767241954803e-02 -8.033423870801925659e-02 -1.676232814788818359e-01 3.114870004355907440e-02 1.179833412170410156e-01 3.294568881392478943e-02 -1.652138307690620422e-02 -7.935576885938644409e-02 -1.243373751640319824e-01 -1.703758686780929565e-01 -1.011757552623748779e-02 -6.279987096786499023e-02 3.605595231056213379e-02 -1.624186150729656219e-02 -2.248179540038108826e-02 -5.419203266501426697e-02 6.749426573514938354e-02 1.307296752929687500e-02 -9.502983838319778442e-02 -9.953025728464126587e-02 -3.352366015315055847e-02 -4.797514528036117554e-02 5.870299041271209717e-02 3.071105666458606720e-02 -8.719234913587570190e-02 4.611620679497718811e-02 -1.183002814650535583e-01 1.947650127112865448e-02 -4.781234636902809143e-02 2.311104722321033478e-02 -4.091540724039077759e-02 1.462893486022949219e-01 -2.086633741855621338e-01 6.778852641582489014e-02 -1.252796351909637451e-01 -4.305748641490936279e-02 -1.851498782634735107e-01 -8.508474379777908325e-02 1.232109963893890381e-01 -5.368973687291145325e-02 6.242672726511955261e-02 6.179410591721534729e-02 2.942151017487049103e-02 4.055283218622207642e-02 -2.110472694039344788e-02 -1.889387965202331543e-01 -1.810031681088730693e-04 4.091215878725051880e-02 -7.157873362302780151e-02 8.079206943511962891e-02 8.820915967226028442e-02 1.649203337728977203e-02 2.073802798986434937e-01 2.102330513298511505e-02 1.413243561983108521e-01 -3.336176648736000061e-02 7.188235968351364136e-02 -8.813869953155517578e-02 8.410112559795379639e-02 -1.208462938666343689e-01 1.241537556052207947e-01 -1.817949861288070679e-02 1.522915810346603394e-01 3.063293360173702240e-02 4.689966887235641479e-02 2.067571319639682770e-02 -8.603332936763763428e-02 9.316492080688476562e-02 -7.600216567516326904e-02 -2.149392850697040558e-02 2.854027412831783295e-02 6.764975842088460922e-03 4.532673954963684082e-02 -3.141605854034423828e-02 1.724591255187988281e-01 -4.132342338562011719e-02 1.463307254016399384e-02 4.719370603561401367e-02 -1.003524810075759888e-01 -1.092138960957527161e-01 -1.142822131514549255e-01 6.226847320795059204e-02 9.780278801918029785e-02 -2.631684951484203339e-02 1.485245227813720703e-01 -1.031381860375404358e-01 -4.938859958201646805e-03 1.543150991201400757e-01 -9.621663391590118408e-02 -6.023511663079261780e-02 -7.256481051445007324e-02 6.122468784451484680e-02 1.648762635886669159e-02 6.192881241440773010e-02 -8.367923088371753693e-03 1.941002458333969116e-01 6.333328038454055786e-02 -1.512807905673980713e-01 -6.236559897661209106e-02 7.037971168756484985e-02 -2.098128199577331543e-01 -7.480713725090026855e-02 2.347829639911651611e-01 1.797133870422840118e-02 2.438741363584995270e-02 -4.286229610443115234e-02 -4.681634530425071716e-02 6.155826896429061890e-02 5.979486554861068726e-02 -7.377848494797945023e-03 6.866991519927978516e-02 -1.332470178604125977e-01 5.898958072066307068e-02 3.848600015044212341e-02 5.729842558503150940e-02 -5.964820832014083862e-02 2.128665298223495483e-01 -1.982640624046325684e-01 -3.430316969752311707e-02 -1.205901801586151123e-01 3.252230957150459290e-02 -1.097417324781417847e-01 1.423649787902832031e-01 -1.336021348834037781e-02 3.907252475619316101e-02 6.103206425905227661e-02 1.287488192319869995e-01 3.159835934638977051e-02 1.776380538940429688e-01 1.054246723651885986e-01 -6.579201668500900269e-02 -1.315997689962387085e-01 5.813321564346551895e-03 7.660583406686782837e-02 -2.717808075249195099e-02 1.262396126985549927e-01 1.545665264129638672e-01 -1.103604063391685486e-01 1.636929810047149658e-02 1.731899194419384003e-02 -8.573798090219497681e-02 1.167668774724006653e-01 -8.516983687877655029e-02 -1.944123022258281708e-02 -9.902869164943695068e-02 -3.442434221506118774e-02 -4.748093336820602417e-02 -1.934333741664886475e-01 -6.592533737421035767e-02 -1.185659840703010559e-01 1.408546697348356247e-02 5.357537791132926941e-02 1.566394716501235962e-01 -1.193817704916000366e-01 9.542232751846313477e-02 -6.546749174594879150e-02 -9.095834940671920776e-02 2.084416151046752930e-02 3.271829336881637573e-02 -4.053583368659019470e-02 -9.280699491500854492e-02 -3.495643660426139832e-02 -9.438274800777435303e-02 1.709913313388824463e-01 1.124799475073814392e-01 6.311336997896432877e-03 -5.982908606529235840e-02 8.993582427501678467e-02 6.318988651037216187e-02 -1.108126789331436157e-01 9.615854918956756592e-02 1.088121980428695679e-01 5.498053133487701416e-02 -1.339292526245117188e-01 1.118419039994478226e-02 8.456230908632278442e-02 5.519930645823478699e-02 2.877675741910934448e-02 -7.955046743154525757e-02 5.004870146512985229e-02 4.286476224660873413e-02 -2.131708897650241852e-03 -1.260670721530914307e-01 -3.342953324317932129e-02 5.990432202816009521e-02 -1.408234089612960815e-01 6.565472483634948730e-02 6.560454517602920532e-02 1.252546813338994980e-02 -2.408888638019561768e-01 6.929460167884826660e-02 -7.324799895286560059e-02 2.867664210498332977e-02 -1.442260891199111938e-01 -3.327340120449662209e-03 -1.305895857512950897e-02 -3.346301242709159851e-02 -1.563553214073181152e-01 -5.832205712795257568e-02 -1.111106667667627335e-02 -1.302231401205062866e-01 1.980505697429180145e-02 -6.907058414071798325e-03 1.662683039903640747e-01 9.316078573465347290e-02 1.185736954212188721e-01 -1.797754131257534027e-02 -8.179364725947380066e-03
9.666873514652252197e-02 -6.170570384711027145e-03 -3.541663289070129395e-02 -8.555632084608078003e-02 2.133727073669433594e-01 1.976161152124404907e-01 4.488700255751609802e-02 7.247867435216903687e-02 -1.947569474577903748e-02 6.406059116125106812e-02 1.859652809798717499e-02 -1.512953788042068481e-01 -1.342496722936630249e-01 -9.642351418733596802e-02 1.439746916294097900e-01 3.482623025774955750e-02 -6.526701897382736206e-02 5.622431635856628418e-03 -2.954270541667938232e-01 -1.326006352901458740e-01 5.148465186357498169e-02 6.022851541638374329e-02 1.025129482150077820e-02 -3.004414439201354980e-01 7.137436885386705399e-03 -7.985911332070827484e-03 4.964340105652809143e-02 4.750683531165122986e-02 6.429396569728851318e-02 1.378876040689647198e-03 -1.525737941265106201e-01 2.911677816882729530e-03 -3.427551686763763428e-02 1.095121875405311584e-01 -2.166039347648620605e-01 -6.091859936714172363e-02 -1.198572516441345215e-01 -2.137577347457408905e-02 -1.329195797443389893e-01 4.472393542528152466e-02 2.309549786150455475e-02 -2.458715885877609253e-01 -2.623847126960754395e-02 -8.645156025886535645e-02 -7.872188091278076172e-02 2.237100340425968170e-02 4.574873298406600952e-02 -2.079843543469905853e-02 -4.304184019565582275e-02 4.465680941939353943e-02 2.941773533821105957e-01 4.668032925110310316e-04 -1.008237525820732117e-01 9.506464749574661255e-02 -2.215217426419258118e-02 -9.664081037044525146e-03 -9.450555592775344849e-02 -7.420239597558975220e-02 -1.221443787217140198e-01 -5.005185957998037338e-03 6.815257947891950607e-03 6.602711975574493408e-02 -6.761790812015533447e-02 1.450794935226440430e-01 -9.748309850692749023e-02 2.114151604473590851e-02 1.100080832839012146e-01 -2.363778203725814819e-01 7.645586878061294556e-02 -8.799317479133605957e-02 1.818499341607093811e-02 -1.647250913083553314e-02 2.773660048842430115e-02 -1.814355999231338501e-01 4.046599194407463074e-02 3.891161084175109863e-02 -2.648393437266349792e-02 2.872079424560070038e-02 -4.807335510849952698e-02 3.202692046761512756e-02 -1.388753503561019897e-01 1.237461119890213013e-01 -3.913748264312744141e-02 -5.734697729349136353e-02 -4.889341816306114197e-02 -1.506852544844150543e-02 -1.602977663278579712e-01 -1.188961416482925415e-01 1.000580005347728729e-02 1.613507419824600220e-02 1.321512609720230103e-01 -1.816428899765014648e-01 1.132972985506057739e-01 1.747170835733413696e-01 -2.315202873433008790e-04 4.088913276791572571e-02 8.277606964111328125e-02 9.123106300830841064e-02 1.511905714869499207e-02 -1.675539650022983551e-02 3.059322573244571686e-02 -4.179660975933074951e-02 1.626827567815780640e-01 -1.121802628040313721e-01 1.149447169154882431e-02 -2.252962626516819000e-02 -5.617147684097290039e-02 -7.253776490688323975e-02 -1.089212950319051743e-02 -2.068843841552734375e-01 3.012422006577253342e-03 1.387260556221008301e-01 -6.652610749006271362e-02 4.909529816359281540e-03 8.228771388530731201e-02 -8.963352441787719727e-02 -1.648577162995934486e-03 -1.551131159067153931e-02 1.169468313455581665e-01 -6.960784643888473511e-02 -2.039591223001480103e-02 1.245943680405616760e-01 8.322352543473243713e-03 -9.758775681257247925e-02 3.767317533493041992e-02 -2.335484139621257782e-02 -1.787392348051071167e-01 7.413987070322036743e-02 1.158525422215461731e-02 1.377141010016202927e-02 3.377083688974380493e-02 -1.363449096679687500e-01 1.401225924491882324e-01 -5.010636895895004272e-02 -6.813192367553710938e-02 2.454366534948348999e-02 5.466439295560121536e-03 1.141577512025833130e-01 -3.923405706882476807e-02 5.186972022056579590e-02 4.984893649816513062e-02 -8.974090218544006348e-03 1.151530444622039795e-01 -5.889979749917984009e-02 -9.579151868820190430e-02 -1.144409924745559692e-01 -8.949293941259384155e-02 -1.493194997310638428e-01 -8.497825264930725098e-02 -1.284826081246137619e-02 5.356738716363906860e-02 1.602918356657028198e-01 -1.182388234883546829e-02 -3.849207982420921326e-02 8.731661736965179443e-02 -6.473410129547119141e-02 4.498500749468803406e-02 1.369087677448987961e-02 9.903059899806976318e-02 -6.966163869947195053e-03 -9.982507675886154175e-03 -1.105839461088180542e-01 1.252127587795257568e-01 -4.350528866052627563e-02 -2.250318229198455811e-02 1.389804184436798096e-01 -5.134242773056030273e-02 1.758836209774017334e-02 -1.041536256670951843e-01 7.183318026363849640e-03 4.200135916471481323e-02 5.135791003704071045e-02 3.024782240390777588e-02 -1.057026237249374390e-01 4.584244266152381897e-02 4.388286732137203217e-03 4.200661554932594299e-03 -4.311567917466163635e-02 4.338953271508216858e-02 -2.276364117860794067e-01 1.446957513689994812e-02 -6.538461893796920776e-02 9.085586667060852051e-02 8.356942981481552124e-02 -9.288284927606582642e-02 7.517991214990615845e-02 6.447552889585494995e-02 -3.907371684908866882e-02 -3.132126852869987488e-02 5.148360133171081543e-02 -4.951865971088409424e-02 -1.708718985319137573e-01 -6.413738429546356201e-02 -1.807891279458999634e-01 8.016308397054672241e-02 -5.836397036910057068e-02 -2.650354206562042236e-01 5.455721169710159302e-02 5.073243379592895508e-02 2.555985189974308014e-02 7.180992513895034790e-02 7.859529554843902588e-02 1.849742084741592407e-01 2.005265466868877411e-02 -4.957827180624008179e-02 9.135460853576660156e-02 1.248056963086128235e-01 1.212298274040222168e-01 -3.437552973628044128e-02 7.954232394695281982e-03 -1.170447375625371933e-02 1.233866661787033081e-01 8.042420446872711182e-02 1.603665351867675781e-01 5.150347948074340820e-02 -5.610424652695655823e-02 8.691989630460739136e-02 2.157402597367763519e-02 -1.440622191876173019e-02 6.847396958619356155e-03 -1.402864903211593628e-01 -1.556144282221794128e-02 1.329784989356994629e-01 -3.370620310306549072e-03 -2.602139115333557129e-01 1.885562017560005188e-02 7.109558582305908203e-02 -4.098470881581306458e-02 6.157331541180610657e-02 -5.825167894363403320e-02 1.125836521387100220e-01 -4.086975753307342529e-02 -4.554869141429662704e-03 -1.209775581955909729e-01 9.965926408767700195e-02 1.089131459593772888e-01 3.731279447674751282e-02 -1.937681809067726135e-02 3.467936068773269653e-03 6.127976626157760620e-02 -1.023019999265670776e-01 -1.079556345939636230e-01 -7.748469710350036621e-02 -3.277312219142913818e-02 6.244474276900291443e-02 -4.855488985776901245e-02 3.030121140182018280e-02 1.198105420917272568e-02 -2.082082629203796387e-02 1.089613959193229675e-01 -8.483824133872985840e-02 4.805608466267585754e-02 -1.150905042886734009e-01 2.990374341607093811e-02 -1.741853207349777222e-01 -4.631074145436286926e-02
1.674881204962730408e-02 6.034724414348602295e-02 3.465890651568770409e-03 -3.152644634246826172e-02 -1.492028236389160156e-01 -2.290017157793045044e-01 -9.675456583499908447e-02 -4.104589298367500305e-02 1.239627823233604431e-01 2.164830686524510384e-03 -1.277616173028945923e-01 -1.271657347679138184e-01 1.545140612870454788e-02 5.842892453074455261e-02 -2.811582945287227631e-02 -8.249575644731521606e-02 8.798275142908096313e-02 7.117918133735656738e-02 -2.574726343154907227e-01 -9.599341452121734619e-02 8.256302215158939362e-03 2.107216231524944305e-02 -3.658063337206840515e-02 -6.257802248001098633e-02 -4.261865094304084778e-02 1.638070493936538696e-02 -6.596549600362777710e-02 4.064213111996650696e-02 7.657688856124877930e-02 5.344959348440170288e-02 -2.389532700181007385e-02 -6.015625223517417908e-02 -7.593756169080734253e-02 -7.653612643480300903e-02 -9.273042902350425720e-03 -8.528833836317062378e-02 -1.779657416045665741e-02 -7.194910198450088501e-02 2.555279247462749481e-02 5.072572082281112671e-02 4.715020954608917236e-02 9.784305840730667114e-02 -4.482179880142211914e-02 6.460900604724884033e-02 1.162035167217254639e-01 -7.676678150892257690e-02 1.442515552043914795e-01 -1.357108503580093384e-01 5.276841670274734497e-02 8.237185329198837280e-02 -1.083407700061798096e-01 1.108027342706918716e-02 2.623549290001392365e-02 -1.352513283491134644e-01 3.597438707947731018e-02 1.333062350749969482e-01 -8.130652830004692078e-03 1.813157461583614349e-02 -1.201968407258391380e-03 -7.241313904523849487e-02 -6.123442202806472778e-02 4.750954732298851013e-02 7.024931162595748901e-02 1.907008886337280273e-02 -9.528433531522750854e-02 8.429643511772155762e-02 -3.491415083408355713e-02 1.611797697842121124e-02 -8.945080637931823730e-02 -1.100520193576812744e-01 -3.407650813460350037e-02 5.999992415308952332e-02 -1.088931187987327576e-01 1.164394766092300415e-01 5.295847356319427490e-02 -5.754049122333526611e-02 6.006101102684624493e-05 1.163073405623435974e-01 -9.634979814291000366e-02 -1.279793083667755127e-01 7.172014564275741577e-02 2.659058012068271637e-02 1.502623856067657471e-01 2.108708396553993225e-02 -1.101683154702186584e-01 -1.349390596151351929e-01 -1.457150746136903763e-02 1.124575063586235046e-01 -8.295632153749465942e-02 -8.379205316305160522e-02 -1.320528388023376465e-01 8.803329616785049438e-02 -8.696571737527847290e-02 5.663400888442993164e-02 -5.320583656430244446e-02 1.214901432394981384e-01 -1.070662662386894226e-01 -1.617403477430343628e-01 5.523871257901191711e-02 -1.530162245035171509e-01 -1.633025147020816803e-02 3.323885425925254822e-02 3.992040082812309265e-02 1.496286243200302124e-01 1.352743565803393722e-04 -3.809475153684616089e-02 -2.153007984161376953e-01 -1.865565627813339233e-01 3.879147022962570190e-02 -2.962879836559295654e-01 6.388623267412185669e-02 9.243649989366531372e-02 9.860935062170028687e-02 9.599336236715316772e-02 9.384095901623368263e-04 1.784329861402511597e-01 -7.623025774955749512e-02 7.993590086698532104e-02 -9.286174178123474121e-02 7.690210640430450439e-02 6.445022672414779663e-02 -8.782398700714111328e-02 1.729970574378967285e-01 -1.249471213668584824e-02 -6.368789821863174438e-02 1.535839680582284927e-02 3.743897005915641785e-02 5.438648164272308350e-02 6.242795381695032120e-03 -4.112283885478973389e-02 2.579361014068126678e-02 -4.820602387189865112e-02 1.810127049684524536e-01 1.002971678972244263e-01 -1.876607909798622131e-02 6.480887532234191895e-02 -6.443324033170938492e-03 1.600998789072036743e-01 1.422866713255643845e-02 -1.856605112552642822e-01 2.239891886711120605e-02 -3.863596916198730469e-02 1.414262801408767700e-01 -5.017943680286407471e-03 2.633783034980297089e-03 -2.777678333222866058e-02 -8.502046694047749043e-04 -1.220027580857276917e-01 -1.031296998262405396e-01 1.906508505344390869e-01 -8.964000642299652100e-02 1.261793673038482666e-01 -7.909472286701202393e-02 2.938992157578468323e-02 -5.951526109129190445e-03 7.904700934886932373e-02 -1.213764473795890808e-01 -1.838736832141876221e-01 6.603566557168960571e-02 1.409904509782791138e-01 2.779530361294746399e-02 7.105782628059387207e-02 -5.541148036718368530e-02 -9.451226145029067993e-02 1.833016127347946167e-01 -1.062176451086997986e-01 1.027785837650299072e-01 -1.444862484931945801e-01 -3.370084241032600403e-02 -1.974047627300024033e-03 4.212511330842971802e-02 -2.701530931517481804e-03 -4.862797260284423828e-02 -1.158634349703788757e-01 1.815385073423385620e-01 1.470039337873458862e-01 6.941361725330352783e-02 -1.113985404372215271e-01 3.596133366227149963e-02 -1.959529519081115723e-02 2.825918421149253845e-02 -1.026254668831825256e-01 2.040892243385314941e-01 4.068939387798309326e-02 -9.566389769315719604e-02 6.438864767551422119e-02 -1.716327369213104248e-01 4.056704789400100708e-02 -1.587175130844116211e-01 1.058381348848342896e-01 -1.193699091672897339e-01 -2.017488330602645874e-01 -8.495365083217620850e-02 1.202096417546272278e-01 1.306717544794082642e-01 -2.119241952896118164e-01 -1.147978380322456360e-02 -5.397565290331840515e-02 1.444429606199264526e-01 3.601497784256935120e-02 2.054895311594009399e-01 -1.224411185830831528e-02 -2.507945150136947632e-02 5.609547719359397888e-03 7.883152365684509277e-02 -7.380515336990356445e-02 -4.859955236315727234e-02 2.123247087001800537e-02 -1.129134520888328552e-01 -8.889421820640563965e-02 -1.891799457371234894e-02 1.361437290906906128e-01 -5.762463808059692383e-02 -1.107562705874443054e-01 1.602710634469985962e-01 5.247839540243148804e-02 -6.127929780632257462e-03 4.988056793808937073e-02 1.324279457330703735e-01 8.691062778234481812e-02 9.742952138185501099e-02 5.476837977766990662e-02 9.400386479683220387e-04 7.868483662605285645e-02 1.288686990737915039e-01 6.616067141294479370e-03 -1.622905880212783813e-01 -2.695872634649276733e-02 -1.111097037792205811e-01 1.298510432243347168e-01 -6.431838870048522949e-02 1.283044815063476562e-01 7.380191981792449951e-02 1.569241471588611603e-02 -1.747236847877502441e-01 1.277637034654617310e-01 7.729848474264144897e-02 5.559827014803886414e-02 -7.943071424961090088e-02 -3.540822863578796387e-02 1.675529032945632935e-02 5.834871903061866760e-02 -5.887016654014587402e-02 8.341147750616073608e-02 2.770585939288139343e-02 -7.333665341138839722e-02 1.174043789505958557e-01 5.251889675855636597e-02 1.936053037643432617e-01 2.179518900811672211e-02 -1.619000136852264404e-01 -9.291426092386245728e-02 1.061808317899703979e-01 -1.135564744472503662e-01 -1.065851538442075253e-03 1.074496060609817505e-01
