3.479925990104675293e-01 4.378091990947723389e-01 -1.285798251628875732e-01 1.464394293725490570e-02 -2.163805998861789703e-02 1.257403790950775146e-01 -8.602514863014221191e-02 -4.665033519268035889e-02 2.998227952048182487e-03 5.139466747641563416e-02 2.084941267967224121e-01 6.130383536219596863e-02 -1.073366776108741760e-01 5.526410788297653198e-02 2.991358377039432526e-02 -2.759441267699003220e-03 -6.755991373211145401e-03 6.131901219487190247e-02 2.691533416509628296e-03 5.694348737597465515e-02 1.619445532560348511e-02 3.108331467956304550e-03 -2.887183055281639099e-02 -5.061385035514831543e-02 -4.666277393698692322e-02 -1.652953773736953735e-02 -2.231453172862529755e-02 -5.863539502024650574e-02 -1.838235557079315186e-01 1.102802064269781113e-02 3.552907332777976990e-02 -6.049441918730735779e-02 -6.568081676959991455e-02 -3.027321211993694305e-02 -6.850725412368774414e-02 3.375187888741493225e-02 -1.414838805794715881e-02 2.061491161584854126e-01 4.511052370071411133e-01 2.786164358258247375e-02 1.018340885639190674e-02 1.178090553730726242e-02 -7.230818737298250198e-03 -2.164983190596103668e-02 -7.916936278343200684e-02 1.298737525939941406e-01 -1.719897389411926270e-01 1.656220294535160065e-02 2.694413252174854279e-02 2.405093312263488770e-01 -8.001373708248138428e-02 3.272205963730812073e-02 -7.345810066908597946e-03 2.516381070017814636e-02 1.112245582044124603e-02 -5.974702537059783936e-02 -3.978496417403221130e-03 -1.432987675070762634e-02 1.574327470734715462e-04 -3.704946488142013550e-02 1.387187093496322632e-01 1.456822901964187622e-01 -5.308674648404121399e-02 -2.620536088943481445e-02 8.713997900485992432e-02 -1.922366917133331299e-01 6.667468696832656860e-02 1.789766103029251099e-01 -1.956666586920619011e-03 -5.666101351380348206e-03 3.193190554156899452e-03 -1.390618924051523209e-02 -9.162592701613903046e-03 1.476618554443120956e-02 9.860711544752120972e-02 2.469895780086517334e-01 1.650282740592956543e-01 4.546173289418220520e-02 2.345518171787261963e-01 9.908439964056015015e-02 -8.350822026841342449e-04 -1.579084247350692749e-01 1.770599372684955597e-02 1.527334749698638916e-01 -5.783500149846076965e-03 3.349612280726432800e-02 5.629751086235046387e-02 -5.712680891156196594e-02 -2.179231494665145874e-02 -5.567258223891258240e-03 3.966871649026870728e-02 5.761096999049186707e-02 3.874633694067597389e-03 -2.441892586648464203e-02 4.218364600092172623e-03 -3.062388161197304726e-03 3.084065951406955719e-02 -6.463302671909332275e-02 -1.273949444293975830e-02 7.454929500818252563e-02 4.079677164554595947e-02 5.306664109230041504e-02 -2.180348783731460571e-01 -1.014837771654129028e-01 -1.026779115200042725e-01 2.548774704337120056e-02 -7.289461791515350342e-03 6.831918656826019287e-02 -5.977404769510030746e-03 -1.911676302552223206e-02 -1.185978576540946960e-02 -4.371999949216842651e-02 5.475427210330963135e-02 2.369501143693923950e-01 -4.421676322817802429e-02 7.789280265569686890e-02 2.016568332910537720e-01 5.887088924646377563e-02 -2.786450460553169250e-02 -8.058567531406879425e-03 1.408656942658126354e-03 1.384758651256561279e-01 8.762267976999282837e-02 8.714748173952102661e-02 -6.972149014472961426e-03 4.653961956501007080e-02 -6.823845673352479935e-03 1.312012970447540283e-02 -8.670732378959655762e-03 6.985903531312942505e-02 -8.590415865182876587e-02 -5.187789443880319595e-03 -1.350316684693098068e-02 3.795705363154411316e-02 -6.726624909788370132e-03 1.246280875056982040e-02 -6.337575148791074753e-03 6.263824552297592163e-02 -2.967324107885360718e-02 -2.563358247280120850e-01 -3.366196155548095703e-02 1.244257465004920959e-01 -2.909247763454914093e-02 2.601090073585510254e-02 -2.783539332449436188e-02 3.109684912487864494e-03 4.701801761984825134e-02 7.155550178140401840e-03 -1.675600856542587280e-01 9.214323759078979492e-02 9.393964894115924835e-03 -1.114607751369476318e-01 2.552546747028827667e-02 1.221546530723571777e-02 -2.046323753893375397e-02 7.077691704034805298e-02 -1.727601327002048492e-02 -1.327508781105279922e-02 -8.346698433160781860e-02 1.514244675636291504e-01 5.896433442831039429e-02 3.216941608116030693e-03 -2.848849445581436157e-02 -1.217333972454071045e-02 4.371606558561325073e-02 1.992388255894184113e-02 -2.623453619889914989e-04 2.979045361280441284e-02 5.769544839859008789e-02 -1.090037915855646133e-02 6.626246124505996704e-02 3.661260753870010376e-02 7.265582680702209473e-02 4.118717834353446960e-02 4.212196916341781616e-02 -1.879396103322505951e-02 -2.214179635047912598e-01 3.490073606371879578e-02 -2.395466268062591553e-01 -1.212742552161216736e-02 1.764148473739624023e-02 -7.261545211076736450e-02 3.234486328437924385e-03 -1.285942643880844116e-02 2.239499613642692566e-02 1.097990199923515320e-01 -6.920756399631500244e-02 -3.457124531269073486e-02 -4.330679029226303101e-02 -3.705456480383872986e-02 5.884176120162010193e-02 1.358825266361236572e-01 -1.862813234329223633e-01 -1.536268144845962524e-01 -9.558708965778350830e-02 -3.265486657619476318e-02 -1.481346487998962402e-01 6.118285655975341797e-02 6.187405064702033997e-02 6.596710532903671265e-03 1.188534498214721680e-01 -9.804139286279678345e-02 6.703018210828304291e-03 -1.644766628742218018e-01 1.288646161556243896e-01 -2.628374397754669189e-01 -5.150419473648071289e-02 -1.005057096481323242e-01 3.949732985347509384e-03 -2.461323589086532593e-01 4.140930622816085815e-02 -8.504859171807765961e-03 -8.319877833127975464e-02 6.458148360252380371e-02 -1.014929637312889099e-01 -1.105965748429298401e-01 -1.728439144790172577e-02 5.416564270853996277e-02 -2.052491307258605957e-01 -1.532533392310142517e-02 -1.892709434032440186e-01 3.237498458474874496e-03 -8.305265009403228760e-02 5.159992352128028870e-02 -4.874058812856674194e-02 5.736246705055236816e-02 -1.209047902375459671e-02 -1.696226596832275391e-01 -5.599073693156242371e-02 -2.955952100455760956e-02 1.144073158502578735e-02 -2.366336882114410400e-01 -3.741086274385452271e-02 -2.120338827371597290e-01 2.757833339273929596e-02 -3.434562683105468750e-02 1.288713365793228149e-01
4.891774058341979980e-01 -9.561541676521301270e-01 -2.559908665716648102e-03 5.257258936762809753e-02 3.512529432773590088e-01 1.088885143399238586e-01 -3.008089363574981689e-01 -2.269185185432434082e-01 1.113396212458610535e-01 1.217992082238197327e-01 4.505670815706253052e-02 -1.317612975835800171e-01 -4.510290548205375671e-02 -5.844777449965476990e-02 1.227547302842140198e-01 9.568483801558613777e-05 2.188954502344131470e-02 6.799572706222534180e-02 -1.562882214784622192e-02 4.890182241797447205e-02 2.295292355120182037e-02 -3.059254260733723640e-03 1.096425205469131470e-02 -6.192198954522609711e-03 -1.517944335937500000e-01 -8.987278491258621216e-02 -8.934032171964645386e-03 8.266764134168624878e-02 -6.791507452726364136e-02 -6.238779798150062561e-02 8.389221131801605225e-02 -2.198538184165954590e-02 1.207912527024745941e-02 1.250718999654054642e-02 8.586389012634754181e-04 9.027659893035888672e-03 1.184340100735425949e-02 3.470478355884552002e-01 -4.345693886280059814e-01 1.290162205696105957e-01 -6.999367848038673401e-03 2.249080836772918701e-01 -1.929006539285182953e-02 8.755700290203094482e-02 4.373039305210113525e-02 9.455661289393901825e-03 -2.462992630898952484e-02 5.998483672738075256e-02 -9.392884373664855957e-02 8.839603513479232788e-03 -1.025689765810966492e-02 -9.457963705062866211e-02 -1.510711619630455971e-03 -1.305377017706632614e-02 -3.209471330046653748e-02 -6.668654829263687134e-02 -2.192571386694908142e-02 -2.171756140887737274e-02 7.216347381472587585e-03 6.721047218888998032e-03 -2.035644277930259705e-02 4.108955152332782745e-03 1.617316389456391335e-03 1.490347087383270264e-02 1.191550269722938538e-01 5.196530371904373169e-02 -2.552709728479385376e-02 6.366851925849914551e-02 8.467416279017925262e-03 4.592373222112655640e-02 6.051032990217208862e-02 1.649939082562923431e-02 -2.431670902296900749e-03 1.893104799091815948e-02 2.353155314922332764e-01 -6.280926614999771118e-02 4.003019630908966064e-02 -1.036195829510688782e-02 1.228051334619522095e-01 -1.544708162546157837e-01 3.837964683771133423e-02 2.311742603778839111e-01 1.054079309105873108e-01 4.372012242674827576e-02 -4.105746746063232422e-02 6.241248548030853271e-02 -1.278997510671615601e-01 3.768354654312133789e-02 8.977234363555908203e-03 -6.499597337096929550e-03 -1.498136576265096664e-02 4.346493631601333618e-02 1.097176298499107361e-01 -8.207774907350540161e-02 1.833693590015172958e-03 9.621611796319484711e-03 4.413820058107376099e-02 -4.979143664240837097e-02 2.890884876251220703e-02 1.094779931008815765e-02 -1.562937349081039429e-02 -4.027627408504486084e-02 -1.026975363492965698e-01 1.069079153239727020e-02 -9.785749949514865875e-03 -7.940345443785190582e-03 2.018609666265547276e-04 1.346103381365537643e-03 -4.020430613309144974e-03 2.086056210100650787e-02 1.418497040867805481e-02 -1.139334440231323242e-01 1.503151059150695801e-01 -2.916626259684562683e-02 7.973692566156387329e-02 -4.977866634726524353e-02 3.077024593949317932e-02 7.190480362623929977e-03 -4.947277903556823730e-02 2.979131229221820831e-02 -1.151426285505294800e-01 1.021058931946754456e-01 9.071214497089385986e-02 -4.236206877976655960e-03 -2.341582328081130981e-01 -8.851820230484008789e-02 7.373064756393432617e-03 2.988747879862785339e-02 5.553332343697547913e-02 4.572568088769912720e-02 9.327358752489089966e-02 2.820632606744766235e-02 4.034135956317186356e-03 6.534652784466743469e-03 9.939501760527491570e-04 1.286246478557586670e-01 4.457696340978145599e-03 1.857872307300567627e-02 7.634571194648742676e-02 1.302642822265625000e-01 2.228402495384216309e-01 -6.865864247083663940e-02 -1.034898776561021805e-02 4.611805547028779984e-03 2.648445591330528259e-02 -3.495421633124351501e-02 1.787744089961051941e-02 9.754907339811325073e-03 -3.423429429531097412e-01 6.702701449394226074e-01 4.574115946888923645e-02 1.096046343445777893e-01 -3.060711547732353210e-02 3.087055869400501251e-02 -1.834785379469394684e-02 -4.245417192578315735e-02 -1.108018085360527039e-01 2.426909469068050385e-02 -7.820496708154678345e-02 4.308028891682624817e-02 -2.924466319382190704e-02 2.227174118161201477e-02 -7.633476704359054565e-02 -4.778447560966014862e-03 3.665060549974441528e-02 9.707948565483093262e-02 -2.186095155775547028e-02 -2.603483572602272034e-02 1.952949911355972290e-02 -9.146966040134429932e-03 1.932184956967830658e-02 1.716605760157108307e-02 -5.517126247286796570e-02 -3.034715168178081512e-02 -3.649002686142921448e-02 -1.402284763753414154e-02 8.994515240192413330e-02 -1.450401842594146729e-01 3.385779634118080139e-02 -4.954832047224044800e-02 -1.079557649791240692e-02 1.523608528077602386e-02 -4.218425601720809937e-02 2.265183441340923309e-02 2.856409177184104919e-02 2.072088420391082764e-03 4.104742407798767090e-02 2.298617176711559296e-02 -9.215338528156280518e-02 8.700344711542129517e-02 -7.778263837099075317e-02 2.994493115693330765e-03 -2.157076299190521240e-01 -1.275802105665206909e-01 -2.620611190795898438e-01 -3.876344487071037292e-02 -2.335480786859989166e-02 1.245152670890092850e-02 -6.345309317111968994e-02 3.698737546801567078e-02 5.769093334674835205e-02 -1.795994639396667480e-01 5.296689644455909729e-02 3.008507564663887024e-02 -4.827991873025894165e-02 -1.872189939022064209e-01 -5.670869722962379456e-02 -1.942979693412780762e-01 -1.237554028630256653e-01 2.239098213613033295e-02 1.344488710165023804e-01 -4.586179181933403015e-02 3.791868314146995544e-02 4.096067696809768677e-02 -1.715666651725769043e-01 2.404560334980487823e-02 2.324433252215385437e-02 4.450514540076255798e-02 -2.422718890011310577e-02 -4.924357682466506958e-02 -1.921720355749130249e-01 8.420942351222038269e-03 -6.029406562447547913e-03 5.947171151638031006e-02 3.133347257971763611e-03 4.634294286370277405e-02 9.383361041545867920e-02 -2.269051522016525269e-01 1.986508816480636597e-02 9.269721806049346924e-02 2.827684767544269562e-02 -7.946583628654479980e-02 -2.155837137252092361e-03 -1.985031068325042725e-01 -1.254602223634719849e-01 7.850076071918010712e-03 1.155343055725097656e-01
-3.294612467288970947e-01 -6.973634660243988037e-02 -4.519764333963394165e-02 -9.986958466470241547e-03 4.147971794009208679e-02 3.361622616648674011e-02 7.102532684803009033e-02 -3.172793239355087280e-02 4.681588709354400635e-02 2.316914871335029602e-02 -8.384612202644348145e-02 2.450101822614669800e-02 -2.205304428935050964e-02 -1.594059169292449951e-01 1.155722327530384064e-02 1.301135681569576263e-02 5.915526766330003738e-03 -3.055522451177239418e-03 -8.835840225219726562e-02 -2.547840029001235962e-02 -2.544472692534327507e-03 -3.196616424247622490e-03 8.107637986540794373e-04 -1.642482541501522064e-02 5.952395871281623840e-02 2.881076745688915253e-02 -6.006509438157081604e-02 1.725653707981109619e-01 -7.860336452722549438e-02 -3.184637427330017090e-02 4.055943712592124939e-02 7.136981934309005737e-02 -2.543447073549032211e-03 -3.206338733434677124e-02 5.301162134855985641e-03 3.023314476013183594e-02 -2.871558815240859985e-02 -1.052589565515518188e-01 -8.322612941265106201e-02 1.281293779611587524e-01 1.647435873746871948e-02 -7.571037858724594116e-02 -4.768487811088562012e-02 3.918823227286338806e-02 -7.574122399091720581e-02 1.725002937018871307e-02 8.838916569948196411e-02 -8.891670405864715576e-02 1.990761235356330872e-02 3.828710317611694336e-02 6.359349191188812256e-02 -1.001554429531097412e-01 1.108574215322732925e-02 -2.968248352408409119e-02 -7.595892995595932007e-02 -1.346772653050720692e-03 -4.751357808709144592e-02 -9.674945473670959473e-02 -1.012615830404683948e-04 1.639321073889732361e-02 -1.135925762355327606e-02 6.209998577833175659e-02 -3.218697756528854370e-02 1.307427790015935898e-02 5.983029678463935852e-02 9.261376224458217621e-03 -3.828294947743415833e-02 1.766576059162616730e-02 5.417714640498161316e-02 -5.489225313067436218e-02 -2.361951628699898720e-03 4.812670871615409851e-02 8.149293251335620880e-03 -9.767033159732818604e-03 -9.678593277931213379e-02 7.200147211551666260e-02 -4.248389974236488342e-02 2.936189994215965271e-02 9.405966848134994507e-02 1.269764304161071777e-01 -3.303104266524314880e-02 -6.385219097137451172e-02 -5.000903084874153137e-02 -6.185290962457656860e-02 1.228110268712043762e-01 3.744689514860510826e-03 -1.951042711734771729e-01 -1.670158351771533489e-03 -1.618257351219654083e-02 1.927865319885313511e-03 -4.507416114211082458e-02 9.110941737890243530e-02 -7.001055032014846802e-02 2.144641801714897156e-02 -2.587619936093688011e-03 -4.399004857987165451e-03 5.156356468796730042e-02 8.435696363449096680e-02 -3.188775852322578430e-02 3.564057871699333191e-02 2.143711596727371216e-02 2.346751689910888672e-01 -1.283604651689529419e-01 -8.723596110939979553e-03 -7.381193339824676514e-02 2.732603624463081360e-02 -3.445720672607421875e-02 -1.995225436985492706e-02 -7.823438942432403564e-02 1.929056085646152496e-02 -1.618471578694880009e-03 1.601589173078536987e-01 -6.408534198999404907e-02 -2.940877974033355713e-01 -3.182166814804077148e-02 -7.160039246082305908e-02 -5.775627493858337402e-02 -5.958490073680877686e-04 -1.018433868885040283e-01 1.981593854725360870e-02 -1.001588255167007446e-02 9.778664261102676392e-02 6.219846382737159729e-02 -6.927742809057235718e-02 1.282269805669784546e-01 1.251739710569381714e-01 1.995698781684041023e-03 4.880262538790702820e-02 -3.123276866972446442e-02 6.988200545310974121e-02 4.677176475524902344e-02 2.921887440606951714e-03 -6.226853467524051666e-03 5.309218168258666992e-02 4.125390946865081787e-02 9.237149357795715332e-02 5.555995181202888489e-02 1.788661442697048187e-02 1.054770275950431824e-01 -1.613201051950454712e-01 1.204943098127841949e-02 2.263021096587181091e-02 3.504384309053421021e-02 5.134472623467445374e-03 -2.846920676529407501e-02 -3.478942811489105225e-02 9.442795999348163605e-03 8.487570099532604218e-03 2.539748847484588623e-01 1.103428155183792114e-01 -6.478627771139144897e-02 5.183672159910202026e-02 -3.040175326168537140e-02 -1.919895224273204803e-02 9.715775027871131897e-03 1.438758075237274170e-01 -4.466599225997924805e-02 8.593306690454483032e-02 2.695689909160137177e-02 -1.153804734349250793e-01 -1.201062127947807312e-01 -1.019880920648574829e-01 2.222396805882453918e-02 -6.393295712769031525e-03 -2.784273587167263031e-02 -4.162354394793510437e-02 -5.155371874570846558e-02 -7.703440636396408081e-02 -7.548735290765762329e-02 -2.354067191481590271e-02 1.560100261121988297e-02 1.517215818166732788e-01 2.720778807997703552e-02 -1.010969728231430054e-01 -7.704486697912216187e-02 3.329784795641899109e-02 -1.353460103273391724e-01 3.299324959516525269e-02 7.438126206398010254e-02 1.937095820903778076e-02 -5.588061735033988953e-02 -5.484181642532348633e-02 -4.352092742919921875e-02 -3.506566863507032394e-03 -2.038334682583808899e-02 -4.572287667542695999e-03 -5.142103508114814758e-02 6.228879466652870178e-02 2.866741456091403961e-02 8.532720059156417847e-02 9.251233935356140137e-02 4.683985561132431030e-02 4.656879603862762451e-02 -1.053293198347091675e-01 -1.185158044099807739e-01 -1.945436932146549225e-02 -4.257974028587341309e-02 -4.396415129303932190e-02 4.087129980325698853e-02 -6.081911548972129822e-02 -5.515751242637634277e-02 2.999844774603843689e-02 -6.435545533895492554e-02 -1.843785680830478668e-02 2.115512266755104065e-02 1.037355437874794006e-01 -9.637434780597686768e-02 -7.753109821351245046e-05 -9.816497913561761379e-05 -5.666361004114151001e-02 6.544469296932220459e-02 -2.045243512839078903e-03 -1.696776002645492554e-01 1.614212691783905029e-01 -1.267627719789743423e-02 -1.398462653160095215e-01 -1.094024162739515305e-02 -2.495443820953369141e-02 -5.443153530359268188e-02 2.308372221887111664e-02 -1.226756870746612549e-01 4.384532570838928223e-02 5.969655141234397888e-02 3.647386282682418823e-02 1.841070875525474548e-02 -5.757034942507743835e-02 -1.221086755394935608e-01 -2.995510958135128021e-02 -5.025869607925415039e-02 -7.639065384864807129e-02 4.290489479899406433e-02 7.761372625827789307e-02 3.680869191884994507e-02 -2.127465233206748962e-02 1.776538603007793427e-02 2.646594494581222534e-02 -4.042089730501174927e-02
-5.935383439064025879e-01 -4.849988967180252075e-02 1.208658665418624878e-01 7.418164517730474472e-03 -6.166071444749832153e-02 -3.070478141307830811e-02 -4.635993763804435730e-02 5.573508888483047485e-02 1.210731267929077148e-02 -8.357638865709304810e-02 -5.971046537160873413e-02 1.705764234066009521e-01 -9.671980887651443481e-02 -6.626328825950622559e-02 -1.002187803387641907e-01 -1.889196969568729401e-02 7.477405015379190445e-03 -8.011110126972198486e-02 4.983481019735336304e-02 -2.596320351585745811e-03 2.203667908906936646e-02 1.418295199982821941e-03 -1.020807493478059769e-02 5.367241054773330688e-02 8.921736478805541992e-02 4.132535681128501892e-02 1.232788991183042526e-02 -6.863161176443099976e-02 -2.067227661609649658e-01 -1.043385788798332214e-01 -1.061244029551744461e-02 -2.603186294436454773e-02 -1.557768601924180984e-02 -1.152591314166784286e-02 -5.555373500101268291e-04 2.521434985101222992e-02 -2.857122570276260376e-03 -3.271847665309906006e-01 1.172815039753913879e-01 -1.178612634539604187e-01 -6.555949896574020386e-02 -1.146398261189460754e-01 -1.420946866273880005e-01 -6.211110576987266541e-02 -8.670028299093246460e-02 -1.285786330699920654e-01 -3.220946341753005981e-02 -1.382987648248672485e-01 -8.044017851352691650e-02 -9.254245460033416748e-02 1.307676583528518677e-01 -2.528331428766250610e-02 -1.612505689263343811e-02 -5.309317726641893387e-03 9.124554693698883057e-03 -1.748785525560379028e-01 -3.776692226529121399e-02 -1.399690285325050354e-03 6.132677197456359863e-03 1.243789587169885635e-02 2.232758328318595886e-03 1.950543746352195740e-02 -2.548874355852603912e-02 -8.991529233753681183e-03 -1.923464536666870117e-01 -3.799142315983772278e-02 -1.137531474232673645e-01 -7.215851545333862305e-02 -2.975322492420673370e-02 -3.542382270097732544e-02 -4.263046011328697205e-02 -1.134329661726951599e-02 -3.363995999097824097e-02 -2.199391368776559830e-03 7.577282190322875977e-02 5.373249948024749756e-02 6.372683495283126831e-02 1.034654751420021057e-01 -1.000698506832122803e-01 9.748566150665283203e-02 4.324993642512708902e-04 6.125855725258588791e-03 -7.378088682889938354e-02 6.093339622020721436e-02 6.919185072183609009e-02 -4.815241694450378418e-02 1.743427291512489319e-02 3.690565750002861023e-02 7.512612640857696533e-02 -1.348923426121473312e-02 1.732240780256688595e-03 -1.042383071035146713e-02 3.374186530709266663e-02 9.816192835569381714e-02 9.055397473275661469e-03 4.329964518547058105e-03 4.353499971330165863e-03 -8.303157519549131393e-04 -4.482202604413032532e-02 -2.344892174005508423e-02 9.339933283627033234e-03 -1.407139897346496582e-01 -1.377152055501937866e-01 2.365537546575069427e-02 -7.363796979188919067e-02 1.103614270687103271e-02 1.253554318100214005e-02 3.331462293863296509e-02 -2.769228257238864899e-02 3.302119905129075050e-03 8.907228708267211914e-03 8.930166810750961304e-02 -4.822166636586189270e-02 -9.340157359838485718e-02 -7.000356167554855347e-02 -2.007455378770828247e-02 -1.275693438947200775e-02 1.199045479297637939e-01 -7.198366802185773849e-03 -1.285051703453063965e-01 6.347010284662246704e-02 4.357971996068954468e-02 5.657998844981193542e-02 2.279451489448547363e-02 -7.417893409729003906e-02 -1.972442865371704102e-02 -9.453363716602325439e-03 -2.700368501245975494e-02 -2.338224276900291443e-02 -1.171989589929580688e-01 -5.105825886130332947e-02 -9.409823454916477203e-03 4.748017061501741409e-03 -4.025780595839023590e-03 2.064250595867633820e-02 6.242454517632722855e-03 9.743670374155044556e-02 9.962870739400386810e-03 -4.117250442504882812e-02 -5.622640624642372131e-02 5.743194371461868286e-02 8.993810042738914490e-03 2.432532235980033875e-02 1.391933951526880264e-02 -2.101503498852252960e-02 -2.385840518400073051e-03 -2.388360211625695229e-03 -1.510977372527122498e-02 4.248543977737426758e-01 -3.136137723922729492e-01 3.602894768118858337e-02 -3.733379393815994263e-02 2.202975600957870483e-01 9.560766816139221191e-02 -1.581509411334991455e-02 -1.822040975093841553e-02 3.131408244371414185e-02 1.480284184217453003e-01 -6.246794760227203369e-02 -1.641543656587600708e-01 -4.475468769669532776e-02 7.597768306732177734e-02 -1.260264404118061066e-02 -2.082982100546360016e-02 -6.080775335431098938e-02 2.164841443300247192e-02 -6.543908268213272095e-02 -1.752538047730922699e-02 3.642088919878005981e-02 6.783435586839914322e-03 -3.151971101760864258e-02 -9.970327466726303101e-02 -3.509729728102684021e-02 3.228152170777320862e-02 -6.928019225597381592e-03 -7.319263368844985962e-02 -1.000541821122169495e-02 1.725440770387649536e-01 1.042071729898452759e-01 -2.464189939200878143e-02 5.771877989172935486e-02 -6.973791401833295822e-03 -6.537090986967086792e-02 -7.671974599361419678e-03 -2.281443681567907333e-03 3.181378915905952454e-02 5.068766698241233826e-02 -4.946525394916534424e-02 -1.674514077603816986e-02 -1.065450012683868408e-01 -3.675408661365509033e-03 1.474469620734453201e-02 4.318554699420928955e-02 -4.892423283308744431e-03 1.522621168987825513e-04 3.633115440607070923e-02 1.022646203637123108e-01 -1.296822577714920044e-01 5.383278802037239075e-02 1.283122450113296509e-01 6.014056503772735596e-02 -1.057619750499725342e-01 7.727127522230148315e-02 -1.719721406698226929e-02 2.688021771609783173e-02 3.937393054366111755e-02 4.217167198657989502e-02 -1.060991920530796051e-02 -1.614630594849586487e-02 2.242363244295120239e-02 1.020125374197959900e-01 -1.305583864450454712e-01 5.160475522279739380e-02 3.170754015445709229e-02 -7.640836387872695923e-02 8.551871031522750854e-02 1.383380126208066940e-02 -3.857281990349292755e-03 1.543240845203399658e-01 -1.382597908377647400e-02 9.596499055624008179e-02 5.633050575852394104e-02 1.250166445970535278e-01 6.818072870373725891e-03 -6.035215780138969421e-02 2.365075983107089996e-02 9.846529923379421234e-03 1.294025965034961700e-02 1.641174852848052979e-01 -1.160099357366561890e-01 -3.433478297665715218e-03 8.718869648873806000e-03 5.334661528468132019e-02 4.909438267350196838e-02 9.924530237913131714e-02 1.231111288070678711e-01 -5.430601537227630615e-02
-4.913275837898254395e-01 -5.238070487976074219e-01 2.755383029580116272e-02 1.369222998619079590e-02 -1.838776320219039917e-01 -1.218515783548355103e-01 -4.053260013461112976e-02 3.196881618350744247e-03 5.677893757820129395e-02 -3.231688961386680603e-02 -1.136927679181098938e-01 -1.644140481948852539e-01 -1.843539476394653320e-01 -2.588797919452190399e-02 1.569935828447341919e-01 -7.781050167977809906e-03 5.484098568558692932e-03 2.614550665020942688e-02 -8.330010809004306793e-03 2.279048599302768707e-02 2.980771474540233612e-02 -1.095476560294628143e-03 -5.038550589233636856e-03 3.011904284358024597e-02 6.480540335178375244e-02 -1.968516223132610321e-02 -2.346762455999851227e-03 5.088269710540771484e-02 2.278408706188201904e-01 7.299610227346420288e-02 8.338215202093124390e-02 -3.372121229767799377e-02 -2.429911401122808456e-04 3.708777204155921936e-02 -5.535214673727750778e-03 -2.660416625440120697e-02 7.496185135096311569e-04 -2.038600295782089233e-01 -1.421362459659576416e-01 7.470041513442993164e-02 -1.807857677340507507e-02 -1.098048985004425049e-01 -6.683755666017532349e-02 1.272172480821609497e-02 -1.423372235149145126e-02 3.171058604493737221e-03 1.319526694715023041e-02 -1.478551179170608521e-01 5.085648223757743835e-02 1.025829911231994629e-01 8.412560075521469116e-02 -1.205921992659568787e-01 -4.267597105354070663e-03 5.301269702613353729e-03 3.868197649717330933e-02 -2.002314198762178421e-03 -2.802625996991991997e-03 -2.401757240295410156e-02 4.024870693683624268e-03 3.407532349228858948e-03 -1.197625175118446350e-01 -4.225957021117210388e-02 3.987602889537811279e-02 1.895155571401119232e-02 1.136442795395851135e-01 1.467681974172592163e-01 1.032525077462196350e-01 -6.307667493820190430e-02 -2.919840812683105469e-02 3.869580803439021111e-03 -6.843586452305316925e-03 5.561022832989692688e-02 1.405892800539731979e-02 -1.934855245053768158e-02 -1.110439095646142960e-02 3.478975966572761536e-02 -3.137519583106040955e-02 -9.218492545187473297e-03 -2.037735423073172569e-03 -1.581160873174667358e-01 -5.601176619529724121e-02 2.559306658804416656e-02 -1.360331475734710693e-01 9.800109080970287323e-03 7.267718762159347534e-02 4.045090824365615845e-02 1.237480714917182922e-01 4.604263603687286377e-02 5.688932165503501892e-02 1.889287144877016544e-03 3.749295137822628021e-03 1.253062859177589417e-03 -2.844508737325668335e-02 1.652577333152294159e-02 3.113839589059352875e-02 -6.517808418720960617e-03 6.707322318106889725e-03 5.642686039209365845e-02 -1.663849651813507080e-01 -4.605745524168014526e-02 -4.447841085493564606e-03 9.121789038181304932e-02 1.323963049799203873e-02 2.427283115684986115e-02 7.105535268783569336e-02 5.001892521977424622e-02 1.090746559202671051e-02 1.378817018121480942e-02 -3.480836376547813416e-02 3.630678355693817139e-02 -3.008608706295490265e-02 2.357763051986694336e-01 4.362644627690315247e-02 1.281316857784986496e-02 -2.399259619414806366e-02 8.825034834444522858e-03 8.937603235244750977e-02 -3.090885281562805176e-02 4.206793755292892456e-02 6.420835107564926147e-02 -2.520099841058254242e-02 3.730249404907226562e-02 -8.244239538908004761e-02 -5.929526314139366150e-02 3.569309785962104797e-02 8.263408392667770386e-02 -7.708826160524040461e-05 -4.282944835722446442e-03 -5.527222901582717896e-02 4.021219164133071899e-02 -1.469326578080654144e-02 -5.879263952374458313e-02 4.633960270439274609e-05 -1.975535228848457336e-02 -4.211912304162979126e-02 2.479689568281173706e-02 9.182150661945343018e-02 -1.039362791925668716e-02 5.753139778971672058e-02 6.695681065320968628e-02 -2.812250750139355659e-03 -7.940073311328887939e-02 4.742676857858896255e-03 -5.135427229106426239e-03 -1.146082952618598938e-02 7.180788367986679077e-02 -5.464868620038032532e-03 1.733511313796043396e-02 4.975098073482513428e-01 3.387748599052429199e-01 -9.610600769519805908e-02 6.688017398118972778e-02 3.488024696707725525e-02 3.497993573546409607e-02 2.692823112010955811e-02 -1.168977748602628708e-02 7.213395833969116211e-02 8.655128628015518188e-02 1.549191027879714966e-01 2.945563523098826408e-03 -4.520275816321372986e-02 -1.365806311368942261e-01 -3.060314618051052094e-02 5.317000206559896469e-03 -3.247464448213577271e-02 3.660200536251068115e-02 7.979171723127365112e-02 -9.590218774974346161e-03 2.181477658450603485e-02 -8.640247397124767303e-04 3.593310713768005371e-02 -6.244510784745216370e-02 1.423019915819168091e-01 4.015668109059333801e-02 1.542887371033430099e-02 1.356924325227737427e-01 2.042263150215148926e-01 -1.557014733552932739e-01 4.368979018181562424e-03 6.361219286918640137e-02 2.803360112011432648e-03 4.358495585620403290e-03 -5.831873789429664612e-02 2.867725491523742676e-02 -5.351943895220756531e-02 -3.289179503917694092e-02 3.458503633737564087e-02 -3.655910119414329529e-02 -2.022740095853805542e-01 -2.311537973582744598e-02 1.674527823925018311e-01 -2.528840862214565277e-02 -1.089951395988464355e-01 4.606993868947029114e-02 -4.189957305788993835e-02 -9.353916160762310028e-03 6.225350871682167053e-02 1.424540281295776367e-01 -7.577217370271682739e-02 1.426908820867538452e-01 -3.781433915719389915e-03 -2.077098488807678223e-01 -5.898395553231239319e-03 4.003371298313140869e-02 6.912077218294143677e-02 1.670989952981472015e-02 8.107204921543598175e-03 -1.013528853654861450e-01 6.499566882848739624e-02 -6.254966557025909424e-02 1.382880657911300659e-01 -4.446208477020263672e-02 1.248493343591690063e-01 3.415364399552345276e-02 -1.287850141525268555e-01 1.329678893089294434e-01 -1.379433926194906235e-02 2.371434494853019714e-02 -9.591033309698104858e-02 6.836632639169692993e-02 2.807334996759891510e-02 6.383728235960006714e-02 -8.993861824274063110e-02 -6.974270101636648178e-03 -6.431435048580169678e-02 1.662348359823226929e-01 -1.265765354037284851e-02 -9.815289080142974854e-02 1.012811437249183655e-01 2.088903449475765228e-02 -2.741077356040477753e-02 -1.923540420830249786e-02 6.426228582859039307e-02 4.975934699177742004e-02 1.007237434387207031e-01 1.834679581224918365e-02 -2.364234626293182373e-02
-9.791113734245300293e-01 -4.405772984027862549e-01 -3.227550908923149109e-02 -4.329806566238403320e-02 -3.746256828308105469e-01 -6.541181355714797974e-02 -1.547414958477020264e-01 7.664452493190765381e-02 -9.638106822967529297e-02 -4.312230646610260010e-02 -1.048151403665542603e-01 -3.430850058794021606e-02 -5.975513532757759094e-02 1.349388360977172852e-01 1.692293025553226471e-02 -2.300723688676953316e-03 1.421017851680517197e-02 1.388339698314666748e-01 7.232744246721267700e-02 2.990252897143363953e-02 8.192504756152629852e-03 -4.716889467090368271e-03 -6.076589971780776978e-02 1.959564350545406342e-02 -7.735219597816467285e-02 7.337518036365509033e-03 1.692543923854827881e-02 9.049884974956512451e-02 3.471122821792960167e-03 2.674184273928403854e-03 -7.290352880954742432e-02 -6.068206578493118286e-02 -6.972266361117362976e-03 1.126063615083694458e-02 -2.325424365699291229e-02 -9.630967862904071808e-03 5.278046242892742157e-03 -3.456723988056182861e-01 -1.763204038143157959e-01 -5.568843334913253784e-02 -2.523549646139144897e-02 -1.775336116552352905e-01 1.260181218385696411e-01 -2.052609622478485107e-01 2.473891526460647583e-02 5.485776439309120178e-02 -1.746234484016895294e-02 -6.323404144495725632e-03 9.258024394512176514e-02 1.399483252316713333e-02 -1.232574954628944397e-01 1.707885786890983582e-02 -7.115687709301710129e-03 6.668791919946670532e-02 1.130608022212982178e-01 1.192799583077430725e-01 8.311809599399566650e-02 3.715902566909790039e-02 -7.610648404806852341e-03 -4.715343937277793884e-02 1.056966837495565414e-03 -1.294165402650833130e-01 -4.568845406174659729e-02 -1.013865135610103607e-02 -1.436606980860233307e-02 9.925288707017898560e-02 9.642688930034637451e-02 -8.445033431053161621e-02 -7.038624957203865051e-03 5.770658329129219055e-02 8.373722434043884277e-03 8.264635689556598663e-03 -5.521103739738464355e-04 2.238907665014266968e-02 -1.638188362121582031e-01 4.779872298240661621e-02 6.474374234676361084e-02 -1.465626340359449387e-02 -1.659460216760635376e-01 9.246718883514404297e-02 -6.124979257583618164e-02 3.436182439327239990e-02 1.539372373372316360e-02 1.045045107603073120e-01 1.779121160507202148e-01 -7.080172002315521240e-02 -1.187136396765708923e-02 -3.003178723156452179e-02 -2.619166113436222076e-02 -5.627600941807031631e-03 6.068648397922515869e-02 1.533171981573104858e-01 4.803332686424255371e-02 5.099813267588615417e-02 6.932687480002641678e-03 -4.286891315132379532e-03 -4.697331041097640991e-02 -5.147445201873779297e-02 -1.191953662782907486e-02 1.017054892145097256e-03 2.570718061178922653e-04 -5.488207936286926270e-02 3.598427772521972656e-02 -1.124532967805862427e-01 -6.381127983331680298e-02 -4.982992634177207947e-02 2.763932757079601288e-02 1.269198302179574966e-02 -2.297645667567849159e-03 -2.551529183983802795e-02 3.309552371501922607e-02 4.656825661659240723e-01 1.363370567560195923e-03 1.089664548635482788e-01 2.774095349013805389e-02 1.532489210367202759e-01 -1.898264288902282715e-01 9.279023855924606323e-02 4.367245361208915710e-02 2.405896969139575958e-02 -8.429617434740066528e-02 -1.000651866197586060e-01 -9.271065890789031982e-02 -3.886712947860360146e-03 3.875365480780601501e-02 8.940345048904418945e-02 -9.603505954146385193e-03 6.548719108104705811e-02 1.691413372755050659e-01 2.145919501781463623e-01 -5.589302629232406616e-02 4.394115507602691650e-02 -1.384944425808498636e-05 -3.770639747381210327e-02 -2.942890673875808716e-02 -4.865842312574386597e-02 -1.338738203048706055e-02 -3.013180196285247803e-02 -1.991924941539764404e-01 -6.672288477420806885e-02 1.039333874359726906e-04 1.667052209377288818e-01 -1.742697693407535553e-02 2.869874052703380585e-02 4.648311063647270203e-02 3.943742439150810242e-02 -2.037418447434902191e-02 9.829094633460044861e-03 8.744816184043884277e-01 8.716208487749099731e-02 1.349695920944213867e-01 -1.505992654711008072e-02 1.249332800507545471e-01 6.458371132612228394e-02 2.764496393501758575e-02 7.372254040092229843e-03 9.225545078516006470e-02 -1.217543110251426697e-01 6.981103867292404175e-02 -8.624687045812606812e-02 4.106174036860466003e-02 9.771555662155151367e-02 1.079902946949005127e-01 -5.079287104308605194e-03 4.744014516472816467e-02 1.747900247573852539e-01 4.401075467467308044e-02 2.799671888351440430e-02 1.422949042171239853e-02 -8.284442126750946045e-03 2.125988341867923737e-02 -1.192833930253982544e-01 9.668374061584472656e-02 5.492493882775306702e-02 4.306349903345108032e-02 -8.017978072166442871e-02 3.818695247173309326e-02 -1.584651619195938110e-01 1.829330250620841980e-02 1.078888773918151855e-02 4.816688969731330872e-02 7.028242200613021851e-02 3.630345687270164490e-03 1.528892200440168381e-02 9.447596035897731781e-03 6.364010274410247803e-02 -1.756802201271057129e-01 1.821488328278064728e-02 -1.174815669655799866e-01 3.075115010142326355e-02 9.140021353960037231e-02 -4.868566989898681641e-02 -6.689891964197158813e-02 1.062021106481552124e-01 -7.815960049629211426e-02 5.660753697156906128e-02 -2.525898441672325134e-02 -7.496359944343566895e-02 6.038809195160865784e-02 -1.410685330629348755e-01 -1.463287416845560074e-02 -1.145674064755439758e-01 5.495693162083625793e-02 -1.654732972383499146e-03 -3.411427140235900879e-02 -6.702131032943725586e-02 1.041008383035659790e-01 -1.258524209260940552e-01 -2.154515497386455536e-02 4.913806170225143433e-02 1.139276027679443359e-01 -1.056626439094543457e-02 -2.126717120409011841e-01 1.071369089186191559e-02 -1.465644240379333496e-01 -3.424321999773383141e-03 -2.843776345252990723e-02 -2.008701488375663757e-02 2.823490649461746216e-02 3.051866590976715088e-02 8.191118016839027405e-03 3.105359338223934174e-02 6.282645277678966522e-03 1.338067650794982910e-01 -1.109474226832389832e-01 -2.026608437299728394e-01 9.140485525131225586e-02 -2.552135884761810303e-01 2.454812079668045044e-02 5.038689076900482178e-02 -1.122000906616449356e-02 3.739379346370697021e-02 7.350783795118331909e-03 2.675295062363147736e-02 1.591843962669372559e-01 2.984078601002693176e-02 -7.544264942407608032e-02
-6.390892267227172852e-01 3.728980422019958496e-01 9.847558289766311646e-02 -3.208493813872337341e-03 -6.178984045982360840e-02 1.354287266731262207e-01 2.446083584800362587e-03 3.368296427652239799e-03 1.684550195932388306e-01 6.701774895191192627e-02 -2.328660786151885986e-01 6.685554236173629761e-02 -4.297259822487831116e-02 -1.910297274589538574e-01 -1.504494845867156982e-01 -2.203592564910650253e-03 -6.973778363317251205e-05 1.287437323480844498e-02 -9.448996931314468384e-02 4.386191070079803467e-02 1.600850932300090790e-02 -3.595282556489109993e-03 -3.637805208563804626e-02 -6.340886931866407394e-03 3.863933263346552849e-03 7.006908208131790161e-02 -3.344659879803657532e-02 -2.010694891214370728e-02 1.059431582689285278e-01 5.772508308291435242e-02 6.413307506591081619e-03 -1.164080016314983368e-02 -1.843822561204433441e-02 2.748907310888171196e-03 -1.428717654198408127e-02 -1.174090802669525146e-02 3.047473030164837837e-03 -4.511801302433013916e-01 1.468341052532196045e-01 5.680052191019058228e-02 -3.324927762150764465e-02 6.608647108078002930e-02 -6.767701357603073120e-02 -5.783695355057716370e-02 -6.763451546430587769e-02 -3.601470217108726501e-02 8.484691381454467773e-03 1.185466162860393524e-02 3.191628679633140564e-02 -9.647038578987121582e-02 -1.026170328259468079e-01 -3.134125843644142151e-02 -4.463641438633203506e-03 2.568660303950309753e-02 1.420182455331087112e-02 5.093168094754219055e-02 -1.641456596553325653e-02 2.962376177310943604e-02 6.668411660939455032e-03 -5.025187507271766663e-03 -1.739116944372653961e-02 -2.027221024036407471e-02 -6.682892143726348877e-02 2.026234194636344910e-02 1.345948725938796997e-01 2.345252223312854767e-02 9.316986799240112305e-02 1.015650853514671326e-01 5.666439421474933624e-03 3.272021561861038208e-02 1.070032361894845963e-02 -1.702673174440860748e-02 -5.486179608851671219e-03 -7.847203873097896576e-03 1.157067269086837769e-01 1.369777228683233261e-02 -3.454842418432235718e-02 5.906236171722412109e-02 -1.556120160967111588e-02 5.354229826480150223e-03 2.557644248008728027e-02 -1.056525483727455139e-01 -6.555216759443283081e-02 -9.803843684494495392e-03 5.052151158452033997e-02 -1.531122475862503052e-01 -9.990156441926956177e-02 1.686977595090866089e-01 1.163625568151473999e-01 -5.696682259440422058e-03 -2.249873429536819458e-02 1.616895385086536407e-02 -4.303773865103721619e-03 5.626293830573558807e-03 -4.351426288485527039e-02 6.422637961804866791e-03 5.260511534288525581e-04 3.853560611605644226e-02 7.758165593259036541e-04 -3.723881440237164497e-03 3.849598020315170288e-02 -1.498478353023529053e-01 -3.980688779847696424e-05 9.859685786068439484e-03 -1.121644303202629089e-01 -2.069024182856082916e-02 2.715210057795047760e-02 3.500462509691715240e-03 -7.724417001008987427e-02 -1.299226097762584686e-02 -1.828697277233004570e-03 2.461908608675003052e-01 -2.417887896299362183e-01 -7.297255098819732666e-02 -8.552868664264678955e-02 7.624642457813024521e-03 1.105636358261108398e-02 -4.719357192516326904e-02 4.220446944236755371e-02 5.722779035568237305e-02 -4.110313579440116882e-02 1.394411325454711914e-01 -7.393871247768402100e-02 -2.044583112001419067e-02 1.265327073633670807e-02 -2.220634371042251587e-02 2.549453172832727432e-03 -1.482283044606447220e-02 -4.811661317944526672e-02 -1.801036484539508820e-02 6.616116967052221298e-03 3.519882634282112122e-02 8.339244872331619263e-03 9.013812988996505737e-03 -6.000492349267005920e-02 -5.622403696179389954e-02 -3.910745680332183838e-02 -3.331650793552398682e-02 1.505008935928344727e-01 -7.702390104532241821e-02 2.443553321063518524e-02 1.253473311662673950e-01 1.064806804060935974e-02 -2.845511585474014282e-02 3.792829811573028564e-02 -2.090584859251976013e-02 5.492364056408405304e-03 -2.544058673083782196e-02 7.086377143859863281e-01 -2.906661629676818848e-01 2.382712438702583313e-02 -1.395341753959655762e-02 5.554794520139694214e-02 2.343574352562427521e-02 -7.332667708396911621e-02 1.489080395549535751e-02 7.602265686728060246e-04 -7.513423264026641846e-02 2.840318977832794189e-01 -3.897321410477161407e-03 4.177282750606536865e-02 -5.430888012051582336e-02 3.274402394890785217e-02 -2.642474370077252388e-03 2.299579046666622162e-02 4.013706743717193604e-02 -8.166640251874923706e-02 -9.125517308712005615e-02 5.908172577619552612e-03 5.216934252530336380e-03 1.128102093935012817e-02 4.939047619700431824e-02 -4.475142434239387512e-02 1.548625901341438293e-02 -3.860923647880554199e-02 3.711621742695569992e-03 -3.150315582752227783e-02 -1.239168196916580200e-01 -9.394992887973785400e-02 1.620957255363464355e-02 2.943961322307586670e-02 -3.356992267072200775e-03 3.242549300193786621e-02 -4.422456491738557816e-03 5.028023570775985718e-02 -8.913207566365599632e-04 8.804939687252044678e-02 -3.455133363604545593e-02 -1.963086612522602081e-02 3.054039925336837769e-02 2.734808623790740967e-02 -5.380189791321754456e-02 -7.098023593425750732e-02 -8.577263355255126953e-02 2.652098797261714935e-02 8.599139004945755005e-02 -9.785863757133483887e-02 1.512968093156814575e-01 -5.919406190514564514e-02 5.758705362677574158e-02 -6.484804302453994751e-02 1.112007256597280502e-02 1.117572933435440063e-01 1.217849701642990112e-01 -3.148677945137023926e-02 -8.313928544521331787e-02 -3.887858241796493530e-02 -1.485092937946319580e-01 1.189034730195999146e-01 4.085336998105049133e-02 1.169254332780838013e-01 -6.951814889907836914e-02 1.397472620010375977e-01 -6.104128062725067139e-02 -1.144381687045097351e-01 7.922260463237762451e-02 7.838566787540912628e-03 -8.632977306842803955e-02 -7.603507488965988159e-02 -7.258689403533935547e-02 1.038750261068344116e-02 2.673785947263240814e-02 1.082007074728608131e-03 1.190760582685470581e-01 2.850728109478950500e-02 6.353379786014556885e-02 -1.114992648363113403e-01 -1.326026767492294312e-01 -1.320925191976130009e-03 7.689804583787918091e-02 6.763323396444320679e-02 -1.176239401102066040e-01 -4.956490173935890198e-02 -1.773462742567062378e-01 -4.359887540340423584e-02 -1.111211404204368591e-01 -4.158484190702438354e-02
-8.154478669166564941e-02 8.322266340255737305e-01 -4.866228252649307251e-02 -1.000545080751180649e-02 -2.007410489022731781e-02 -3.837891668081283569e-02 5.932184308767318726e-02 1.235924363136291504e-01 4.994750488549470901e-03 1.085409745573997498e-01 -1.007698997855186462e-01 7.518134266138076782e-02 -5.068460479378700256e-02 1.008895635604858398e-01 -9.115345031023025513e-02 -1.645972515689209104e-04 -1.259576063603162766e-02 -3.019372373819351196e-02 -5.013372749090194702e-02 4.473033186513930559e-05 2.476345049217343330e-03 1.401111949235200882e-03 1.034137606620788574e-02 1.867701113224029541e-02 1.418442931026220322e-02 -1.370312180370092392e-02 9.257667697966098785e-04 -6.363050639629364014e-02 -9.239933453500270844e-03 5.670432746410369873e-02 -3.230897337198257446e-02 -7.221806328743696213e-03 8.508949540555477142e-03 -1.067464239895343781e-02 -2.256200090050697327e-02 -1.651638746261596680e-02 -7.329524494707584381e-03 -1.523903459310531616e-01 5.437105298042297363e-01 -7.867771387100219727e-02 1.199591159820556641e-01 -8.667584508657455444e-03 1.096746101975440979e-01 2.849153243005275726e-02 -1.043440625071525574e-01 -1.406423002481460571e-01 -5.110106989741325378e-02 5.924116075038909912e-02 1.145091056823730469e-01 4.103305563330650330e-02 -6.218728143721818924e-03 6.100698187947273254e-02 2.826577750965952873e-03 -2.546727284789085388e-02 -6.705458462238311768e-02 -1.670523546636104584e-02 2.158518694341182709e-02 1.045776065438985825e-02 4.058042541146278381e-03 7.592302281409502029e-03 5.370282381772994995e-02 4.306657984852790833e-02 -1.233648974448442459e-02 -1.832479727454483509e-03 -1.122584864497184753e-01 2.329687960445880890e-02 -7.411989569664001465e-02 2.225211821496486664e-02 -4.665084183216094971e-03 1.524457242339849472e-02 6.469740532338619232e-03 -4.995747655630111694e-02 -3.952574357390403748e-02 -4.630947951227426529e-03 1.724565587937831879e-02 1.663143336772918701e-01 7.142151147127151489e-02 -1.822725981473922729e-01 -1.978509277105331421e-01 -3.429067879915237427e-02 -1.039466187357902527e-01 -3.673060610890388489e-02 8.127523958683013916e-02 4.326879605650901794e-02 1.105608269572257996e-01 1.440866738557815552e-01 -9.639699943363666534e-03 1.493186037987470627e-02 -4.820903763175010681e-02 5.889327730983495712e-03 -2.459583804011344910e-02 -8.925331383943557739e-02 -3.504988178610801697e-02 2.583549730479717255e-02 -5.533620342612266541e-02 4.644618369638919830e-03 -1.794699393212795258e-02 1.323670381680130959e-03 7.934815436601638794e-02 -3.919347748160362244e-02 -9.863872546702623367e-04 -5.594242364168167114e-02 -6.113143265247344971e-02 -2.181955985724925995e-02 5.336673185229301453e-02 -5.749749019742012024e-03 -6.648349110037088394e-03 -2.357488684356212616e-02 -1.162005960941314697e-02 -4.788294807076454163e-02 6.854076869785785675e-03 -9.157997556030750275e-03 -4.181421101093292236e-01 -8.778139203786849976e-02 9.849573671817779541e-02 -1.115998327732086182e-01 2.426580758765339851e-03 2.478078752756118774e-01 2.195906192064285278e-01 -6.859586387872695923e-02 1.698873564600944519e-02 -2.094993367791175842e-02 -6.123454123735427856e-02 3.308576531708240509e-03 -6.655851751565933228e-02 -1.377791748382151127e-03 -8.081216947175562382e-04 -4.731234535574913025e-02 -1.839697733521461487e-02 1.063938438892364502e-02 -3.850672766566276550e-02 2.216012962162494659e-02 9.859012439846992493e-03 2.663178183138370514e-02 3.658175468444824219e-02 -8.946570008993148804e-02 8.133301883935928345e-02 3.331521898508071899e-02 -2.532365620136260986e-01 9.990783780813217163e-02 -7.230357080698013306e-02 -4.962061718106269836e-02 -3.016334585845470428e-02 -5.310456827282905579e-02 -2.074558846652507782e-02 3.767047543078660965e-03 -3.662925958633422852e-02 -1.852395944297313690e-02 -6.003295071423053741e-03 -8.756240010261535645e-01 1.859300583600997925e-02 -2.046791836619377136e-02 -3.829808533191680908e-02 -2.001377791166305542e-01 -4.607316479086875916e-02 6.540539115667343140e-02 -2.050873488187789917e-01 6.373643130064010620e-02 1.668171584606170654e-01 1.015757471323013306e-01 -3.537496179342269897e-02 6.152056530117988586e-02 2.698197774589061737e-02 -5.631865467876195908e-03 -6.356694549322128296e-02 -7.795258611440658569e-02 4.271657019853591919e-02 8.107449114322662354e-02 -2.455478534102439880e-02 2.015307731926441193e-02 -4.909171257168054581e-03 -2.151894569396972656e-02 -8.419667929410934448e-02 8.110912144184112549e-02 -8.569431491196155548e-03 -1.919512152671813965e-01 -1.336169838905334473e-01 -4.359194263815879822e-02 -1.733823493123054504e-02 4.482101276516914368e-02 6.458771880716085434e-03 1.405127160251140594e-02 7.332639303058385849e-03 -7.028748095035552979e-02 -2.877526357769966125e-02 -6.324855983257293701e-02 -4.670844972133636475e-02 -7.965362817049026489e-02 3.112646751105785370e-02 -1.231501996517181396e-02 9.903659671545028687e-02 -3.716216236352920532e-02 -7.955304346978664398e-03 5.700675770640373230e-02 -8.206966519355773926e-02 -8.703926950693130493e-02 -4.263755306601524353e-02 -1.993067376315593719e-02 -1.321672741323709488e-02 -1.108750700950622559e-01 -6.137550622224807739e-02 -6.369651854038238525e-02 8.468819409608840942e-02 1.276060044765472412e-01 8.538642432540655136e-04 8.519153296947479248e-02 5.866165831685066223e-02 -9.134071320295333862e-02 -4.028501734137535095e-02 -8.771928027272224426e-03 -6.978967785835266113e-02 1.811114139854907990e-02 -7.970428466796875000e-02 -3.206609934568405151e-02 -2.909432724118232727e-02 -2.361780591309070587e-02 -3.284616395831108093e-02 3.586285747587680817e-03 1.537553966045379639e-01 5.105685815215110779e-02 3.441330045461654663e-03 -7.433105260133743286e-02 -6.099296361207962036e-02 -7.488308846950531006e-02 -8.766491897404193878e-03 -9.865856915712356567e-02 -9.363007731735706329e-03 -2.510357461869716644e-02 -4.641691688448190689e-03 4.482598602771759033e-02 2.450942620635032654e-02 9.883555024862289429e-02 1.579913198947906494e-01 -1.160667464137077332e-02 -3.367292508482933044e-02 -6.356841325759887695e-02 -1.168833300471305847e-01
-4.873135685920715332e-02 1.965098381042480469e-01 -1.675754413008689880e-02 6.718378514051437378e-02 -5.965558812022209167e-02 -3.467621281743049622e-02 -4.677898064255714417e-02 2.210867106914520264e-01 -1.111646816134452820e-01 1.192053686827421188e-02 -3.375984088052064180e-04 2.453692853450775146e-01 1.035959348082542419e-01 8.656960725784301758e-02 -8.733102120459079742e-03 2.718358533456921577e-03 1.962013542652130127e-02 -2.722967043519020081e-02 -5.674872081726789474e-03 -1.161533035337924957e-02 1.449074334232136607e-04 -2.041669562458992004e-03 -1.118621556088328362e-03 2.346304804086685181e-02 1.558925304561853409e-02 -8.534012362360954285e-03 2.391157299280166626e-02 6.493678689002990723e-02 -4.224822670221328735e-02 -4.225678741931915283e-02 7.842493802309036255e-02 1.655137864872813225e-03 -4.713551606982946396e-03 3.706782590597867966e-04 1.160736475139856339e-02 -1.844949647784233093e-02 1.711426302790641785e-02 -2.840660512447357178e-01 5.573071911931037903e-02 -1.324171572923660278e-01 -5.183134600520133972e-02 -3.143183887004852295e-01 -1.254937797784805298e-01 -2.168960869312286377e-02 -8.089359849691390991e-02 4.868669901043176651e-03 3.821528702974319458e-02 -6.669970601797103882e-02 -2.348053082823753357e-02 1.006196811795234680e-01 1.005347520112991333e-01 -5.776643007993698120e-02 -9.807042079046368599e-04 -2.705010026693344116e-02 -6.954684853553771973e-02 -6.667139381170272827e-02 -4.880168288946151733e-02 3.985804505646228790e-03 5.290259607136249542e-03 -1.384698692709207535e-02 1.220537908375263214e-02 5.308512598276138306e-02 2.733957488089799881e-03 -6.212949287146329880e-03 8.720801770687103271e-02 -3.211831301450729370e-02 -1.301496475934982300e-01 -7.794673740863800049e-02 7.808968890458345413e-03 -1.418030913919210434e-02 -1.061959657818078995e-02 2.331052441149950027e-03 -3.991786390542984009e-03 9.144863113760948181e-03 -3.680647015571594238e-01 -3.537569046020507812e-01 -2.211769483983516693e-02 3.426135703921318054e-02 7.068576663732528687e-02 -1.590274125337600708e-01 -6.413830071687698364e-02 1.435056887567043304e-02 5.867019295692443848e-02 -7.239530235528945923e-02 -1.677086800336837769e-01 -6.658082455396652222e-02 3.810604289174079895e-02 2.594516240060329437e-02 8.643085509538650513e-02 -2.576382132247090340e-03 -1.120602898299694061e-02 -1.916936971247196198e-02 -9.063797444105148315e-02 3.743121773004531860e-02 -1.518432423472404480e-02 7.202278822660446167e-03 1.262304635929467622e-06 1.072060875594615936e-02 -2.333253389224410057e-03 3.256551921367645264e-02 3.247017040848731995e-02 2.641986608505249023e-01 -3.294466435909271240e-02 9.878796525299549103e-03 -1.526883840560913086e-01 1.731226220726966858e-03 -1.120149809867143631e-02 -1.673778705298900604e-02 3.599797189235687256e-02 2.524117473512887955e-03 5.057545844465494156e-03 -6.129082441329956055e-01 -7.320096492767333984e-01 1.294549405574798584e-01 3.961823880672454834e-02 -1.056054257787764072e-03 -2.551154494285583496e-01 -3.277822956442832947e-02 -5.933049321174621582e-02 -1.983146928250789642e-02 -3.228035941720008850e-02 7.323133945465087891e-02 -1.885671466588973999e-01 -1.356127709150314331e-01 -8.988103270530700684e-02 -2.115070074796676636e-02 7.983755320310592651e-03 -1.889962889254093170e-02 -8.703442662954330444e-02 -1.298724412918090820e-01 -4.195983335375785828e-02 -5.160809494554996490e-03 2.553076017647981644e-03 3.086087061092257500e-03 -7.265880703926086426e-03 -8.954424411058425903e-03 -1.286461856216192245e-02 -1.625135727226734161e-02 -1.167358607053756714e-01 -1.322624832391738892e-01 2.130571380257606506e-02 1.224109679460525513e-01 -7.555149961262941360e-03 8.014282211661338806e-03 -4.048786126077175140e-03 8.121423423290252686e-03 -3.592917928472161293e-03 4.582001361995935440e-03 -5.515021681785583496e-01 -9.882947802543640137e-01 2.121013104915618896e-01 8.005289360880851746e-03 -1.538881212472915649e-01 -2.822154015302658081e-02 -2.004605233669281006e-01 -1.624552607536315918e-01 -2.025690972805023193e-01 -3.925736527889966965e-03 4.948422312736511230e-02 -1.110113933682441711e-01 5.042716488242149353e-02 1.328042615205049515e-02 -1.103806421160697937e-01 2.194463275372982025e-02 -2.016269974410533905e-02 -1.085660830140113831e-01 -1.692649126052856445e-01 -4.264376685023307800e-02 1.238394156098365784e-02 -1.626863144338130951e-02 1.479143183678388596e-02 1.522379927337169647e-02 7.871294766664505005e-02 2.425741218030452728e-02 -6.829659454524517059e-03 -5.694473534822463989e-02 -2.573602460324764252e-02 5.751671269536018372e-02 4.521451145410537720e-02 -8.892524056136608124e-03 -5.604758858680725098e-03 -6.010637059807777405e-02 3.271240368485450745e-02 4.215921740978956223e-03 1.542153581976890564e-02 -1.187114492058753967e-01 1.279807239770889282e-01 -2.034552954137325287e-02 1.504539549350738525e-01 -6.594434380531311035e-02 -7.585959043353796005e-03 5.778089538216590881e-02 3.846698626875877380e-02 6.413572281599044800e-02 7.178399711847305298e-02 1.406535878777503967e-02 9.304647147655487061e-02 -5.687664728611707687e-03 -9.799635410308837891e-02 -1.685847179032862186e-03 1.925207115709781647e-02 1.204803586006164551e-01 -8.616800606250762939e-02 5.809484049677848816e-02 3.567652404308319092e-02 -5.039244517683982849e-02 1.013970151543617249e-01 5.781729891896247864e-02 -7.582543417811393738e-03 6.918036192655563354e-02 -1.645686849951744080e-02 -6.769166141748428345e-02 5.903076380491256714e-02 2.184343710541725159e-02 7.406809180974960327e-02 2.910631010308861732e-03 -2.620956301689147949e-02 6.382891442626714706e-03 -5.061700940132141113e-02 1.024070829153060913e-01 8.108510076999664307e-02 7.454530149698257446e-02 7.366646826267242432e-02 7.278948277235031128e-02 7.262496743351221085e-03 9.940409660339355469e-02 6.487264297902584076e-03 -3.270201012492179871e-02 1.740680076181888580e-02 4.673781618475914001e-02 -1.713738590478897095e-02 -4.043664038181304932e-02 4.057596623897552490e-02 9.423395991325378418e-02 1.044623851776123047e-01 6.776709854602813721e-02 -1.417459920048713684e-02
6.902509927749633789e-01 5.031208992004394531e-01 2.323046512901782990e-02 -6.293224543333053589e-02 2.552482485771179199e-01 1.107126027345657349e-01 4.627384245395660400e-02 8.807162754237651825e-03 7.977451384067535400e-02 6.725578010082244873e-02 -3.350936621427536011e-02 1.132954582571983337e-01 -1.170500367879867554e-02 6.594530772417783737e-03 5.893374234437942505e-02 1.253162743523716927e-03 -1.351319346576929092e-02 -5.420888215303421021e-02 -8.077856898307800293e-02 1.921550137922167778e-03 -5.861993413418531418e-03 -3.123100847005844116e-03 5.014136806130409241e-02 -1.037228386849164963e-02 -1.103270798921585083e-02 -5.118615925312042236e-02 -1.471276208758354187e-02 -3.601907789707183838e-01 6.684535741806030273e-02 -6.584701687097549438e-02 -5.462922155857086182e-02 -2.860456146299839020e-02 -1.442729216068983078e-02 -2.232045866549015045e-03 2.742288447916507721e-02 -3.031068854033946991e-02 1.754847355186939240e-02 2.330139577388763428e-01 3.198100924491882324e-01 1.701940447092056274e-01 -2.132667042315006256e-02 -8.175809681415557861e-02 -6.089147180318832397e-02 8.138055354356765747e-02 5.814232677221298218e-02 -1.114680394530296326e-01 -1.951202154159545898e-01 -1.143407542258501053e-02 -1.719105057418346405e-02 4.202050156891345978e-03 -1.777132786810398102e-02 -8.424787968397140503e-02 1.204462954774498940e-03 3.963493276387453079e-03 -5.361195653676986694e-02 5.950774066150188446e-03 3.993102535605430603e-02 -1.501714624464511871e-02 -6.905705668032169342e-03 3.744027391076087952e-02 6.965661048889160156e-02 4.877039697021245956e-03 2.143619954586029053e-02 8.365173637866973877e-02 -1.440165787935256958e-01 8.051086962223052979e-02 -1.734498888254165649e-02 6.035092100501060486e-02 2.086862362921237946e-02 4.303897917270660400e-02 2.594495750963687897e-02 3.768699709326028824e-03 1.909100450575351715e-02 1.529865246266126633e-02 1.423534005880355835e-01 8.770345710217952728e-03 -7.377978414297103882e-02 2.305091917514801025e-02 7.016103714704513550e-02 6.834466755390167236e-02 -2.295766258612275124e-03 -1.403251569718122482e-02 -1.152993440628051758e-01 -1.407128125429153442e-01 1.545566618442535400e-01 -1.211316045373678207e-02 -6.157224625349044800e-02 1.371550280600786209e-02 3.570348396897315979e-02 1.318834954872727394e-03 -4.699168726801872253e-02 -2.455551363527774811e-02 -1.247746646404266357e-01 -4.431699216365814209e-02 -1.198944170027971268e-02 -2.800064627081155777e-03 4.230116307735443115e-02 -2.050832659006118774e-02 6.603832542896270752e-02 -9.418337792158126831e-02 -6.922438740730285645e-02 -3.147567436099052429e-02 8.155042678117752075e-02 6.294791400432586670e-02 -3.409911319613456726e-02 -2.231943607330322266e-02 -2.377068437635898590e-02 1.785711012780666351e-02 4.828160628676414490e-02 2.587248571217060089e-02 1.664031483232975006e-02 -1.018458902835845947e-01 -2.261011749505996704e-01 7.741165906190872192e-02 1.769258640706539154e-02 -1.146359890699386597e-01 2.805257029831409454e-02 -2.544129639863967896e-02 2.772785723209381104e-03 -5.158380419015884399e-02 1.462414562702178955e-01 5.516169965267181396e-02 -4.023515805602073669e-02 -2.193510159850120544e-02 -6.068500690162181854e-03 -3.523720195516943932e-03 4.944934044033288956e-03 -1.280335709452629089e-02 -6.133353337645530701e-02 -2.478558756411075592e-02 1.061144173145294189e-01 2.227086946368217468e-02 1.048648846335709095e-03 3.242293745279312134e-02 8.338338136672973633e-02 -9.570135176181793213e-02 -2.008941769599914551e-02 6.099230051040649414e-02 -2.201577126979827881e-01 2.069305777549743652e-01 -2.954265475273132324e-02 6.039905920624732971e-02 4.211065545678138733e-02 5.408252775669097900e-02 -8.159690769389271736e-04 1.602416858077049255e-02 1.723813265562057495e-02 1.465555746108293533e-02 -2.059185206890106201e-01 -4.811753332614898682e-01 -1.860291063785552979e-01 1.041782945394515991e-01 1.677640080451965332e-01 -7.246039062738418579e-02 -5.948592722415924072e-02 -5.955070257186889648e-02 8.886038511991500854e-02 4.811811074614524841e-02 -1.317701488733291626e-01 -4.625422134995460510e-02 1.141469031572341919e-01 7.178599387407302856e-02 4.042037203907966614e-02 3.737857565283775330e-03 -2.539902552962303162e-02 -3.285346552729606628e-03 -4.596399888396263123e-02 -1.812483929097652435e-02 -5.153916776180267334e-02 -2.898407983593642712e-04 3.633883222937583923e-02 -3.259490057826042175e-02 1.787435077130794525e-02 2.146404050290584564e-02 3.715987317264080048e-03 -2.066994160413742065e-01 4.257557168602943420e-02 -2.413860708475112915e-02 -7.764595560729503632e-03 -3.819388896226882935e-02 2.874379046261310577e-02 -6.232195347547531128e-02 1.378548797219991684e-02 -3.531192243099212646e-02 1.672228099778294563e-03 2.144926926121115685e-03 4.013048112392425537e-02 2.507196739315986633e-02 5.613947752863168716e-03 -9.844265878200531006e-02 -3.270120918750762939e-02 3.748838230967521667e-02 -1.985308229923248291e-01 -4.035361483693122864e-02 -4.188851267099380493e-02 -8.182854205369949341e-02 -8.647948503494262695e-02 -5.549439787864685059e-02 -3.471865504980087280e-02 8.698106743395328522e-03 -6.678170990198850632e-03 -2.391332061961293221e-03 -1.799697801470756531e-02 -1.288093924522399902e-01 -5.625727400183677673e-02 -7.846273481845855713e-03 -2.156799845397472382e-02 -1.043760553002357483e-01 -2.382371388375759125e-02 6.803945172578096390e-03 7.481370866298675537e-02 1.677274890244007111e-02 -6.398318707942962646e-02 -7.335688173770904541e-02 -5.350540205836296082e-02 2.314469777047634125e-02 3.717951476573944092e-02 1.361634861677885056e-02 4.450117237865924835e-03 7.276715338230133057e-02 -7.846892625093460083e-02 -8.601716905832290649e-02 -1.494963169097900391e-01 7.097409665584564209e-02 7.643585652112960815e-02 -1.123518683016300201e-03 -4.920820146799087524e-02 -3.188608214259147644e-02 8.074472099542617798e-02 1.095959022641181946e-01 5.614174157381057739e-02 3.105223551392555237e-02 -2.812526375055313110e-02 -1.718446314334869385e-01 1.417197939008474350e-02 -4.161826148629188538e-02 4.145697224885225296e-03
-6.455155611038208008e-01 -9.078024029731750488e-01 -8.140265196561813354e-02 1.137494519352912903e-01 -2.041821181774139404e-01 3.714923188090324402e-02 -1.811680197715759277e-02 2.324130237102508545e-01 4.179492592811584473e-02 2.039616405963897705e-01 5.174486711621284485e-02 -2.340639010071754456e-02 -1.021382957696914673e-01 -1.393998265266418457e-01 1.739539355039596558e-01 8.233136497437953949e-03 1.279913727194070816e-02 5.632642284035682678e-02 -3.243257105350494385e-02 -2.581026963889598846e-02 2.885546535253524780e-02 -2.736460191954392940e-05 -4.057925939559936523e-02 -9.095158427953720093e-02 -1.103981211781501770e-01 -1.258723903447389603e-02 -3.500695526599884033e-02 2.640795335173606873e-02 5.463875457644462585e-02 9.366506338119506836e-02 -9.124780446290969849e-02 -1.992841251194477081e-02 1.333850901573896408e-02 3.326920047402381897e-02 3.130913712084293365e-03 -1.985787041485309601e-02 1.613883860409259796e-02 -4.102195203304290771e-01 -5.563360452651977539e-01 -8.388916403055191040e-02 3.805253654718399048e-02 -5.597437173128128052e-02 3.622138500213623047e-02 1.074509620666503906e-01 -2.648946270346641541e-02 -2.356507815420627594e-02 -1.298556625843048096e-01 -5.079632252454757690e-02 -1.503107249736785889e-01 6.490181386470794678e-02 -3.996510431170463562e-02 -2.341062426567077637e-01 4.818318877369165421e-03 -3.141051623970270157e-03 2.895524352788925171e-02 9.524956345558166504e-02 3.484861180186271667e-02 1.124086230993270874e-02 6.348258815705776215e-03 -7.300534634850919247e-04 -1.027639657258987427e-01 -2.091878838837146759e-02 -4.151198267936706543e-02 -2.799617312848567963e-02 -5.692924931645393372e-02 -5.508357658982276917e-02 -3.529260167852044106e-03 7.452625036239624023e-02 -5.827859416604042053e-02 -8.658181875944137573e-03 1.684824819676578045e-03 -4.048267379403114319e-03 -2.108528465032577515e-02 -8.793942630290985107e-03 -1.994860619306564331e-01 -4.823615029454231262e-02 -1.085022166371345520e-01 -7.543523609638214111e-02 3.069486841559410095e-02 4.028123617172241211e-02 -3.688284754753112793e-02 -6.337669491767883301e-02 4.416659940034151077e-04 2.747649513185024261e-02 -1.195574253797531128e-01 2.697992883622646332e-02 1.529620494693517685e-02 7.619488239288330078e-02 5.085784941911697388e-02 4.487067635636776686e-04 3.570107370615005493e-02 1.234743818640708923e-01 1.683834195137023926e-01 4.330547899007797241e-02 2.343345619738101959e-02 -2.685299376025795937e-03 -4.293536394834518433e-02 -6.024437025189399719e-04 -3.120447136461734772e-02 -1.615602336823940277e-02 -5.227433517575263977e-03 1.411925256252288818e-02 -7.911771535873413086e-02 1.021945849061012268e-02 3.307830914855003357e-02 -4.126286879181861877e-02 -6.141483783721923828e-03 2.698940970003604889e-02 5.899786949157714844e-02 -3.373639658093452454e-03 1.834281161427497864e-02 -1.474122554063796997e-01 3.491720557212829590e-01 9.463813900947570801e-02 -1.124267745763063431e-02 2.470435574650764465e-02 -3.297743969596922398e-04 9.860403090715408325e-02 5.646107718348503113e-02 1.242914330214262009e-02 -1.193111911416053772e-01 -4.530213773250579834e-02 2.504884898662567139e-01 -1.227549612522125244e-01 -1.804557256400585175e-02 -1.789614707231521606e-01 -2.741827163845300674e-03 7.379943132400512695e-02 1.207160428166389465e-01 1.026587039232254028e-01 3.373909741640090942e-02 5.691482499241828918e-02 8.570571430027484894e-03 -2.041717432439327240e-02 -7.175401784479618073e-03 -1.351505368947982788e-01 8.540188521146774292e-02 -2.125949040055274963e-02 5.849632993340492249e-02 -5.229530483484268188e-02 7.065851986408233643e-02 -6.748510897159576416e-02 5.757033824920654297e-03 2.526145428419113159e-02 4.404565319418907166e-02 4.331406205892562866e-03 1.636581309139728546e-02 -8.977644145488739014e-03 2.284934371709823608e-01 8.667844533920288086e-01 1.303934752941131592e-01 4.136462509632110596e-02 1.530368477106094360e-01 1.276331096887588501e-01 5.260214209556579590e-02 -9.843832999467849731e-02 -1.376736629754304886e-02 5.163897573947906494e-02 -2.248828858137130737e-02 -7.258255779743194580e-02 -2.112603001296520233e-02 -4.101790115237236023e-02 3.220706060528755188e-02 -1.064367406070232391e-02 8.408583700656890869e-02 1.672610193490982056e-01 1.370628476142883301e-01 -2.808751165866851807e-02 -1.178464014083147049e-02 2.824919298291206360e-03 -4.201509058475494385e-02 -3.121357038617134094e-02 2.322101779282093048e-02 2.002457343041896820e-02 -7.122194021940231323e-02 -2.752780448645353317e-03 1.491744965314865112e-01 -2.106367349624633789e-01 4.737861827015876770e-02 -1.657085306942462921e-02 -5.035641789436340332e-02 -2.425285056233406067e-03 -2.088201418519020081e-02 1.456161867827177048e-02 -1.013965462334454060e-03 7.772442698478698730e-02 -3.343391418457031250e-02 4.245092347264289856e-02 -4.420102015137672424e-02 5.117667093873023987e-02 9.361907094717025757e-02 -4.346321895718574524e-02 1.836148463189601898e-02 -1.759307086467742920e-02 1.175334118306636810e-02 -5.997821688652038574e-02 -6.988796591758728027e-02 6.610422581434249878e-02 6.846617162227630615e-02 -4.332628101110458374e-02 -6.198627874255180359e-02 6.676514446735382080e-02 7.740344852209091187e-02 5.476421490311622620e-02 2.029976062476634979e-02 -3.530602902173995972e-02 -5.429581552743911743e-02 -1.592223159968852997e-02 -1.161634773015975952e-01 -1.552204489707946777e-01 -3.886238113045692444e-02 -3.423890564590692520e-03 -7.137008011341094971e-02 -7.930976152420043945e-02 -8.009462803602218628e-02 3.585688397288322449e-02 -3.344975039362907410e-02 -1.077383384108543396e-01 -8.472270518541336060e-02 -7.401194423437118530e-02 -1.324944496154785156e-01 -1.329227685928344727e-01 -1.197159290313720703e-01 -1.194878071546554565e-01 1.002093628048896790e-01 5.386009812355041504e-02 2.191233448684215546e-02 3.524389117956161499e-02 6.414864957332611084e-02 1.292324811220169067e-01 -1.390000618994235992e-02 -8.826112002134323120e-02 -1.028991192579269409e-01 -8.081869781017303467e-02 -6.361709535121917725e-02 -8.687376976013183594e-03 3.899140655994415283e-02
-5.742418766021728516e-02 -6.276775002479553223e-01 -5.636763945221900940e-02 9.124203771352767944e-02 -1.194954887032508850e-01 4.337849095463752747e-02 -4.395096376538276672e-02 3.324948623776435852e-02 1.664487086236476898e-02 1.505750864744186401e-01 -2.498245984315872192e-02 9.067708253860473633e-02 1.131160706281661987e-01 7.136467844247817993e-02 -9.800095111131668091e-03 3.114273538812994957e-03 -1.898127980530261993e-02 8.624561131000518799e-03 1.038178876042366028e-01 -1.517086103558540344e-02 -1.940705813467502594e-02 -6.979538593441247940e-04 4.266663640737533569e-02 2.048028446733951569e-02 4.259257577359676361e-03 1.729366369545459747e-02 1.896367873996496201e-03 3.479612991213798523e-02 9.523209184408187866e-02 3.136860951781272888e-02 1.957651786506175995e-02 -2.375688217580318451e-02 3.948620520532131195e-03 -1.437587291002273560e-02 -1.457356475293636322e-02 1.990643143653869629e-02 2.011901512742042542e-02 -2.474202215671539307e-01 -3.071682155132293701e-01 2.302036620676517487e-02 8.250650763511657715e-02 -8.310954272747039795e-02 8.408044278621673584e-02 7.836344093084335327e-02 -8.974814414978027344e-02 -3.971943259239196777e-02 5.345376674085855484e-03 -1.915869414806365967e-01 3.800388798117637634e-02 -5.976361688226461411e-03 4.927108436822891235e-02 1.969356089830398560e-02 -1.321833347901701927e-03 1.493230927735567093e-02 6.176549941301345825e-02 -6.925401836633682251e-02 -1.526471599936485291e-02 1.789702288806438446e-02 8.089596405625343323e-03 3.726616501808166504e-03 -1.450068652629852295e-01 -7.280465215444564819e-02 -1.359738502651453018e-02 -2.338663907721638680e-03 9.439955651760101318e-02 -1.264490038156509399e-01 1.617819517850875854e-01 -4.739817604422569275e-02 -6.759024108760058880e-04 -5.963318981230258942e-04 1.508488785475492477e-02 -1.975271105766296387e-02 3.107365965843200684e-02 -1.449089683592319489e-02 -3.845513463020324707e-01 2.467544376850128174e-01 -9.704109281301498413e-02 -2.367608100175857544e-01 -1.197364553809165955e-01 -2.538562752306461334e-02 2.560670375823974609e-01 1.056512296199798584e-01 -8.814381808042526245e-02 -1.923681050539016724e-01 1.413466595113277435e-02 -4.607341066002845764e-02 -7.102826982736587524e-02 -4.311282187700271606e-02 -1.267797201871871948e-01 -3.494404023513197899e-03 -2.204501442611217499e-02 -1.454686466604471207e-02 -7.817638665437698364e-02 6.093117222189903259e-02 1.317809149622917175e-02 3.100871341302990913e-03 -2.465598285198211670e-02 2.795924199745059013e-03 5.387801304459571838e-02 4.026343300938606262e-02 4.492553416639566422e-03 2.044888138771057129e-01 9.047147631645202637e-02 -6.182102486491203308e-02 -1.109338402748107910e-01 2.895455248653888702e-02 -9.587973356246948242e-03 -2.682749368250370026e-02 4.627952724695205688e-02 2.643176354467868805e-02 1.592451147735118866e-02 -5.504388213157653809e-01 7.531854510307312012e-01 4.912097007036209106e-02 5.374905839562416077e-02 -5.983177199959754944e-02 1.458828002214431763e-01 4.834656789898872375e-02 1.352946162223815918e-01 4.621226713061332703e-02 6.821669638156890869e-02 -6.262619048357009888e-02 7.857946306467056274e-02 5.440391600131988525e-03 -1.410336196422576904e-01 7.522382587194442749e-02 2.467423291818704456e-05 -1.958272419869899750e-02 1.316182166337966919e-01 1.297979056835174561e-01 6.263303011655807495e-02 -1.739015989005565643e-02 3.460525767877697945e-03 -2.190064266324043274e-02 4.557052254676818848e-02 1.630625315010547638e-02 2.042880095541477203e-02 -2.338499575853347778e-02 1.567908674478530884e-01 1.610133424401283264e-02 -1.928979456424713135e-01 7.076469808816909790e-02 -5.708214826881885529e-03 -2.805480360984802246e-02 -4.417777061462402344e-03 -2.690032869577407837e-02 8.526424877345561981e-03 4.218152910470962524e-02 -3.890507817268371582e-01 1.148865580558776855e+00 -9.420152753591537476e-03 -7.497045397758483887e-02 -7.941430062055587769e-02 2.450259327888488770e-01 3.897865116596221924e-02 9.868912398815155029e-03 -8.434280753135681152e-02 8.086818270385265350e-03 -1.354383975267410278e-01 7.216855138540267944e-02 8.451927453279495239e-03 -3.413994982838630676e-02 2.818655222654342651e-02 4.081828519701957703e-03 -2.480393089354038239e-02 1.121078878641128540e-01 1.958271414041519165e-01 1.180020719766616821e-01 -2.692656219005584717e-02 1.325888745486736298e-02 -2.968390472233295441e-02 1.992724537849426270e-01 -8.748588152229785919e-03 7.508914917707443237e-03 -3.118491172790527344e-02 1.871388852596282959e-01 2.591530382633209229e-01 -5.177449807524681091e-02 -2.981535345315933228e-02 2.940036915242671967e-02 -9.501996450126171112e-03 -2.349319984205067158e-04 -4.589631687849760056e-03 -4.937276244163513184e-03 7.799230515956878662e-02 7.175728678703308105e-02 9.173902869224548340e-02 -1.389601975679397583e-01 -4.147038608789443970e-02 6.680806726217269897e-02 -6.467916816473007202e-02 -1.454041749238967896e-01 1.920668631792068481e-01 -1.759477406740188599e-01 -7.656531780958175659e-02 1.396109312772750854e-01 1.397338043898344040e-02 -9.661701624281704426e-04 2.928840555250644684e-02 1.162753254175186157e-01 -1.167066171765327454e-01 -9.178420156240463257e-02 3.607756271958351135e-02 5.150009319186210632e-02 -5.242129415273666382e-02 1.139377206563949585e-01 -2.286037206649780273e-01 -1.030056104063987732e-01 7.502172142267227173e-03 -3.773313015699386597e-02 -4.812786821275949478e-03 -9.694768115878105164e-03 6.585050374269485474e-02 -1.464285999536514282e-01 -1.003714948892593384e-01 1.340730488300323486e-01 1.571779102087020874e-01 -1.673989370465278625e-02 1.509055346250534058e-01 -2.088690400123596191e-01 -1.642530411481857300e-02 -5.204785242676734924e-02 3.076556697487831116e-02 -1.026836484670639038e-01 -2.733758464455604553e-02 -7.688344456255435944e-03 -5.281521007418632507e-02 -1.050085425376892090e-01 1.497875452041625977e-01 2.971937507390975952e-02 -1.022370830178260803e-01 6.013909727334976196e-02 -1.333571523427963257e-01 -8.026488125324249268e-02 -5.852826312184333801e-02 3.952967748045921326e-02 7.904430478811264038e-02
-2.159845083951950073e-01 8.770397305488586426e-02 8.089220523834228516e-02 -4.566253349184989929e-02 1.222245916724205017e-01 -1.177492812275886536e-01 2.145135775208473206e-02 -1.542110145092010498e-01 -3.147851303219795227e-02 4.445598646998405457e-02 -2.467502094805240631e-02 -9.256371855735778809e-02 -1.754707694053649902e-01 2.721391059458255768e-02 -1.277364939451217651e-01 -1.118883769959211349e-02 4.744330886751413345e-03 4.383375123143196106e-02 -8.170320838689804077e-02 -4.070057999342679977e-03 1.309278234839439392e-02 3.265273408032953739e-04 2.417558990418910980e-02 -4.013792052865028381e-02 -4.161358624696731567e-02 8.746229112148284912e-03 5.072662606835365295e-03 -6.964972615242004395e-02 2.498420886695384979e-02 -4.953329637646675110e-02 6.250663101673126221e-02 -1.129053626209497452e-02 -1.726607978343963623e-02 2.163525484502315521e-02 8.308848366141319275e-03 -2.249574317829683423e-04 1.172996032983064651e-02 -1.025863736867904663e-01 4.310755431652069092e-02 -3.684864565730094910e-02 7.845598459243774414e-02 -3.472120687365531921e-02 6.655638664960861206e-02 6.725851446390151978e-02 2.839014865458011627e-02 -3.314550593495368958e-02 2.981012314558029175e-02 9.042590856552124023e-02 -1.222854182124137878e-01 3.907814249396324158e-02 -9.782902896404266357e-02 3.740245476365089417e-02 -7.024982478469610214e-03 3.183921426534652710e-02 -5.831098556518554688e-02 8.184981346130371094e-02 2.531016431748867035e-02 -1.077643223106861115e-02 6.409995257854461670e-04 -1.361767854541540146e-02 5.673644132912158966e-03 2.027319744229316711e-03 3.019866161048412323e-02 -1.465326081961393356e-02 -3.549981862306594849e-02 -2.260815054178237915e-01 7.523192465305328369e-02 -8.722905814647674561e-02 3.013131441548466682e-03 7.175555219873785973e-04 1.561314240097999573e-02 -1.417082035914063454e-03 2.466212958097457886e-02 1.491914317011833191e-02 6.123177334666252136e-02 -3.281376063823699951e-01 1.053093150258064270e-01 -1.352629438042640686e-02 -3.163800761103630066e-02 4.406862705945968628e-02 -6.000085175037384033e-02 -9.937223978340625763e-03 -2.723695710301399231e-02 1.485216338187456131e-02 -1.985513977706432343e-02 6.604623049497604370e-03 -3.151592612266540527e-02 -1.336112711578607559e-02 4.368580412119626999e-03 -3.185164881870150566e-03 1.300148479640483856e-02 -6.189326941967010498e-02 -8.935078233480453491e-02 9.758175350725650787e-03 2.340606600046157837e-02 9.530013427138328552e-03 -4.704204574227333069e-02 6.279905885457992554e-02 -5.555089190602302551e-02 -2.736494131386280060e-02 -1.754689030349254608e-02 -5.111449211835861206e-02 -1.187745630741119385e-01 -1.961856894195079803e-02 -2.608342841267585754e-02 5.746054928749799728e-03 -6.360985338687896729e-03 1.285707671195268631e-02 -7.097491528838872910e-03 2.034479193389415741e-02 1.524594426155090332e-02 2.301008999347686768e-01 -1.905368119478225708e-01 5.145374312996864319e-02 -2.805492281913757324e-02 8.596705645322799683e-02 -3.613439202308654785e-02 -1.320646107196807861e-01 3.160298615694046021e-02 1.803493648767471313e-01 6.669335067272186279e-02 3.734489530324935913e-02 -4.674741253256797791e-02 4.930197261273860931e-03 -1.082133129239082336e-01 -5.002151802182197571e-02 5.129670258611440659e-03 -1.904401928186416626e-02 7.708353549242019653e-02 8.022578805685043335e-02 -5.213922262191772461e-02 1.682692952454090118e-02 1.009806804358959198e-02 -2.500803023576736450e-02 -1.853755302727222443e-02 -3.227965533733367920e-02 5.551687255501747131e-02 8.609023876488208771e-03 1.466334797441959381e-02 -1.923512220382690430e-01 -6.572856009006500244e-02 3.426527604460716248e-02 -2.364037372171878815e-02 -4.687790758907794952e-03 1.551005430519580841e-02 3.416048362851142883e-02 1.107877865433692932e-02 2.078874595463275909e-02 6.661930084228515625e-01 -4.509453475475311279e-01 1.314281076192855835e-01 2.837670035660266876e-02 1.206921413540840149e-01 -1.034320518374443054e-01 -1.172671187669038773e-02 -1.187200471758842468e-01 1.804383285343647003e-02 -1.150996014475822449e-01 2.280622161924839020e-02 -7.650277018547058105e-02 -2.551206052303314209e-01 -4.193561524152755737e-02 4.813392832875251770e-02 1.414417405612766743e-03 -2.690959721803665161e-02 -2.333455160260200500e-02 -1.440160870552062988e-01 2.212255075573921204e-02 -2.946551144123077393e-02 8.646836504340171814e-03 -5.142951384186744690e-03 -1.041449755430221558e-01 -1.374989468604326248e-02 -7.198339700698852539e-02 -4.045061767101287842e-02 -1.800721436738967896e-01 -9.620096534490585327e-02 -1.253503374755382538e-02 6.791042536497116089e-02 -1.179134380072355270e-02 -8.974112570285797119e-03 3.820865601301193237e-02 2.908194437623023987e-02 4.117518663406372070e-02 2.624504826962947845e-02 -2.816358767449855804e-02 1.679368168115615845e-01 5.855988711118698120e-02 -6.325305998325347900e-02 -6.408898532390594482e-02 3.615269437432289124e-02 -4.028441384434700012e-02 -2.648829296231269836e-02 -3.724056482315063477e-02 -1.321176886558532715e-01 -7.888488471508026123e-02 -4.139930754899978638e-02 9.922446310520172119e-02 -8.253582566976547241e-02 1.150638088583946228e-01 2.427636831998825073e-02 -7.358126342296600342e-02 4.522996768355369568e-02 8.064565807580947876e-02 -1.328628212213516235e-01 3.593653440475463867e-02 -2.008442766964435577e-02 -5.561581254005432129e-02 6.850367039442062378e-02 -6.510373204946517944e-02 7.989351451396942139e-02 -1.656749695539474487e-01 8.108147233724594116e-02 1.499880757182836533e-02 -1.594763845205307007e-01 -3.375887870788574219e-02 1.445745527744293213e-01 -1.373647004365921021e-01 1.362871006131172180e-02 -4.522284865379333496e-02 -7.350381463766098022e-02 1.714230701327323914e-02 -1.224252134561538696e-01 8.547370880842208862e-02 -7.975326478481292725e-02 9.669803828001022339e-02 9.245888888835906982e-02 -1.110861003398895264e-01 -8.546748012304306030e-02 1.070552542805671692e-01 1.906780712306499481e-02 6.431205570697784424e-02 -1.620138995349407196e-02 -9.403260052204132080e-02 5.307015031576156616e-02 -1.918655820190906525e-02 1.307464838027954102e-01
6.983527541160583496e-01 -2.298665344715118408e-01 2.268335595726966858e-02 -7.434003055095672607e-04 1.803338713943958282e-02 -1.314486283808946609e-02 -1.350707262754440308e-01 1.365162283182144165e-01 5.947707593441009521e-02 -5.936207715421915054e-03 1.558076888322830200e-01 -3.737326338887214661e-02 -1.486000716686248779e-01 2.053145691752433777e-02 1.254961490631103516e-01 -9.010032750666141510e-03 1.227769069373607635e-02 1.744145527482032776e-02 -6.617848575115203857e-02 4.135461058467626572e-04 -1.908812904730439186e-03 8.645167574286460876e-03 -1.514646876603364944e-02 4.571849107742309570e-02 -2.680654264986515045e-02 -8.349140174686908722e-03 -1.002741511911153793e-02 5.330635607242584229e-02 -9.292716160416603088e-03 -1.556436717510223389e-01 -8.645071648061275482e-03 2.373707108199596405e-02 -2.134423516690731049e-02 -5.772951990365982056e-03 5.585886538028717041e-03 5.497920326888561249e-03 2.441345341503620148e-02 3.002502024173736572e-01 -1.526272594928741455e-01 -3.800803422927856445e-02 -3.782632946968078613e-02 -1.313840448856353760e-01 -4.874217882752418518e-02 7.823954522609710693e-02 -1.039691716432571411e-01 -1.152329333126544952e-02 9.780893474817276001e-02 4.567790776491165161e-02 -2.493551373481750488e-02 -5.621450394392013550e-02 -1.778673008084297180e-02 7.508646696805953979e-02 -1.902604126371443272e-03 1.786715537309646606e-02 -7.496377825736999512e-02 -5.264049023389816284e-02 -2.800848567858338356e-03 -7.346683181822299957e-03 3.936977591365575790e-03 -7.174602895975112915e-02 1.971098631620407104e-01 1.616896986961364746e-01 -3.305922448635101318e-02 -1.824297755956649780e-02 1.413208805024623871e-02 5.982535704970359802e-02 -6.288570910692214966e-02 -1.469857525080442429e-03 3.691899124532938004e-03 -5.527582392096519470e-02 -1.730487123131752014e-02 5.586945451796054840e-03 -1.757825957611203194e-03 1.285652630031108856e-02 -9.296118468046188354e-02 1.289181597530841827e-02 -3.397291759029030800e-03 3.323270753026008606e-02 -1.547225266695022583e-01 1.588856987655162811e-02 6.936307251453399658e-02 -3.415103256702423096e-02 -6.971405353397130966e-03 -3.864676505327224731e-02 -5.910837277770042419e-02 1.835305690765380859e-01 -2.827076986432075500e-02 7.517611980438232422e-02 1.238031983375549316e-01 -5.860430537723004818e-04 -2.072637155652046204e-02 -4.799289628863334656e-03 1.867402344942092896e-02 1.289459038525819778e-02 -1.105792168527841568e-02 1.548928557895123959e-03 -1.938372477889060974e-02 1.486082971096038818e-01 2.081636637449264526e-01 1.141265872865915298e-02 -1.896413229405879974e-02 -1.514339894056320190e-01 8.201165497303009033e-02 1.979146711528301239e-02 -1.252696663141250610e-01 4.953925963491201401e-03 -5.056013539433479309e-02 1.256983820348978043e-02 -8.833317086100578308e-03 -1.239236071705818176e-02 2.075943350791931152e-02 -3.842204809188842773e-01 1.996615231037139893e-01 -1.097204629331827164e-03 -1.280214041471481323e-01 -4.313189536333084106e-03 1.122002452611923218e-01 -6.479935348033905029e-02 -1.260328106582164764e-02 -6.193346343934535980e-03 1.877602040767669678e-01 -3.912578150629997253e-02 -4.898888990283012390e-02 -6.275557726621627808e-02 4.536038322839885950e-04 -1.424130499362945557e-01 -5.382455419749021530e-03 -3.403255715966224670e-02 -3.556425124406814575e-02 -9.615950286388397217e-03 -6.696589291095733643e-02 -3.104716166853904724e-02 7.983708754181861877e-03 -6.240074709057807922e-02 1.090180277824401855e-01 1.435724943876266479e-01 8.208593726158142090e-02 1.424352452158927917e-02 4.469682276248931885e-02 2.761869691312313080e-02 -4.451552778482437134e-02 1.080217808485031128e-01 1.625233516097068787e-02 -2.774894423782825470e-02 -1.255253213457763195e-03 1.669851690530776978e-02 8.677116711623966694e-04 -2.068247646093368530e-03 -7.978826165199279785e-01 4.776319265365600586e-01 -6.618220359086990356e-02 8.236914128065109253e-02 6.275741755962371826e-02 1.698573306202888489e-02 1.425580978393554688e-01 -1.446060091257095337e-01 6.753592751920223236e-04 9.303047508001327515e-02 -1.846881061792373657e-01 1.314445734024047852e-01 9.077621251344680786e-02 6.669502705335617065e-02 -1.774679124355316162e-01 -1.551932003349065781e-02 -4.614171106368303299e-03 -2.424092963337898254e-02 6.025863066315650940e-02 -5.628108046948909760e-03 6.311597302556037903e-03 1.592595688998699188e-02 -9.695606678724288940e-02 1.883360892534255981e-01 3.069474399089813232e-01 1.463545411825180054e-01 -5.056032165884971619e-02 -3.169375658035278320e-02 1.258277744054794312e-01 9.096109122037887573e-02 -5.987572669982910156e-02 3.540826588869094849e-02 -7.078731898218393326e-03 -3.373668342828750610e-02 -4.603974521160125732e-02 -1.981099881231784821e-02 -4.180695395916700363e-03 -6.511615216732025146e-02 5.284270644187927246e-02 -4.818416014313697815e-02 6.598107051104307175e-03 2.761171490419656038e-04 -2.535223960876464844e-02 -3.083297982811927795e-02 1.772251576185226440e-01 -5.186930298805236816e-03 -1.050390377640724182e-01 -2.397439628839492798e-02 -3.856446593999862671e-02 1.221223454922437668e-02 -1.260511390864849091e-02 1.981492340564727783e-02 -8.600591868162155151e-02 -5.641648918390274048e-02 5.545991659164428711e-02 -6.321335583925247192e-02 -2.640070579946041107e-02 1.215761974453926086e-01 -1.712021912680938840e-04 7.936057518236339092e-04 -4.938500747084617615e-02 5.214932188391685486e-02 4.418794810771942139e-02 1.450386480428278446e-03 1.525596249848604202e-03 -1.371613331139087677e-02 -4.093061015009880066e-02 1.187149668112397194e-03 -1.745725236833095551e-02 -7.391995936632156372e-02 8.714879304170608521e-02 7.942339777946472168e-02 -4.014777764678001404e-02 1.199918538331985474e-01 9.304100275039672852e-02 -7.296548783779144287e-02 7.379858288913965225e-03 -1.339107304811477661e-01 -2.582267113029956818e-02 -1.946702413260936737e-02 3.504983335733413696e-02 -4.545935988426208496e-02 -2.358416281640529633e-02 2.603656798601150513e-02 1.097284480929374695e-01 -9.290180169045925140e-03 1.580899804830551147e-01 1.723155728541314602e-03 1.428954210132360458e-02
-7.871366143226623535e-01 9.424474090337753296e-02 2.079041898250579834e-01 -1.814443469047546387e-01 -4.453972727060317993e-02 -3.069480508565902710e-02 -1.485890150070190430e-01 -6.678692996501922607e-02 -1.895978152751922607e-01 5.020562559366226196e-03 -2.083327323198318481e-01 1.492584943771362305e-01 1.550724506378173828e-01 1.640281379222869873e-01 -2.812225744128227234e-02 -5.477775819599628448e-03 2.480229828506708145e-03 -5.444774776697158813e-02 -8.320119231939315796e-02 2.011783653870224953e-03 8.751437067985534668e-03 2.274334896355867386e-03 -3.563113138079643250e-02 4.285671189427375793e-02 -3.635603561997413635e-02 1.635505072772502899e-02 -2.430769428610801697e-02 9.550037235021591187e-02 9.220841340720653534e-03 -5.892128124833106995e-02 -3.498142817988991737e-03 1.864086277782917023e-02 -2.334605669602751732e-03 1.870312541723251343e-02 -1.713345944881439209e-02 2.785305492579936981e-02 2.390904910862445831e-02 -5.456133484840393066e-01 -1.860420219600200653e-02 -5.789654329419136047e-02 6.977279484272003174e-02 -1.735428273677825928e-01 1.199031621217727661e-01 6.474342197179794312e-02 1.305614560842514038e-01 1.399345099925994873e-01 3.904090076684951782e-02 -1.923001706600189209e-01 3.145788982510566711e-02 1.006268560886383057e-01 -2.127798944711685181e-01 -1.421805471181869507e-01 -6.017877720296382904e-03 3.069514408707618713e-02 6.009448692202568054e-02 -1.243076398968696594e-01 3.945432230830192566e-02 3.140755370259284973e-02 -1.788047607988119125e-03 -3.815636038780212402e-02 7.910513132810592651e-02 7.670316100120544434e-02 4.479167610406875610e-02 1.153803616762161255e-02 -6.536500900983810425e-02 1.561571806669235229e-01 7.114575803279876709e-02 -9.620281308889389038e-02 -2.223762497305870056e-02 3.579376032575964928e-03 3.565984591841697693e-02 -1.000857818871736526e-02 -2.007855102419853210e-03 3.871786408126354218e-03 -1.794808208942413330e-01 1.557166576385498047e-01 5.779080465435981750e-02 3.276708722114562988e-02 9.846389293670654297e-02 2.092448472976684570e-01 6.699839141219854355e-04 8.622686564922332764e-02 4.587081447243690491e-02 -1.224416196346282959e-01 -1.550930738449096680e-01 1.154407858848571777e-01 -4.387765005230903625e-02 9.304334223270416260e-02 1.092369556427001953e-01 -5.477282684296369553e-03 1.419894397258758545e-02 -3.294261172413825989e-02 1.757485792040824890e-02 -1.852494105696678162e-02 -3.663279116153717041e-02 -2.051439369097352028e-03 -4.728580638766288757e-02 4.152504727244377136e-02 9.234473854303359985e-02 -2.929330058395862579e-02 -2.548397518694400787e-02 -1.651855260133743286e-01 6.760079413652420044e-02 6.178535521030426025e-03 -4.353040456771850586e-02 1.348437648266553879e-02 1.163964439183473587e-02 4.208355024456977844e-02 -9.682355076074600220e-02 1.030955184251070023e-02 1.712549105286598206e-02 9.959287196397781372e-02 1.535062342882156372e-01 -2.655038237571716309e-02 1.401459332555532455e-03 -5.003517866134643555e-02 -5.510408431291580200e-02 1.183469519019126892e-01 -4.655610397458076477e-02 -6.704080104827880859e-02 7.337724417448043823e-02 2.245264686644077301e-02 1.139582917094230652e-01 -7.726427167654037476e-02 4.871050268411636353e-02 -1.188427209854125977e-01 -7.973488420248031616e-03 6.848341226577758789e-02 5.014703422784805298e-02 3.469656035304069519e-02 1.374763250350952148e-02 3.653403371572494507e-02 6.119430065155029297e-03 -6.033919379115104675e-02 1.522435992956161499e-01 5.402557179331779480e-02 3.659486398100852966e-02 -4.776686429977416992e-02 6.153754889965057373e-02 -6.834822241216897964e-03 -3.045346029102802277e-02 -5.466435104608535767e-02 -5.826149135828018188e-03 5.257576704025268555e-03 -2.477182447910308838e-02 2.270906232297420502e-02 7.872605696320533752e-03 2.420548722147941589e-02 6.367610692977905273e-01 2.404010891914367676e-01 -4.438153654336929321e-02 4.754004999995231628e-02 2.478269785642623901e-01 7.634600251913070679e-02 7.668130844831466675e-02 -5.136984586715698242e-02 -6.353199481964111328e-02 6.832402944564819336e-02 1.977929286658763885e-02 9.088323265314102173e-02 2.625817619264125824e-02 -5.465047433972358704e-02 8.804257959127426147e-02 -1.061638351529836655e-02 9.448288939893245697e-03 7.918400317430496216e-02 5.914260819554328918e-02 3.030005143955349922e-03 -1.895327493548393250e-02 5.658544832840561867e-04 -4.864923655986785889e-02 2.250985801219940186e-02 1.079320758581161499e-01 8.100756257772445679e-02 1.723097870126366615e-03 8.789910376071929932e-02 4.406396299600601196e-02 3.925753384828567505e-02 1.004030182957649231e-01 -1.119474787265062332e-02 4.746561404317617416e-03 1.093649640679359436e-01 -7.379263639450073242e-02 9.398777910973876715e-05 -2.744239754974842072e-03 9.952532500028610229e-02 1.913432627916336060e-01 -1.990133076906204224e-01 -2.103704512119293213e-01 1.266659423708915710e-02 -4.402402788400650024e-03 -3.189052641391754150e-02 -3.475413843989372253e-02 -8.225757628679275513e-02 -1.805220991373062134e-01 -1.961242873221635818e-03 -2.220585709437727928e-03 6.901039928197860718e-02 7.433409988880157471e-02 1.516570448875427246e-01 -4.325834289193153381e-02 -2.479325383901596069e-01 -2.587576210498809814e-02 1.218343526124954224e-01 -1.733179017901420593e-02 -8.120875060558319092e-02 1.482715597376227379e-03 -1.954952180385589600e-01 8.706824854016304016e-03 -5.077103525400161743e-02 5.508082360029220581e-02 9.357446432113647461e-02 2.119316011667251587e-01 -1.707770079374313354e-01 -1.655484884977340698e-01 1.237442791461944580e-01 -1.166593632660806179e-03 -1.424289122223854065e-02 -1.534767299890518188e-01 -9.883059188723564148e-03 -1.699257940053939819e-01 -8.554366230964660645e-02 -1.330201923847198486e-01 1.163622587919235229e-01 1.018071845173835754e-01 2.181334197521209717e-01 -7.922010868787765503e-02 -1.106501743197441101e-01 1.301584951579570770e-02 -2.429169602692127228e-02 2.563540451228618622e-02 -1.000539213418960571e-01 -9.117496199905872345e-03 -2.463665418326854706e-02 7.137621194124221802e-02 -1.804041117429733276e-01 6.083624437451362610e-03
-9.574700891971588135e-02 -4.186905920505523682e-01 -9.519494324922561646e-02 -2.143944846466183662e-03 -1.792467832565307617e-01 -8.313114941120147705e-02 -9.962767362594604492e-02 -1.359811052680015564e-02 1.514770686626434326e-01 -1.317787263542413712e-02 -1.084772944450378418e-01 -1.590403616428375244e-01 5.613550916314125061e-02 8.250676095485687256e-02 1.278198808431625366e-01 -5.337886046618223190e-03 2.057344466447830200e-02 7.008867710828781128e-02 3.545137867331504822e-02 -3.638453409075737000e-02 1.533145830035209656e-02 4.888275638222694397e-03 1.103794481605291367e-02 -3.407046664506196976e-03 -9.980877488851547241e-02 6.258378177881240845e-02 -2.058059209957718849e-03 -1.455142349004745483e-01 5.367420986294746399e-02 -4.691863432526588440e-02 2.822256833314895630e-02 -1.835788041353225708e-02 4.997388273477554321e-02 -3.470625728368759155e-02 -3.573055192828178406e-02 3.369301185011863708e-02 1.685836724936962128e-02 -2.016909420490264893e-01 -1.631138324737548828e-01 6.564909592270851135e-03 -4.183792974799871445e-03 -4.995674267411231995e-02 -1.145375333726406097e-02 -4.824260249733924866e-02 -1.107974816113710403e-02 1.015373095870018005e-01 -3.724941238760948181e-02 4.028352349996566772e-02 5.725716054439544678e-02 9.753252565860748291e-02 -2.291861735284328461e-02 1.244412660598754883e-01 -1.704984693787992001e-03 2.561351470649242401e-02 1.132691130042076111e-01 9.789173305034637451e-02 6.000166386365890503e-02 -1.444840990006923676e-02 -2.782374620437622070e-03 -1.324266940355300903e-02 -4.040253907442092896e-02 6.325817666947841644e-03 -9.355366230010986328e-02 3.007086366415023804e-02 -8.925287425518035889e-02 1.270043104887008667e-01 -4.303201660513877869e-02 -8.974861353635787964e-02 1.514764502644538879e-02 -1.460118778049945831e-02 5.723031237721443176e-02 -1.873596571385860443e-02 -1.531027350574731827e-02 -3.073940426111221313e-02 -1.645783931016921997e-01 -5.659350007772445679e-02 -1.673682034015655518e-01 4.229180887341499329e-02 -7.566981762647628784e-02 4.458488523960113525e-02 -6.919471174478530884e-02 5.071039497852325439e-02 -5.244945641607046127e-03 1.241060420870780945e-01 -1.231067851185798645e-01 4.576057568192481995e-02 9.658995084464550018e-03 2.845721319317817688e-02 -4.466089606285095215e-02 -1.363300601951777935e-03 -3.844609856605529785e-02 8.508124947547912598e-02 1.186781451106071472e-01 -3.568648174405097961e-02 9.213818237185478210e-03 4.798362031579017639e-03 -7.184389978647232056e-03 -1.368909236043691635e-02 -5.101798102259635925e-02 -2.540555968880653381e-02 -6.341484189033508301e-02 -2.945249434560537338e-03 -6.384361535310745239e-02 1.630888581275939941e-01 1.320886760950088501e-01 3.059285692870616913e-03 4.221140407025814056e-03 9.232790209352970123e-03 4.063158761709928513e-03 -9.531670249998569489e-03 -1.456570159643888474e-02 -1.441385149955749512e-01 2.644692957401275635e-01 3.171704709529876709e-02 -4.044976085424423218e-02 5.252635106444358826e-02 8.028186112642288208e-02 8.649219572544097900e-02 -1.563444174826145172e-02 -7.624509185552597046e-02 8.859388530254364014e-03 -1.689153909683227539e-02 1.231253296136856079e-01 -6.323640793561935425e-02 1.155626587569713593e-02 -1.913194656372070312e-01 3.098270157352089882e-03 9.028968214988708496e-02 -1.410878449678421021e-02 5.245626438409090042e-03 5.909786745905876160e-02 4.859195649623870850e-02 6.403654115274548531e-04 -3.662931546568870544e-02 -1.258859187364578247e-01 1.175737306475639343e-01 -6.809721235185861588e-03 3.790672123432159424e-02 -3.343693539500236511e-02 -1.977816671133041382e-01 -2.552641928195953369e-01 4.554750048555433750e-04 1.063205860555171967e-02 4.108162596821784973e-03 8.002113550901412964e-02 -1.488376874476671219e-02 -3.613085299730300903e-02 1.247528288513422012e-02 7.946392148733139038e-02 2.492844462394714355e-01 1.313713937997817993e-01 3.518119081854820251e-02 -2.057515643537044525e-02 2.226486206054687500e-01 6.682989001274108887e-02 4.006545618176460266e-02 -2.014145627617835999e-02 -1.217105016112327576e-01 1.670899391174316406e-01 -1.346188187599182129e-01 -3.726285696029663086e-02 -1.647063791751861572e-01 5.493192002177238464e-02 1.780296908691525459e-03 -3.915744367986917496e-03 4.064282774925231934e-02 1.513061206787824631e-02 -4.305396229028701782e-02 -7.193696685135364532e-03 1.514901086920872331e-04 -7.765775080770254135e-03 -3.084936179220676422e-02 -8.075974881649017334e-02 5.611314252018928528e-02 -9.419466368854045868e-03 -1.196376085281372070e-01 -1.621612533926963806e-02 9.012709558010101318e-02 -4.040671512484550476e-02 -6.097243167459964752e-03 2.910976670682430267e-02 -6.534644216299057007e-02 -7.635622285306453705e-03 -3.386279195547103882e-02 -5.215919762849807739e-02 -4.588714614510536194e-02 1.458365023136138916e-01 2.868125960230827332e-02 -1.164633082225918770e-03 -1.015142798423767090e-01 -6.564220786094665527e-02 2.590864896774291992e-02 -1.404782105237245560e-02 1.545397639274597168e-01 1.741910469718277454e-03 4.555325210094451904e-02 1.695733331143856049e-02 3.883385797962546349e-03 -5.127177760004997253e-02 7.911065965890884399e-02 8.973501622676849365e-02 -5.922787636518478394e-02 -5.908301100134849548e-03 -1.062086317688226700e-02 -5.522800236940383911e-02 -3.124881908297538757e-02 1.361733675003051758e-01 5.144121497869491577e-02 -3.618421731516718864e-03 5.942210927605628967e-02 -1.971188466995954514e-03 -9.678921103477478027e-02 7.218521833419799805e-02 1.011690795421600342e-01 -2.635675109922885895e-02 -7.152846455574035645e-02 3.578599542379379272e-02 5.570343881845474243e-02 -2.197533287107944489e-02 1.917014122009277344e-01 2.294862270355224609e-02 -1.032362133264541626e-01 -8.025798946619033813e-02 4.427271429449319839e-03 -3.677478432655334473e-02 -8.603574335575103760e-02 6.791294435970485210e-04 -5.653413385152816772e-02 -2.584911324083805084e-02 -2.604156732559204102e-02 1.660903170704841614e-02 6.163808703422546387e-02 1.241348460316658020e-01 1.672188490629196167e-01 -1.005954518914222717e-01 8.195342123508453369e-02 -8.039121516048908234e-03
