4.001900553703308105e-01
-4.148254692554473877e-01
-2.168394774198532104e-01
-3.893628418445587158e-01
2.644396424293518066e-01
9.857217222452163696e-02
4.012617468833923340e-01
4.308967888355255127e-01
-3.318345248699188232e-01
4.585540294647216797e-01
-2.324108481407165527e-01
3.032386004924774170e-01
4.699456393718719482e-01
2.337101697921752930e-01
-3.258073031902313232e-01
2.103279531002044678e-01
-4.066973626613616943e-01
3.828096091747283936e-01
4.526098370552062988e-01
4.298592507839202881e-01
-4.034662246704101562e-01
-3.179204761981964111e-01
3.823711723089218140e-02
-4.378533363342285156e-01
2.878177464008331299e-01
2.783696353435516357e-01
3.757946491241455078e-01
4.177561402320861816e-01
2.656631171703338623e-01
3.498774468898773193e-01
3.545197248458862305e-01
4.730611145496368408e-01
4.786308109760284424e-01
3.855503499507904053e-01
4.894881844520568848e-01
4.072104096412658691e-01
-3.065387606620788574e-01
3.272443413734436035e-01
-3.314273953437805176e-01
4.502821266651153564e-01
2.368258088827133179e-01
4.747454226016998291e-01
-2.827038168907165527e-01
-4.530486166477203369e-01
-2.733955085277557373e-01
2.562614679336547852e-01
2.304645925760269165e-01
-4.281920790672302246e-01
3.363887369632720947e-01
7.488188892602920532e-02
-2.928826212882995605e-01
3.642991781234741211e-01
-2.685824334621429443e-01
4.415181279182434082e-01
-5.043700933456420898e-01
4.881640970706939697e-01
3.986788392066955566e-01
1.045762225985527039e-01
4.133300781250000000e-01
4.953810870647430420e-01
-1.924433261156082153e-01
2.474881261587142944e-01
9.082898497581481934e-02
3.595400154590606689e-01
2.596954703330993652e-01
-2.364655733108520508e-01
2.064888477325439453e-01
-3.304655551910400391e-01
3.531023859977722168e-01
3.529495894908905029e-01
3.774940371513366699e-01
2.134455889463424683e-01
-4.225244522094726562e-01
-3.046439588069915771e-01
4.542520940303802490e-01
-4.360955655574798584e-01
-4.267756044864654541e-01
-4.427374303340911865e-01
-1.473690420389175415e-01
-3.686657249927520752e-01
4.215132892131805420e-01
-4.050393998622894287e-01
2.573769688606262207e-01
4.364763200283050537e-01
4.015103280544281006e-01
4.538283646106719971e-01
3.450837731361389160e-01
-3.299582302570343018e-01
3.043152689933776855e-01
2.466183453798294067e-01
2.118254452943801880e-01
3.698835968971252441e-01
4.065247774124145508e-01
4.764128029346466064e-01
2.212750017642974854e-01
-2.120776623487472534e-01
-3.566039800643920898e-01
3.802605867385864258e-01
2.094183266162872314e-01
-3.954118192195892334e-01
2.501906156539916992e-01
3.761647641658782959e-01
-2.957641780376434326e-01
-3.555971980094909668e-01
4.660040438175201416e-01
-1.761361956596374512e-01
2.168791294097900391e-01
-3.147128522396087646e-01
3.471085131168365479e-01
2.566687762737274170e-01
-2.652655541896820068e-01
-2.776205241680145264e-01
-1.465531140565872192e-01
2.796087563037872314e-01
4.507233798503875732e-01
-3.729696869850158691e-01
3.778453171253204346e-01
1.142460852861404419e-01
2.750895917415618896e-01
2.452146708965301514e-01
2.461462020874023438e-01
4.442737698554992676e-01
3.972646296024322510e-01
-3.978358805179595947e-01
-1.098520830273628235e-01
4.117916822433471680e-01
-2.560316324234008789e-01
3.210641741752624512e-01
3.229960203170776367e-01
4.445110261440277100e-01
5.058735013008117676e-01
-5.068602561950683594e-01
3.482699096202850342e-01
-3.790866732597351074e-01
-3.482114970684051514e-01
4.094954431056976318e-01
3.328358232975006104e-01
9.359130263328552246e-02
4.117476642131805420e-01
4.542824327945709229e-01
3.030913770198822021e-01
2.704795598983764648e-01
4.335797429084777832e-01
-3.478839397430419922e-01
4.576457738876342773e-01
4.359185993671417236e-01
4.384376108646392822e-01
-3.840893208980560303e-01
4.601850807666778564e-01
3.953513801097869873e-01
4.325774908065795898e-01
5.278603434562683105e-01
3.459892272949218750e-01
2.672260105609893799e-01
-4.453819096088409424e-01
-2.895775139331817627e-01
3.401314914226531982e-01
-4.230449199676513672e-01
2.797177433967590332e-01
3.983364999294281006e-01
3.624020218849182129e-01
4.698979258537292480e-01
4.235044419765472412e-01
3.892630040645599365e-01
-2.112707942724227905e-01
-3.236252963542938232e-01
3.432941734790802002e-01
-1.748030781745910645e-01
4.614552855491638184e-01
4.721768498420715332e-01
4.090649783611297607e-01
2.994985878467559814e-01
-2.879680097103118896e-01
3.548327386379241943e-01
4.267650544643402100e-01
-2.924869954586029053e-01
5.016344785690307617e-01
4.813947975635528564e-01
2.056490778923034668e-01
-2.957162857055664062e-01
5.003559589385986328e-02
-4.039064347743988037e-01
3.672574460506439209e-01
2.758632302284240723e-01
4.319455623626708984e-01
2.899157702922821045e-01
-1.427904516458511353e-01
1.827019751071929932e-01
4.145576357841491699e-01
3.911814093589782715e-01
-4.520509839057922363e-01
-3.420663475990295410e-01
4.112493693828582764e-01
-4.320412278175354004e-01
4.509874582290649414e-01
-2.680349349975585938e-01
1.403128504753112793e-01
3.472683727741241455e-01
5.671928822994232178e-02
3.574351668357849121e-01
-3.384946286678314209e-01
-1.983518451452255249e-01
-4.064191579818725586e-01
-9.922459721565246582e-02
4.358382225036621094e-01
4.149489700794219971e-01
-2.174161002039909363e-02
-3.481085002422332764e-01
3.506042361259460449e-01
-2.481077611446380615e-01
9.876122325658798218e-02
4.540671110153198242e-01
3.766722381114959717e-01
4.387310445308685303e-01
2.992763817310333252e-01
3.611928522586822510e-01
-3.403030335903167725e-01
4.253090322017669678e-01
-2.205446958541870117e-01
-2.551459372043609619e-01
2.365032285451889038e-01
3.860783278942108154e-01
-9.930582344532012939e-02
-1.664243787527084351e-01
-3.832741677761077881e-01
-3.144053518772125244e-01
-3.800100684165954590e-01
3.439466655254364014e-01
-3.060947358608245850e-01
-2.468464225530624390e-01
4.332455694675445557e-01
3.430229425430297852e-01
3.648515641689300537e-01
3.737705647945404053e-01
2.535527050495147705e-01
3.477010726928710938e-01
3.750927746295928955e-01
4.663780927658081055e-01
2.280659228563308716e-01
3.232802152633666992e-01
-2.821421921253204346e-01
2.719050943851470947e-01
4.345224201679229736e-01
3.790278732776641846e-01
2.857303917407989502e-01
-2.786158323287963867e-01
-4.266913533210754395e-01
2.876184582710266113e-01
-2.812956869602203369e-01
-1.586623936891555786e-01
-2.370161861181259155e-01
-5.559313669800758362e-02
3.623488247394561768e-01
2.600842416286468506e-01
-4.269459843635559082e-01
2.120956629514694214e-01
