1.865858025848865509e-02
5.327865853905677795e-02
6.000945344567298889e-03
-2.843109332025051117e-02
1.456747762858867645e-02
8.758837357163429260e-03
-1.075068209320306778e-02
1.869466900825500488e-02
-6.157653406262397766e-03
-2.862426452338695526e-02
-1.063720602542161942e-02
-2.568460814654827118e-02
1.959422789514064789e-02
-1.603282429277896881e-02
3.652942925691604614e-02
-2.299727499485015869e-02
-3.897082805633544922e-02
-2.585631422698497772e-02
-2.631182968616485596e-02
-2.367471903562545776e-02
-7.804568856954574585e-03
-5.755258724093437195e-03
1.152003929018974304e-02
3.391221398487687111e-04
3.007608756888657808e-04
2.401504665613174438e-03
-3.451851382851600647e-02
5.944617465138435364e-02
1.367144659161567688e-02
-1.000380888581275940e-02
-7.939919829368591309e-03
-5.228653550148010254e-03
2.766969241201877594e-02
4.094354435801506042e-02
-1.745341531932353973e-02
-3.267693798989057541e-03
-3.373249247670173645e-02
1.019930560141801834e-02
-1.444744784384965897e-02
-4.432836174964904785e-02
-7.160337554523721337e-05
-1.145085133612155914e-02
-1.524987723678350449e-02
2.887120842933654785e-02
-1.982650347054004669e-02
3.267499431967735291e-02
-4.007228091359138489e-02
1.894229091703891754e-02
2.342198975384235382e-03
3.008233010768890381e-02
2.302314527332782745e-02
4.209896177053451538e-02
6.490724161267280579e-03
-1.604220271110534668e-02
-3.187403548508882523e-03
7.934878580272197723e-03
4.500689357519149780e-02
-1.651652716100215912e-02
4.132366739213466644e-03
-4.529887437820434570e-02
1.417974848300218582e-02
-1.248977705836296082e-02
-1.700268685817718506e-02
-1.616856455802917480e-02
1.233694702386856079e-02
1.458010822534561157e-02
-3.036981634795665741e-02
-2.117522805929183960e-02
1.071818917989730835e-02
-2.664690604433417320e-03
3.205023705959320068e-02
3.191079199314117432e-02
9.636822156608104706e-03
-1.587389595806598663e-02
2.613341249525547028e-02
-1.385914161801338196e-03
4.050473496317863464e-02
4.748070612549781799e-02
-3.121346235275268555e-02
1.798626221716403961e-02
1.424720045179128647e-03
1.450681593269109726e-03
1.271335966885089874e-02
4.328704997897148132e-02
1.766362041234970093e-02
1.266049034893512726e-02
-6.425134371966123581e-03
9.116036817431449890e-03
1.620823703706264496e-02
3.196122823283076286e-03
3.613081201910972595e-02
1.034240610897541046e-02
1.396510284394025803e-02
-4.273546393960714340e-03
-6.905599031597375870e-03
-2.534008212387561798e-02
-9.642792865633964539e-03
-1.648359373211860657e-02
1.299911644309759140e-02
1.714509166777133942e-02
-3.413823992013931274e-02
-1.715727522969245911e-02
-1.218888163566589355e-02
-2.721768990159034729e-02
1.018599420785903931e-02
3.162016347050666809e-02
-8.505810983479022980e-03
-1.220018370077013969e-03
2.565081045031547546e-02
-1.149078179150819778e-02
3.216644749045372009e-03
6.185102742165327072e-03
2.112816320732235909e-03
-1.217586267739534378e-02
-3.464169427752494812e-02
-1.051593385636806488e-02
2.486179955303668976e-02
-4.668211564421653748e-02
2.198102697730064392e-02
2.676260843873023987e-02
1.544861309230327606e-02
2.254837565124034882e-02
5.280216690152883530e-03
-8.948424831032752991e-03
2.431993559002876282e-02
1.066563068889081478e-03
-1.839927956461906433e-02
-3.530600666999816895e-02
-1.058288663625717163e-02
-1.684397645294666290e-02
-1.739858835935592651e-02
4.425451159477233887e-03
9.262965060770511627e-03
-1.106534060090780258e-02
-4.426282271742820740e-02
1.273395866155624390e-02
-3.063477575778961182e-02
1.602804288268089294e-02
-1.633553882129490376e-03
2.244072407484054565e-02
9.591247886419296265e-03
-3.278557909652590752e-03
9.946995414793491364e-03
3.383921459317207336e-02
1.433930452913045883e-02
1.707644015550613403e-02
3.321495605632662773e-03
2.284918539226055145e-02
-1.080260239541530609e-02
-3.922780230641365051e-02
-3.189536184072494507e-02
-1.458361465483903885e-02
4.298191517591476440e-02
2.678019180893898010e-02
5.184583738446235657e-02
-2.138395048677921295e-02
1.988905668258666992e-02
-3.405650332570075989e-02
1.472009345889091492e-02
-2.675384469330310822e-02
5.039766803383827209e-02
-2.806283161044120789e-02
-2.953994553536176682e-03
1.161471288651227951e-02
-3.337703412398695946e-03
-5.529363173991441727e-03
-9.278662502765655518e-03
5.374909937381744385e-02
2.337534725666046143e-02
5.942251533269882202e-02
-2.517984434962272644e-02
-1.962465606629848480e-02
4.745884984731674194e-02
1.076987478882074356e-02
-4.908863827586174011e-02
2.975342795252799988e-03
3.482712060213088989e-02
7.654465734958648682e-03
2.562021464109420776e-02
2.372652105987071991e-02
2.484869770705699921e-02
3.242707997560501099e-02
4.167969338595867157e-03
1.429655868560075760e-02
4.086164757609367371e-02
4.708510637283325195e-02
-5.908441729843616486e-03
1.000936888158321381e-02
3.204531222581863403e-02
1.048554945737123489e-02
1.325679011642932892e-03
1.855226419866085052e-02
2.269641496241092682e-02
6.747458875179290771e-02
-4.294079914689064026e-02
-4.805706068873405457e-02
-1.531535666435956955e-02
1.004238426685333252e-02
4.650392569601535797e-03
1.210745191201567650e-03
-7.911385968327522278e-03
-8.546784520149230957e-03
-3.124052193015813828e-03
-2.336289361119270325e-02
-3.769741579890251160e-02
3.633271157741546631e-02
7.829200476408004761e-03
3.820255026221275330e-02
2.053578197956085205e-02
3.410933539271354675e-03
4.143068566918373108e-02
-1.707846112549304962e-02
2.165202051401138306e-02
1.185540482401847839e-02
-1.046724896878004074e-02
-1.286448072642087936e-02
2.913158573210239410e-02
3.560901433229446411e-02
1.741421408951282501e-02
-3.421470895409584045e-02
-8.000769652426242828e-03
1.921662688255310059e-02
5.131797492504119873e-02
3.564310818910598755e-02
-1.710364781320095062e-02
4.858521372079849243e-02
-1.931054866872727871e-03
1.333828642964363098e-02
-1.362524833530187607e-02
-1.982945017516613007e-02
-1.206671167165040970e-02
-3.203578293323516846e-03
2.940722927451133728e-02
1.215928979218006134e-02
1.992372423410415649e-02
4.856873769313097000e-03
1.033462956547737122e-02
-9.230544092133641243e-04
1.737312600016593933e-02
-5.649622064083814621e-03
1.561551075428724289e-02
-3.127165511250495911e-02
-2.810019813477993011e-02
1.698591001331806183e-02
2.691007591784000397e-02
-7.272397633641958237e-03
-1.367411203682422638e-02
3.029195591807365417e-03
1.001860387623310089e-02
-1.906357519328594208e-02
2.725627645850181580e-02
2.699622139334678650e-02
5.096989125013351440e-02
-1.947608403861522675e-02
4.291226714849472046e-02
-1.678164303302764893e-02
