3.718179091811180115e-02 2.398407645523548126e-02 -5.887009575963020325e-02 5.473228171467781067e-02 -5.116055160760879517e-02 -7.899752259254455566e-02 8.222539722919464111e-02 1.229844465851783752e-01 4.478441178798675537e-02 -4.523278027772903442e-02 2.388920634984970093e-02 1.372258663177490234e-01 -2.466851174831390381e-01 -4.592939466238021851e-02 1.158100366592407227e-01 5.426610261201858521e-02 1.614841446280479431e-02 -1.123320758342742920e-01 -9.817829728126525879e-02 -1.046748310327529907e-01 5.943864583969116211e-02 -1.690448261797428131e-02 5.598537623882293701e-02 6.980771571397781372e-02 8.395629376173019409e-02 8.738419041037559509e-03 5.626708734780550003e-03 9.034447371959686279e-02 6.310903280973434448e-02 2.168662846088409424e-02 4.356450587511062622e-02 -2.409759722650051117e-02 5.071242153644561768e-02 -4.351151362061500549e-02 -1.107208207249641418e-01 -6.087709590792655945e-02 3.450968116521835327e-02 2.702451124787330627e-02 -8.013103157281875610e-02 8.713443577289581299e-02 2.059710770845413208e-02 -5.908424779772758484e-02 -1.871165633201599121e-01 6.008421629667282104e-02 2.478024736046791077e-02 -2.394355135038495064e-03 1.971579343080520630e-02 -6.786978244781494141e-02 1.461687088012695312e-01 5.731200426816940308e-02 1.694804579019546509e-01 3.913766890764236450e-02 1.685883253812789917e-01 1.798669062554836273e-02 -1.332144737243652344e-01 -3.649943973869085312e-03 -6.035238131880760193e-02 -4.827314987778663635e-02 -6.096441647969186306e-04 6.521040946245193481e-02 5.616892129182815552e-02 8.878236263990402222e-02 -1.172733530402183533e-01 -7.611547410488128662e-02 -1.336008217185735703e-02 -6.232250481843948364e-02 -7.910408824682235718e-02 1.059394329786300659e-01 4.808732308447360992e-03 -7.581406831741333008e-02 -2.013734914362430573e-02 -5.523819476366043091e-02 8.835789631120860577e-04 1.182112246751785278e-01 -1.048695761710405350e-02 8.027793839573860168e-03 -4.767714813351631165e-02 -4.886953160166740417e-02 -4.434647783637046814e-02 -2.079583331942558289e-02 -5.017960071563720703e-02 -1.053402721881866455e-01 4.171219654381275177e-03 8.849672228097915649e-02 -7.950270920991897583e-02 -2.930998057126998901e-02 1.983141712844371796e-02 5.851986631751060486e-02 3.962477669119834900e-02 5.081116221845149994e-03 3.608110547065734863e-02 -1.860084384679794312e-02 7.311317324638366699e-02 4.331339616328477859e-03 -1.831354498863220215e-01 -1.391737312078475952e-01 -9.494313597679138184e-02 -1.047186776995658875e-01 1.097857728600502014e-01 7.982110977172851562e-02 1.935602873563766479e-01 1.825118958950042725e-01 5.410467460751533508e-02 9.306261688470840454e-02 9.299150109291076660e-02 5.216833087615668774e-04 1.430094242095947266e-02 -7.438833266496658325e-02 5.376193206757307053e-03 -1.373654901981353760e-01 -4.239854961633682251e-02 -3.299795985221862793e-01 -4.009619727730751038e-02 -1.980297639966011047e-02 -7.951917499303817749e-02 -9.937417507171630859e-02 -5.213962122797966003e-02 3.463953733444213867e-02 -3.966781869530677795e-02 1.516645681113004684e-02 7.144576311111450195e-02 1.737041175365447998e-01 -7.154258340597152710e-02 1.295154094696044922e-01 6.096583232283592224e-02 3.452670946717262268e-02 -2.816337347030639648e-02 9.714778512716293335e-03 -2.491995692253112793e-02 -2.421780861914157867e-02 -7.278138399124145508e-02 -2.670582849532365799e-03 2.474859207868576050e-01 -1.567251421511173248e-02 -1.505852192640304565e-01 -8.377657085657119751e-02 1.139144226908683777e-02 5.979523062705993652e-03 2.546024322509765625e-01 -1.024216935038566589e-01 -9.670033305883407593e-02 -6.471379846334457397e-02 2.967536076903343201e-02 -6.432487815618515015e-02 -8.800636976957321167e-02 -2.168067917227745056e-02 -4.114592447876930237e-02 -1.145065724849700928e-01 -1.225438714027404785e-01 -4.365507513284683228e-02 -3.976010903716087341e-02 -4.808218032121658325e-02 6.477603223174810410e-03 1.619234122335910797e-02 -1.453354302793741226e-02 -1.690091006457805634e-02 1.146865338087081909e-01 -2.066311091184616089e-01 8.588252961635589600e-02 1.624949276447296143e-01 5.285190790891647339e-02 -5.533747002482414246e-02 1.304784715175628662e-01 -4.340872541069984436e-02 -4.809061065316200256e-03 -1.019703447818756104e-01 4.151962324976921082e-02 3.492230549454689026e-02 -5.083378404378890991e-02 1.061512902379035950e-01 -1.537313014268875122e-01 7.873237878084182739e-02 -1.326044499874114990e-01 4.810083284974098206e-02 -1.617478281259536743e-01 -1.812009699642658234e-02 -8.948746323585510254e-02 9.664898738265037537e-03 1.747520081698894501e-02 1.001304909586906433e-01 -2.026410549879074097e-01 -7.566423714160919189e-02 -7.206980139017105103e-02 6.374097615480422974e-02 9.527076035737991333e-02 -4.329293593764305115e-02 -2.279156260192394257e-02 -7.315988652408123016e-03 1.102188602089881897e-01 1.176448911428451538e-01 -1.132265552878379822e-01 -5.764470621943473816e-02 3.636041283607482910e-02 7.962631061673164368e-03 6.741415709257125854e-02 7.842438668012619019e-02 2.004609107971191406e-01 -1.090675592422485352e-01 1.273354981094598770e-02 1.768646985292434692e-01 2.078282833099365234e-01 -5.819305032491683960e-02 -1.012365594506263733e-01 -3.257441520690917969e-02 -1.350274980068206787e-01 5.891026183962821960e-02 -9.973192214965820312e-02 -7.430666685104370117e-02 -6.477548182010650635e-02 1.161736175417900085e-01 -8.739461749792098999e-02 9.516192600131034851e-03 -1.948737166821956635e-02 -1.544323414564132690e-01 3.705525025725364685e-02 1.258636116981506348e-01 6.583129521459341049e-03 7.534597814083099365e-02 -6.616947054862976074e-02 -1.313672065734863281e-01 7.107784599065780640e-02 -1.055490598082542419e-01 -7.518860511481761932e-03 -9.689357131719589233e-03 -1.075038686394691467e-01 -9.519591927528381348e-03 -1.049146726727485657e-01 5.795326456427574158e-02 -7.163228839635848999e-02 -4.264174401760101318e-02 9.572431445121765137e-02 -8.670184761285781860e-02 6.636307109147310257e-03 3.689300268888473511e-02 9.797526150941848755e-02 3.128367662429809570e-02 -4.923999682068824768e-02 -1.377550363540649414e-01 -9.243764728307723999e-02 2.142678946256637573e-02 -1.323076188564300537e-01 6.132644042372703552e-02 -7.855731993913650513e-02 7.238360121846199036e-03 -5.890207737684249878e-02 -1.098547577857971191e-01 -1.208328921347856522e-02 -1.374613344669342041e-01 -4.972653836011886597e-02 -4.895471408963203430e-02 6.971018016338348389e-02 -9.748978167772293091e-02 -7.494299858808517456e-02 5.385802313685417175e-02 1.817042678594589233e-01 2.113889157772064209e-01
-1.236408599652349949e-03 1.873311400413513184e-01 -6.602521985769271851e-02 5.827394872903823853e-02 8.341075852513313293e-03 1.670753061771392822e-01 1.377914696931838989e-01 -1.131841614842414856e-01 -4.375413805246353149e-02 1.690397262573242188e-01 1.105372756719589233e-01 -3.639898449182510376e-02 -3.505763784050941467e-02 1.845862343907356262e-02 -3.146453201770782471e-02 1.086976677179336548e-01 8.645609766244888306e-02 1.121344715356826782e-01 -2.660668641328811646e-02 -3.195514902472496033e-02 9.677207469940185547e-02 6.304506957530975342e-02 2.039189934730529785e-01 8.769191801548004150e-02 -1.339741349220275879e-01 -1.238001659512519836e-01 -6.446132063865661621e-02 8.580674231052398682e-02 -3.606991842389106750e-02 -1.096303686499595642e-01 -1.515608876943588257e-01 5.317746475338935852e-02 -4.889108240604400635e-02 2.642269060015678406e-02 -5.951246991753578186e-02 -1.122931577265262604e-02 8.944272063672542572e-03 -6.399236619472503662e-02 9.399419277906417847e-02 -2.563664689660072327e-02 -6.994320452213287354e-02 1.496113277971744537e-02 3.313666209578514099e-02 -4.957743734121322632e-02 7.140941172838211060e-02 -2.402810379862785339e-02 -6.725437939167022705e-02 -2.869980409741401672e-02 -6.823748350143432617e-02 5.667795240879058838e-02 -6.674662977457046509e-02 -1.160207912325859070e-01 1.257753092795610428e-02 -2.421389706432819366e-02 2.431038208305835724e-02 -7.957153767347335815e-02 7.577891647815704346e-02 1.511168479919433594e-02 -4.473625123500823975e-02 -1.455293036997318268e-02 1.098806262016296387e-01 -9.943284094333648682e-03 -2.054459750652313232e-01 -8.612863719463348389e-02 -9.259517490863800049e-02 9.250007569789886475e-03 -6.175206974148750305e-03 1.597884148359298706e-01 6.592629104852676392e-02 2.346694171428680420e-01 1.552649438381195068e-01 -4.510753974318504333e-02 -3.133118525147438049e-02 -8.424811065196990967e-02 -1.966181099414825439e-01 1.785446107387542725e-01 -2.962108142673969269e-02 1.496934443712234497e-01 -1.471887622028589249e-02 -4.014328494668006897e-02 -6.412059068679809570e-02 -3.111301176249980927e-02 -1.695467084646224976e-01 4.853250458836555481e-02 5.166866257786750793e-02 -6.899018585681915283e-02 9.161142632365226746e-03 -1.498520821332931519e-01 5.211283639073371887e-02 -2.543068490922451019e-02 -4.946509376168251038e-02 -1.246260330080986023e-01 8.018375188112258911e-02 1.143118515610694885e-01 4.049723222851753235e-02 1.381528079509735107e-01 -1.186052616685628891e-02 6.598497740924358368e-03 -3.798694536089897156e-02 -3.301956132054328918e-02 -5.502716079354286194e-02 2.237908169627189636e-02 -2.053092420101165771e-02 -5.402359180152416229e-03 3.745329007506370544e-02 -2.690344117581844330e-02 4.635707288980484009e-02 2.903375402092933655e-02 -1.216937676072120667e-01 -6.289581768214702606e-03 -5.647348589263856411e-04 -3.629383072257041931e-02 4.529990721493959427e-03 -5.228315293788909912e-02 -1.174438744783401489e-01 1.725332252681255341e-02 8.769231289625167847e-02 1.836762763559818268e-02 -1.745773479342460632e-02 -5.186852812767028809e-02 -1.566109955310821533e-01 -3.565529361367225647e-02 -3.508587554097175598e-02 -3.728540241718292236e-02 1.561458706855773926e-01 6.437609344720840454e-02 1.194488331675529480e-01 7.966589927673339844e-02 -8.339820429682731628e-03 -9.776018559932708740e-02 1.682014018297195435e-02 4.675165563821792603e-02 1.173791289329528809e-01 -6.864057481288909912e-02 2.510230056941509247e-02 -4.321170598268508911e-02 -1.575386151671409607e-02 2.438959032297134399e-01 -1.825258252210915089e-03 1.547926515340805054e-01 4.439643397927284241e-02 -4.608162865042686462e-02 -4.134421795606613159e-02 2.524720318615436554e-02 -1.866175979375839233e-02 1.019786298274993896e-01 -3.748482838273048401e-02 5.292246863245964050e-02 -8.415226638317108154e-02 4.788074642419815063e-02 1.413447111845016479e-01 -1.258902698755264282e-01 -1.929856464266777039e-02 7.282651960849761963e-02 1.330337375402450562e-01 1.441672593355178833e-01 -7.445611804723739624e-02 1.490247086621820927e-03 -2.421772480010986328e-02 1.926907598972320557e-01 4.672556184232234955e-03 6.737580522894859314e-03 -6.198528688400983810e-03 -3.434387221932411194e-02 5.402156710624694824e-02 -6.273093819618225098e-02 -1.911742836236953735e-01 4.009750485420227051e-02 1.080066487193107605e-01 -5.220800638198852539e-02 -1.030088514089584351e-01 9.616801142692565918e-02 6.987577676773071289e-02 9.327110834419727325e-03 6.179110705852508545e-02 -2.783042611554265022e-03 -4.644912481307983398e-02 1.551633179187774658e-01 -8.337555825710296631e-02 2.601639181375503540e-02 -9.957914799451828003e-02 7.213039696216583252e-02 9.443815052509307861e-02 -5.007745698094367981e-02 8.061153441667556763e-02 2.372513264417648315e-01 -4.260506480932235718e-02 2.831495180726051331e-02 5.444367602467536926e-02 -1.059205457568168640e-01 -8.376630395650863647e-02 9.223458170890808105e-02 2.480682134628295898e-01 7.625188678503036499e-02 -6.828073412179946899e-02 -6.650836020708084106e-02 -2.012869417667388916e-01 4.154366999864578247e-02 -3.240261971950531006e-02 1.362338662147521973e-01 -2.214055322110652924e-02 -1.757439970970153809e-01 5.009360238909721375e-02 -1.744963973760604858e-02 -1.355940103530883789e-01 7.030501961708068848e-02 6.911692023277282715e-02 8.654999732971191406e-02 6.716354191303253174e-02 -8.225244283676147461e-02 -1.901297122240066528e-01 -3.678822144865989685e-02 -1.267034411430358887e-01 3.518673777580261230e-02 -1.306235641241073608e-01 1.152576357126235962e-01 -6.498769670724868774e-02 -1.571565307676792145e-02 -4.809543490409851074e-02 2.185499528422951698e-03 2.182766050100326538e-02 5.463544279336929321e-02 1.724324747920036316e-02 -9.059310704469680786e-02 -8.646250516176223755e-02 6.873343139886856079e-02 4.100515693426132202e-02 1.274902522563934326e-01 4.176189750432968140e-02 -3.690368682146072388e-02 9.144116938114166260e-02 9.300708770751953125e-02 7.136668264865875244e-02 -7.362898439168930054e-02 2.911667898297309875e-02 -9.474109858274459839e-02 2.186316996812820435e-02 -1.595654524862766266e-02 -4.776541888713836670e-02 -3.691686317324638367e-02 7.155732810497283936e-02 1.372142881155014038e-01 7.592917233705520630e-02 1.034122109413146973e-01 -1.782320672646164894e-03 -3.710336610674858093e-02 2.870968356728553772e-02 -1.521556377410888672e-01 -1.248119100928306580e-01 -3.379621729254722595e-02 4.304289445281028748e-02 -3.253192082047462463e-02 -1.831029802560806274e-01 1.210383838042616844e-03 -6.518112868070602417e-02 -1.412852760404348373e-02
-1.064892783761024475e-01 1.797066442668437958e-02 2.813777923583984375e-01 1.195236667990684509e-02 -1.494624279439449310e-02 -2.043586820363998413e-01 8.642152696847915649e-02 -1.858413033187389374e-02 -4.035608097910881042e-02 -3.234896063804626465e-02 -4.540323093533515930e-02 6.485529243946075439e-02 2.958278357982635498e-02 -8.823276311159133911e-02 -4.221933707594871521e-02 6.181232631206512451e-03 6.300262361764907837e-02 -7.137720286846160889e-02 9.841541200876235962e-02 4.298636689782142639e-02 1.084938794374465942e-01 7.741381227970123291e-02 -1.539644896984100342e-01 -1.010518670082092285e-01 -5.174723453819751740e-03 1.608932167291641235e-01 1.256752610206604004e-01 1.260161101818084717e-01 -2.534879138693213463e-03 7.194481790065765381e-02 -1.132303774356842041e-01 7.754437625408172607e-02 -1.005769222974777222e-01 1.140692271292209625e-02 -1.355253905057907104e-01 7.649832218885421753e-02 1.935699395835399628e-02 -3.094723261892795563e-02 9.566745907068252563e-02 -4.443688318133354187e-02 -2.108793109655380249e-01 8.508783578872680664e-02 -2.315749600529670715e-02 -5.443726852536201477e-02 -1.296810805797576904e-02 -1.445310115814208984e-01 1.125180497765541077e-01 3.886344656348228455e-02 -5.682161822915077209e-02 -2.509189397096633911e-02 4.001651704311370850e-02 1.773265935480594635e-02 -1.564242392778396606e-01 -1.340464800596237183e-01 1.154218539595603943e-01 8.384029567241668701e-02 3.850666061043739319e-02 -1.080234125256538391e-01 2.877969667315483093e-02 -6.444825232028961182e-02 1.974564045667648315e-01 -7.778696250170469284e-03 -1.354626752436161041e-02 1.422107219696044922e-01 1.073914542794227600e-01 4.769619088619947433e-03 -2.460258454084396362e-01 -8.080193400382995605e-02 2.978412061929702759e-02 -4.008402302861213684e-02 -4.259639233350753784e-02 7.475467771291732788e-02 -3.192172572016716003e-02 1.008955910801887512e-01 -5.729996133595705032e-03 2.729679644107818604e-02 -8.389216847717761993e-03 1.254086643457412720e-01 -1.315884739160537720e-01 6.937338970601558685e-03 -4.523837938904762268e-02 -1.447136141359806061e-02 -1.907523274421691895e-01 3.352487087249755859e-02 1.231510862708091736e-01 3.104841336607933044e-03 -1.197508051991462708e-01 -1.309596449136734009e-01 -8.199911564588546753e-02 6.972374022006988525e-02 -5.207429081201553345e-02 -1.117469160817563534e-03 -2.377416007220745087e-02 -3.370076790452003479e-02 1.506810821592807770e-02 9.231420606374740601e-02 4.790449514985084534e-02 2.944632433354854584e-02 4.346911236643791199e-02 -1.125899553298950195e-01 -2.088225632905960083e-02 1.184234768152236938e-01 -1.913692243397235870e-02 -1.102026104927062988e-01 -4.238241910934448242e-02 9.904868900775909424e-03 9.999591857194900513e-02 -3.304678201675415039e-02 -5.264769494533538818e-02 -1.169411540031433105e-01 2.182668447494506836e-02 7.100363727658987045e-03 2.179278060793876648e-02 1.205243766307830811e-01 4.454083368182182312e-02 8.616112172603607178e-02 -1.808975785970687866e-01 -3.484830260276794434e-02 -6.928385794162750244e-02 -7.304082810878753662e-02 1.224774047732353210e-01 -1.140658110380172729e-01 6.898838281631469727e-02 -6.203334033489227295e-02 7.948797196149826050e-02 -6.401658174581825733e-04 -5.595292523503303528e-02 4.822696000337600708e-02 -4.958353564143180847e-02 5.430271476507186890e-02 3.621556982398033142e-02 -2.478341571986675262e-02 2.243337035179138184e-02 3.215127065777778625e-02 -1.148866191506385803e-01 6.154542043805122375e-02 5.094724148511886597e-02 1.301647424697875977e-01 1.500681340694427490e-01 -3.247799351811408997e-02 -5.643894523382186890e-02 -2.488478459417819977e-02 -5.841296911239624023e-02 5.175546929240226746e-02 8.794565685093402863e-03 1.906735897064208984e-01 3.551556542515754700e-02 -1.011130213737487793e-01 -1.238886564970016479e-01 -1.612025499343872070e-01 5.666581913828849792e-02 -1.544550061225891113e-01 2.673002192750573158e-03 7.358179427683353424e-03 -1.714772731065750122e-01 -1.222366541624069214e-01 -3.383269533514976501e-02 -6.495566666126251221e-02 -5.764855816960334778e-02 -4.107458982616662979e-03 -1.164940521121025085e-01 -1.458718925714492798e-01 -2.191513217985630035e-02 -5.628206208348274231e-02 -9.238108992576599121e-02 -1.410148143768310547e-01 -7.278612349182367325e-03 -7.360995560884475708e-02 9.284447878599166870e-02 2.699484582990407944e-03 -1.911139190196990967e-01 -1.419917680323123932e-02 -1.446944624185562134e-01 -7.195795327425003052e-02 5.735523253679275513e-02 4.528167843818664551e-02 -1.705008596181869507e-01 -1.294450908899307251e-01 -1.727359183132648468e-02 3.254576399922370911e-02 1.699411273002624512e-01 6.349866837263107300e-02 -3.408616408705711365e-02 1.058869063854217529e-01 -2.747346274554729462e-02 2.734997496008872986e-02 -9.146124124526977539e-02 4.138026013970375061e-02 -5.760110914707183838e-03 -3.360989317297935486e-02 4.800022020936012268e-02 -5.478099361062049866e-02 -2.185224741697311401e-01 4.112643003463745117e-02 -8.677577227354049683e-02 -7.205575820989906788e-04 -1.336335688829421997e-01 -2.877423539757728577e-02 8.944389969110488892e-02 -2.342629730701446533e-01 3.044059313833713531e-02 -5.721439048647880554e-02 1.293022781610488892e-01 -3.111278638243675232e-03 4.838824644684791565e-02 8.873453736305236816e-02 1.123799830675125122e-01 -8.431715518236160278e-02 4.470897093415260315e-02 -1.223198175430297852e-01 5.207448825240135193e-02 -7.540721446275711060e-02 -3.371647000312805176e-02 5.285762622952461243e-02 4.071418941020965576e-02 -1.054195687174797058e-01 9.451314806938171387e-03 -1.078281402587890625e-01 1.124852895736694336e-01 -9.876064956188201904e-02 -7.836376875638961792e-02 -1.463290899991989136e-01 -1.414682269096374512e-01 7.252865284681320190e-02 1.218557474203407764e-03 -6.693042069673538208e-02 1.327323168516159058e-01 9.027849137783050537e-02 1.765181683003902435e-02 -9.104153513908386230e-02 -4.138927161693572998e-02 2.692163549363613129e-02 -5.845314636826515198e-02 1.582835018634796143e-01 7.414905726909637451e-02 -3.327795490622520447e-02 -1.515496871434152126e-03 -1.520888209342956543e-01 6.741622835397720337e-02 7.330667227506637573e-02 5.433460697531700134e-03 3.237024322152137756e-02 -5.856699775904417038e-03 2.044755369424819946e-01 6.575331091880798340e-02 -1.214393824338912964e-01 1.623419299721717834e-02 -5.584274884313344955e-03 -6.187376379966735840e-02 -8.361818641424179077e-02 1.088192686438560486e-01 -1.114477813243865967e-01 -9.924733079969882965e-03 2.311392221599817276e-03 6.416612118482589722e-02 7.009541988372802734e-02
-8.424323052167892456e-02 -1.926494948565959930e-02 -1.103796958923339844e-01 7.655845582485198975e-02 -1.210708171129226685e-01 -9.082342684268951416e-02 -2.506270408630371094e-01 -4.463332891464233398e-02 -9.226474165916442871e-02 6.499376147985458374e-02 -5.697042495012283325e-02 3.480877727270126343e-02 8.450177311897277832e-02 1.027908027172088623e-01 -8.260533213615417480e-03 7.755780965089797974e-02 -1.383695304393768311e-01 -1.106314137578010559e-01 -2.286524139344692230e-02 -1.118162367492914200e-02 1.171751841902732849e-01 -9.241013973951339722e-02 -2.620393037796020508e-02 6.837167590856552124e-02 -3.164946436882019043e-01 1.208832338452339172e-01 -3.377044573426246643e-02 -6.171132624149322510e-02 -1.022367551922798157e-01 -1.702791303396224976e-01 -1.392069011926651001e-01 -1.372467875480651855e-01 7.648235186934471130e-03 1.241198368370532990e-02 -9.647320955991744995e-02 5.449150130152702332e-02 3.880922123789787292e-02 -1.207205355167388916e-01 9.005990810692310333e-03 5.412387475371360779e-02 5.624669045209884644e-02 1.630453579127788544e-02 -3.868753463029861450e-02 5.455863103270530701e-02 -1.020850688219070435e-01 -3.362128138542175293e-02 -1.350444108247756958e-01 -9.419854730367660522e-02 2.691429574042558670e-03 -7.208357751369476318e-02 6.155377253890037537e-02 -1.180463656783103943e-01 -7.065282762050628662e-02 -2.783307619392871857e-02 6.085010617971420288e-02 5.309950932860374451e-02 6.051750108599662781e-02 5.447729304432868958e-02 -7.637644559144973755e-02 6.473115086555480957e-02 1.218421384692192078e-01 -1.192803084850311279e-01 -5.282718315720558167e-02 -9.806620329618453979e-02 -1.210959162563085556e-02 1.393572334200143814e-02 4.536854103207588196e-02 -1.490727961063385010e-01 -8.802011609077453613e-02 6.921352446079254150e-02 7.914024591445922852e-02 1.497158873826265335e-02 -7.781585305929183960e-02 -1.191474031656980515e-02 -1.976712942123413086e-01 -5.584478378295898438e-02 -1.917908936738967896e-01 -3.587665408849716187e-02 6.150903180241584778e-03 -7.745404541492462158e-02 4.433366283774375916e-02 3.750320523977279663e-03 2.959584258496761322e-02 8.158192783594131470e-02 -7.843579165637493134e-03 -1.747299134731292725e-01 1.218480020761489868e-01 2.330429293215274811e-02 -2.906718105077743530e-02 -4.195421468466520309e-03 -1.271953457035124302e-03 -2.194868475198745728e-01 -4.318011179566383362e-02 -1.457842141389846802e-01 -1.997926272451877594e-02 -1.486316025257110596e-01 -1.805171370506286621e-02 3.376533836126327515e-02 -9.398732334375381470e-03 1.993639580905437469e-02 3.179154545068740845e-02 1.358796209096908569e-01 -2.830114029347896576e-02 8.045095950365066528e-02 7.706703245639801025e-02 -1.659581996500492096e-02 -4.209145903587341309e-02 6.899148225784301758e-02 -5.162942782044410706e-02 8.746172487735748291e-02 -9.283573366701602936e-03 -9.747184067964553833e-02 -8.770581334829330444e-02 -2.783213257789611816e-01 3.447331860661506653e-02 7.500926405191421509e-02 6.533280014991760254e-02 -6.022464483976364136e-02 -8.592148870229721069e-02 7.582876831293106079e-02 6.213886290788650513e-02 8.664819598197937012e-02 1.961369439959526062e-02 -2.599431388080120087e-02 -1.050917357206344604e-01 -5.120486952364444733e-03 -6.575127691030502319e-02 1.042178571224212646e-01 -4.823523387312889099e-02 -9.068598598241806030e-02 -3.851556032896041870e-02 -5.739904195070266724e-02 -3.389530256390571594e-02 -3.862162306904792786e-02 -1.417261660099029541e-01 -9.084253758192062378e-02 -3.550555557012557983e-02 1.320632640272378922e-02 -4.808907955884933472e-02 1.012198030948638916e-01 -1.802087947726249695e-02 4.372814297676086426e-02 -1.319376081228256226e-01 8.234797418117523193e-02 1.199456974864006042e-01 3.332613036036491394e-02 2.392823807895183563e-03 -1.127134785056114197e-01 1.257299631834030151e-01 4.678437113761901855e-02 4.074466601014137268e-02 8.661190804559737444e-05 -6.686376035213470459e-02 -3.653428703546524048e-02 -3.939857706427574158e-02 -1.129252240061759949e-01 -2.052087634801864624e-01 1.160554960370063782e-02 3.073719702661037445e-02 -1.058459281921386719e-02 -1.219317317008972168e-01 5.828565731644630432e-02 2.243750691413879395e-01 -3.002189844846725464e-02 3.457163646817207336e-02 1.392477005720138550e-01 -6.777102500200271606e-02 -1.674347817897796631e-01 -4.439703375101089478e-02 5.651217326521873474e-02 -1.658827960491180420e-01 -1.775800995528697968e-02 2.296128571033477783e-01 -2.197003923356533051e-02 7.372344285249710083e-02 -9.886444360017776489e-02 1.989051885902881622e-02 -1.854138076305389404e-01 1.394489686936140060e-02 2.056899666786193848e-02 9.428335726261138916e-02 -1.316558569669723511e-01 -8.702269941568374634e-02 5.315431207418441772e-02 1.076950803399085999e-01 -1.196816861629486084e-01 -7.292274385690689087e-02 -9.778720885515213013e-02 -3.117212839424610138e-02 -2.862130291759967804e-02 1.104263961315155029e-01 5.894830077886581421e-02 -2.074214667081832886e-01 6.261351704597473145e-02 -6.312353163957595825e-02 -1.446278542280197144e-01 -9.530275315046310425e-02 -2.973607741296291351e-02 -9.319254010915756226e-02 -8.284289389848709106e-02 -4.845386743545532227e-02 -4.766435813507996500e-05 -8.712461590766906738e-02 -1.356529593467712402e-01 -5.140258744359016418e-02 3.918674215674400330e-02 1.867021173238754272e-01 -6.260353326797485352e-02 -3.146971017122268677e-02 9.305499494075775146e-02 4.798251017928123474e-02 8.001908659934997559e-02 -1.175644900649785995e-02 -1.480449270457029343e-02 8.985456079244613647e-02 -1.644966900348663330e-01 -2.756493166089057922e-02 -1.985975541174411774e-02 -1.304314881563186646e-01 -9.548793733119964600e-02 4.093523696064949036e-02 4.498370364308357239e-02 7.754550874233245850e-02 -9.244769811630249023e-02 -2.656331658363342285e-02 -6.235658377408981323e-02 4.254941642284393311e-02 -8.821874856948852539e-02 -5.913853645324707031e-02 9.279663860797882080e-02 -3.800876066088676453e-02 -1.266473084688186646e-01 -1.781766563653945923e-01 1.287038624286651611e-01 -9.038884192705154419e-03 -4.673410207033157349e-03 8.195697516202926636e-02 3.137387707829475403e-02 -2.275603637099266052e-02 -1.679068431258201599e-02 -4.778101667761802673e-02 6.637360900640487671e-02 -2.465463057160377502e-02 -7.913686335086822510e-02 -2.091682255268096924e-01 9.071980603039264679e-03 1.111318320035934448e-01 -1.169120892882347107e-01 -1.873143613338470459e-01 -2.159292623400688171e-02 -1.859582588076591492e-02 -9.052486717700958252e-02 1.207072064280509949e-01 -5.420385301113128662e-02 3.343806043267250061e-02 1.131055206060409546e-01
4.824986308813095093e-02 -6.680268049240112305e-02 1.526138037443161011e-01 1.345629245042800903e-02 -1.508502569049596786e-02 7.635421305894851685e-02 -6.214272603392601013e-02 -3.532459586858749390e-02 1.700358539819717407e-01 -1.845401227474212646e-01 1.089440435171127319e-01 3.762597218155860901e-02 9.116242825984954834e-02 1.443977374583482742e-02 6.889966875314712524e-02 -1.078501939773559570e-01 8.241383731365203857e-02 2.231755666434764862e-02 1.210641302168369293e-02 -7.865035533905029297e-02 -6.172019056975841522e-03 5.554512888193130493e-02 -4.685344547033309937e-02 -2.073860168457031250e-02 7.169027958298102021e-05 -9.363210201263427734e-02 2.030882239341735840e-01 -6.979263853281736374e-03 2.301388606429100037e-02 -1.140317022800445557e-01 2.493879199028015137e-02 -8.302997797727584839e-02 4.883414600044488907e-03 7.031749188899993896e-02 1.999108344316482544e-01 1.958591938018798828e-01 -1.949767582118511200e-02 4.242354258894920349e-02 -1.350858621299266815e-02 -1.372880637645721436e-01 2.709356136620044708e-02 5.123528465628623962e-02 -8.287684619426727295e-02 -8.573017269372940063e-02 8.940794318914413452e-02 9.679251909255981445e-02 -4.829608649015426636e-02 -7.005283981561660767e-02 1.903216168284416199e-02 1.033826395869255066e-01 -1.510844975709915161e-01 -2.270922064781188965e-02 -1.654905080795288086e-01 3.536124154925346375e-02 1.054225787520408630e-01 -5.134085565805435181e-02 -1.486962586641311646e-01 5.666819214820861816e-02 1.249451711773872375e-01 -7.164802402257919312e-02 -1.550054550170898438e-01 1.286109834909439087e-01 2.585121989250183105e-02 2.459383755922317505e-02 -4.671408608555793762e-02 -7.957976311445236206e-02 -7.998967915773391724e-02 1.297660078853368759e-02 9.104787372052669525e-03 1.663386374711990356e-01 -1.176268234848976135e-01 -4.236051067709922791e-02 5.616786330938339233e-02 5.073041096329689026e-02 1.457600668072700500e-02 -6.772271543741226196e-02 -2.309370972216129303e-02 6.582644581794738770e-02 4.147746041417121887e-02 1.651579327881336212e-02 -1.138561442494392395e-01 -2.454499006271362305e-01 6.515728682279586792e-02 5.247160047292709351e-02 8.292198181152343750e-02 -4.074675217270851135e-02 -2.371257171034812927e-03 -6.741229444742202759e-02 3.757936879992485046e-02 5.043213814496994019e-02 1.220530346035957336e-01 -8.591812103986740112e-02 1.195474714040756226e-01 8.376895636320114136e-02 3.999259322881698608e-02 -3.351968899369239807e-02 1.590888947248458862e-01 7.048272341489791870e-02 -1.446791887283325195e-01 -8.356374688446521759e-03 -7.193703204393386841e-02 1.914831437170505524e-02 1.416919082403182983e-01 2.728310599923133850e-02 1.089470833539962769e-01 8.556908369064331055e-02 -4.614893347024917603e-02 -2.843989804387092590e-02 -6.139437109231948853e-02 -6.236288696527481079e-02 -2.199663221836090088e-02 1.543707097880542278e-03 -8.551553636789321899e-02 6.973482668399810791e-02 -2.896234160289168358e-03 -1.427817344665527344e-01 -2.211982198059558868e-02 1.126191392540931702e-01 -2.779446355998516083e-02 4.247211292386054993e-02 1.587783247232437134e-01 1.159900724887847900e-01 -4.144671931862831116e-02 -5.706224590539932251e-02 -1.205716133117675781e-01 5.303345248103141785e-02 -1.136818975210189819e-01 -2.388037042692303658e-03 -1.363581120967864990e-01 -8.692646026611328125e-02 -5.535385385155677795e-02 -3.206949681043624878e-02 -9.662223607301712036e-02 -1.146916649304330349e-03 1.591391563415527344e-01 -1.460143774747848511e-01 -6.254528462886810303e-02 -7.396339904516935349e-03 -2.673282660543918610e-02 1.390268653631210327e-01 1.174057498574256897e-01 -1.415502578020095825e-01 -1.216353774070739746e-01 1.054419428110122681e-01 1.755007505416870117e-01 -1.868604123592376709e-02 4.906307533383369446e-02 -2.145264148712158203e-01 2.132481522858142853e-02 -1.871585994958877563e-01 3.604292869567871094e-02 1.664178371429443359e-01 2.231105789542198181e-02 1.742244958877563477e-01 2.549484930932521820e-02 1.361156851053237915e-01 8.543919771909713745e-03 -1.046162843704223633e-01 9.174869209527969360e-02 7.101552933454513550e-02 2.410990418866276741e-03 -4.716289788484573364e-02 8.891949802637100220e-02 -3.344488516449928284e-02 1.479784771800041199e-02 -2.666929922997951508e-02 1.109412908554077148e-01 -2.428753301501274109e-02 -1.091508939862251282e-02 -9.650638699531555176e-02 -6.980693899095058441e-03 -3.765852749347686768e-02 -2.055782526731491089e-01 5.509642139077186584e-02 3.191947937011718750e-02 -7.591452449560165405e-02 -3.098781220614910126e-02 -3.739039227366447449e-02 2.755880914628505707e-02 2.398793399333953857e-02 1.028879433870315552e-01 6.109433714300394058e-03 -3.627711534500122070e-02 -3.043449250981211662e-03 3.074416890740394592e-02 -8.975389599800109863e-02 -1.860966533422470093e-02 3.379465639591217041e-02 1.311431974172592163e-01 6.386147439479827881e-02 -7.684352993965148926e-02 -7.613129913806915283e-02 1.293876320123672485e-01 1.304096877574920654e-01 -2.316382825374603271e-01 -8.558048307895660400e-02 3.079376928508281708e-02 9.404911845922470093e-02 -7.197879999876022339e-02 3.547061234712600708e-02 -4.315933212637901306e-02 -1.032535880804061890e-01 7.689747214317321777e-02 -1.401090472936630249e-01 1.066183522343635559e-01 1.798177510499954224e-02 -1.465788781642913818e-01 -7.126730680465698242e-02 8.888757228851318359e-02 -2.402247628197073936e-03 -5.123302340507507324e-02 -2.275862358510494232e-02 -4.806455224752426147e-02 -5.967296287417411804e-02 6.142076104879379272e-02 -2.890378981828689575e-02 -2.943332679569721222e-02 8.968123793601989746e-02 -8.564593642950057983e-02 2.957828156650066376e-02 -1.200788319110870361e-01 1.923425197601318359e-01 8.228099346160888672e-02 1.133767813444137573e-01 5.684230104088783264e-02 6.401331722736358643e-02 -6.664052605628967285e-02 5.679534748196601868e-02 3.594164177775382996e-02 -2.642980813980102539e-01 -5.492780730128288269e-02 -7.266230415552854538e-03 2.392216771841049194e-02 9.081930667161941528e-02 -1.048521250486373901e-01 2.439476735889911652e-02 -1.233727112412452698e-01 -1.918019168078899384e-02 3.008359111845493317e-02 8.539012819528579712e-02 -5.901085212826728821e-03 -1.314332038164138794e-01 -4.420780763030052185e-02 3.829560428857803345e-02 -1.020023748278617859e-01 6.403194367885589600e-02 1.966950446367263794e-01 -6.544110924005508423e-02 -1.950223557651042938e-02 3.674598038196563721e-02 -7.204714696854352951e-03 3.847330342978239059e-03 4.201967641711235046e-02 3.409765195101499557e-03 4.290294833481311798e-03 1.447888184338808060e-02
4.809073731303215027e-02 6.121205911040306091e-02 2.126459404826164246e-02 -5.528321489691734314e-02 1.623672060668468475e-02 4.515029489994049072e-02 -9.514914825558662415e-03 1.748169958591461182e-02 -1.890474371612071991e-02 -8.767176419496536255e-03 1.089410185813903809e-01 -8.974835276603698730e-02 8.962053805589675903e-02 -7.061106711626052856e-02 1.459342986345291138e-01 -8.638805896043777466e-02 -7.869499176740646362e-02 -6.555538158863782883e-03 -6.234745681285858154e-02 8.894173055887222290e-02 -6.363040208816528320e-02 -1.093549206852912903e-01 3.550992161035537720e-02 -1.950341612100601196e-01 -4.387871827930212021e-03 -1.081034690141677856e-01 3.283734619617462158e-02 -3.121944330632686615e-02 -3.932987153530120850e-02 -7.399924099445343018e-02 1.350735872983932495e-02 3.198409825563430786e-02 1.951996795833110809e-02 4.877206683158874512e-02 2.272489853203296661e-02 2.219373919069766998e-02 -5.826518405228853226e-03 -8.273737877607345581e-02 -1.544407475739717484e-02 1.029847562313079834e-01 2.493877336382865906e-02 -9.732316434383392334e-02 -1.511884760111570358e-02 1.224908679723739624e-01 -2.083243615925312042e-02 -1.118767336010932922e-01 -1.018007174134254456e-01 -6.055597960948944092e-02 1.427235603332519531e-01 2.735595032572746277e-02 2.329374849796295166e-01 -2.166993916034698486e-01 4.700315743684768677e-02 -1.645442843437194824e-01 1.857707090675830841e-02 -3.253782168030738831e-02 -6.642236560583114624e-02 5.714270472526550293e-02 -2.563048601150512695e-01 1.401610523462295532e-01 9.413991123437881470e-03 1.435563713312149048e-02 9.538706392049789429e-02 4.654617235064506531e-02 1.486479956656694412e-02 3.626729175448417664e-02 -3.587172925472259521e-02 -1.155592948198318481e-01 1.198307704180479050e-02 -1.340781003236770630e-01 -1.071127802133560181e-01 -1.839314848184585571e-01 -6.167750805616378784e-03 1.981952041387557983e-02 -1.004495173692703247e-01 -9.118075668811798096e-02 3.315901011228561401e-02 8.049320429563522339e-02 1.298935525119304657e-02 -1.396607905626296997e-01 -1.307708621025085449e-01 -6.553326547145843506e-02 -4.729468375444412231e-02 -1.678282916545867920e-01 -7.133182883262634277e-02 -2.258050488308072090e-03 -7.882061600685119629e-02 3.524672240018844604e-02 -2.919195033609867096e-02 3.814060473814606667e-03 4.061897471547126770e-02 1.203297153115272522e-01 1.015854030847549438e-01 -5.786771886050701141e-03 -1.374004334211349487e-01 5.982780456542968750e-02 -1.324090510606765747e-01 -6.352028995752334595e-02 7.379152346402406693e-03 6.644801795482635498e-02 -7.426327466964721680e-02 1.634749621152877808e-01 1.414584219455718994e-01 8.569440990686416626e-02 -1.280224621295928955e-01 -3.957458829972893000e-05 -1.160564422607421875e-01 2.842190489172935486e-02 -4.060036316514015198e-02 1.242155656218528748e-01 2.045664191246032715e-02 -1.474557816982269287e-02 1.112507190555334091e-02 -7.759877480566501617e-03 -1.414133980870246887e-02 -4.290486127138137817e-02 -1.723477691411972046e-01 -5.294765159487724304e-02 1.878819055855274200e-02 -6.695697084069252014e-03 -6.847497820854187012e-02 -1.543091237545013428e-01 4.242179542779922485e-02 -9.868207573890686035e-02 5.697568506002426147e-02 -3.441196307539939880e-02 3.911656886339187622e-02 -1.190789714455604553e-01 -7.633483409881591797e-02 1.665066555142402649e-02 -8.983918279409408569e-02 -6.498388200998306274e-02 6.118503957986831665e-02 -1.052407696843147278e-01 1.609638482332229614e-01 4.133863747119903564e-02 -1.278845369815826416e-01 8.367482572793960571e-02 4.297272115945816040e-02 3.415940701961517334e-02 -6.477872282266616821e-02 -4.116162657737731934e-02 -1.142831668257713318e-01 7.286484539508819580e-02 -1.412097178399562836e-02 7.029833644628524780e-02 4.239289835095405579e-02 -1.578737795352935791e-02 -7.733419537544250488e-02 -8.678682148456573486e-03 4.529856517910957336e-02 -1.190315186977386475e-01 -6.501491181552410126e-03 7.173185795545578003e-02 -1.889846771955490112e-01 7.991981506347656250e-02 -5.275435745716094971e-02 -6.493927538394927979e-02 -1.789424009621143341e-02 5.901252152398228645e-04 -4.523620754480361938e-02 -2.295400761067867279e-02 -9.740337729454040527e-02 -9.155813604593276978e-02 -1.078290119767189026e-01 -8.556924015283584595e-02 -2.172997966408729553e-02 1.096522994339466095e-02 1.706715859472751617e-02 -4.462109878659248352e-02 8.419025689363479614e-02 -1.690071821212768555e-02 -6.804761290550231934e-02 -1.006001010537147522e-01 -8.468998968601226807e-02 2.112541534006595612e-02 -1.707969009876251221e-01 8.913603611290454865e-03 -7.316603511571884155e-02 -7.587936520576477051e-02 -5.941860005259513855e-02 8.274962753057479858e-02 -7.242152839899063110e-02 -9.481890499591827393e-02 -4.166898783296346664e-03 -3.718547895550727844e-02 -4.761615395545959473e-02 -1.049027740955352783e-01 -2.172526158392429352e-02 7.963593304157257080e-02 -8.509626984596252441e-02 4.514829814434051514e-02 1.538219153881072998e-01 1.191008985042572021e-01 -2.421655207872390747e-01 1.875748112797737122e-02 2.044957363978028297e-03 -5.050003528594970703e-02 -5.808234587311744690e-02 -1.093696504831314087e-01 -1.965111494064331055e-02 -7.770285010337829590e-02 -8.475430309772491455e-02 -2.686506509780883789e-02 2.318207116331905127e-04 6.069701537489891052e-02 8.766546845436096191e-02 5.802329629659652710e-02 1.202300074510276318e-03 9.749253280460834503e-03 5.844302847981452942e-02 1.259666234254837036e-01 1.149768307805061340e-01 -2.392416298389434814e-01 5.034362152218818665e-02 -8.168584853410720825e-02 4.482604563236236572e-02 6.891620159149169922e-02 4.739419370889663696e-02 1.455758810043334961e-01 1.142846122384071350e-01 6.442302465438842773e-02 3.852956742048263550e-02 9.166746586561203003e-02 3.255867585539817810e-02 -2.449804991483688354e-01 -1.750965788960456848e-02 -1.029914524406194687e-02 1.837288029491901398e-02 2.115120887756347656e-01 -3.723284602165222168e-02 -4.940706863999366760e-02 -2.266056984663009644e-01 1.990527361631393433e-01 4.679417982697486877e-02 -1.021597385406494141e-01 -1.158574372529983521e-01 2.042264342308044434e-01 -1.463638395071029663e-01 -1.313391327857971191e-01 8.925755321979522705e-02 1.163494959473609924e-01 -1.671647727489471436e-01 7.616995275020599365e-02 7.512229681015014648e-02 -4.744320735335350037e-02 1.321793347597122192e-01 -1.709848642349243164e-01 1.019066870212554932e-01 -1.080175209790468216e-02 -1.548110842704772949e-01 2.326264604926109314e-02 -4.221733286976814270e-02 -6.966817378997802734e-02 -2.303506014868617058e-03 -8.304624259471893311e-02
9.021757543087005615e-02 4.167547449469566345e-02 -9.957982599735260010e-02 6.567536294460296631e-02 -9.442033618688583374e-02 5.187151953577995300e-02 5.470952019095420837e-02 -1.108292862772941589e-01 2.110242247581481934e-01 5.868352483958005905e-03 6.228286772966384888e-02 -3.259364888072013855e-02 6.046493723988533020e-02 1.619631946086883545e-01 9.301007539033889771e-02 -6.968551874160766602e-02 -5.034988746047019958e-02 -3.941292315721511841e-02 4.504919424653053284e-02 -4.327079653739929199e-02 9.400903433561325073e-02 -3.125785663723945618e-02 5.413085967302322388e-02 -1.221850886940956116e-01 -5.324995145201683044e-02 8.484485000371932983e-02 9.975049644708633423e-02 7.543832063674926758e-02 8.139972388744354248e-02 -1.308029890060424805e-01 -4.435892216861248016e-03 5.084341019392013550e-02 1.130863055586814880e-01 1.314750220626592636e-02 2.332111261785030365e-02 -6.888000667095184326e-02 1.416333913803100586e-01 -1.510884463787078857e-01 -4.895601421594619751e-02 -2.722799591720104218e-02 3.404979780316352844e-02 1.132164429873228073e-02 5.424042418599128723e-02 -1.026026010513305664e-01 -3.740927204489707947e-02 -9.129634499549865723e-02 1.485308259725570679e-01 -7.744420319795608521e-02 -1.676875799894332886e-01 -1.768051534891128540e-01 1.208866015076637268e-02 5.801936239004135132e-02 -7.085514068603515625e-02 -2.625447325408458710e-02 -1.624432653188705444e-01 -1.399833559989929199e-01 -2.024655044078826904e-01 1.441127657890319824e-01 5.925481207668781281e-03 1.401148438453674316e-01 -2.810752764344215393e-02 -6.280526518821716309e-02 -1.118459254503250122e-01 8.944360166788101196e-02 -1.807330250740051270e-01 -6.522990763187408447e-02 8.554106950759887695e-02 -1.482204943895339966e-01 -4.679458588361740112e-02 2.288481593132019043e-02 -7.662583887577056885e-02 1.181605905294418335e-01 -1.390209328383207321e-02 -3.258262202143669128e-02 1.190574020147323608e-01 -4.721785709261894226e-02 4.078931361436843872e-02 -1.248727068305015564e-01 -5.633397027850151062e-02 -5.212114006280899048e-02 5.021038278937339783e-02 5.898259114474058151e-04 -1.331152580678462982e-02 5.451484024524688721e-02 -8.643401414155960083e-02 1.129563823342323303e-01 -2.406678050756454468e-01 3.437701612710952759e-02 7.192863523960113525e-02 2.154624313116073608e-01 -8.250442147254943848e-02 -1.089007556438446045e-01 -5.035644397139549255e-03 -2.509891614317893982e-02 1.327161677181720734e-02 7.040970772504806519e-02 2.837041579186916351e-02 2.575315348803997040e-02 1.288107931613922119e-01 8.993569016456604004e-02 -3.572956100106239319e-02 -8.359468542039394379e-03 1.303735375404357910e-01 5.875076726078987122e-02 4.641358926892280579e-02 -1.351112574338912964e-01 1.570521891117095947e-01 1.879589073359966278e-02 6.150301196612417698e-04 -8.107929676771163940e-02 -6.599304080009460449e-02 1.366870701313018799e-01 1.428780406713485718e-01 1.327193342149257660e-02 8.345159888267517090e-02 -2.959769219160079956e-02 -4.901679977774620056e-02 -5.895680561661720276e-02 3.266955539584159851e-02 1.190870255231857300e-02 -1.865946948528289795e-01 -4.788157343864440918e-02 5.924898013472557068e-02 2.703395485877990723e-02 -1.311927139759063721e-01 -4.833535850048065186e-02 1.864961236715316772e-01 -7.255049049854278564e-02 -2.042836137115955353e-02 -6.008512154221534729e-02 -7.057776674628257751e-03 4.642208665609359741e-02 7.321498543024063110e-02 -1.401898413896560669e-01 1.046091541647911072e-01 -6.638623028993606567e-02 -1.480810642242431641e-01 1.729896664619445801e-02 1.102585643529891968e-01 2.753208018839359283e-02 -4.161852225661277771e-02 2.134917117655277252e-02 2.346283383667469025e-02 -2.621943950653076172e-01 -1.453825831413269043e-01 -1.088396552950143814e-02 2.338574081659317017e-02 2.191636152565479279e-02 -1.086161881685256958e-01 1.834553852677345276e-02 3.372548520565032959e-02 1.147104576230049133e-01 -4.358256980776786804e-02 -1.877543479204177856e-01 1.363017559051513672e-01 -1.238483414053916931e-01 -6.073169037699699402e-02 -8.847662247717380524e-03 -1.146135109593160450e-04 -7.610766217112541199e-03 -1.227116584777832031e-01 -8.467283099889755249e-02 -6.360895931720733643e-02 9.145724773406982422e-02 -4.031915962696075439e-02 -1.767876185476779938e-02 -3.392899781465530396e-02 -3.421507542952895164e-03 9.036064147949218750e-02 -1.058987751603126526e-01 7.940098643302917480e-02 -9.060519747436046600e-03 1.198210269212722778e-01 4.705680161714553833e-02 -7.099983841180801392e-02 1.144993770867586136e-02 -1.128064244985580444e-01 -2.685820125043392181e-02 4.996020346879959106e-02 -7.039894163608551025e-02 5.868332460522651672e-02 7.745180279016494751e-02 1.350009888410568237e-01 4.211332648992538452e-02 -2.284140326082706451e-03 -7.843638211488723755e-02 1.434932649135589600e-01 -5.171739682555198669e-02 8.753241598606109619e-02 4.577115550637245178e-02 7.424192037433385849e-03 -6.215545348823070526e-03 -1.473854929208755493e-01 8.040761947631835938e-02 -8.062722533941268921e-02 -1.120227277278900146e-01 3.809808567166328430e-02 -5.348664522171020508e-02 2.855849917978048325e-03 9.376234561204910278e-02 -9.903376922011375427e-03 -1.109601631760597229e-01 8.042134344577789307e-02 -9.410878270864486694e-02 1.162503007799386978e-02 -6.347338110208511353e-02 -9.369114041328430176e-02 9.337514638900756836e-02 1.624258235096931458e-02 4.554924741387367249e-02 2.772548049688339233e-02 5.616211891174316406e-02 -1.003168895840644836e-01 1.378297153860330582e-02 -1.068496108055114746e-01 -2.589736320078372955e-02 1.568149477243423462e-01 -2.814475260674953461e-02 -2.782560884952545166e-03 -1.626661866903305054e-01 -9.350596927106380463e-03 -1.282652467489242554e-01 -1.302888095378875732e-01 1.478883326053619385e-01 2.099890708923339844e-01 -1.186260767281055450e-02 6.208860501646995544e-02 -1.212507486343383789e-02 6.957070529460906982e-02 4.436241835355758667e-02 -3.987705335021018982e-02 4.536618292331695557e-02 7.243424654006958008e-02 2.448131516575813293e-02 -9.226554632186889648e-02 1.381036490201950073e-01 7.835555076599121094e-02 -1.407433301210403442e-01 6.981431692838668823e-02 -5.746328830718994141e-02 -5.718484520912170410e-02 -8.684282749891281128e-02 3.617457300424575806e-02 -5.481806769967079163e-02 -1.120175272226333618e-01 -5.410594120621681213e-02 4.436083603650331497e-03 -9.936931729316711426e-02 -5.383389443159103394e-02 -3.205520659685134888e-02 -5.858088657259941101e-02 -7.085170596837997437e-02 1.557698696851730347e-01 2.381742000579833984e-02 -5.634504929184913635e-02 5.817256122827529907e-02
3.018665127456188202e-02 9.903967380523681641e-02 1.704128533601760864e-01 -1.087651252746582031e-01 -1.019317731261253357e-01 2.574011124670505524e-02 -2.917428873479366302e-02 2.703523263335227966e-02 -5.763047840446233749e-03 1.200625225901603699e-01 6.254020333290100098e-02 3.206294728443026543e-03 7.049148529767990112e-02 -1.140826046466827393e-01 1.757754012942314148e-02 -1.169466227293014526e-01 -1.774185150861740112e-02 -5.471237003803253174e-02 1.220091208815574646e-01 -4.715563356876373291e-02 1.703351587057113647e-01 -6.568531692028045654e-02 -8.106443285942077637e-02 -4.964582249522209167e-02 5.200896412134170532e-02 2.465510368347167969e-02 -3.383978456258773804e-02 1.851155422627925873e-02 -2.380523681640625000e-01 2.060601487755775452e-03 -1.328665018081665039e-01 -4.935961216688156128e-02 7.396000623703002930e-02 9.659000486135482788e-02 7.586653530597686768e-02 7.627730816602706909e-02 6.278162449598312378e-02 -6.453569978475570679e-02 -5.678812041878700256e-02 3.629545867443084717e-02 5.367216840386390686e-02 -1.041203737258911133e-01 -1.707449853420257568e-01 -1.366259604692459106e-01 -1.724323183298110962e-01 3.041806258261203766e-02 -9.601432830095291138e-02 3.470756113529205322e-02 -9.372852742671966553e-03 9.425947070121765137e-02 1.171752735972404480e-01 1.194403227418661118e-02 -9.418367408215999603e-03 8.823116309940814972e-03 1.510857045650482178e-02 1.884456574916839600e-01 1.461484134197235107e-01 -5.675883218646049500e-02 1.682847924530506134e-02 -6.923872977495193481e-02 -4.785254597663879395e-02 -2.133284807205200195e-01 -2.373311668634414673e-02 -5.456067621707916260e-03 -2.171283513307571411e-01 -1.208347603678703308e-01 1.313885897397994995e-01 1.953099370002746582e-01 1.023445799946784973e-01 -2.059492021799087524e-01 2.376317046582698822e-02 5.299950018525123596e-02 -4.518700763583183289e-02 6.489919126033782959e-02 1.419945992529392242e-02 -2.467244490981101990e-02 1.425212472677230835e-01 -5.996241047978401184e-02 1.233986169099807739e-01 2.276020050048828125e-01 -6.919486820697784424e-02 4.816113412380218506e-02 6.252966076135635376e-02 -5.291953682899475098e-02 -6.710486020892858505e-03 -5.615050718188285828e-02 7.396309822797775269e-02 -1.067327857017517090e-01 2.785445190966129303e-03 -2.701956592500209808e-02 1.338003724813461304e-01 -2.257200703024864197e-02 2.199187502264976501e-02 -2.578436024487018585e-02 1.880473271012306213e-02 3.126638755202293396e-02 -8.859669417142868042e-02 -1.070353761315345764e-01 -7.968904450535774231e-03 -2.770285122096538544e-02 -1.369523108005523682e-01 -1.404347270727157593e-01 -1.090954318642616272e-01 -3.450069809332489967e-03 2.830398268997669220e-02 1.209504008293151855e-01 -2.157663926482200623e-02 -8.928123116493225098e-02 -3.274759650230407715e-02 -9.030562639236450195e-02 -1.079565063118934631e-01 -7.495539635419845581e-02 1.224185526371002197e-01 1.908832043409347534e-02 -1.310866419225931168e-02 5.298836622387170792e-04 9.417583793401718140e-02 -4.931213334202766418e-02 -3.736273571848869324e-02 3.274803515523672104e-03 1.121038049459457397e-01 -9.905771911144256592e-02 1.083459891378879547e-02 -6.974312663078308105e-02 -8.826329372823238373e-03 -6.948949396610260010e-02 2.312413789331912994e-02 4.505361616611480713e-02 -7.541745435446500778e-03 -5.168833211064338684e-02 4.932045936584472656e-02 -1.130229532718658447e-01 6.133769080042839050e-02 -4.155853018164634705e-02 6.995039433240890503e-02 5.262396112084388733e-02 3.023029118776321411e-02 5.343002080917358398e-02 2.117803320288658142e-02 3.291408717632293701e-02 1.533062607049942017e-01 1.702619791030883789e-01 -3.323359787464141846e-02 2.573069557547569275e-02 -2.094549983739852905e-01 -4.261783789843320847e-03 1.354168076068162918e-02 -3.575559705495834351e-02 -4.754972830414772034e-02 1.017668657004833221e-02 -3.266920149326324463e-02 -3.040095232427120209e-02 9.455389529466629028e-02 -6.778583675622940063e-02 2.014675736427307129e-02 -1.418325006961822510e-01 3.472631052136421204e-02 -1.635849028825759888e-01 -2.397620491683483124e-02 1.801282726228237152e-02 -1.321916133165359497e-01 -4.555586352944374084e-02 -1.395290642976760864e-01 1.356851123273372650e-02 6.993110477924346924e-02 4.576362669467926025e-03 -1.320965588092803955e-02 1.076277568936347961e-01 -1.396520137786865234e-01 -1.504458393901586533e-02 1.542212516069412231e-01 5.846763774752616882e-02 8.372119069099426270e-02 1.424872428178787231e-01 -1.611242257058620453e-02 -7.191379368305206299e-02 -1.396033167839050293e-01 -1.116559188812971115e-02 1.287871897220611572e-01 -3.297125548124313354e-02 8.421240374445915222e-03 -4.763373639434576035e-03 -7.443845272064208984e-02 4.730295017361640930e-02 1.475047022104263306e-01 8.276762440800666809e-03 -1.738807559013366699e-01 -5.375688523054122925e-02 2.508059144020080566e-02 1.321517825126647949e-01 -8.127132803201675415e-02 1.134799495339393616e-01 -1.306599285453557968e-02 -6.341025233268737793e-02 4.665983375161886215e-03 4.166047647595405579e-02 -6.726469844579696655e-02 -2.871393039822578430e-02 6.950650364160537720e-02 2.180952765047550201e-02 -5.907318089157342911e-03 4.208285361528396606e-03 -2.200073562562465668e-02 -4.400227963924407959e-02 2.421541064977645874e-01 1.003224998712539673e-01 5.800175294280052185e-02 -5.573065951466560364e-02 5.888510495424270630e-02 3.783291205763816833e-02 2.690630778670310974e-02 -1.412505954504013062e-01 2.235960960388183594e-02 -6.027790531516075134e-02 4.684211686253547668e-02 9.920918941497802734e-02 1.748524010181427002e-01 -5.052369087934494019e-02 -1.528876274824142456e-01 -1.811507344245910645e-01 -9.901340305805206299e-02 8.223588578402996063e-03 -1.878997683525085449e-02 -3.746381774544715881e-02 7.804958522319793701e-02 -6.014707311987876892e-02 4.573237895965576172e-02 -6.677363067865371704e-02 5.543379113078117371e-02 -9.262153506278991699e-02 3.677426651120185852e-02 1.330799609422683716e-01 3.497636318206787109e-02 -5.000729113817214966e-02 -7.231386005878448486e-02 -6.356167048215866089e-02 -9.551049023866653442e-02 1.616205573081970215e-01 1.956838965415954590e-01 -2.649470604956150055e-02 7.089707255363464355e-02 7.643771357834339142e-03 3.381556272506713867e-02 -6.321348994970321655e-02 -2.133816480636596680e-01 1.137148439884185791e-01 -8.426128327846527100e-02 -3.307593241333961487e-02 2.966037206351757050e-02 -6.482359766960144043e-02 -1.856068894267082214e-02 1.337627135217189789e-02 -1.471212059259414673e-01 -1.711483746767044067e-01 -5.070457980036735535e-02 -4.846833646297454834e-02
4.596747457981109619e-02 -7.822538912296295166e-02 6.461871415376663208e-02 -1.275124549865722656e-01 2.620768547058105469e-02 -5.178059637546539307e-02 1.119014173746109009e-01 9.018423035740852356e-03 6.967562437057495117e-02 1.842813380062580109e-02 4.331609979271888733e-02 -6.961461156606674194e-03 6.372562050819396973e-02 8.036844432353973389e-03 -2.070002406835556030e-01 -1.087320968508720398e-01 -6.306743621826171875e-02 3.485965775325894356e-03 1.140941679477691650e-02 1.833417266607284546e-01 3.484961763024330139e-02 -1.896410435438156128e-01 -6.134791672229766846e-02 5.934819951653480530e-02 -1.792064607143402100e-01 5.110251158475875854e-02 -8.273331448435783386e-03 -2.044704742729663849e-02 3.391703218221664429e-02 1.139692217111587524e-01 1.106449812650680542e-01 -3.647201135754585266e-02 -1.111602559685707092e-01 9.687535348348319530e-04 -5.223420634865760803e-02 -3.198940679430961609e-02 1.016424149274826050e-01 -9.765342622995376587e-02 -1.641445159912109375e-01 3.928268700838088989e-02 1.798385083675384521e-01 -7.971493899822235107e-02 -2.951341215521097183e-03 -7.205428928136825562e-02 -6.765233725309371948e-02 1.308960467576980591e-02 -5.477476492524147034e-02 -7.921879296191036701e-04 -1.190543770790100098e-01 -2.614310244098305702e-03 -3.848603740334510803e-02 -1.802824139595031738e-01 1.046561151742935181e-01 3.803722094744443893e-03 -7.182158529758453369e-02 7.834106683731079102e-02 -4.893753677606582642e-02 -1.222705543041229248e-01 2.384095266461372375e-02 1.141854096204042435e-02 3.352730348706245422e-02 5.159744620323181152e-02 -6.427166610956192017e-02 3.446382470428943634e-03 -1.821401864290237427e-01 -1.291923224925994873e-01 -1.562602818012237549e-01 -6.588462740182876587e-02 3.063243255019187927e-02 -4.085429757833480835e-02 1.073626279830932617e-01 3.085903637111186981e-02 4.273074865341186523e-02 9.560137242078781128e-02 3.749743476510047913e-02 1.061607897281646729e-01 -3.359581530094146729e-02 -7.990580052137374878e-02 -6.635280326008796692e-03 4.856159910559654236e-02 3.676534816622734070e-02 -1.965672336518764496e-02 -5.126161128282546997e-02 2.911779284477233887e-02 1.219578534364700317e-01 -6.365607678890228271e-02 -6.715106964111328125e-02 5.093319341540336609e-02 -2.205291390419006348e-02 -1.566733419895172119e-01 -1.353868246078491211e-01 -1.455059461295604706e-02 -1.115123392082750797e-03 -2.793755196034908295e-02 1.447926014661788940e-01 -4.425479099154472351e-02 -1.175239533185958862e-01 -4.535236582159996033e-02 4.208615794777870178e-02 -5.338777229189872742e-02 -6.837562471628189087e-02 -1.017017588019371033e-01 6.995671242475509644e-02 -2.374784797430038452e-01 8.882971853017807007e-02 -4.939248412847518921e-02 4.476170986890792847e-02 -5.861802026629447937e-02 -1.375782191753387451e-01 1.253572553396224976e-01 3.575945645570755005e-02 1.710479110479354858e-01 1.725508719682693481e-01 -1.075166836380958557e-01 3.553254157304763794e-02 5.758466571569442749e-02 -7.743301242589950562e-02 1.799426786601543427e-02 3.752500191330909729e-02 1.914261095225811005e-02 -7.688950002193450928e-02 4.525969550013542175e-02 8.842600136995315552e-02 2.115600258111953735e-01 -1.306109409779310226e-02 -1.034571230411529541e-01 -1.229476481676101685e-01 -3.853758051991462708e-02 -2.350894734263420105e-02 1.360110193490982056e-01 1.432939060032367706e-02 -4.482230171561241150e-02 -5.470270290970802307e-02 -9.206276386976242065e-02 -2.175094373524188995e-02 1.087476834654808044e-01 -1.796819120645523071e-01 3.496659174561500549e-02 -1.087884977459907532e-01 1.540204733610153198e-01 7.231115549802780151e-02 -7.370673120021820068e-02 1.196792572736740112e-01 -7.072476297616958618e-02 1.734991669654846191e-01 6.972967833280563354e-02 8.325234055519104004e-02 -1.283509284257888794e-01 1.343906074762344360e-01 -8.646270632743835449e-02 -1.273690462112426758e-01 3.294984251260757446e-02 3.129350394010543823e-02 1.431789249181747437e-02 -6.550508737564086914e-02 8.996549062430858612e-03 8.744044601917266846e-02 7.417469751089811325e-04 1.618864014744758606e-02 9.218265861272811890e-02 -3.793245926499366760e-02 1.293991506099700928e-01 -3.423915803432464600e-02 9.484603255987167358e-02 6.928784400224685669e-02 -1.854084804654121399e-02 -1.402590125799179077e-01 -8.571004867553710938e-02 -2.437137253582477570e-02 7.270898669958114624e-02 -1.505053788423538208e-01 -8.452411741018295288e-03 -1.956340670585632324e-01 9.147813171148300171e-02 -2.505265921354293823e-02 -4.909912124276161194e-02 -2.941370941698551178e-02 -1.150562018156051636e-01 -1.205557957291603088e-02 1.325847804546356201e-01 -9.922169148921966553e-02 5.611516907811164856e-02 1.455877628177404404e-02 -1.591286212205886841e-01 9.591260552406311035e-02 3.400022909045219421e-02 -1.262981146574020386e-01 9.796083904802799225e-03 -2.929910644888877869e-02 7.875064760446548462e-02 8.825449645519256592e-02 1.961827464401721954e-02 9.881577640771865845e-02 1.007994711399078369e-01 -7.103607058525085449e-02 -5.436037108302116394e-02 7.791174203157424927e-02 -5.592019110918045044e-02 3.374299779534339905e-02 1.343646049499511719e-01 -1.639000773429870605e-01 -3.516723215579986572e-02 -7.198088616132736206e-02 -5.062399432063102722e-02 -2.594617754220962524e-02 7.713889330625534058e-02 -3.034453094005584717e-02 3.158375248312950134e-02 7.924380898475646973e-02 -1.042907163500785828e-01 -6.219374388456344604e-02 1.974989175796508789e-01 -1.347253769636154175e-01 -4.608776792883872986e-02 -2.896335721015930176e-02 -4.885984957218170166e-02 -5.299717560410499573e-02 -8.459934592247009277e-02 -1.194939389824867249e-01 1.090721637010574341e-01 9.716855734586715698e-02 -1.185151711106300354e-01 -1.060511246323585510e-01 -3.477460891008377075e-02 -7.544372975826263428e-02 -1.389431059360504150e-01 -4.134279116988182068e-02 -3.174836933612823486e-02 -8.414246258325874805e-04 -3.496994450688362122e-02 2.666023746132850647e-02 -1.200885027647018433e-01 6.804580986499786377e-02 1.727882772684097290e-02 -2.054835483431816101e-02 -1.160096004605293274e-01 -1.493959426879882812e-01 -1.223226189613342285e-01 5.083570256829261780e-03 -3.492498397827148438e-02 -4.073557630181312561e-02 -2.522999420762062073e-02 -2.035261541604995728e-01 -4.088731482625007629e-02 -1.615577787160873413e-01 -1.679183095693588257e-01 -1.217242181301116943e-01 1.013435572385787964e-01 8.237228542566299438e-02 1.279517076909542084e-02 9.473858028650283813e-02 -6.291436031460762024e-03 -3.932934999465942383e-02 1.160134896636009216e-01 4.587036743760108948e-02 -2.844314835965633392e-02
-1.150873005390167236e-01 1.614363789558410645e-01 -1.709274761378765106e-02 -5.568784661591053009e-03 -1.425932347774505615e-02 1.228029727935791016e-01 -6.893342733383178711e-02 -7.717238273471593857e-03 -4.493992775678634644e-02 -9.262959659099578857e-02 1.255123168230056763e-01 -4.521254822611808777e-02 8.897619694471359253e-02 1.113434061408042908e-01 1.744779646396636963e-01 1.147882789373397827e-01 -1.053757220506668091e-01 8.137692930176854134e-04 -7.703695446252822876e-02 -1.346938461065292358e-01 -3.068829653784632683e-03 1.058545410633087158e-01 3.889641910791397095e-02 -1.396300457417964935e-02 -1.116465404629707336e-01 1.585775613784790039e-01 5.990158393979072571e-02 -1.050966531038284302e-01 -1.287942528724670410e-01 7.012988626956939697e-02 3.483496606349945068e-02 2.537046186625957489e-02 -3.008271334692835808e-03 -3.132372722029685974e-02 -7.449697703123092651e-02 6.411178410053253174e-02 7.170046120882034302e-02 8.296193182468414307e-02 2.507286553736776114e-04 1.679194569587707520e-01 1.894718036055564880e-02 -1.051132902503013611e-01 -6.087628006935119629e-02 -7.015290111303329468e-02 3.312229737639427185e-02 1.030722185969352722e-01 4.025472700595855713e-02 -2.236166968941688538e-02 -3.399135917425155640e-02 -8.477269858121871948e-02 -3.015328571200370789e-02 -1.139441430568695068e-01 -9.641783684492111206e-02 4.789671674370765686e-02 -1.052413582801818848e-01 -9.353950619697570801e-02 2.481016516685485840e-02 9.686605632305145264e-02 1.291451603174209595e-02 -8.170941472053527832e-02 5.151101946830749512e-02 2.438545227050781250e-03 1.631274819374084473e-01 4.133568331599235535e-02 7.304338365793228149e-02 -7.085277885198593140e-02 -7.589929550886154175e-02 -1.622443832457065582e-02 -1.517337411642074585e-01 -5.599757656455039978e-02 -4.120132362004369497e-04 2.103249356150627136e-02 -2.039071321487426758e-01 5.299196392297744751e-02 -9.704913198947906494e-02 -1.138425525277853012e-02 4.412192106246948242e-02 4.184555634856224060e-02 -1.337191015481948853e-01 -2.270001173019409180e-01 -8.646794594824314117e-03 -1.186519563198089600e-01 -1.035887226462364197e-01 -1.199014205485582352e-02 2.952284412458539009e-03 1.966261491179466248e-02 8.029313385486602783e-02 6.179940100992098451e-05 -6.809359788894653320e-02 -1.033219471573829651e-01 -8.279658108949661255e-02 6.066294759511947632e-02 7.658419758081436157e-02 3.625276312232017517e-02 7.489363849163055420e-02 2.928608655929565430e-02 -8.266976475715637207e-02 -7.342813163995742798e-02 4.695526510477066040e-02 -3.064953349530696869e-02 -6.093001738190650940e-02 -1.014520786702632904e-02 -1.193975657224655151e-01 1.865527182817459106e-01 -9.597445279359817505e-02 8.667761832475662231e-02 3.406761586666107178e-02 -8.862528949975967407e-02 1.952963508665561676e-02 1.978665357455611229e-03 1.811054199934005737e-01 8.367350324988365173e-03 1.125552728772163391e-01 -1.096321269869804382e-01 -5.767221376299858093e-02 -4.958237707614898682e-02 5.765817314386367798e-02 2.251419574022293091e-01 -3.345912694931030273e-02 3.788117319345474243e-02 -5.606622993946075439e-02 4.925271123647689819e-02 -2.143111079931259155e-02 5.100551620125770569e-02 9.853947907686233521e-02 -1.263917982578277588e-02 1.783715747296810150e-02 -5.152849480509757996e-02 8.812881261110305786e-02 -1.234484612941741943e-01 -3.663080558180809021e-02 -8.064321428537368774e-02 -1.807488948106765747e-01 1.616765744984149933e-02 6.680690497159957886e-02 -1.946927607059478760e-02 9.874737262725830078e-02 -1.493548881262540817e-02 1.306524425745010376e-01 -1.054546907544136047e-01 5.117870122194290161e-02 8.285581320524215698e-02 1.851045177318155766e-03 7.158979773521423340e-02 -6.291577219963073730e-02 -3.112948834896087646e-01 1.655891537666320801e-01 -1.050157397985458374e-01 1.130954697728157043e-01 1.451520528644323349e-02 -6.566672027111053467e-02 6.484200060367584229e-02 -1.521525532007217407e-01 -1.115560182370245457e-03 -2.156952023506164551e-01 -1.674307584762573242e-01 -4.378027096390724182e-02 -9.610915184020996094e-02 -1.296419650316238403e-01 -2.781579457223415375e-02 -1.571248322725296021e-01 1.839805021882057190e-02 -8.878626674413681030e-02 1.512181311845779419e-01 -1.341332029551267624e-02 -1.212625801563262939e-01 1.774129569530487061e-01 8.847229927778244019e-02 -5.270922929048538208e-02 -4.703444615006446838e-02 7.976395636796951294e-02 1.594743877649307251e-02 5.147030949592590332e-02 -3.928995132446289062e-02 -1.351541578769683838e-01 -8.503373712301254272e-02 2.715303376317024231e-02 -3.072914108633995056e-02 -2.901153452694416046e-02 -4.132639616727828979e-02 1.312519423663616180e-02 -6.639100611209869385e-02 -1.792760193347930908e-01 2.238319814205169678e-02 3.468743339180946350e-02 6.469260156154632568e-02 -9.865566156804561615e-03 7.623293250799179077e-02 1.727370619773864746e-01 -7.059186697006225586e-02 1.090622544288635254e-01 -4.130281507968902588e-02 2.055543810129165649e-01 -1.765199564397335052e-02 5.807738285511732101e-03 -1.134935840964317322e-01 -6.688583642244338989e-02 -1.492065787315368652e-01 1.088276356458663940e-01 6.713636964559555054e-02 1.004345193505287170e-01 -7.897371053695678711e-02 -1.831837184727191925e-02 -8.529636263847351074e-02 -1.196863204240798950e-01 5.575164034962654114e-02 -3.285793215036392212e-02 -5.458800587803125381e-03 -4.666578397154808044e-02 -4.085255414247512817e-02 -6.651746481657028198e-02 1.232887059450149536e-02 -6.191007792949676514e-02 1.456999778747558594e-02 -9.008146822452545166e-02 9.046500176191329956e-02 -5.545454844832420349e-02 -1.541898399591445923e-01 -1.658196151256561279e-01 -1.516215875744819641e-02 -2.494987659156322479e-02 -9.310806053690612316e-04 -5.314427241683006287e-02 2.040876001119613647e-01 -1.363239735364913940e-01 -1.264988034963607788e-01 -2.501614205539226532e-02 1.774734817445278168e-02 1.595073193311691284e-01 2.457214705646038055e-02 1.379682123661041260e-01 -1.269777268171310425e-01 -4.799420014023780823e-02 4.839507862925529480e-03 -9.096761792898178101e-02 -9.394613653421401978e-02 -9.269411861896514893e-02 -1.203800439834594727e-01 7.738794386386871338e-02 1.115006059408187866e-01 -9.954454749822616577e-02 -7.838711887598037720e-02 -9.118552505970001221e-02 -1.166434511542320251e-01 5.612482875585556030e-02 2.514997683465480804e-02 -6.033291295170783997e-02 3.997239470481872559e-02 8.161181211471557617e-02 1.427537854760885239e-02 -1.364948111586272717e-03 1.050377357751131058e-02 4.350442904978990555e-03 1.491823047399520874e-01 -1.140659302473068237e-01 -1.023081019520759583e-01
8.025778830051422119e-02 -2.476090099662542343e-03 6.304182112216949463e-02 9.632685035467147827e-02 7.920137792825698853e-02 -1.203652247786521912e-01 -6.981812417507171631e-02 1.320205330848693848e-01 4.450943693518638611e-02 3.573141992092132568e-02 5.890780128538608551e-03 3.040785156190395355e-02 -6.780840456485748291e-02 1.612205803394317627e-01 -2.394010312855243683e-02 3.707107901573181152e-02 6.663243472576141357e-02 1.191295236349105835e-01 5.098629370331764221e-02 2.277677208185195923e-01 1.073028072714805603e-01 -8.812486194074153900e-03 7.679113000631332397e-02 7.551066577434539795e-02 1.786696463823318481e-01 -1.430142372846603394e-01 -1.682974547147750854e-01 7.835683063603937626e-04 -1.422716379165649414e-01 -7.006115466356277466e-02 1.894642598927021027e-02 3.318205848336219788e-02 8.844694239087402821e-04 5.447716452181339264e-03 -1.173383556306362152e-03 -3.149060904979705811e-02 -1.561702936887741089e-01 1.949583366513252258e-02 1.160153071396052837e-03 -9.287104941904544830e-03 -5.160090327262878418e-02 -1.071093082427978516e-01 -5.614737048745155334e-02 1.536257285624742508e-02 -1.176955923438072205e-01 -1.124168634414672852e-01 -2.657946012914180756e-02 1.174296438694000244e-02 -6.160315126180648804e-02 9.349615126848220825e-02 3.771499916911125183e-02 -1.682965829968452454e-02 -5.571572855114936829e-02 7.479333877563476562e-02 3.287660703063011169e-02 6.997831910848617554e-02 1.397650837898254395e-01 -1.564305722713470459e-01 -6.775261834263801575e-03 1.014701798558235168e-01 7.304247468709945679e-02 -2.713565714657306671e-02 -5.771256238222122192e-02 4.026300087571144104e-02 8.562278933823108673e-03 -1.020319177769124508e-04 -9.486550837755203247e-02 1.382587850093841553e-01 1.267042607069015503e-01 -5.015860125422477722e-02 1.459750682115554810e-01 -4.948736354708671570e-02 -6.364601105451583862e-02 -9.007448703050613403e-02 8.113984018564224243e-03 -2.350313961505889893e-01 -6.463747471570968628e-02 -7.117352448403835297e-03 -5.370069667696952820e-02 -8.667265065014362335e-03 3.397004678845405579e-02 -3.203677013516426086e-02 -9.150625765323638916e-02 5.538075789809226990e-02 -8.730261772871017456e-02 1.294144988059997559e-01 -6.762843579053878784e-02 5.684519559144973755e-02 -1.466759145259857178e-01 5.252335593104362488e-02 -2.681707739830017090e-01 2.127964515239000320e-03 -1.051547229290008545e-01 3.606502711772918701e-02 -1.121658906340599060e-01 1.717627421021461487e-02 7.118657231330871582e-02 -4.929190501570701599e-02 -1.356128901243209839e-01 -2.121464163064956665e-02 -3.000718541443347931e-02 7.126006484031677246e-02 -1.533200126141309738e-02 -4.775421321392059326e-02 8.798682130873203278e-03 3.569113463163375854e-02 -5.481825396418571472e-02 -1.304097622632980347e-01 9.384644776582717896e-02 -1.113515272736549377e-01 1.416189372539520264e-01 1.416763290762901306e-02 4.611407965421676636e-02 -1.216251179575920105e-01 6.595855951309204102e-02 -5.630293861031532288e-02 6.156069785356521606e-02 3.337864205241203308e-02 -1.188739687204360962e-01 2.122611179947853088e-02 -4.392844066023826599e-02 7.797618210315704346e-02 1.786445267498493195e-02 -8.224518597126007080e-02 -5.205259472131729126e-02 -1.726793497800827026e-02 5.552922561764717102e-02 -1.926089376211166382e-01 -4.116446897387504578e-02 -7.599685341119766235e-02 5.641563236713409424e-02 -2.491476573050022125e-02 3.026424720883369446e-02 3.409932926297187805e-02 4.231001436710357666e-02 -5.928076058626174927e-02 6.650555878877639771e-02 3.422080725431442261e-02 6.172062829136848450e-03 -9.762653708457946777e-02 -1.045319512486457825e-01 2.676123753190040588e-03 -2.473588334396481514e-03 2.298327162861824036e-03 1.770082265138626099e-01 7.882186025381088257e-02 8.964961022138595581e-02 1.169890537858009338e-01 1.686106920242309570e-01 -2.971877157688140869e-02 -1.004748512059450150e-02 -5.502670630812644958e-02 -7.915265858173370361e-02 -9.356511384248733521e-02 1.783531717956066132e-02 -2.289556860923767090e-01 -1.162525340914726257e-01 -1.109769716858863831e-01 7.866402715444564819e-02 9.085193276405334473e-02 -1.113201305270195007e-02 -1.670847181230783463e-03 6.080636382102966309e-02 4.167139902710914612e-02 1.962063759565353394e-01 -2.381007373332977295e-01 -3.456783667206764221e-02 -6.425941735506057739e-02 1.386505551636219025e-02 -1.043271422386169434e-01 1.863189227879047394e-02 -1.537788361310958862e-01 -2.093805372714996338e-01 -3.545332327485084534e-02 8.648757636547088623e-02 7.236620783805847168e-02 -1.187124028801918030e-01 -6.380063295364379883e-02 -1.233255639672279358e-01 -8.172072470188140869e-02 -7.414441555738449097e-02 -7.841157168149948120e-02 6.582036614418029785e-02 -4.492143169045448303e-02 1.432912517338991165e-02 -2.084005028009414673e-01 1.616333425045013428e-01 -9.973918646574020386e-02 -4.798723384737968445e-03 -1.375552862882614136e-01 3.171495348215103149e-02 5.742739140987396240e-02 -9.795960504561662674e-04 -1.765554547309875488e-01 -1.208181213587522507e-02 6.485209614038467407e-02 -1.378259211778640747e-01 -7.884184271097183228e-02 -1.728470623493194580e-01 -3.488440066576004028e-02 -5.140348151326179504e-02 -4.341728985309600830e-03 -1.618622988462448120e-01 -2.296087704598903656e-02 2.369744144380092621e-02 -9.607138484716415405e-02 4.449640959501266479e-02 -1.232515275478363037e-01 -1.144745647907257080e-01 -1.268520485609769821e-02 -8.552957326173782349e-02 1.097444817423820496e-01 -9.626106172800064087e-02 1.338115835096687078e-04 -4.128100350499153137e-02 3.610118106007575989e-02 7.737465947866439819e-02 -1.327498108148574829e-01 -8.475212752819061279e-02 -1.558827608823776245e-01 8.607042022049427032e-03 1.817079484462738037e-01 -2.122358419001102448e-02 -5.526736378669738770e-02 -9.881763160228729248e-02 4.369323328137397766e-02 -9.786462783813476562e-02 1.909178914502263069e-03 1.611613035202026367e-01 -1.317826956510543823e-01 -6.733055412769317627e-02 7.368455827236175537e-02 -1.661920361220836639e-02 4.506720602512359619e-02 -1.339024454355239868e-01 -2.253654785454273224e-02 -6.857418268918991089e-02 -1.579494401812553406e-02 1.061177775263786316e-01 -1.253035217523574829e-01 7.336243987083435059e-02 -3.392993286252021790e-02 -3.886449709534645081e-02 4.353778064250946045e-02 2.390000224113464355e-02 4.171814024448394775e-02 6.593687832355499268e-02 1.814004406332969666e-02 5.362966656684875488e-02 1.013327483087778091e-02 -9.673841297626495361e-02 -3.170459344983100891e-02 6.405560672283172607e-02 5.462953448295593262e-02 -1.944656968116760254e-01 1.104451343417167664e-01
1.533686928451061249e-02 1.386384367942810059e-01 -2.441487088799476624e-02 -4.683271795511245728e-02 -8.699858933687210083e-02 1.020425930619239807e-02 5.526960361748933792e-03 -8.872641623020172119e-02 -3.768954053521156311e-02 1.157825887203216553e-01 -8.272895216941833496e-02 -8.317313343286514282e-02 -6.470052152872085571e-02 -1.029825508594512939e-01 1.167353987693786621e-01 1.235567703843116760e-01 1.506913360208272934e-02 -2.515483880415558815e-03 2.527904696762561798e-02 -6.019811332225799561e-02 -1.056633666157722473e-01 -1.672125756740570068e-01 -1.506544500589370728e-01 6.773264613002538681e-03 5.213768221437931061e-03 2.329053170979022980e-02 9.209174662828445435e-02 1.163448542356491089e-01 9.899152815341949463e-02 -1.265058517456054688e-01 2.735211700201034546e-02 -2.165373787283897400e-02 -1.005853936076164246e-01 7.807356864213943481e-02 1.400054991245269775e-01 -8.232989907264709473e-02 -1.777763827703893185e-03 -4.466528072953224182e-02 -9.409274160861968994e-02 1.138218268752098083e-01 4.418658092617988586e-03 1.061935871839523315e-01 2.565398067235946655e-02 -1.026926911436021328e-03 9.835192933678627014e-03 3.323829174041748047e-02 4.995213821530342102e-02 -1.378919035196304321e-01 -3.754712641239166260e-02 -1.367340534925460815e-01 -1.507557332515716553e-01 -5.061751231551170349e-02 -9.775248169898986816e-02 -4.128677397966384888e-02 3.423248976469039917e-02 4.710610210895538330e-02 -1.962303183972835541e-02 5.011689290404319763e-02 -8.113604784011840820e-02 1.218736618757247925e-01 5.386468023061752319e-02 6.752414256334304810e-02 -6.438150256872177124e-02 1.009695529937744141e-01 2.686181068420410156e-01 -9.895711392164230347e-02 8.092633634805679321e-02 -4.372193291783332825e-02 8.935735374689102173e-02 -6.221019476652145386e-02 6.440354138612747192e-02 1.127633266150951385e-02 -1.333234608173370361e-01 9.275473654270172119e-02 9.750494360923767090e-02 -4.861567541956901550e-02 2.190773934125900269e-02 -1.003439873456954956e-01 8.444906026124954224e-02 -1.445728093385696411e-01 -4.134947806596755981e-02 6.837110221385955811e-02 -6.765979528427124023e-02 -1.040497273206710815e-01 2.142568677663803101e-02 3.875428810715675354e-02 2.073914706707000732e-01 -2.663032338023185730e-02 1.407247930765151978e-01 -7.251355797052383423e-02 1.599406450986862183e-02 3.724386915564537048e-02 5.168602615594863892e-02 -1.099652890115976334e-02 -1.152922883629798889e-01 1.435777842998504639e-01 1.139213517308235168e-02 -2.863851562142372131e-02 -1.172329634428024292e-01 -4.018258303403854370e-02 -1.319925785064697266e-01 9.496719390153884888e-02 -2.868411317467689514e-02 1.657316833734512329e-02 -1.623168736696243286e-01 -1.062888950109481812e-01 6.357003748416900635e-02 6.663950532674789429e-02 -1.722600907087326050e-01 -1.290944367647171021e-01 -4.806246981024742126e-02 8.571777492761611938e-02 -6.095076352357864380e-02 5.179210379719734192e-02 7.384346425533294678e-02 -4.682805761694908142e-02 -1.294317543506622314e-01 8.930509537458419800e-02 3.128178790211677551e-02 1.313778907060623169e-01 -4.627212136983871460e-02 2.072002589702606201e-01 1.693864166736602783e-01 -5.471545830368995667e-02 1.545319259166717529e-01 1.182844340801239014e-01 -1.238343864679336548e-02 -1.014268472790718079e-01 9.710540622472763062e-02 -9.582741186022758484e-03 6.793940812349319458e-02 7.626185566186904907e-02 1.950804293155670166e-01 -5.608450248837471008e-02 -1.332770138978958130e-01 -6.773253530263900757e-02 -9.114208817481994629e-02 -1.167415976524353027e-01 -1.997645013034343719e-03 -8.464838564395904541e-02 -3.998168185353279114e-02 7.322986423969268799e-02 -2.060988098382949829e-01 1.186854392290115356e-02 -2.650202624499797821e-02 2.846787869930267334e-02 -1.628432609140872955e-02 7.617548853158950806e-02 1.458118557929992676e-01 -8.100263029336929321e-02 1.297915447503328323e-02 5.577296018600463867e-02 4.052823409438133240e-02 6.584312021732330322e-02 6.180489435791969299e-02 -2.008898854255676270e-01 1.072042062878608704e-01 -5.111166089773178101e-02 -1.645829975605010986e-01 -3.565189987421035767e-02 6.367418169975280762e-02 1.247664913535118103e-01 2.606802619993686676e-02 -4.839048907160758972e-02 7.650506217032670975e-03 4.562453925609588623e-02 -7.461647689342498779e-02 -6.724759191274642944e-02 -4.772031214088201523e-03 1.278544515371322632e-01 -4.666677862405776978e-02 1.139445006847381592e-01 -8.726496994495391846e-02 -2.102141268551349640e-02 -5.793565511703491211e-02 -3.761123120784759521e-02 -5.618926137685775757e-02 2.277380414307117462e-02 1.980248689651489258e-01 -1.321586668491363525e-01 2.448511682450771332e-02 -1.054849252104759216e-01 -1.319901943206787109e-01 -2.025394439697265625e-01 2.634998038411140442e-02 1.638742722570896149e-02 -1.645081192255020142e-01 -2.461292780935764313e-02 -2.417489327490329742e-02 5.122254788875579834e-02 -5.910006165504455566e-02 1.916926167905330658e-02 -4.010859504342079163e-02 -6.817434728145599365e-02 -3.110250644385814667e-02 1.294592022895812988e-01 7.243730127811431885e-02 -4.213517531752586365e-02 -1.517141312360763550e-01 9.356249868869781494e-02 -4.529521241784095764e-02 1.372483670711517334e-01 -3.862579539418220520e-02 1.386293303221464157e-02 -5.367755889892578125e-02 4.301626607775688171e-02 -4.364008083939552307e-02 1.758035831153392792e-02 1.121101826429367065e-01 -5.392713472247123718e-02 -1.280717104673385620e-01 -1.312087327241897583e-01 -3.266697749495506287e-02 -2.823695354163646698e-02 -9.483540803194046021e-02 -1.278661042451858521e-01 2.098495699465274811e-02 -1.339697986841201782e-01 4.677768796682357788e-02 -8.243865519762039185e-02 -6.311976909637451172e-02 -5.934364348649978638e-02 1.649966090917587280e-02 1.574933379888534546e-01 -6.289388984441757202e-02 1.827592998743057251e-01 -9.296184033155441284e-02 -8.300036191940307617e-02 8.098261430859565735e-03 -1.052606105804443359e-01 6.161441653966903687e-02 -3.023937158286571503e-02 6.953566521406173706e-02 -5.197120457887649536e-02 -2.102747000753879547e-02 -1.320193111896514893e-01 -4.067494720220565796e-02 -2.175289019942283630e-02 9.997119754552841187e-02 -1.146152615547180176e-01 6.626991927623748779e-02 8.855573832988739014e-03 -3.443105518817901611e-02 1.583032011985778809e-01 1.308347471058368683e-02 -5.762484669685363770e-02 -4.315302893519401550e-02 4.261821508407592773e-02 -9.051856398582458496e-02 3.862687945365905762e-02 -1.333528757095336914e-01 4.970640689134597778e-02 1.300097107887268066e-01 -7.763647288084030151e-02 -1.561437100172042847e-01 -3.125259652733802795e-02
-3.208417817950248718e-02 -7.054203748703002930e-02 -7.743036746978759766e-02 5.849017575383186340e-02 -9.633947163820266724e-02 7.966762781143188477e-02 5.844540894031524658e-02 1.019907519221305847e-01 -4.060972016304731369e-03 4.891006276011466980e-02 -4.683244973421096802e-03 7.856038957834243774e-02 -9.215006232261657715e-02 2.365250512957572937e-02 -3.642849624156951904e-02 1.170830726623535156e-01 1.361126005649566650e-01 -6.886592507362365723e-02 3.721177950501441956e-02 -3.664069250226020813e-02 -1.207733452320098877e-01 -6.176885962486267090e-02 9.331044554710388184e-02 9.259654209017753601e-03 8.755849674344062805e-03 -6.115726009011268616e-02 3.119255788624286652e-02 -9.170747362077236176e-03 -9.706403315067291260e-02 -2.301567234098911285e-02 -3.934625536203384399e-02 1.346165537834167480e-01 1.098636239767074585e-01 1.245126873254776001e-01 2.642293833196163177e-02 2.770613133907318115e-02 1.836048066616058350e-02 -6.036509945988655090e-02 8.268004655838012695e-02 -4.496723040938377380e-02 -5.101258680224418640e-02 -1.276183128356933594e-01 -1.370959579944610596e-01 -1.554256826639175415e-01 2.847518026828765869e-02 -5.369556695222854614e-02 2.044628709554672241e-01 -1.269995868206024170e-01 -3.164325281977653503e-02 6.176619231700897217e-02 -9.479241073131561279e-02 -1.851398311555385590e-02 3.321440890431404114e-03 -2.869222313165664673e-02 2.262592762708663940e-01 9.102896787226200104e-03 -1.251434255391359329e-02 -3.230440244078636169e-02 -3.638442233204841614e-02 1.208066288381814957e-02 1.586568206548690796e-01 -4.511356353759765625e-02 -3.682589530944824219e-02 -1.797067672014236450e-01 -4.458440840244293213e-02 1.017178520560264587e-01 6.521233916282653809e-02 -1.827941387891769409e-01 -8.625204116106033325e-02 2.506463043391704559e-02 -1.545733809471130371e-01 -9.987622499465942383e-02 1.046160832047462463e-01 5.204246565699577332e-02 -1.354987025260925293e-01 1.560368686914443970e-01 -6.055484339594841003e-02 -5.145555734634399414e-02 1.599452942609786987e-01 -3.183415904641151428e-02 9.197451174259185791e-02 5.368017032742500305e-02 -1.121340692043304443e-01 -2.055157124996185303e-01 4.646503552794456482e-02 1.807688474655151367e-01 -1.644564978778362274e-02 -1.524742506444454193e-02 -2.151406854391098022e-01 -8.164364844560623169e-02 1.348013877868652344e-01 -6.429771333932876587e-02 -8.486642688512802124e-02 3.558989986777305603e-02 -2.117262594401836395e-02 -3.439025953412055969e-02 -1.432584822177886963e-01 -1.210047751665115356e-01 2.814976265653967857e-03 6.345219444483518600e-03 1.107860803604125977e-01 5.037310346961021423e-02 -9.068784862756729126e-02 -1.548753529787063599e-01 5.289601162075996399e-02 1.127851381897926331e-02 1.446454375982284546e-01 -1.575191318988800049e-01 -1.028764769434928894e-01 -8.416534215211868286e-02 -6.850916892290115356e-03 1.090908944606781006e-01 1.975815184414386749e-02 6.209809333086013794e-02 1.231634840369224548e-01 -8.029976487159729004e-02 6.168409436941146851e-02 4.165899381041526794e-02 1.247721444815397263e-02 6.775832176208496094e-02 3.129969909787178040e-02 -7.988531887531280518e-02 -4.872506856918334961e-02 5.582519248127937317e-02 3.159509506076574326e-03 4.727131128311157227e-02 9.888839721679687500e-02 -1.988874971866607666e-01 -4.364840313792228699e-02 2.021504193544387817e-02 -7.512399554252624512e-02 -5.784421414136886597e-02 -1.253241747617721558e-01 3.339184448122978210e-02 7.531450688838958740e-02 7.391808927059173584e-02 5.722069740295410156e-02 -4.594612121582031250e-02 1.209565401077270508e-01 -1.312128826975822449e-02 -4.254490509629249573e-02 2.833376266062259674e-02 -1.159780099987983704e-01 -1.433233767747879028e-01 -4.615855589509010315e-02 -5.216021090745925903e-02 1.569672673940658569e-01 8.633483201265335083e-03 -2.643357776105403900e-02 -2.824672311544418335e-02 -1.267369650304317474e-02 1.003065332770347595e-01 -7.374960184097290039e-02 1.186215728521347046e-01 6.599059700965881348e-02 3.613594546914100647e-02 2.115852944552898407e-02 -2.681213803589344025e-02 -2.520968765020370483e-02 -5.149755626916885376e-03 2.073395252227783203e-02 1.643004715442657471e-01 6.837115436792373657e-02 -6.377907097339630127e-02 7.355776429176330566e-02 -4.929343983530998230e-02 -7.002178579568862915e-02 -9.138377010822296143e-02 9.785082191228866577e-03 -2.777677774429321289e-02 -1.389088779687881470e-01 9.547277353703975677e-03 3.098419122397899628e-02 1.672373712062835693e-01 -2.276695566251873970e-03 4.598962515592575073e-02 5.562501400709152222e-02 -9.788023307919502258e-03 7.439435273408889771e-02 -8.209815621376037598e-02 -1.242138668894767761e-01 1.455071568489074707e-01 -1.310780942440032959e-01 1.203149482607841492e-01 -1.882670074701309204e-02 8.895116299390792847e-02 -5.478204786777496338e-02 -2.037402801215648651e-02 6.733558140695095062e-03 -4.808277823030948639e-03 -6.283272057771682739e-02 1.168974265456199646e-01 2.750305645167827606e-02 -1.777612119913101196e-01 -7.229574024677276611e-02 -8.663598448038101196e-02 -1.284187436103820801e-01 6.516693159937858582e-03 5.819012224674224854e-02 6.547121703624725342e-02 6.200536340475082397e-02 -1.859403103590011597e-01 4.739557206630706787e-02 -4.365093633532524109e-02 1.954629123210906982e-01 -2.260968834161758423e-01 4.509171470999717712e-02 4.664877429604530334e-02 2.208971045911312103e-02 1.678757220506668091e-01 1.308975815773010254e-01 -1.154608875513076782e-01 -2.457958832383155823e-02 -7.841213792562484741e-02 1.252365857362747192e-02 -8.380095660686492920e-02 -1.388005316257476807e-01 8.068691194057464600e-02 -3.696836903691291809e-02 8.580321073532104492e-02 4.826233908534049988e-02 9.054943174123764038e-02 -3.543375432491302490e-02 5.765736475586891174e-02 -2.810434997081756592e-02 7.133445143699645996e-02 -1.771281212568283081e-01 -1.737917810678482056e-01 -1.110038682818412781e-01 1.817345321178436279e-01 -6.462772190570831299e-02 1.612276025116443634e-02 1.518809646368026733e-01 6.258512288331985474e-02 5.741169210523366928e-03 5.808827653527259827e-02 -5.469093099236488342e-02 -1.037231534719467163e-01 3.911188337951898575e-03 3.857720643281936646e-02 -3.088446334004402161e-02 -4.339836537837982178e-02 -1.098226234316825867e-01 -5.164742842316627502e-02 3.214388713240623474e-02 4.772460088133811951e-02 -8.524192869663238525e-02 8.945938199758529663e-02 3.547454625368118286e-02 -1.454472355544567108e-02 5.931683257222175598e-02 -1.131332572549581528e-02 4.349369555711746216e-02 -8.991383016109466553e-03 1.068360954523086548e-01 1.661765724420547485e-01
-2.612985111773014069e-02 -4.494255036115646362e-02 -1.597783267498016357e-01 -5.149965360760688782e-02 -1.332726180553436279e-01 6.255201250314712524e-02 -3.889343887567520142e-02 1.077302247285842896e-01 -5.890436843037605286e-02 -1.938887499272823334e-02 2.168127521872520447e-02 8.227582275867462158e-02 -7.601673156023025513e-02 1.445645987987518311e-01 -7.451812922954559326e-02 8.395048230886459351e-02 3.205902129411697388e-02 -1.643308252096176147e-01 1.388257741928100586e-01 -8.562646061182022095e-02 -2.620041184127330780e-02 -9.269048273563385010e-02 -5.160974711179733276e-02 -9.520132094621658325e-02 -2.630692534148693085e-02 8.355181664228439331e-02 1.792665719985961914e-01 5.823370069265365601e-02 -2.749649807810783386e-02 7.716187834739685059e-02 -1.214448660612106323e-01 -5.377882719039916992e-02 6.914044916629791260e-02 3.755184821784496307e-03 -4.542204737663269043e-02 -1.108576059341430664e-01 1.634055227041244507e-01 -7.959490641951560974e-03 -4.509421810507774353e-02 5.917937960475683212e-03 -4.364084824919700623e-02 -2.593759261071681976e-02 2.076482623815536499e-01 7.817563414573669434e-02 -6.793775595724582672e-03 3.150555863976478577e-02 8.970671147108078003e-02 -7.091218233108520508e-02 -6.067118421196937561e-02 -2.506191432476043701e-01 2.277249991893768311e-01 -3.283733129501342773e-02 1.355264335870742798e-01 -4.153791442513465881e-02 -4.652166366577148438e-02 8.206456899642944336e-02 8.842146955430507660e-03 -1.534037292003631592e-01 -9.213145077228546143e-02 -1.994664967060089111e-02 1.026575863361358643e-01 2.015272229909896851e-01 -1.018138006329536438e-01 1.024825721979141235e-01 1.515072137117385864e-01 -8.624739199876785278e-02 9.233003854751586914e-02 9.758577495813369751e-02 3.624546900391578674e-02 2.505626343190670013e-02 -6.220046780072152615e-04 1.753419637680053711e-01 1.116034016013145447e-02 -1.042235195636749268e-01 -4.499609395861625671e-02 -5.726855620741844177e-02 -7.046732306480407715e-02 -2.151024341583251953e-02 -3.235121816396713257e-02 -7.272414863109588623e-02 -2.257712557911872864e-02 4.488606005907058716e-02 8.092984557151794434e-02 3.359830379486083984e-02 -4.059300944209098816e-02 -8.676014840602874756e-02 -7.424495369195938110e-02 1.938619837164878845e-02 -1.067968644201755524e-02 9.758090600371360779e-03 -7.671562954783439636e-03 1.404075883328914642e-02 -1.344272634014487267e-03 1.053157597780227661e-01 4.131836351007223129e-03 -4.823037888854742050e-03 1.216249093413352966e-01 -6.657814979553222656e-02 -2.183988243341445923e-01 4.319795966148376465e-02 -4.938289895653724670e-02 4.409796372056007385e-02 -1.863869279623031616e-02 3.238544985651969910e-02 -1.686743497848510742e-01 9.441578388214111328e-02 3.468879312276840210e-02 6.349852681159973145e-02 3.215163946151733398e-02 -5.224997922778129578e-02 8.872338570654392242e-03 1.178646981716156006e-01 6.559041142463684082e-02 1.483007334172725677e-03 -1.201837733387947083e-01 -1.750472746789455414e-02 7.638764381408691406e-02 -8.486343175172805786e-02 8.972813934087753296e-02 -1.839628964662551880e-01 6.309344619512557983e-02 -7.302774488925933838e-02 -4.425246641039848328e-02 2.814949862658977509e-02 5.346075817942619324e-02 2.928671054542064667e-02 -5.552151054143905640e-02 1.115770339965820312e-01 1.617077365517616272e-02 1.930024102330207825e-02 5.648614838719367981e-02 9.483084082603454590e-02 3.244329243898391724e-02 4.209776222705841064e-02 9.101855754852294922e-02 -1.657038629055023193e-01 1.148040518164634705e-01 -2.082832157611846924e-02 -5.186292529106140137e-02 -2.596671506762504578e-02 -7.160262763500213623e-02 -6.490895897150039673e-02 -3.375686705112457275e-02 -1.109359264373779297e-01 -1.039103567600250244e-01 1.746129244565963745e-02 2.580045489594340324e-03 -1.315529085695743561e-02 -1.321047265082597733e-02 -1.606462709605693817e-02 -7.499574124813079834e-02 5.201674997806549072e-03 4.739489406347274780e-02 -8.733609318733215332e-02 2.619424834847450256e-02 -2.943423576653003693e-02 -1.855694502592086792e-02 -1.802341826260089874e-02 -2.232497092336416245e-03 -3.713040798902511597e-02 2.042148262262344360e-01 2.686081528663635254e-01 7.277073711156845093e-02 1.263484824448823929e-02 -9.713853895664215088e-02 -8.055628091096878052e-02 4.198141023516654968e-02 -1.603316664695739746e-01 -1.494764350354671478e-02 -1.378204375505447388e-01 4.439456388354301453e-03 -1.497700214385986328e-01 -1.576101034879684448e-01 5.846356227993965149e-02 2.453097701072692871e-02 -6.127521768212318420e-02 -5.157812498509883881e-03 1.229295134544372559e-01 -3.125603497028350830e-02 1.076263841241598129e-02 -3.497970476746559143e-02 7.891010493040084839e-02 -9.741029888391494751e-02 7.323619723320007324e-02 1.101315021514892578e-01 1.237694546580314636e-02 3.079585358500480652e-02 1.138567924499511719e-03 7.403682917356491089e-02 3.622138127684593201e-02 1.435889676213264465e-02 -5.320996046066284180e-02 1.176194697618484497e-01 -4.329862073063850403e-02 -1.345877349376678467e-01 -1.107457727193832397e-01 -5.440544337034225464e-02 5.460922606289386749e-03 -8.126568049192428589e-03 5.090831220149993896e-02 1.567887142300605774e-02 8.163236826658248901e-02 2.401546761393547058e-02 5.697763990610837936e-03 -3.969871252775192261e-02 1.270699501037597656e-01 -3.030221536755561829e-02 3.408046439290046692e-02 1.254543215036392212e-01 -1.805569976568222046e-02 -1.613793075084686279e-01 -6.093607842922210693e-02 1.867186576128005981e-01 1.449477821588516235e-01 9.985923022031784058e-02 -2.356521971523761749e-02 -1.799372732639312744e-01 9.607434272766113281e-02 -1.457931101322174072e-01 6.298110820353031158e-03 9.185180068016052246e-02 -4.583717882633209229e-02 1.149432617239654064e-03 -1.134072020649909973e-01 4.618884250521659851e-02 -1.779284775257110596e-01 3.556908806785941124e-03 1.811124943196773529e-02 -6.706370413303375244e-02 -2.902263961732387543e-02 -2.404172867536544800e-01 1.014851927757263184e-01 -1.553652584552764893e-01 6.453908234834671021e-02 2.201301790773868561e-02 -3.311463445425033569e-02 -1.543569266796112061e-01 -7.917236536741256714e-03 4.633050411939620972e-03 -1.006766483187675476e-01 1.435069888830184937e-01 -8.930847048759460449e-02 1.269458830356597900e-01 -4.381967242807149887e-03 -1.400637626647949219e-01 -7.361098658293485641e-03 -6.496538966894149780e-02 1.566841155290603638e-01 -4.600256681442260742e-02 5.267210677266120911e-02 -1.350271403789520264e-01 -4.558094590902328491e-02 -1.971394941210746765e-02 -6.356178224086761475e-02 -1.086326166987419128e-01 2.315218001604080200e-02
-8.034480363130569458e-02 9.474746137857437134e-02 -1.652979701757431030e-01 2.202197909355163574e-02 4.674027487635612488e-02 -1.114037111401557922e-01 2.007240429520606995e-02 -9.672950208187103271e-02 1.739196479320526123e-01 1.023587659001350403e-01 1.230143085122108459e-01 -7.788422703742980957e-02 -5.862605571746826172e-02 -1.297799944877624512e-01 8.388657867908477783e-02 7.653851062059402466e-02 9.277339279651641846e-02 -4.230816848576068878e-03 -1.097858771681785583e-01 4.491764586418867111e-03 -1.310310214757919312e-01 3.455717116594314575e-02 -7.984846830368041992e-02 -4.079452529549598694e-02 2.717629261314868927e-02 6.254802644252777100e-02 -1.258225739002227783e-02 -4.087372496724128723e-02 2.893432416021823883e-02 -1.743158325552940369e-02 7.988903671503067017e-02 -2.110751718282699585e-02 1.380643099546432495e-01 7.831745594739913940e-02 9.737429767847061157e-02 6.963867694139480591e-02 4.028141126036643982e-02 1.021680682897567749e-01 1.791350916028022766e-02 -1.201464235782623291e-01 -2.068351507186889648e-01 -1.102047637104988098e-01 1.600511521100997925e-01 1.319327354431152344e-01 7.461509108543395996e-02 2.081226184964179993e-02 -1.744182594120502472e-02 7.541544269770383835e-03 9.913323074579238892e-02 -1.494783014059066772e-01 -9.455402195453643799e-02 1.180858165025711060e-01 3.552297875285148621e-02 1.216053217649459839e-02 1.385899074375629425e-02 -3.152965009212493896e-02 1.560138612985610962e-01 -1.090385317802429199e-01 -7.334119826555252075e-02 -7.611421495676040649e-02 7.974210381507873535e-02 1.272833049297332764e-01 2.234505414962768555e-01 -1.037996709346771240e-01 3.930397331714630127e-02 1.058761216700077057e-02 -1.358228772878646851e-01 1.898946613073348999e-01 5.226026847958564758e-02 1.375950574874877930e-01 -5.101117491722106934e-02 5.291660502552986145e-02 2.966131456196308136e-02 7.198178768157958984e-02 8.155445009469985962e-02 1.894953101873397827e-01 5.379512906074523926e-02 9.007734805345535278e-02 -2.751242555677890778e-02 -1.863603945821523666e-03 5.044098198413848877e-02 6.474174559116363525e-02 5.532689392566680908e-02 -8.234782516956329346e-02 1.532890349626541138e-01 -9.389988146722316742e-03 -1.241612620651721954e-02 1.039538234472274780e-01 -2.960282936692237854e-02 8.992969989776611328e-02 -6.402211636304855347e-02 6.706680357456207275e-02 6.944921612739562988e-02 3.095990791916847229e-02 -3.172757849097251892e-02 1.621256768703460693e-02 8.336037397384643555e-02 -1.364754438400268555e-01 -1.329717040061950684e-01 6.716079264879226685e-02 1.699049724265933037e-03 8.402723819017410278e-02 1.256638169288635254e-01 2.993869595229625702e-02 -1.135900267399847507e-03 -1.150816604495048523e-01 -1.084771454334259033e-01 -1.632694303989410400e-01 1.256380323320627213e-02 6.804171204566955566e-02 -2.920646220445632935e-03 5.502319708466529846e-02 8.005450665950775146e-02 3.535394370555877686e-02 8.160036988556385040e-03 2.989721484482288361e-02 1.584381610155105591e-01 2.771017141640186310e-02 -4.057144746184349060e-03 -1.547141000628471375e-02 1.019920259714126587e-01 8.617601543664932251e-02 1.203971132636070251e-01 3.290900588035583496e-02 -8.243930339813232422e-02 -1.192028149962425232e-01 2.949316613376140594e-02 1.399290561676025391e-01 -1.618663035333156586e-02 -1.027486845850944519e-01 -9.340423345565795898e-02 -2.923213690519332886e-02 1.368529442697763443e-02 8.398198522627353668e-03 2.744963020086288452e-02 -8.248266577720642090e-02 -2.317640632390975952e-01 -4.648536443710327148e-02 3.230432793498039246e-02 6.274396926164627075e-02 -8.294844627380371094e-02 -1.179310828447341919e-01 -5.093604326248168945e-02 1.027416735887527466e-01 1.119991671293973923e-02 2.813176810741424561e-02 -1.282640844583511353e-01 8.325894176959991455e-02 5.302686244249343872e-02 1.018498465418815613e-01 4.678408056497573853e-02 2.615531533956527710e-02 1.480562686920166016e-01 -3.492210432887077332e-02 -7.900245487689971924e-02 -3.212329000234603882e-02 3.441541269421577454e-02 -8.235242962837219238e-02 9.868079423904418945e-02 1.513884365558624268e-01 -1.165112406015396118e-01 -5.926227197051048279e-02 -2.596900239586830139e-02 -8.007179945707321167e-02 -2.851330861449241638e-02 -3.188414731994271278e-03 -1.452004760503768921e-01 -2.923555485904216766e-02 2.923504449427127838e-02 3.318988531827926636e-02 -1.425223797559738159e-02 -1.047264970839023590e-02 -7.951443642377853394e-02 2.747537754476070404e-02 -4.107328131794929504e-02 1.367456465959548950e-01 -1.029959041625261307e-02 -1.023163180798292160e-02 1.931471563875675201e-02 1.652225479483604431e-02 -5.926978960633277893e-02 -5.936460942029953003e-02 7.518703490495681763e-02 1.757115311920642853e-02 1.097426488995552063e-01 -1.651773974299430847e-02 -6.788499653339385986e-02 4.246409982442855835e-02 8.789100497961044312e-02 -4.308964312076568604e-02 -8.875247836112976074e-02 2.367853373289108276e-01 -1.136210113763809204e-01 2.087221667170524597e-02 -6.787128746509552002e-02 4.560124501585960388e-02 5.692638084292411804e-02 1.762907579541206360e-02 1.644866764545440674e-01 9.230703860521316528e-02 -8.503099530935287476e-02 5.116936564445495605e-02 -7.745274156332015991e-02 1.366706043481826782e-01 -2.703363895416259766e-01 -5.709673091769218445e-02 8.511385321617126465e-02 -2.016686499118804932e-01 6.867686659097671509e-02 3.840604051947593689e-02 1.132948100566864014e-01 -3.884200751781463623e-02 -4.464549943804740906e-02 -9.611133486032485962e-02 7.358592748641967773e-02 -1.041399966925382614e-02 -5.830683559179306030e-02 -1.450204998254776001e-01 1.559636890888214111e-01 -7.680296897888183594e-02 1.322423964738845825e-01 -1.450872607529163361e-02 -5.926081910729408264e-02 -5.088302865624427795e-02 -2.297356259077787399e-03 -4.813944548368453979e-02 9.702662006020545959e-03 -1.008411198854446411e-01 -8.136995136737823486e-02 8.572380244731903076e-02 3.328135004267096519e-03 -1.397051811218261719e-01 5.057240277528762817e-02 -7.762321084737777710e-02 -3.973079472780227661e-02 -1.070791110396385193e-02 -5.230768397450447083e-02 -4.549732431769371033e-02 8.947037160396575928e-02 -6.751439720392227173e-02 -5.997519195079803467e-02 -2.134867161512374878e-01 -5.313763394951820374e-02 -6.335460394620895386e-02 -6.649639457464218140e-02 1.168373450636863708e-01 6.085609551519155502e-03 -8.768052607774734497e-02 1.290886942297220230e-02 -6.392750144004821777e-02 6.271311640739440918e-02 2.370242029428482056e-02 -1.781023107469081879e-02 -1.690930277109146118e-01 -1.369012743234634399e-01 -4.938959330320358276e-02
