-2.054967731237411499e-02
-1.912005059421062469e-02
1.889793202280998230e-02
-1.726161316037178040e-02
2.835445804521441460e-03
3.815682232379913330e-02
9.261094033718109131e-03
-1.694880239665508270e-02
-6.671029143035411835e-03
7.245417684316635132e-02
-1.196044497191905975e-02
9.411533363163471222e-03
-5.585702601820230484e-03
-4.156070575118064880e-02
4.759799689054489136e-03
2.680908516049385071e-02
1.485016942024230957e-02
-3.045252338051795959e-02
-2.547418000176548958e-03
-2.721246145665645599e-02
-2.944056130945682526e-02
1.667037792503833771e-02
1.860409788787364960e-02
-1.158281578682363033e-03
-4.772092401981353760e-02
2.561703883111476898e-02
-3.809895738959312439e-02
-3.300170972943305969e-02
4.231606796383857727e-02
4.358535259962081909e-02
3.391515836119651794e-02
7.991149090230464935e-03
4.100773110985755920e-02
4.290801286697387695e-02
6.143486127257347107e-02
-4.718379583209753036e-03
2.054738625884056091e-02
1.116988598369061947e-03
9.641623124480247498e-03
2.511045197024941444e-03
-1.431784126907587051e-02
-8.487856946885585785e-03
-4.857062548398971558e-02
4.805538803339004517e-02
7.794079184532165527e-02
3.065519966185092926e-02
4.196597635746002197e-02
-1.491054426878690720e-02
-2.624799124896526337e-02
5.944871529936790466e-02
-1.854651048779487610e-02
1.233772374689579010e-02
7.417854387313127518e-03
-4.937007091939449310e-03
-2.093139849603176117e-02
1.728521101176738739e-02
-4.811893159057945013e-04
-2.375784516334533691e-02
-1.089256722480058670e-02
9.788420051336288452e-03
9.155138395726680756e-03
1.310145203024148941e-02
-2.256150543689727783e-02
3.411386162042617798e-02
1.882375217974185944e-02
2.326311357319355011e-02
2.944823354482650757e-02
6.520742177963256836e-02
3.554072603583335876e-02
1.522143650799989700e-02
-5.443776771426200867e-02
-5.316142737865447998e-02
3.913643769919872284e-03
-4.376115277409553528e-02
2.758295834064483643e-02
8.509542793035507202e-03
-1.581365801393985748e-02
5.922650452703237534e-03
-6.271165329962968826e-03
8.561920374631881714e-03
1.054992619901895523e-02
3.158690780401229858e-02
4.116155207157135010e-02
-1.535242237150669098e-02
3.478471934795379639e-02
-3.508709743618965149e-02
-2.196213416755199432e-02
2.588634565472602844e-02
-2.188139036297798157e-02
-1.709456439130008221e-03
8.592180907726287842e-02
-2.906654775142669678e-02
5.803572945296764374e-03
5.505952984094619751e-03
2.121186815202236176e-02
-4.676270484924316406e-02
6.168662756681442261e-02
-1.095599588006734848e-02
-1.267413049936294556e-02
-2.234585024416446686e-02
4.603986628353595734e-03
1.149180252104997635e-02
3.770491108298301697e-02
3.923121467232704163e-02
1.799120940268039703e-02
2.210574410855770111e-02
-3.873705165460705757e-03
1.415829453617334366e-02
-5.567542836070060730e-02
-1.109957881271839142e-02
8.137535303831100464e-03
-1.052626641467213631e-03
-1.589852571487426758e-02
1.770084910094738007e-02
1.775465160608291626e-02
1.802609860897064209e-02
-2.160455845296382904e-02
-5.223520845174789429e-02
-3.435763716697692871e-02
-1.828656345605850220e-02
-1.358606386929750443e-02
4.308646172285079956e-02
-4.523988813161849976e-02
2.575625851750373840e-02
5.965392570942640305e-03
2.467058785259723663e-02
3.060815669596195221e-02
1.318765431642532349e-02
1.728269644081592560e-02
-2.320235967636108398e-02
-1.054280530661344528e-02
3.570998669601976871e-04
1.313746254891157150e-02
-3.398151323199272156e-02
2.092474699020385742e-02
-1.939923688769340515e-02
-7.187852263450622559e-02
5.625835061073303223e-02
-6.812085863202810287e-03
-2.134612761437892914e-02
1.549440715461969376e-02
3.646159544587135315e-02
-3.853617981076240540e-02
-1.295507978647947311e-02
-3.262887895107269287e-02
4.484036564826965332e-02
-9.705385193228721619e-03
5.712993443012237549e-02
2.192537486553192139e-02
-4.948808997869491577e-02
-3.931747004389762878e-02
-1.887709274888038635e-02
1.956768706440925598e-02
5.015430226922035217e-02
-9.400039911270141602e-03
-2.193354535847902298e-03
2.374257892370223999e-02
2.662709914147853851e-02
4.679194092750549316e-02
7.919924706220626831e-02
-2.705058827996253967e-02
-9.994827210903167725e-03
-1.896737376227974892e-03
-1.643962226808071136e-02
3.261467441916465759e-02
-2.024987339973449707e-02
-2.511536329984664917e-02
-1.123997941613197327e-02
4.012749716639518738e-02
3.314431384205818176e-02
1.838382740970700979e-04
-5.778097547590732574e-04
3.712435066699981689e-02
-9.624909609556198120e-03
-5.223174765706062317e-02
1.166939921677112579e-02
1.160228177905082703e-01
5.900591239333152771e-02
-5.410090088844299316e-02
3.298219665884971619e-02
2.321063540875911713e-02
5.979884788393974304e-02
3.752249851822853088e-02
9.471260011196136475e-03
9.069715440273284912e-02
-1.355531625449657440e-02
-1.173030212521553040e-02
-5.359196802601218224e-04
-1.881452277302742004e-02
-6.411939393728971481e-03
-5.397030618041753769e-03
3.085140883922576904e-02
4.758213460445404053e-02
7.508943788707256317e-03
-7.021527853794395924e-04
-2.854153886437416077e-02
1.418384257704019547e-02
4.302329942584037781e-02
-1.501526124775409698e-02
3.591721411794424057e-03
1.619420573115348816e-02
-1.898806355893611908e-02
-4.119138419628143311e-02
4.936527460813522339e-03
4.206585511565208435e-02
-2.562105469405651093e-02
-2.264260314404964447e-02
5.285611748695373535e-02
-2.085816860198974609e-02
2.873406186699867249e-02
-8.486325852572917938e-03
-1.100774854421615601e-02
1.619295962154865265e-02
-2.190593630075454712e-02
-1.912492141127586365e-02
1.147256419062614441e-02
3.093719296157360077e-02
-2.055702172219753265e-02
3.677937900647521019e-03
-3.280445933341979980e-02
4.435481876134872437e-02
3.650395572185516357e-02
5.540996417403221130e-02
5.789483711123466492e-02
-1.373275765217840672e-03
-2.568851597607135773e-02
1.822333224117755890e-02
9.434226900339126587e-03
-2.820922993123531342e-02
3.026132658123970032e-02
-4.076228663325309753e-02
2.676202915608882904e-02
6.138608977198600769e-02
-1.044900901615619659e-02
1.047477498650550842e-02
3.833281621336936951e-02
3.421024978160858154e-02
3.231826797127723694e-02
5.176719278097152710e-02
2.524612285196781158e-02
6.016391329467296600e-03
-2.627367153763771057e-02
7.160151377320289612e-03
-1.780375652015209198e-02
3.888964187353849411e-03
-4.721409059129655361e-04
2.972012385725975037e-02
-7.551693916320800781e-02
2.337738126516342163e-02
1.854702830314636230e-02
5.403317138552665710e-02
1.103662606328725815e-02
8.025103248655796051e-03
5.002881865948438644e-03
1.950158365070819855e-02
-2.660159207880496979e-02
