4.652385413646697998e-02 -9.211952239274978638e-02 1.393495965749025345e-02 -9.614024311304092407e-02 -1.780367270112037659e-02 7.349436054937541485e-04 1.498974263668060303e-01 -1.610479876399040222e-02 3.081103600561618805e-02 6.228997930884361267e-02 -5.382825434207916260e-02 8.799944072961807251e-02 1.008417233824729919e-01 -1.832733005285263062e-01 -3.454019082710146904e-03 5.284750461578369141e-02 -1.043041497468948364e-01 -5.091698095202445984e-02 -6.098595261573791504e-02 -2.368723414838314056e-02 2.710325270891189575e-02 -5.624940618872642517e-02 5.477986112236976624e-02 -6.053119525313377380e-02 -8.074109442532062531e-03 5.180465057492256165e-02 9.270062297582626343e-02 -1.016520559787750244e-01 6.025925651192665100e-02 5.880048125982284546e-02 1.632503718137741089e-01 -9.870070964097976685e-02 -5.915293842554092407e-02 -2.404473954811692238e-03 1.340368986129760742e-01 -1.703228205442428589e-01 1.937444135546684265e-02 3.552984818816184998e-02 -1.033576279878616333e-01 -5.225799232721328735e-02 -2.419416606426239014e-02 -1.260245144367218018e-01 -8.789850771427154541e-02 -1.465882956981658936e-01 8.876198530197143555e-02 5.676180124282836914e-02 -3.874758258461952209e-02 -6.347601115703582764e-02 -4.920804128050804138e-02 1.104217171669006348e-01 8.193334937095642090e-02 -5.903919413685798645e-02 2.015409432351589203e-02 -6.641971995122730732e-04 -7.459563016891479492e-02 -1.668343693017959595e-01 7.567944470793008804e-03 -3.806914761662483215e-02 1.705785989761352539e-01 2.362445928156375885e-03 -9.183689951896667480e-02 1.812419481575489044e-02 5.975897982716560364e-02 -4.790524393320083618e-02 -2.662191167473793030e-02 8.557341247797012329e-02 -3.386906906962394714e-02 -8.622077293694019318e-03 -4.333851113915443420e-02 -2.198903821408748627e-02 -2.599196881055831909e-02 -3.409314155578613281e-02 -1.712127029895782471e-01 -7.238326221704483032e-02 9.295131266117095947e-02 6.047024577856063843e-02 8.249469846487045288e-02 1.052896082401275635e-01 -5.837454646825790405e-02 -1.568373665213584900e-02 -1.840399056673049927e-01 2.811275050044059753e-02 4.953540116548538208e-02 5.586747080087661743e-02 8.888519555330276489e-02 -2.123819440603256226e-01 4.853266477584838867e-02 -4.480513185262680054e-02 4.711025580763816833e-02 9.112026542425155640e-02 -4.801592230796813965e-02 -3.771474957466125488e-02 -9.415422379970550537e-02 5.652840062975883484e-02 -4.393715783953666687e-02 4.683499038219451904e-02 3.159741312265396118e-02 6.943476200103759766e-02 4.206737037748098373e-03 -8.277974091470241547e-03 8.241944015026092529e-02 -3.357225283980369568e-02 -1.240551993250846863e-01 2.034236304461956024e-02 -2.980799973011016846e-02 -1.064405664801597595e-01 7.024473696947097778e-02 4.352989420294761658e-02 1.170496344566345215e-01 4.152006283402442932e-02 7.527601718902587891e-02 1.535951644182205200e-01 2.733012661337852478e-02 -2.698152326047420502e-02 -7.494504749774932861e-02 9.758917987346649170e-02 4.932949319481849670e-02 2.219351530075073242e-01 5.997577682137489319e-02 -2.277623675763607025e-02 -5.594384670257568359e-02 6.648097187280654907e-02 2.731276035774499178e-04 -8.930143713951110840e-02 3.453929722309112549e-02 6.202500313520431519e-03 -1.769038848578929901e-02 1.351526826620101929e-01 -6.167799979448318481e-02 -6.030676513910293579e-02 -1.334153860807418823e-01 2.202307246625423431e-02 6.410522758960723877e-02 2.345715649425983429e-02 -1.363941095769405365e-02 -9.088853746652603149e-02 -1.239056438207626343e-01 7.069073617458343506e-02 -4.273341596126556396e-02 1.798933893442153931e-01 -5.089628975838422775e-03 1.330660283565521240e-01 -9.673935361206531525e-03 5.109391175210475922e-03 -1.194526553153991699e-01 7.766283303499221802e-02 1.459599239751696587e-03 -3.981707245111465454e-02 4.025190696120262146e-02 6.040951609611511230e-02 -3.209602534770965576e-01 -1.615554839372634888e-01 1.500762850046157837e-01 4.342037439346313477e-02 -4.471435677260160446e-03 -3.517582267522811890e-02 -4.675950855016708374e-02 -6.065026973374187946e-04 -1.129935029894113541e-02 -1.223145872354507446e-01 4.232995584607124329e-02 1.300053596496582031e-01 5.576555058360099792e-02 -9.818688035011291504e-02 -2.172962762415409088e-02 -2.407485395669937134e-01 -5.625315383076667786e-02 -6.434474140405654907e-02 1.136221066117286682e-01 -1.737211644649505615e-01 -3.551078215241432190e-02 -1.777462065219879150e-01 1.139021441340446472e-01 2.633003331720829010e-02 6.865138560533523560e-02 1.533330231904983521e-01 1.090098619461059570e-01 7.173372805118560791e-02 6.835886836051940918e-02 6.948733329772949219e-02 8.588903397321701050e-02 5.062471702694892883e-02 2.534802071750164032e-02 1.757563836872577667e-02 -9.748066216707229614e-02 7.182004861533641815e-03 1.480952948331832886e-01 -1.706964895129203796e-02 3.307911381125450134e-02 -8.818694949150085449e-02 1.968611776828765869e-01 -7.625567913055419922e-02 -1.437818706035614014e-01 -1.341008096933364868e-01 6.005369126796722412e-03 5.391313694417476654e-03 1.096778586506843567e-01 -6.269611418247222900e-02 6.262966431677341461e-03 1.811576448380947113e-02 1.711467094719409943e-02 7.384423911571502686e-02 -6.352329999208450317e-02 -4.178761690855026245e-02 -2.746804431080818176e-02 1.647057831287384033e-01 1.713239997625350952e-01 -1.312225311994552612e-01 8.164104819297790527e-02 1.852744817733764648e-01 6.639212369918823242e-02 -6.587743014097213745e-02 -1.004327684640884399e-01 -6.964040547609329224e-02 8.462312817573547363e-02 -1.722986437380313873e-02 6.342557817697525024e-02 -1.924616694450378418e-01 -1.125424057245254517e-01 1.361234337091445923e-01 -5.366153642535209656e-02 6.418210268020629883e-02 -9.517740691080689430e-04 -4.540297016501426697e-02 9.806279093027114868e-02 -1.170570030808448792e-01 -1.237876489758491516e-01 -1.797614693641662598e-01 -5.757588520646095276e-02 5.581514909863471985e-02 -5.579146370291709900e-02 -3.661188855767250061e-02 -1.322770714759826660e-01 -4.491184651851654053e-02 -1.026982888579368591e-01 1.474959999322891235e-01 -1.652682013809680939e-02
-1.732522398233413696e-01 1.609485000371932983e-01 1.177851259708404541e-01 1.447293013334274292e-01 1.389106269925832748e-02 -5.085692182183265686e-02 -1.175711005926132202e-01 1.150014251470565796e-01 -4.561041668057441711e-02 -2.640827298164367676e-01 7.352702319622039795e-02 1.409889012575149536e-01 -1.386833041906356812e-01 -5.432923510670661926e-02 -1.191720739006996155e-01 -1.102206856012344360e-02 -4.607287049293518066e-02 -3.110997006297111511e-02 -9.200559556484222412e-02 1.351068541407585144e-02 -2.198792621493339539e-02 -8.784887939691543579e-02 1.442802953533828259e-03 -1.065840646624565125e-01 -6.899919360876083374e-02 1.940010339021682739e-01 4.180160909891128540e-02 6.027841567993164062e-02 -4.821381717920303345e-02 8.823516219854354858e-02 1.257531344890594482e-01 1.021949425339698792e-01 -9.090552479028701782e-02 -7.833077758550643921e-02 -1.390279978513717651e-01 -9.506866917945444584e-04 -7.331127673387527466e-02 -1.985042393207550049e-01 1.450152099132537842e-01 -5.987706035375595093e-02 3.740298375487327576e-02 1.071293726563453674e-01 -1.702595353126525879e-01 -1.181097924709320068e-01 2.096857279539108276e-01 -1.372466683387756348e-01 3.945574164390563965e-02 -5.106953904032707214e-02 9.913981705904006958e-02 -8.838000148534774780e-02 -2.466583065688610077e-02 -2.795555256307125092e-02 -5.147540941834449768e-03 5.391424149274826050e-02 -4.165132716298103333e-02 7.919988036155700684e-02 4.572295397520065308e-02 2.641703374683856964e-02 -5.987802520394325256e-02 3.300903737545013428e-02 -7.302216440439224243e-02 1.746553033590316772e-01 -5.913934670388698578e-03 -1.272171437740325928e-01 2.221304550766944885e-02 8.044663816690444946e-03 -1.294973343610763550e-01 -6.444748491048812866e-02 -9.397914260625839233e-02 1.472014933824539185e-02 -3.301487118005752563e-02 1.111386939883232117e-01 1.659358665347099304e-02 -4.603733122348785400e-02 -1.569115668535232544e-01 1.537948548793792725e-01 1.219834387302398682e-02 -6.603301316499710083e-02 2.508881152607500553e-04 -2.056468725204467773e-01 8.043411374092102051e-02 7.998289912939071655e-02 1.659391075372695923e-02 1.367892175912857056e-01 -8.193639665842056274e-02 5.376902222633361816e-02 2.039583399891853333e-02 -4.521975293755531311e-02 1.267410963773727417e-01 -9.262808412313461304e-02 1.160579845309257507e-01 -6.194714084267616272e-02 -1.284157577902078629e-02 -6.088521331548690796e-02 -4.143353179097175598e-02 6.406948715448379517e-02 3.607838228344917297e-02 -3.471657261252403259e-02 -1.084937155246734619e-01 1.728374212980270386e-01 2.540675178170204163e-02 -6.749231833964586258e-03 -5.205831676721572876e-02 1.352054998278617859e-02 -2.110792510211467743e-02 -1.485504209995269775e-01 1.598830223083496094e-01 1.305741257965564728e-02 -3.655358031392097473e-02 2.758490853011608124e-03 3.465145453810691833e-02 -2.709608674049377441e-01 6.935284286737442017e-02 1.689409017562866211e-01 1.162259355187416077e-01 6.063241511583328247e-02 1.689365357160568237e-01 -3.347996994853019714e-02 -3.854345530271530151e-02 -1.248428896069526672e-01 1.217086389660835266e-01 4.003626853227615356e-02 -3.240775316953659058e-02 -8.537031710147857666e-02 -8.809390664100646973e-02 9.080224484205245972e-02 7.253114134073257446e-02 -1.182938665151596069e-01 -3.735002875328063965e-02 -7.347537577152252197e-02 -5.020903423428535461e-02 1.048904955387115479e-01 1.803216934204101562e-01 -1.265962570905685425e-01 -7.926706969738006592e-02 6.346402317285537720e-02 5.459500476717948914e-02 -1.304786000400781631e-02 9.307996183633804321e-02 -6.163255497813224792e-02 6.818935275077819824e-02 -1.270955353975296021e-01 -6.196305900812149048e-02 6.811216473579406738e-02 -8.552671968936920166e-02 4.302024841308593750e-02 -4.177767783403396606e-02 6.252615898847579956e-02 -3.478977680206298828e-01 3.463459387421607971e-02 -1.898871362209320068e-02 4.826173558831214905e-02 8.328047394752502441e-02 -8.526565134525299072e-02 -5.335744097828865051e-02 -1.814863085746765137e-01 -9.348044544458389282e-02 3.656021133065223694e-02 4.892431199550628662e-03 4.371925443410873413e-02 3.003632277250289917e-02 4.072107747197151184e-02 6.612696498632431030e-02 6.415124237537384033e-02 -2.797203883528709412e-02 -4.062682762742042542e-02 1.266537234187126160e-02 -5.041065812110900879e-02 -4.383506253361701965e-02 -3.606076166033744812e-02 -1.405454128980636597e-01 -4.091580864042043686e-03 -5.128702614456415176e-03 3.343404456973075867e-02 -8.571249246597290039e-02 1.329948604106903076e-01 -3.310843929648399353e-02 -1.032842975109815598e-02 1.982574760913848877e-01 -1.458253115415573120e-01 1.034635081887245178e-01 -2.717002667486667633e-02 2.328107692301273346e-02 9.516701102256774902e-02 6.258711963891983032e-02 -5.712196230888366699e-02 -8.720218390226364136e-02 5.033501237630844116e-02 1.781033724546432495e-02 -4.478586465120315552e-02 -8.687665313482284546e-02 -6.043735146522521973e-02 -1.261016074568033218e-02 9.706126525998115540e-03 9.871957451105117798e-02 8.350599557161331177e-02 4.175233468413352966e-02 -1.790040056221187115e-03 3.627257421612739563e-02 6.771645974367856979e-03 1.633653976023197174e-02 -2.580235013738274574e-04 6.748899817466735840e-02 -7.138665020465850830e-02 3.371740505099296570e-02 7.951759546995162964e-02 -4.858106747269630432e-02 -5.927802994847297668e-02 2.249748259782791138e-02 -2.288871705532073975e-01 -5.078076198697090149e-02 2.052455581724643707e-02 -1.512063294649124146e-01 2.037674337625503540e-01 -1.957586966454982758e-02 5.851617082953453064e-02 -1.152697652578353882e-01 -1.572482138872146606e-01 1.076343581080436707e-01 5.168207734823226929e-02 5.512070842087268829e-03 -1.347754001617431641e-01 1.469861418008804321e-01 -1.804022341966629028e-01 3.337804228067398071e-02 1.315192133188247681e-01 4.016484320163726807e-02 -1.230575740337371826e-01 4.388712346553802490e-02 -5.639361590147018433e-02 3.330523520708084106e-02 6.670178472995758057e-02 -1.070340871810913086e-01 1.801279932260513306e-02 6.462270766496658325e-02 -1.425362527370452881e-01 2.956876158714294434e-02
-3.553402796387672424e-02 2.037688791751861572e-01 -1.451074630022048950e-01 -1.220925129018723965e-03 -5.439819023013114929e-02 1.778063178062438965e-02 5.015174392610788345e-03 -2.010303363204002380e-02 3.508360683917999268e-02 -9.509923309087753296e-02 6.775530520826578140e-03 -4.905134811997413635e-02 1.150891929864883423e-02 -1.490277121774852276e-03 -1.488065719604492188e-01 9.192701429128646851e-02 -2.186450362205505371e-02 -8.395627140998840332e-02 2.772642970085144043e-01 8.974456228315830231e-03 7.292820513248443604e-02 8.673647791147232056e-02 1.776309311389923096e-01 -7.426591962575912476e-02 -6.945441663265228271e-02 -5.619588121771812439e-02 -5.394436419010162354e-02 8.370096236467361450e-02 3.978252410888671875e-02 -4.477227479219436646e-02 -4.722088575363159180e-02 -8.034662902355194092e-02 -1.122147142887115479e-01 2.976904623210430145e-02 -3.452740982174873352e-02 -1.908864527940750122e-01 -3.149012103676795959e-02 -2.821719646453857422e-01 1.602041721343994141e-01 -1.623043417930603027e-01 -1.502867341041564941e-01 -2.224271371960639954e-02 -7.537690550088882446e-02 -2.787564881145954132e-02 2.589178737252950668e-03 -6.391653791069984436e-03 -7.216475158929824829e-02 1.331419050693511963e-01 -3.562770783901214600e-02 -3.709246963262557983e-02 5.148364976048469543e-02 5.094992369413375854e-02 -6.826922297477722168e-03 -1.755088381469249725e-02 1.408558487892150879e-01 -3.362058103084564209e-02 7.334995269775390625e-02 -1.915156841278076172e-01 1.109976172447204590e-01 -1.402858048677444458e-01 4.258566536009311676e-03 -1.062131673097610474e-01 -6.160750612616539001e-02 -6.413486599922180176e-02 1.232827082276344299e-01 1.094744130969047546e-01 -1.983064264059066772e-01 -2.087682485580444336e-02 3.330955281853675842e-02 -1.029479503631591797e-01 -8.358098566532135010e-02 -8.114384859800338745e-02 2.567288838326931000e-02 2.957566641271114349e-02 4.974507726728916168e-03 1.157274767756462097e-01 -1.135167181491851807e-01 6.277025490999221802e-02 2.931370213627815247e-02 -3.773651085793972015e-03 2.289220504462718964e-02 4.109745472669601440e-02 1.129345893859863281e-01 8.165067434310913086e-02 1.296331174671649933e-02 2.185364440083503723e-02 -3.112736158072948456e-02 -3.599782288074493408e-02 -1.220435928553342819e-02 3.544349595904350281e-02 -1.115485355257987976e-01 5.419143661856651306e-02 2.309963554143905640e-01 -7.101330906152725220e-02 1.299595683813095093e-01 -5.037648975849151611e-02 7.608694583177566528e-02 4.689168650656938553e-03 -4.478298872709274292e-02 -4.826650768518447876e-02 -3.657202422618865967e-02 1.979567259550094604e-01 2.905150689184665680e-02 -3.119008988142013550e-02 4.452488571405410767e-02 -9.051317721605300903e-02 -2.320391833782196045e-01 -1.043813079595565796e-01 -1.256482601165771484e-01 1.099306195974349976e-01 -1.187230553478002548e-02 -1.000930517911911011e-01 2.446974813938140869e-01 -2.546008825302124023e-01 -4.799314215779304504e-02 6.798582617193460464e-03 1.952038146555423737e-03 -2.765429206192493439e-02 4.529109969735145569e-02 1.816488355398178101e-01 1.150239259004592896e-01 1.168073788285255432e-01 4.850239306688308716e-02 4.771188274025917053e-02 -1.543163210153579712e-01 3.668834269046783447e-02 9.419890493154525757e-02 -3.512447327375411987e-02 -4.838396236300468445e-02 -6.164608150720596313e-02 1.365354508161544800e-01 -6.860141456127166748e-02 2.739859558641910553e-02 -7.592632621526718140e-02 1.448405683040618896e-01 6.422877777367830276e-03 4.524083435535430908e-02 -6.200542300939559937e-02 4.607396945357322693e-02 1.711520850658416748e-01 1.487673670053482056e-01 -2.805338986217975616e-02 4.792499542236328125e-02 4.998752847313880920e-02 -6.348184496164321899e-02 1.242417562752962112e-02 -7.265507243573665619e-03 -4.751924891024827957e-03 -2.475522011518478394e-01 1.836375296115875244e-01 6.048359721899032593e-02 6.743665784597396851e-02 2.579770982265472412e-03 -5.475159361958503723e-02 5.393436923623085022e-02 -5.215895920991897583e-02 -4.658955335617065430e-02 1.303448230028152466e-01 -8.194851130247116089e-02 1.350640654563903809e-01 -1.985501125454902649e-02 -1.829363256692886353e-01 9.506563842296600342e-02 -2.079999819397926331e-02 -6.480860710144042969e-02 1.865719631314277649e-02 6.322927772998809814e-02 1.019950285553932190e-01 3.296053782105445862e-02 4.948212206363677979e-02 -1.019081446429481730e-05 1.350659132003784180e-01 3.048511222004890442e-02 1.839046832174062729e-03 -2.363786846399307251e-01 1.551230549812316895e-01 2.259458154439926147e-01 -1.855044276453554630e-03 -8.728767186403274536e-02 -9.277381002902984619e-02 -5.533255636692047119e-02 4.378370568156242371e-02 -6.041191890835762024e-02 -2.247744705528020859e-03 -7.317316532135009766e-02 9.844254702329635620e-02 -1.153183132410049438e-01 3.378790989518165588e-02 -2.478484809398651123e-02 -8.380426466464996338e-02 5.547546781599521637e-03 1.216138005256652832e-01 2.044005505740642548e-02 -3.124865889549255371e-02 -7.880019024014472961e-03 5.751727893948554993e-02 1.465603262186050415e-01 -4.768330603837966919e-02 1.191453170031309128e-02 -1.287869065999984741e-01 7.206012308597564697e-02 -8.208408206701278687e-02 2.372127771377563477e-01 -1.058327630162239075e-01 7.052394002676010132e-02 -3.724135458469390869e-02 3.346809372305870056e-02 1.154384762048721313e-02 -6.284300982952117920e-02 6.879615038633346558e-02 -1.708509400486946106e-02 5.556570366024971008e-02 -2.103646695613861084e-01 3.564993676263839006e-04 1.384245306253433228e-01 -1.115556061267852783e-01 8.960212022066116333e-02 -4.727606102824211121e-02 6.948527693748474121e-02 -5.720859766006469727e-02 -1.514438656158745289e-03 -4.867177829146385193e-02 -6.604623794555664062e-02 8.031128346920013428e-02 -4.261967539787292480e-02 -6.779099255800247192e-02 -1.498668547719717026e-02 7.799159735441207886e-02 -2.255216799676418304e-02 2.735025715082883835e-03 -6.474627554416656494e-02 -7.161656767129898071e-02 -6.782649457454681396e-02 3.693731501698493958e-02 -2.730488311499357224e-03 2.321303822100162506e-02 -4.815035313367843628e-02
6.077991425991058350e-02 -6.215208396315574646e-02 -1.482839435338973999e-01 9.226037561893463135e-02 -9.874923154711723328e-03 7.257089018821716309e-02 -1.068787500262260437e-01 -4.749873280525207520e-02 9.381468407809734344e-03 -4.719233140349388123e-02 4.830795899033546448e-02 2.178536802530288696e-01 -4.024378489702939987e-03 -1.054722582921385765e-03 -3.988155722618103027e-02 8.644698187708854675e-03 1.955663599073886871e-02 -1.910874545574188232e-01 1.026133149862289429e-01 1.567722409963607788e-01 -2.197763882577419281e-02 1.939374022185802460e-02 1.898456178605556488e-02 2.944014221429824829e-02 1.371947675943374634e-01 -1.547740250825881958e-01 1.098400279879570007e-01 -6.125173717737197876e-02 1.535121947526931763e-01 1.341604441404342651e-01 -1.530133485794067383e-01 1.740459501743316650e-01 -8.874894119799137115e-03 -4.756068438291549683e-02 -2.971148304641246796e-02 -1.131727620959281921e-01 3.417731821537017822e-02 -1.318217813968658447e-01 -9.153813868761062622e-02 4.306795820593833923e-02 1.352859735488891602e-01 -6.206800788640975952e-02 -1.845585182309150696e-02 6.417817622423171997e-02 -7.639965973794460297e-03 7.435618899762630463e-03 -1.596854776144027710e-01 7.729022949934005737e-02 5.811843648552894592e-02 1.916526705026626587e-01 6.748530268669128418e-02 -1.027673333883285522e-01 -7.396669685840606689e-02 -4.871543869376182556e-02 -1.697705127298831940e-02 -1.537540741264820099e-02 -3.598355501890182495e-02 4.368123784661293030e-02 3.082581795752048492e-02 -5.593151971697807312e-02 -9.879454970359802246e-02 3.751115500926971436e-02 2.669500708580017090e-01 -1.219328939914703369e-01 7.234007865190505981e-02 9.090117365121841431e-02 -4.377078637480735779e-02 -2.936565503478050232e-02 4.504486545920372009e-02 -4.972290713340044022e-03 1.062660068273544312e-01 -3.621124103665351868e-02 -9.752091020345687866e-03 -1.613904833793640137e-01 9.159474074840545654e-02 1.269806325435638428e-01 -4.538867622613906860e-03 -5.407878756523132324e-02 -8.763896301388740540e-03 8.640310913324356079e-02 -4.359309002757072449e-02 5.551678687334060669e-02 3.235178813338279724e-02 -2.068895287811756134e-02 -1.412126719951629639e-01 1.239889208227396011e-02 1.319059580564498901e-01 -1.291499566286802292e-02 2.669549174606800079e-02 -1.619859971106052399e-02 1.932650245726108551e-02 -4.953387379646301270e-02 6.621635705232620239e-02 -1.746794730424880981e-01 2.348716929554939270e-02 -5.766147375106811523e-02 1.050352081656455994e-01 -5.926039069890975952e-02 -1.625243388116359711e-02 -4.511079937219619751e-02 -6.515692174434661865e-02 3.151772916316986084e-02 -1.655452996492385864e-01 4.761152341961860657e-02 3.083473071455955505e-02 -7.338705472648143768e-03 9.838469559326767921e-04 -6.677317619323730469e-02 1.028674393892288208e-01 7.859217375516891479e-02 -1.856175214052200317e-01 1.520410627126693726e-01 8.106447011232376099e-02 2.992303483188152313e-02 -5.022571980953216553e-02 -1.400616765022277832e-01 -9.518664330244064331e-02 1.098783314228057861e-01 -2.879015915095806122e-02 5.002204701304435730e-02 9.317173808813095093e-02 -3.101678751409053802e-02 -2.484140731394290924e-02 2.718038856983184814e-02 6.458285450935363770e-02 -1.356778293848037720e-01 -1.754989326000213623e-01 -4.187851026654243469e-02 -2.649447880685329437e-02 1.182015836238861084e-01 3.367339819669723511e-02 1.919567398726940155e-02 -7.589278370141983032e-02 5.734994634985923767e-02 1.776321046054363251e-02 7.598663866519927979e-02 1.726570427417755127e-01 1.551792323589324951e-01 -4.446945711970329285e-02 -4.096192121505737305e-02 -4.155241325497627258e-02 2.141039632260799408e-02 -9.859661571681499481e-03 5.801060423254966736e-02 3.560175746679306030e-02 7.453100383281707764e-02 1.251722685992717743e-02 -5.023101344704627991e-03 1.250286996364593506e-01 -1.128641515970230103e-01 1.772740632295608521e-01 1.283777654170989990e-01 1.136321760714054108e-02 -7.201237231492996216e-02 6.530287116765975952e-02 -3.369041904807090759e-02 -1.091852039098739624e-02 5.238499864935874939e-02 -9.827648848295211792e-02 -3.624266088008880615e-01 5.194256454706192017e-02 1.758829802274703979e-01 -4.579286556690931320e-03 2.738961949944496155e-02 5.805616453289985657e-02 2.394993416965007782e-02 -1.616286784410476685e-01 1.918009296059608459e-02 -1.605073958635330200e-01 8.976513892412185669e-02 1.658753305673599243e-02 3.841832280158996582e-02 2.825491502881050110e-02 1.136439144611358643e-01 -4.332271218299865723e-02 6.639107316732406616e-02 -8.027198910713195801e-02 5.851635243743658066e-03 8.639048784971237183e-02 -6.280892342329025269e-02 1.527586728334426880e-01 -7.122355699539184570e-02 1.088729128241539001e-02 9.097167849540710449e-02 9.898974746465682983e-02 -7.260158658027648926e-02 -7.245263457298278809e-02 3.167267888784408569e-02 -9.001961350440979004e-02 1.930786520242691040e-01 1.225128173828125000e-01 -4.770867526531219482e-02 6.521531194448471069e-02 2.662714011967182159e-02 -3.577215597033500671e-03 -9.392839670181274414e-02 1.481683850288391113e-01 5.030059069395065308e-02 5.273747816681861877e-02 7.429733127355575562e-02 -7.045329082757234573e-03 9.810451418161392212e-02 -4.203468188643455505e-02 8.783528953790664673e-02 -7.550583686679601669e-03 6.372537463903427124e-02 5.318596959114074707e-02 -2.080579251050949097e-01 6.255874782800674438e-02 5.392052233219146729e-02 6.917681545019149780e-02 -7.652208954095840454e-02 2.733271941542625427e-02 -2.198469359427690506e-03 -3.267320990562438965e-02 -1.371555924415588379e-01 1.761434972286224365e-02 1.990559510886669159e-02 2.009494788944721222e-02 1.616362035274505615e-01 8.927874267101287842e-02 1.444111466407775879e-01 1.512938179075717926e-02 -1.209343373775482178e-01 4.866643343120813370e-03 5.204153433442115784e-02 -9.382461197674274445e-03 -3.139396384358406067e-02 -1.947325468063354492e-02 -1.285965889692306519e-01 6.436880677938461304e-02 1.198601648211479187e-01 -9.642288088798522949e-02 8.976771682500839233e-02 1.418515890836715698e-01 1.912266388535499573e-02 -9.390470385551452637e-02
-2.026230655610561371e-02 1.144816577434539795e-01 -2.321757227182388306e-01 -7.185411453247070312e-02 -2.385256290435791016e-01 -2.614221535623073578e-02 1.020058766007423401e-01 1.124682426452636719e-01 1.620833873748779297e-01 6.675669550895690918e-02 -1.082183793187141418e-01 -6.903235614299774170e-02 3.901210054755210876e-02 8.543619513511657715e-02 7.858213037252426147e-02 -3.461883962154388428e-02 -5.162704735994338989e-02 6.488540768623352051e-02 2.482635341584682465e-02 1.368495728820562363e-02 -4.224220663309097290e-02 2.898921445012092590e-02 3.669651970267295837e-02 -8.985225111246109009e-02 1.185433715581893921e-01 1.496811360120773315e-01 -1.224871128797531128e-01 -6.970079988241195679e-02 6.489033252000808716e-02 1.412199288606643677e-01 1.432148832827806473e-02 4.271236062049865723e-02 -9.990714490413665771e-02 4.630686715245246887e-02 3.745612129569053650e-02 -1.171109918504953384e-02 1.387309730052947998e-01 -8.035318553447723389e-02 5.430205166339874268e-02 1.296632084995508194e-02 -5.359754711389541626e-02 -1.911053783260285854e-03 -1.908545792102813721e-01 1.749395877122879028e-01 -1.329919509589672089e-02 9.074372053146362305e-02 8.377999067306518555e-02 8.056066185235977173e-02 1.841073669493198395e-02 1.145169287919998169e-01 1.570794582366943359e-01 -1.641866117715835571e-01 6.459347903728485107e-02 -1.518790274858474731e-01 -5.621777474880218506e-02 1.273959875106811523e-01 -7.749112695455551147e-02 1.099070012569427490e-01 -1.328547447919845581e-01 1.445761024951934814e-01 -8.173993974924087524e-02 3.051119446754455566e-01 -8.835058659315109253e-02 5.356521531939506531e-02 5.026980489492416382e-02 1.644077003002166748e-01 8.906023204326629639e-02 2.777623943984508514e-02 -7.738433778285980225e-03 1.439380496740341187e-01 -1.004198417067527771e-01 -1.882586330175399780e-01 -1.310539096593856812e-01 6.826896965503692627e-02 -4.105207696557044983e-02 8.393447846174240112e-03 -1.091662198305130005e-01 5.509896948933601379e-02 -7.928147912025451660e-02 8.511997759342193604e-02 1.533790826797485352e-01 -4.018743708729743958e-02 9.183594584465026855e-02 8.637202531099319458e-02 -7.709170877933502197e-02 -7.753740251064300537e-02 7.597480714321136475e-02 -1.272276975214481354e-02 6.797514110803604126e-02 -6.709373742341995239e-02 4.515302553772926331e-02 -1.303207408636808395e-02 1.244470383971929550e-02 -7.421560585498809814e-02 -9.154601953923702240e-03 2.156135439872741699e-02 -1.218365803360939026e-01 -8.600756525993347168e-02 1.512675732374191284e-01 5.783047527074813843e-03 3.221299499273300171e-02 1.100236251950263977e-01 2.812409214675426483e-02 -1.282216161489486694e-01 8.513863384723663330e-02 -1.185959875583648682e-01 -8.266055025160312653e-03 1.678610220551490784e-02 -2.730648219585418701e-01 -3.752193972468376160e-02 -9.979139268398284912e-02 -3.828372107818722725e-03 1.637101471424102783e-01 2.179511450231075287e-02 -5.906766653060913086e-02 -1.073263678699731827e-02 -5.222666636109352112e-02 -1.404566019773483276e-01 1.273122727870941162e-01 3.752726688981056213e-02 -6.105607748031616211e-02 -8.362156897783279419e-02 -1.959657073020935059e-01 -1.112030893564224243e-01 2.193067222833633423e-02 4.592007026076316833e-03 -8.225423097610473633e-02 -4.845279455184936523e-02 -1.126368194818496704e-01 -2.370908297598361969e-02 1.097742617130279541e-01 5.468215420842170715e-02 -7.974591851234436035e-02 2.699164673686027527e-03 -1.554933786392211914e-01 9.986464679241180420e-02 -1.070772036910057068e-01 -6.224077194929122925e-02 6.612277030944824219e-02 -1.953936181962490082e-02 1.166533771902322769e-02 -7.150025665760040283e-02 1.243738085031509399e-01 9.907470643520355225e-02 -1.785174384713172913e-02 -4.009100794792175293e-02 -1.343020945787429810e-01 -1.475010216236114502e-01 1.816593296825885773e-02 6.738916784524917603e-02 -5.174002051353454590e-02 -7.063309848308563232e-02 2.809682860970497131e-03 8.479609340429306030e-02 -1.522785872220993042e-01 4.509094357490539551e-02 8.139917254447937012e-02 1.950253359973430634e-02 1.914779469370841980e-02 -1.375135034322738647e-01 1.012231782078742981e-01 -2.599194832146167755e-02 -1.921767145395278931e-01 -8.997138589620590210e-02 -1.133139878511428833e-01 -6.653329730033874512e-02 1.531732231378555298e-01 -1.142513602972030640e-01 1.554390694946050644e-02 -6.486508995294570923e-02 1.180628389120101929e-01 6.453176587820053101e-02 -1.556254178285598755e-01 -4.255830496549606323e-02 -1.552240699529647827e-01 -2.413529157638549805e-02 -4.467820748686790466e-02 -5.547925829887390137e-02 -1.474934350699186325e-02 -2.614539489150047302e-02 -2.241257391870021820e-02 1.284674108028411865e-01 -6.746885832399129868e-03 8.636207133531570435e-02 7.659149169921875000e-02 1.222219765186309814e-01 -2.417134493589401245e-02 -1.847131736576557159e-02 -1.106577441096305847e-01 -3.904291242361068726e-02 -4.577253479510545731e-03 -5.441770702600479126e-02 -6.491030007600784302e-02 -1.029890775680541992e-01 -4.090148955583572388e-02 3.567715361714363098e-02 1.209107488393783569e-01 7.365956902503967285e-02 4.462389741092920303e-03 -3.110408410429954529e-02 9.064000844955444336e-02 3.661848977208137512e-02 -7.064775377511978149e-02 8.887445181608200073e-02 1.322476416826248169e-01 -3.596117720007896423e-02 3.245003521442413330e-02 -1.057976763695478439e-02 7.575233466923236847e-03 -3.052050434052944183e-02 -4.095965996384620667e-02 -2.819568663835525513e-02 3.773939330130815506e-03 -2.642735652625560760e-02 2.816726453602313995e-02 -5.300144106149673462e-02 6.233538314700126648e-02 -2.456494979560375214e-02 9.636251628398895264e-02 1.164330765604972839e-01 4.305191710591316223e-02 -1.386635601520538330e-01 3.789817448705434799e-03 -1.339782178401947021e-01 -4.864902235567569733e-03 -3.965832293033599854e-02 2.205838821828365326e-02 1.007603034377098083e-01 3.382834792137145996e-02 -1.150303184986114502e-01 3.968574851751327515e-02 -9.425353258848190308e-02 -4.668116942048072815e-02 1.608901657164096832e-02 6.276993080973625183e-03 2.643514052033424377e-02 1.418616622686386108e-01
-2.312020063400268555e-01 -2.399284020066261292e-02 -2.658492885529994965e-02 1.972753554582595825e-02 1.486660796217620373e-03 -1.466053873300552368e-01 -1.135872825980186462e-01 -5.452779307961463928e-02 -1.442235261201858521e-01 1.044126972556114197e-01 4.334653913974761963e-02 -6.218769773840904236e-02 4.441940784454345703e-02 -1.420640349388122559e-01 3.880405100062489510e-03 1.263462845236063004e-02 9.943775087594985962e-02 1.491047814488410950e-02 4.700256511569023132e-02 1.255461424589157104e-01 -1.776243001222610474e-02 4.240768402814865112e-02 9.318046271800994873e-02 -5.571015551686286926e-02 6.497830152511596680e-02 -3.596947714686393738e-02 6.872051209211349487e-02 3.140785694122314453e-01 6.082808598875999451e-02 1.672679744660854340e-02 -3.622793406248092651e-02 8.340544253587722778e-02 -3.656353801488876343e-02 -7.416281849145889282e-02 -7.247665524482727051e-02 7.212372869253158569e-02 1.672703325748443604e-01 3.151893615722656250e-02 2.196657471358776093e-03 -1.308802217245101929e-01 5.749631673097610474e-02 -4.499853402376174927e-02 -6.398380547761917114e-02 1.545989327132701874e-02 8.062360808253288269e-03 -4.091180115938186646e-02 -3.305210545659065247e-02 -4.686724860221147537e-03 5.487128719687461853e-02 7.549440860748291016e-02 1.210709810256958008e-01 2.217784821987152100e-01 -6.047875061631202698e-02 8.659543097019195557e-02 5.687902215868234634e-03 -6.041349843144416809e-02 1.645461916923522949e-01 4.038019478321075439e-02 -1.169461235404014587e-01 9.235289692878723145e-02 4.223339259624481201e-02 -2.154970541596412659e-02 7.732745260000228882e-02 -4.339070001151412725e-04 9.507634490728378296e-02 -6.117560900747776031e-03 -7.411753386259078979e-02 2.161496132612228394e-02 -1.179533265531063080e-02 5.919047445058822632e-02 -1.363227218389511108e-01 -4.996540397405624390e-02 -1.069396659731864929e-01 -8.773281425237655640e-02 -7.634245604276657104e-02 -2.145906835794448853e-01 1.046283915638923645e-01 -8.275832235813140869e-02 -8.793872594833374023e-02 -1.063527241349220276e-01 -2.838178537786006927e-03 6.720451172441244125e-03 2.737765572965145111e-02 1.194562986493110657e-01 1.127146370708942413e-02 1.042239665985107422e-01 1.077176108956336975e-01 -1.252586990594863892e-01 -5.088598001748323441e-03 6.567692756652832031e-02 -1.292952299118041992e-01 -1.451717913150787354e-01 1.266228258609771729e-01 1.019720137119293213e-01 -3.694819658994674683e-02 1.213438659906387329e-01 1.561670750379562378e-01 5.763633549213409424e-02 -9.875646978616714478e-02 -1.359930448234081268e-02 4.774648696184158325e-02 4.101991057395935059e-01 9.146972000598907471e-02 1.314696203917264938e-02 -1.086614355444908142e-01 4.399838298559188843e-02 -1.669292002916336060e-01 -6.729242205619812012e-02 1.126926094293594360e-01 8.709762245416641235e-02 -6.840976420789957047e-03 3.405282273888587952e-02 -1.201817989349365234e-01 2.389469593763351440e-01 1.419315189123153687e-01 -6.436566263437271118e-02 9.854125976562500000e-02 -1.916600950062274933e-02 -6.288054585456848145e-02 2.763358317315578461e-02 1.265462934970855713e-01 2.838618867099285126e-02 -8.894390612840652466e-02 7.833479903638362885e-03 1.155625656247138977e-02 -2.392749674618244171e-02 -2.674880251288414001e-02 -4.279191419482231140e-02 -1.602536886930465698e-01 -5.224463995546102524e-03 -1.372357010841369629e-01 -1.608355492353439331e-01 -1.209992468357086182e-01 6.458573788404464722e-02 3.127789497375488281e-02 1.534015834331512451e-01 -6.377308815717697144e-02 3.015710227191448212e-02 2.451752722263336182e-01 5.382253974676132202e-02 3.579782554879784584e-03 3.581579029560089111e-02 -5.114230513572692871e-02 -2.623948082327842712e-02 2.414861693978309631e-02 8.057814091444015503e-02 9.632258862257003784e-02 -8.893153816461563110e-02 1.253922702744603157e-03 -1.039495244622230530e-01 -2.518567629158496857e-02 2.766265161335468292e-02 1.082182377576828003e-01 3.572595864534378052e-02 -4.940644279122352600e-02 -8.146678097546100616e-03 -6.054942682385444641e-02 -1.592330485582351685e-01 6.482975929975509644e-02 3.824750334024429321e-02 -7.402588427066802979e-02 1.657461188733577728e-02 -4.194999858736991882e-02 4.151042178273200989e-02 -8.152154833078384399e-02 4.743957519531250000e-02 2.168381959199905396e-02 6.046806648373603821e-02 -8.502694219350814819e-02 -3.757834667339920998e-03 4.966405406594276428e-02 -1.460061520338058472e-01 -4.482749383896589279e-03 -7.516052573919296265e-02 1.447553634643554688e-01 4.909250885248184204e-02 1.528237760066986084e-01 -2.779524307698011398e-03 -2.742029540240764618e-02 5.745471920818090439e-03 1.886463374830782413e-03 2.698303386569023132e-02 -7.956726849079132080e-02 -4.812529310584068298e-03 -1.603603512048721313e-01 -6.767538934946060181e-02 8.912212401628494263e-02 4.449332505464553833e-02 -1.382698267698287964e-01 -5.613140016794204712e-02 -5.185905471444129944e-02 -1.420388836413621902e-02 -4.770563449710607529e-03 -8.034796267747879028e-02 -2.235630452632904053e-01 -5.742097273468971252e-02 -4.405602812767028809e-03 9.628754109144210815e-03 8.224038034677505493e-02 -1.097341105341911316e-01 -1.695878207683563232e-01 1.644260622560977936e-02 -1.909574866294860840e-02 -2.600223943591117859e-02 7.376024033874273300e-03 8.670175820589065552e-02 4.046041518449783325e-02 1.015789508819580078e-01 -4.126374050974845886e-02 1.169173642992973328e-01 -4.007786512374877930e-02 1.335668843239545822e-02 -1.034017652273178101e-01 -3.865965455770492554e-02 -7.891309261322021484e-02 7.724706828594207764e-02 -4.194503650069236755e-02 -2.063656784594058990e-02 -1.158372312784194946e-02 4.203284531831741333e-02 3.744557872414588928e-02 -9.009104967117309570e-02 9.943204373121261597e-02 -1.444005314260721207e-02 1.861779838800430298e-01 1.166774332523345947e-01 9.285065531730651855e-02 2.113159559667110443e-02 -1.148781105875968933e-01 1.718562096357345581e-01 -4.090974479913711548e-02 -1.530039608478546143e-01 -3.269125148653984070e-02 1.774182468652725220e-01 4.329365491867065430e-02 -2.270482107996940613e-02 5.026886239647865295e-02
-1.596979200839996338e-01 7.921822369098663330e-03 -2.025140374898910522e-01 3.101800009608268738e-02 2.192603610455989838e-02 1.533106416463851929e-01 4.954985529184341431e-02 3.134360909461975098e-02 -1.320742666721343994e-01 9.298609197139739990e-02 3.613284602761268616e-02 -4.526073485612869263e-02 -7.227090001106262207e-02 -4.534116387367248535e-02 -4.382804967463016510e-03 -5.992759019136428833e-02 -1.409763842821121216e-01 1.127781346440315247e-01 1.520951539278030396e-01 -3.903406858444213867e-02 -1.396097242832183838e-01 -9.749847464263439178e-03 -1.251091249287128448e-02 3.415125887840986252e-03 1.375522613525390625e-01 -9.142512083053588867e-02 -1.253687441349029541e-01 7.765664905309677124e-02 -1.219001412391662598e-01 -1.956809163093566895e-01 7.532209157943725586e-02 -2.327899076044559479e-02 3.143990412354469299e-02 1.891752481460571289e-01 2.178266346454620361e-01 -8.849702030420303345e-02 -4.376950487494468689e-02 -7.762494683265686035e-02 6.825003027915954590e-02 -6.329173594713211060e-02 -3.891086950898170471e-02 8.524747565388679504e-03 -1.501809153705835342e-02 -7.326570898294448853e-02 9.015477448701858521e-02 -5.264064669609069824e-02 -1.335597876459360123e-02 -1.165150031447410583e-01 -1.684783846139907837e-01 1.446624249219894409e-01 4.976891353726387024e-02 -7.114522159099578857e-02 -1.103295851498842239e-02 -1.345493495464324951e-01 -1.084555611014366150e-01 -8.422271162271499634e-02 5.608024448156356812e-02 1.085581704974174500e-01 2.860882878303527832e-02 -6.519778817892074585e-02 9.430765360593795776e-02 -1.111605688929557800e-01 1.695842295885086060e-01 -1.167536675930023193e-01 -1.547420620918273926e-01 9.526313841342926025e-02 1.977908909320831299e-01 -1.228851005434989929e-01 -1.302325278520584106e-01 4.024157673120498657e-02 1.756821945309638977e-02 -1.229273527860641479e-01 7.936658710241317749e-02 -1.177647262811660767e-01 -6.900544464588165283e-02 -2.563695907592773438e-01 -1.361712366342544556e-01 7.084327191114425659e-02 -1.453244127333164215e-02 5.800173431634902954e-02 -4.206260293722152710e-02 2.740965969860553741e-02 -1.139047741889953613e-01 -5.406362935900688171e-02 1.302458494901657104e-01 6.951893866062164307e-02 -2.530301362276077271e-02 1.319553107023239136e-01 8.256766945123672485e-02 -1.602285169064998627e-02 1.248164325952529907e-01 -3.156309947371482849e-02 6.447696685791015625e-02 -1.304689943790435791e-01 -6.802910566329956055e-02 1.373143047094345093e-01 8.364862203598022461e-02 3.100288845598697662e-02 -1.140152215957641602e-01 2.202509716153144836e-02 1.029659733176231384e-01 8.148714900016784668e-02 8.667892217636108398e-02 6.879478693008422852e-02 2.014750838279724121e-01 1.204437538981437683e-01 7.211294770240783691e-02 6.833422929048538208e-03 1.346285641193389893e-01 -4.522117972373962402e-02 -1.084040571004152298e-02 -5.693627521395683289e-02 8.698321133852005005e-02 9.568328410387039185e-02 4.933473840355873108e-02 -2.627226524055004120e-02 -1.022347062826156616e-01 9.524532407522201538e-02 4.444663599133491516e-02 -9.257548302412033081e-02 2.246157638728618622e-02 1.314174383878707886e-01 -1.518701389431953430e-02 -1.137690525501966476e-02 6.205714493989944458e-02 -2.125678807497024536e-01 2.621860476210713387e-03 4.536380991339683533e-02 -1.365539580583572388e-01 -1.180559769272804260e-01 4.504461213946342468e-02 2.341719418764114380e-01 1.981097832322120667e-02 4.768038913607597351e-02 -1.589512676000595093e-01 9.681124240159988403e-03 4.466945677995681763e-02 -1.044463664293289185e-01 -5.059934686869382858e-03 1.322180181741714478e-01 4.401466622948646545e-02 -7.708618883043527603e-03 -4.320662468671798706e-02 1.231885477900505066e-01 5.279378592967987061e-02 1.011542230844497681e-01 -8.783591538667678833e-02 -4.149782285094261169e-02 -2.899397909641265869e-01 -1.197003275156021118e-01 -1.805249229073524475e-02 1.581987738609313965e-02 3.407525271177291870e-02 7.130508869886398315e-02 -1.028178539127111435e-02 -1.633609272539615631e-02 -5.050040408968925476e-02 -4.573682695627212524e-02 -7.584263384342193604e-02 -5.474926903843879700e-02 1.076648756861686707e-01 3.676719963550567627e-02 4.388239234685897827e-03 5.603012070059776306e-02 7.901809178292751312e-03 -1.593601144850254059e-02 7.460888940840959549e-03 -5.616259947419166565e-02 -8.137933164834976196e-02 -6.510730832815170288e-02 -9.455963299842551351e-05 -8.818235248327255249e-02 8.365035057067871094e-02 -2.019546926021575928e-02 -1.999058760702610016e-02 5.169185344129800797e-03 1.054792180657386780e-01 -2.230754494667053223e-02 -2.145648188889026642e-02 -1.060798391699790955e-01 -1.510481387376785278e-01 4.937188699841499329e-02 4.859600216150283813e-02 -9.603072889149188995e-03 -2.592426352202892303e-02 -1.810264587402343750e-02 7.671038061380386353e-02 -1.836497895419597626e-02 1.289362609386444092e-01 1.057321801781654358e-01 7.106763124465942383e-02 3.700127452611923218e-02 5.372281745076179504e-02 5.510709807276725769e-02 -4.435000196099281311e-02 4.072666168212890625e-02 -2.230986021459102631e-02 -6.803395599126815796e-02 2.726966142654418945e-02 -6.652860343456268311e-02 1.368361562490463257e-01 -1.331618754193186760e-03 8.040238916873931885e-02 1.080592274665832520e-01 7.319422066211700439e-02 4.047618061304092407e-02 -2.451066486537456512e-02 -1.345873903483152390e-02 2.458648197352886200e-02 -8.527241647243499756e-02 1.134560629725456238e-02 -1.056263670325279236e-01 4.713904857635498047e-02 1.038262173533439636e-01 -1.086545437574386597e-01 1.966061681741848588e-04 -7.609327882528305054e-02 -4.690958186984062195e-02 1.233282461762428284e-01 -5.747398734092712402e-02 -1.096092257648706436e-02 -8.171389997005462646e-02 1.160255149006843567e-01 1.638544350862503052e-01 -3.253826498985290527e-02 -8.895773440599441528e-02 1.206374391913414001e-01 6.474328041076660156e-02 3.330861032009124756e-02 -1.752875000238418579e-02 -1.710452698171138763e-02 7.324208319187164307e-02 8.626365661621093750e-02 -1.563909202814102173e-01 6.739378720521926880e-02 -7.930532097816467285e-03 -5.770769342780113220e-02
7.941666245460510254e-02 -6.858238577842712402e-02 5.444589629769325256e-02 9.883899986743927002e-02 -1.216042041778564453e-01 -1.940836459398269653e-01 1.185878291726112366e-01 2.678012102842330933e-02 -1.088090762495994568e-01 -1.594926975667476654e-02 3.024138510227203369e-02 8.558097481727600098e-02 -3.943514823913574219e-02 1.141990497708320618e-01 -3.508209437131881714e-02 -2.894405461847782135e-02 -1.672321185469627380e-02 7.914423197507858276e-02 3.336394578218460083e-02 -7.115277647972106934e-02 -6.377235800027847290e-02 5.804629251360893250e-02 -8.404615521430969238e-02 4.294550791382789612e-02 -5.759035050868988037e-02 -3.714870288968086243e-02 -3.415962308645248413e-02 1.825357824563980103e-01 3.110745549201965332e-02 -2.220136672258377075e-01 3.697531297802925110e-02 1.291421055793762207e-01 -2.910962561145424843e-03 2.134133689105510712e-02 -8.964908868074417114e-02 5.946748703718185425e-02 7.745023351162672043e-03 1.563360169529914856e-02 -1.308496594429016113e-01 -4.798156395554542542e-02 1.113468967378139496e-02 -7.821006327867507935e-02 -2.815994806587696075e-02 -7.066747546195983887e-02 -1.895243115723133087e-02 -1.231143921613693237e-01 -1.183958500623703003e-01 -9.525995701551437378e-03 -6.650574505329132080e-04 2.060712426900863647e-01 -2.472424693405628204e-02 -1.176628172397613525e-01 -2.400969900190830231e-02 -1.241791322827339172e-01 1.363843381404876709e-01 -2.365014888346195221e-02 5.992742255330085754e-02 -6.873658299446105957e-02 -7.392591983079910278e-02 -7.077298313379287720e-02 1.604233309626579285e-02 -5.592999979853630066e-02 -8.098755776882171631e-02 1.330737117677927017e-02 1.739996373653411865e-01 -6.445233244448900223e-03 -1.115693058818578720e-02 -8.455817401409149170e-02 2.222802722826600075e-03 1.394375115633010864e-01 -9.335988014936447144e-02 1.028668284416198730e-01 9.046600013971328735e-02 -4.828634485602378845e-02 8.793681859970092773e-02 -3.330411016941070557e-02 9.921375662088394165e-02 1.704875230789184570e-01 -2.022632956504821777e-01 9.051811881363391876e-03 3.206325694918632507e-02 8.706975728273391724e-03 -1.950080879032611847e-02 5.166392400860786438e-02 -1.240254491567611694e-01 -1.578297279775142670e-02 -3.414232516661286354e-03 4.905640333890914917e-02 5.672679096460342407e-02 2.848881855607032776e-02 1.670629344880580902e-02 1.100367233157157898e-01 -1.070673316717147827e-01 -7.679078727960586548e-02 -9.015364199876785278e-02 -1.045742817223072052e-02 1.585852503776550293e-01 1.474946737289428711e-01 1.245872974395751953e-01 1.112326979637145996e-01 -6.988684833049774170e-02 1.655675917863845825e-01 -1.428761482238769531e-01 8.591647446155548096e-02 -1.049226615577936172e-02 7.870002090930938721e-02 -9.653274714946746826e-02 -2.335412502288818359e-01 -1.014321073889732361e-01 1.522739883512258530e-03 -8.724788576364517212e-02 -1.744910478591918945e-01 -3.127950429916381836e-02 2.551089972257614136e-02 1.219000890851020813e-01 8.835287392139434814e-02 -8.170322328805923462e-02 1.072072610259056091e-01 -1.089072041213512421e-02 9.531918168067932129e-02 -1.684174388647079468e-01 -1.012624353170394897e-01 -1.056203152984380722e-02 -1.604465208947658539e-02 1.133919954299926758e-01 1.560353338718414307e-01 5.388870090246200562e-02 1.384467929601669312e-01 -3.450258821249008179e-02 -2.950386144220829010e-02 -1.339475810527801514e-01 -4.813167452812194824e-02 -2.660666778683662415e-02 2.952851541340351105e-02 -9.537196904420852661e-02 4.863944649696350098e-02 -3.836959600448608398e-02 3.476971993222832680e-03 -1.381645500659942627e-01 -1.060819923877716064e-01 3.745277645066380501e-03 -1.209478378295898438e-01 -7.821759581565856934e-02 1.228200048208236694e-01 -2.676876820623874664e-02 -4.397150594741106033e-03 1.058839857578277588e-01 5.929832160472869873e-02 -2.659754082560539246e-02 1.159336138516664505e-02 7.268965244293212891e-02 -3.154410421848297119e-02 -8.404016494750976562e-02 -4.431985318660736084e-02 -1.083303242921829224e-01 7.577303331345319748e-03 -1.011051908135414124e-01 2.161512970924377441e-01 1.817670767195522785e-03 3.010335937142372131e-02 -9.374015964567661285e-03 -4.261762276291847229e-02 1.191377714276313782e-01 -2.285119704902172089e-02 -1.636741757392883301e-01 -2.237593010067939758e-02 -1.237486749887466431e-01 -1.120893731713294983e-01 1.733135432004928589e-02 3.454067930579185486e-02 -9.335093200206756592e-02 -9.030363708734512329e-02 9.669263660907745361e-02 -2.903537824749946594e-02 -8.984427154064178467e-02 -4.072745144367218018e-02 -1.370532065629959106e-01 8.806332945823669434e-02 1.720750331878662109e-02 8.512123674154281616e-02 -2.187336608767509460e-02 -7.330977171659469604e-02 1.659846454858779907e-01 -7.064597308635711670e-02 4.122349992394447327e-02 -1.558345556259155273e-01 1.864727772772312164e-02 3.466025739908218384e-02 1.673233062028884888e-01 -6.140656024217605591e-02 -2.198261674493551254e-03 -2.552235312759876251e-02 -5.006729066371917725e-02 1.133291330188512802e-02 -3.871917724609375000e-02 2.514490857720375061e-02 -6.418077740818262100e-03 -7.979366928339004517e-02 -1.157528236508369446e-01 -7.905429811216890812e-04 6.904692947864532471e-02 -1.186410244554281235e-02 -6.194971129298210144e-02 -8.308543823659420013e-03 -1.247216984629631042e-01 -1.227131858468055725e-01 1.692229062318801880e-01 3.842940181493759155e-02 1.098651513457298279e-01 -5.717610940337181091e-02 -1.202120538800954819e-02 -4.691131412982940674e-02 8.831351995468139648e-02 -2.153406739234924316e-01 -1.470542550086975098e-01 -1.366136968135833740e-01 3.943642228841781616e-02 5.884333327412605286e-02 -1.468276083469390869e-01 -2.649006992578506470e-02 9.937504678964614868e-02 -6.692641228437423706e-02 1.364759542047977448e-02 7.516792509704828262e-03 2.804537117481231689e-01 5.469684023410081863e-03 -8.413541363552212715e-04 1.348465681076049805e-01 -1.850824430584907532e-02 -3.721929714083671570e-02 -9.153949096798896790e-03 2.711587399244308472e-02 -1.761187463998794556e-01 1.347085833549499512e-01 5.015957728028297424e-02 -6.979639083147048950e-02 8.801238983869552612e-02
-2.020912766456604004e-01 2.735629305243492126e-02 -4.723454266786575317e-02 -1.642780750989913940e-01 -9.893914312124252319e-02 -1.550782769918441772e-01 8.978052064776420593e-03 -7.195421308279037476e-02 3.593185171484947205e-02 4.033435881137847900e-02 -5.933924391865730286e-02 -2.017174847424030304e-03 -1.739383190870285034e-01 7.475618273019790649e-02 3.519576787948608398e-02 6.192649155855178833e-02 -5.562699213624000549e-02 -3.635660558938980103e-02 -3.343094140291213989e-02 1.478176712989807129e-01 1.484716981649398804e-01 -5.480543896555900574e-02 7.670577615499496460e-02 5.353391543030738831e-02 8.194483071565628052e-02 -1.398003846406936646e-01 3.084661811590194702e-02 -3.957494720816612244e-02 -4.282286390662193298e-02 -1.331506669521331787e-01 8.850735425949096680e-02 1.819512248039245605e-01 2.524834871292114258e-02 9.028555825352668762e-03 -1.763555705547332764e-01 -1.509197056293487549e-01 -3.693386912345886230e-02 -3.860711678862571716e-02 2.601711452007293701e-01 7.384314388036727905e-02 7.484049350023269653e-02 1.140335351228713989e-01 -1.097827106714248657e-01 -1.200990453362464905e-01 -3.883067145943641663e-02 -4.925687983632087708e-02 9.162791818380355835e-02 -1.805658638477325439e-01 2.418116480112075806e-02 2.502022311091423035e-02 -2.709263749420642853e-02 -8.307141810655593872e-02 -1.403273195028305054e-01 -2.779104374349117279e-02 -4.322436824440956116e-02 1.227716803550720215e-01 1.891582622192800045e-03 1.535415351390838623e-01 -6.475722044706344604e-02 2.578145824372768402e-02 -1.601901650428771973e-02 -1.198842525482177734e-01 -7.032649125903844833e-03 -2.056712098419666290e-02 9.926311671733856201e-03 6.943099945783615112e-02 6.812598556280136108e-02 -9.285494685173034668e-02 -1.177702248096466064e-01 -2.290143631398677826e-02 -4.870104417204856873e-02 -2.759744599461555481e-02 3.762088343501091003e-02 5.829070135951042175e-02 1.270241588354110718e-01 -1.328167226165533066e-02 1.676896959543228149e-01 7.707935571670532227e-02 1.448834538459777832e-01 -8.784241229295730591e-02 7.877053320407867432e-02 6.298749893903732300e-02 1.106719002127647400e-01 -1.363640371710062027e-02 3.259848058223724365e-02 3.747030720114707947e-02 -1.011956389993429184e-02 5.328710656613111496e-03 -1.538411080837249756e-01 -4.245837777853012085e-02 -4.219058528542518616e-02 -1.106484904885292053e-01 6.925089401192963123e-04 -1.094266101717948914e-01 -1.104808971285820007e-01 -3.608890995383262634e-02 3.273262828588485718e-02 1.727982908487319946e-01 -4.332257062196731567e-02 -6.827409565448760986e-02 7.946761697530746460e-02 1.875177584588527679e-02 -6.325931847095489502e-02 5.655653029680252075e-02 -6.241090968251228333e-02 1.238152608275413513e-01 -6.574384868144989014e-03 -7.558190077543258667e-02 -6.456206738948822021e-02 -1.137050092220306396e-01 1.440650783479213715e-03 -4.843682795763015747e-02 8.276520669460296631e-02 7.956466078758239746e-02 -1.405876576900482178e-01 -7.252476364374160767e-02 4.242575541138648987e-02 6.313727051019668579e-02 -4.225859418511390686e-02 -4.349024593830108643e-02 -5.847484618425369263e-02 -6.600227206945419312e-02 3.107923083007335663e-02 2.374649420380592346e-02 -4.889195039868354797e-02 5.000986903905868530e-02 6.850808858871459961e-02 -1.076076328754425049e-01 -6.180556118488311768e-02 -8.442912250757217407e-02 1.054342389106750488e-01 4.910791665315628052e-02 -6.047112494707107544e-02 -7.479658722877502441e-02 9.853047877550125122e-02 -5.298152193427085876e-02 -1.952989958226680756e-02 -3.745264932513237000e-02 -1.213844344019889832e-01 -5.916429683566093445e-03 -1.738463342189788818e-01 1.431376188993453979e-01 6.598655879497528076e-02 5.872618779540061951e-02 9.787033312022686005e-03 8.979468047618865967e-02 5.058002471923828125e-02 9.776757657527923584e-02 -2.067095190286636353e-01 6.733145564794540405e-02 1.331106573343276978e-01 7.395125925540924072e-02 -1.253570765256881714e-01 6.763248145580291748e-02 -9.476935118436813354e-02 4.590886086225509644e-02 -3.634187206625938416e-02 3.109351359307765961e-02 -1.455784142017364502e-01 1.578507870435714722e-01 -2.223857492208480835e-02 2.373972833156585693e-01 1.994103379547595978e-02 -1.332411020994186401e-01 -4.675846546888351440e-02 -5.913471430540084839e-02 -1.620073243975639343e-02 -9.513869881629943848e-02 7.280638441443443298e-03 -4.060295596718788147e-02 -1.991041563451290131e-02 8.103477954864501953e-02 -8.616138994693756104e-02 -6.167532876133918762e-02 -5.065271258354187012e-02 2.078884989023208618e-01 -1.504348367452621460e-01 -5.279108881950378418e-02 -1.037812978029251099e-02 1.525312662124633789e-02 1.755698323249816895e-01 9.155421517789363861e-03 -1.004061996936798096e-01 -6.477043777704238892e-02 1.317656636238098145e-01 -1.523355254903435707e-03 -9.955374896526336670e-02 -4.555752873420715332e-02 5.131801217794418335e-02 1.991502242162823677e-03 -1.346034109592437744e-01 4.179430752992630005e-02 1.141077205538749695e-01 -4.395915567874908447e-02 -8.383989334106445312e-02 1.540761161595582962e-02 1.248951070010662079e-02 1.387896835803985596e-01 1.057412102818489075e-02 -4.886277765035629272e-02 -7.146657258272171021e-02 -1.149253454059362411e-02 -7.307553291320800781e-02 -7.228527218103408813e-02 -1.887257769703865051e-02 4.305734485387802124e-02 4.481920599937438965e-02 1.468285173177719116e-01 3.687066957354545593e-02 -2.803694829344749451e-02 -5.889069661498069763e-02 1.483267545700073242e-01 9.105468168854713440e-03 -2.078038081526756287e-02 1.141834855079650879e-01 -8.144263178110122681e-02 -1.892869360744953156e-02 -3.824322670698165894e-02 -8.256856352090835571e-03 -7.126844674348831177e-02 -1.197191625833511353e-01 1.861389130353927612e-01 -1.324506551027297974e-01 -4.308856278657913208e-02 -7.864656299352645874e-02 1.093860641121864319e-01 -1.191682144999504089e-01 1.188215538859367371e-01 -1.032265797257423401e-01 2.262427285313606262e-02 -1.338951140642166138e-01 -2.422888763248920441e-02 -4.153742268681526184e-02 -4.773207008838653564e-02 -5.919216200709342957e-02 7.646004855632781982e-02 7.055073231458663940e-02
3.391389036551117897e-03 -9.190569818019866943e-02 1.450103707611560822e-02 1.606014370918273926e-01 -8.749122917652130127e-02 1.843231022357940674e-01 -5.180422216653823853e-02 -5.932599306106567383e-02 7.042901217937469482e-02 -5.869649723172187805e-02 5.103046447038650513e-02 -1.009175255894660950e-01 1.387405842542648315e-01 1.454652845859527588e-02 -1.397283822298049927e-01 -1.650555245578289032e-02 4.509317129850387573e-02 -6.202875077724456787e-02 -2.065836824476718903e-02 -2.995637245476245880e-03 -2.350105531513690948e-02 -1.315363645553588867e-01 -1.184492744505405426e-02 -2.747751213610172272e-02 -1.090142652392387390e-01 2.982343733310699463e-02 -1.090669110417366028e-01 2.380634397268295288e-01 1.045397296547889709e-01 -6.394894421100616455e-02 3.839391097426414490e-02 -9.110852144658565521e-03 -7.521195709705352783e-02 6.310784071683883667e-02 -2.017069794237613678e-02 1.589999645948410034e-01 -1.515523642301559448e-01 1.118779033422470093e-01 -1.578217446804046631e-01 6.828935351222753525e-03 -3.410497680306434631e-02 1.474306434392929077e-01 -1.207980513572692871e-01 -3.055522032082080841e-02 -4.323383793234825134e-02 -6.560346484184265137e-02 -8.802881836891174316e-02 -1.985359191894531250e-01 -5.409315600991249084e-02 -7.655640691518783569e-02 -6.249709427356719971e-02 1.506621241569519043e-01 -1.712469011545181274e-01 -4.314346238970756531e-02 1.418642103672027588e-01 7.724645733833312988e-02 -8.893407881259918213e-02 1.662532538175582886e-01 -3.025711886584758759e-02 -1.065681129693984985e-02 -2.835183590650558472e-02 5.591950193047523499e-02 -7.558807730674743652e-02 4.912799689918756485e-03 1.018364280462265015e-01 1.225206851959228516e-01 1.559992786496877670e-02 1.969715952873229980e-02 -2.083213068544864655e-02 3.162772580981254578e-02 -1.708029359579086304e-01 -1.110428497195243835e-01 1.468309201300144196e-02 1.692728847265243530e-01 9.088260680437088013e-02 1.445657573640346527e-02 7.943727076053619385e-02 -2.324593998491764069e-02 7.151991128921508789e-02 1.006814390420913696e-01 -1.339841634035110474e-01 -4.514965787529945374e-02 1.469216402620077133e-02 -3.485932201147079468e-02 -3.507947316393256187e-03 9.966345131397247314e-02 4.264157265424728394e-03 -1.164568588137626648e-01 -1.392146944999694824e-01 5.556106567382812500e-02 -2.548436261713504791e-02 -4.359614849090576172e-02 -1.201774850487709045e-01 7.255908101797103882e-02 2.308505214750766754e-02 8.015752770006656647e-03 6.448964774608612061e-02 1.449775397777557373e-01 2.284201560541987419e-03 -2.915268950164318085e-02 -3.338851034641265869e-02 1.430285573005676270e-01 1.043176651000976562e-02 -1.250534653663635254e-01 7.407002151012420654e-02 -3.224325180053710938e-02 7.089629769325256348e-02 1.795174777507781982e-01 -2.391436323523521423e-02 -3.831291943788528442e-02 -2.838044660165905952e-03 2.163291722536087036e-01 -1.250146180391311646e-01 2.181361056864261627e-02 5.632834136486053467e-02 1.867963373661041260e-02 -7.113507017493247986e-03 -3.978675976395606995e-02 -1.758978702127933502e-02 -6.402131915092468262e-02 7.175683230161666870e-02 5.465188249945640564e-02 1.258544772863388062e-01 4.690825473517179489e-03 2.167360335588455200e-01 -3.365527838468551636e-02 8.249761909246444702e-02 9.334165602922439575e-02 -6.345102936029434204e-02 3.546429425477981567e-02 1.346193403005599976e-01 8.647906780242919922e-02 -6.393784657120704651e-03 -8.276443183422088623e-02 8.588085323572158813e-02 1.165438368916511536e-01 -4.205079004168510437e-02 1.244416236877441406e-01 1.614875048398971558e-01 3.050347603857517242e-02 7.242277264595031738e-02 -6.952641904354095459e-02 7.811708003282546997e-02 -2.216974506154656410e-03 -4.490016773343086243e-02 3.546431288123130798e-02 7.274618744850158691e-02 6.989847123622894287e-02 3.129200637340545654e-02 -2.986096441745758057e-01 5.206556990742683411e-02 8.304713666439056396e-02 -1.884069144725799561e-01 -1.684119552373886108e-01 -7.742759771645069122e-03 1.081537455320358276e-02 -7.183687388896942139e-02 6.989128142595291138e-02 3.600475564599037170e-02 -1.712831556797027588e-01 4.261163249611854553e-02 5.074697732925415039e-02 -1.199806295335292816e-02 4.506410285830497742e-02 4.295911639928817749e-02 4.160723835229873657e-02 -1.540062278509140015e-01 3.805521130561828613e-02 5.331785231828689575e-02 -7.575516402721405029e-02 6.590811908245086670e-02 -2.704230882227420807e-02 1.326348334550857544e-01 1.674077846109867096e-02 9.894398972392082214e-03 1.204554736614227295e-01 -7.357010245323181152e-02 6.975629925727844238e-02 2.507536113262176514e-02 2.095818221569061279e-01 -5.310535430908203125e-03 5.819933116436004639e-02 -1.158156022429466248e-01 -1.385009139776229858e-01 -7.119205594062805176e-02 -2.935984870418906212e-03 -7.316365092992782593e-02 1.065355613827705383e-01 -6.583657860755920410e-02 1.093319989740848541e-02 -7.722678710706532001e-04 -7.341680675745010376e-02 6.361660361289978027e-02 -1.230527460575103760e-01 -2.275202609598636627e-02 8.192313462495803833e-02 7.505708374083042145e-03 2.267899923026561737e-02 -5.322268605232238770e-02 -1.658732891082763672e-01 5.874960124492645264e-02 6.632912158966064453e-02 1.425515562295913696e-01 -1.141744181513786316e-01 1.186769679188728333e-01 -3.718365728855133057e-02 -1.270660609006881714e-01 -3.401741981506347656e-01 5.748208984732627869e-02 6.488305330276489258e-02 -5.080612748861312866e-02 -1.686782836914062500e-01 2.010988257825374603e-02 -7.592057436704635620e-02 -7.520920038223266602e-02 4.025517031550407410e-02 -1.539710462093353271e-01 2.066651731729507446e-02 -5.965201184153556824e-02 -3.659132122993469238e-02 -9.842974692583084106e-02 -5.763965100049972534e-02 -3.656507283449172974e-02 -6.314892321825027466e-02 2.380244247615337372e-02 -1.761248707771301270e-01 -3.995813801884651184e-02 5.802486464381217957e-02 4.177606105804443359e-02 9.377218782901763916e-02 -3.232770785689353943e-02 4.605023190379142761e-02 -9.712841361761093140e-02 8.359097689390182495e-02 1.132362638600170612e-03 2.603797055780887604e-02 9.220309555530548096e-02
1.088217347860336304e-01 3.140908852219581604e-02 -7.571741193532943726e-02 -1.520920172333717346e-02 -5.694706365466117859e-02 1.304033398628234863e-01 1.248327828943729401e-02 1.140256002545356750e-01 -6.534436834044754505e-04 -8.454925566911697388e-02 1.540133059024810791e-01 -1.845732517540454865e-02 1.676703803241252899e-02 -4.016719758510589600e-02 -2.444999106228351593e-02 -1.132743209600448608e-01 3.736477345228195190e-02 -5.362595431506633759e-03 -2.703080698847770691e-02 -5.767919868230819702e-02 -8.097801357507705688e-02 -3.145955502986907959e-02 -7.830873131752014160e-02 -9.283062070608139038e-02 -5.766782164573669434e-02 1.245088279247283936e-01 1.015247078612446785e-03 -1.318896748125553131e-02 -7.299294322729110718e-02 5.687681213021278381e-02 -2.090799808502197266e-01 1.829440891742706299e-01 -9.405487775802612305e-02 -1.260246783494949341e-01 -1.298292428255081177e-01 -1.767917126417160034e-01 9.838829934597015381e-02 1.337310671806335449e-01 -1.095837876200675964e-01 1.327229887247085571e-01 -3.814804553985595703e-02 -4.964822903275489807e-02 8.484301716089248657e-02 -7.654109597206115723e-02 8.862733095884323120e-02 -1.511357128620147705e-01 -1.815512180328369141e-01 8.040712028741836548e-02 -9.631577879190444946e-02 5.312046408653259277e-02 -1.995041407644748688e-02 -2.658561337739229202e-03 1.214584708213806152e-01 -2.875131182372570038e-02 -2.089405655860900879e-01 -1.272279918193817139e-01 1.693290285766124725e-02 -5.940026417374610901e-02 9.297681041061878204e-03 1.096115559339523315e-01 4.203816875815391541e-02 -4.369367659091949463e-02 1.337649114429950714e-02 -6.161394342780113220e-02 1.048899590969085693e-01 -9.900925680994987488e-03 1.814600825309753418e-02 6.840790063142776489e-02 6.235598027706146240e-02 -4.910445585846900940e-02 -7.986914366483688354e-02 -7.698483020067214966e-02 -7.956754416227340698e-02 -1.993223428726196289e-01 2.690896019339561462e-02 -1.433014422655105591e-01 1.699690520763397217e-01 -2.279310300946235657e-02 7.710247486829757690e-02 -1.200254559516906738e-01 9.948324412107467651e-02 1.009075194597244263e-01 -1.021346524357795715e-01 -1.878180168569087982e-02 9.080650657415390015e-02 -7.353899627923965454e-02 -8.233144879341125488e-02 2.182750403881072998e-02 -7.461116462945938110e-02 -7.356875389814376831e-02 -1.492916941642761230e-01 -1.154188960790634155e-01 -1.450266540050506592e-01 -5.025175958871841431e-02 3.697241097688674927e-02 -9.312465041875839233e-02 1.487034261226654053e-01 1.138307526707649231e-01 8.631455153226852417e-02 -1.631077527999877930e-01 -6.605670601129531860e-02 1.919370330870151520e-02 2.812886238098144531e-02 -5.299426615238189697e-02 -6.853135710116475821e-05 1.204161345958709717e-02 3.338692337274551392e-02 1.191058233380317688e-01 4.298789799213409424e-02 -1.564839780330657959e-01 -1.311685703694820404e-02 -3.256820142269134521e-02 -2.715434730052947998e-01 -2.098308131098747253e-02 3.320318087935447693e-02 1.780510507524013519e-02 1.638975553214550018e-02 3.478664532303810120e-02 8.458481729030609131e-02 1.948316991329193115e-01 -1.073264405131340027e-01 -2.092354744672775269e-02 5.827601999044418335e-02 1.401873491704463959e-02 -6.485680490732192993e-02 3.822190687060356140e-02 4.476870968937873840e-02 -4.493618756532669067e-02 -1.753255277872085571e-01 -3.235142678022384644e-02 1.323522180318832397e-01 1.948631554841995239e-01 -1.250272989273071289e-02 -1.292227953672409058e-02 -8.219123631715774536e-02 -1.060762405395507812e-01 -4.813823848962783813e-02 -4.701926559209823608e-02 8.652343240100890398e-05 6.838266551494598389e-02 7.528475672006607056e-02 1.085651293396949768e-01 -1.610893458127975464e-01 -6.392115354537963867e-02 -1.355217099189758301e-01 -1.857320033013820648e-02 6.081301346421241760e-02 -9.427147358655929565e-02 1.904270350933074951e-01 -5.433565936982631683e-03 -3.750224038958549500e-02 -1.888453215360641479e-02 -1.444869041442871094e-01 -6.854315847158432007e-02 2.524167113006114960e-02 1.270254850387573242e-01 1.134102046489715576e-01 8.449541777372360229e-02 -6.699074059724807739e-02 -1.041185408830642700e-01 -1.197059266269207001e-02 -8.620925247669219971e-02 3.313723951578140259e-02 -9.831120073795318604e-02 4.703819006681442261e-02 1.176279038190841675e-01 1.192994937300682068e-01 2.273943424224853516e-01 -2.538331970572471619e-02 1.568164117634296417e-02 -1.839367486536502838e-02 1.525328159332275391e-01 -5.749955307692289352e-03 -6.964426487684249878e-02 1.007934957742691040e-01 -5.680384114384651184e-03 5.606004595756530762e-02 1.480743405409157276e-03 6.153983995318412781e-02 -1.034907922148704529e-01 8.978842757642269135e-03 1.087244600057601929e-01 -1.574130542576313019e-02 -1.168368309736251831e-01 4.759541526436805725e-02 4.839771613478660583e-02 8.428191649727523327e-04 2.070652991533279419e-01 1.299761682748794556e-01 -7.653212547302246094e-02 1.793405041098594666e-03 -8.183358609676361084e-02 6.004425510764122009e-02 -1.243469938635826111e-01 -3.640386834740638733e-02 -9.382922947406768799e-02 -6.159988045692443848e-02 -2.997305430471897125e-02 -1.318372189998626709e-01 4.263611882925033569e-02 1.315561234951019287e-01 1.648342013359069824e-01 6.466503441333770752e-02 -2.517064809799194336e-01 -6.255223602056503296e-02 1.000198572874069214e-01 -2.023468725383281708e-02 3.745814412832260132e-02 -3.808133187703788280e-04 -3.288356121629476547e-03 6.803338229656219482e-02 5.069331824779510498e-02 7.197089493274688721e-02 -1.574670821428298950e-01 9.581191092729568481e-02 -6.043805927038192749e-02 -1.885448396205902100e-01 -8.826922625303268433e-02 6.554875522851943970e-02 -5.199790745973587036e-02 -2.875819988548755646e-02 -8.203274570405483246e-03 -1.664771512150764465e-02 -4.629410058259963989e-02 -3.084282949566841125e-02 1.275563389062881470e-01 1.066852286458015442e-01 1.019947114400565624e-03 -4.795353859663009644e-02 -3.630351647734642029e-02 -6.474529951810836792e-02 6.107217818498611450e-02 -7.420556992292404175e-02 -4.371153656393289566e-03 -2.881884807720780373e-03 -8.397126197814941406e-02 -3.278154507279396057e-02
1.249319594353437424e-02 -7.394713908433914185e-02 1.515613049268722534e-01 4.599027335643768311e-03 5.159392952919006348e-02 -5.765752866864204407e-02 -1.047278475016355515e-02 2.750953286886215210e-02 2.247475087642669678e-02 -1.948122531175613403e-01 1.294485330581665039e-01 7.119292020797729492e-02 1.693323813378810883e-02 7.413519173860549927e-02 8.218502998352050781e-02 5.395128577947616577e-02 -1.268873363733291626e-01 -7.174527272582054138e-03 1.201285272836685181e-01 -6.222133059054613113e-03 6.386683881282806396e-02 -5.951188132166862488e-02 -7.711530476808547974e-02 -2.586341835558414459e-02 -1.782068423926830292e-02 1.033255085349082947e-01 1.057264730334281921e-01 -2.367365360260009766e-01 -1.278560757637023926e-01 -3.117283619940280914e-02 1.519617531448602676e-02 -2.245379291707649827e-04 -4.840601980686187744e-02 -1.525720059871673584e-01 -1.754082739353179932e-01 2.344989217817783356e-02 3.853679075837135315e-02 3.107050955295562744e-01 -1.109199039638042450e-02 1.781461387872695923e-01 7.325788587331771851e-02 -1.096923798322677612e-01 2.518805488944053650e-02 -2.096414379775524139e-02 1.690452843904495239e-01 1.230236366391181946e-01 -8.139961212873458862e-02 4.665137827396392822e-02 1.219164803624153137e-01 5.523630883544683456e-03 -1.471258997917175293e-01 6.502649188041687012e-02 3.100915066897869110e-02 -4.032032936811447144e-02 1.087513044476509094e-01 -1.240216270089149475e-01 -1.127911731600761414e-01 3.459091112017631531e-02 9.789093583822250366e-02 -2.294547669589519501e-02 -6.000553444027900696e-02 3.366650268435478210e-02 1.405115798115730286e-02 3.773621469736099243e-02 1.127163097262382507e-01 -5.981186404824256897e-02 -5.545718595385551453e-02 -1.144842207431793213e-01 -4.691303893923759460e-02 1.521579474210739136e-01 1.472986023873090744e-02 1.267868727445602417e-01 2.205868251621723175e-03 9.228864312171936035e-02 5.627991259098052979e-02 -7.973939180374145508e-02 2.659030491486191750e-03 -6.803025305271148682e-02 5.741467326879501343e-02 -1.212047189474105835e-01 -4.249096661806106567e-02 -9.968994557857513428e-02 2.143053151667118073e-02 -6.980005651712417603e-03 3.455045819282531738e-02 8.446253091096878052e-02 5.500160530209541321e-02 8.100385218858718872e-02 8.742233365774154663e-02 1.844166368246078491e-01 8.089122921228408813e-02 -9.381560236215591431e-02 -1.796848177909851074e-01 5.860028043389320374e-02 1.544710155576467514e-02 1.224698945879936218e-01 -6.157566234469413757e-02 -3.008459322154521942e-02 -1.342374980449676514e-01 3.683042526245117188e-02 1.132532209157943726e-02 5.297327786684036255e-02 -8.934243768453598022e-02 -2.198773473501205444e-01 8.138384670019149780e-02 -3.368176147341728210e-02 1.162201818078756332e-02 -6.662300229072570801e-02 6.524337083101272583e-02 -1.361057162284851074e-01 -6.404821574687957764e-02 2.420323044061660767e-01 -4.822909832000732422e-02 2.202605605125427246e-01 -6.820501387119293213e-02 9.531189501285552979e-02 3.599233692511916161e-03 -9.664328396320343018e-02 8.262438327074050903e-02 2.533928677439689636e-02 2.627136372029781342e-02 6.516914069652557373e-02 2.953199483454227448e-02 -7.362528145313262939e-02 -9.959772229194641113e-02 4.065377265214920044e-02 -5.799375101923942566e-02 1.430975273251533508e-02 5.975276231765747070e-02 -3.560406714677810669e-02 -3.471215814352035522e-02 2.508956752717494965e-02 -4.635547101497650146e-02 2.689754590392112732e-02 1.104184687137603760e-01 4.064318910241127014e-02 1.146311461925506592e-01 3.152089193463325500e-02 1.098024379462003708e-02 -1.155815199017524719e-01 4.549369215965270996e-03 2.880194410681724548e-02 5.225170403718948364e-02 -1.994647830724716187e-02 1.030745059251785278e-01 -1.263061072677373886e-03 -1.450846623629331589e-02 -1.416167616844177246e-01 1.207840889692306519e-01 -4.005448520183563232e-02 1.180729568004608154e-01 1.476315259933471680e-01 -1.613327860832214355e-02 1.013783141970634460e-01 -1.285735368728637695e-01 1.613965928554534912e-01 -1.531061083078384399e-01 1.054002866148948669e-01 8.145856112241744995e-02 -3.664168529212474823e-03 -1.625487394630908966e-02 -6.676409393548965454e-02 3.546447679400444031e-02 -2.765443176031112671e-02 8.346320688724517822e-02 1.367539018392562866e-01 -1.430846452713012695e-01 8.350669592618942261e-02 -1.099891811609268188e-01 -7.057062536478042603e-02 5.448593944311141968e-02 -1.864272654056549072e-01 1.896028034389019012e-02 -2.156254798173904419e-01 -5.067358538508415222e-02 -2.598714828491210938e-02 -1.738212071359157562e-02 3.294278681278228760e-02 -1.190263219177722931e-02 -1.001032143831253052e-01 -3.835315629839897156e-02 -6.340253353118896484e-02 4.322255030274391174e-02 -1.840723678469657898e-02 1.078329905867576599e-01 1.301883310079574585e-01 2.270787209272384644e-01 1.207129284739494324e-01 1.049110740423202515e-01 -5.979120358824729919e-02 1.273806989192962646e-01 -1.547832228243350983e-02 -2.035432308912277222e-02 1.580730974674224854e-01 1.395888328552246094e-01 4.799164086580276489e-02 -2.964530326426029205e-02 -5.871428921818733215e-02 -5.764811113476753235e-02 2.250392222777009010e-03 -6.953165680170059204e-02 -9.881435893476009369e-03 1.225212812423706055e-01 -4.743431136012077332e-02 1.826800405979156494e-01 -2.837039902806282043e-02 -2.210209146142005920e-03 1.213748008012771606e-01 -1.689497679471969604e-01 4.263836890459060669e-02 3.020096942782402039e-02 -5.331983417272567749e-02 1.514872163534164429e-01 7.521396130323410034e-02 -3.579613938927650452e-02 -2.131236717104911804e-02 -1.123164314776659012e-02 -4.598818719387054443e-03 -2.140054106712341309e-02 -6.120739132165908813e-02 -8.289989084005355835e-03 4.695037752389907837e-02 1.083410531282424927e-02 -9.142387658357620239e-02 -7.541536539793014526e-02 -1.060620397329330444e-01 7.606083899736404419e-02 1.324110031127929688e-01 -1.640917062759399414e-01 -4.746435955166816711e-02 8.276811987161636353e-02 -3.618372604250907898e-02 -1.799703538417816162e-01 -6.860497593879699707e-02 -5.653521791100502014e-02 1.610044538974761963e-01 2.357314573600888252e-03
9.357312321662902832e-02 2.260820418596267700e-01 -1.396808773279190063e-01 -6.668156385421752930e-02 -3.441452980041503906e-02 1.380873471498489380e-02 1.569307148456573486e-01 2.984901890158653259e-02 -6.139727309346199036e-02 2.358307503163814545e-02 5.316730961203575134e-02 9.426897764205932617e-02 -1.280381623655557632e-02 -8.716171234846115112e-02 -1.161110475659370422e-01 -6.880652904510498047e-02 -7.096793502569198608e-02 1.801815629005432129e-01 -2.650780603289604187e-02 -7.477282732725143433e-02 6.745065003633499146e-02 3.659887984395027161e-02 -2.368304692208766937e-02 -2.583836913108825684e-01 -3.539418801665306091e-02 -2.778413705527782440e-02 4.527865722775459290e-02 8.619362860918045044e-02 1.373889446258544922e-01 -8.819480426609516144e-03 9.492979198694229126e-02 9.016492217779159546e-02 7.089073956012725830e-02 7.346688956022262573e-02 -1.503281891345977783e-01 -1.292080432176589966e-01 -1.313918381929397583e-01 2.393840104341506958e-01 8.847036957740783691e-02 -9.964747726917266846e-02 6.319613009691238403e-02 5.306322500109672546e-02 2.017129808664321899e-01 3.086584061384201050e-02 -5.557401105761528015e-02 7.849350571632385254e-03 5.067355930805206299e-02 9.035390615463256836e-02 -6.355360895395278931e-02 8.305911906063556671e-03 -1.362512558698654175e-01 1.028518080711364746e-01 -1.177913323044776917e-01 -1.986490795388817787e-03 -1.139999087899923325e-02 3.228618204593658447e-02 6.176599115133285522e-02 -3.316156938672065735e-02 -6.122130900621414185e-02 2.381268516182899475e-02 1.337012201547622681e-01 2.079498320817947388e-01 -2.484085224568843842e-02 -1.210028007626533508e-01 1.295413076877593994e-01 6.876239925622940063e-02 7.825297117233276367e-02 9.113506972789764404e-02 2.574697695672512054e-02 3.246476501226425171e-02 -1.215891726315021515e-02 7.107957452535629272e-02 3.616974502801895142e-02 6.292551755905151367e-02 2.627834081649780273e-01 7.366678863763809204e-02 -1.604732722043991089e-01 -3.675561165437102318e-03 -3.547719120979309082e-02 -1.800187677145004272e-02 -1.049715210683643818e-03 1.269673109054565430e-01 4.826947674155235291e-02 -2.833572588860988617e-02 2.670427039265632629e-02 -1.171608688309788704e-03 6.682915985584259033e-02 -7.285351306200027466e-02 -5.374259874224662781e-02 1.657413505017757416e-02 8.664053678512573242e-02 1.853621304035186768e-01 -1.089314669370651245e-01 5.446457117795944214e-02 5.977810546755790710e-02 -5.300192534923553467e-02 1.895429193973541260e-02 1.014667600393295288e-01 -6.856188178062438965e-02 -1.019025519490242004e-01 5.683533102273941040e-02 8.583088405430316925e-03 7.663585245609283447e-02 1.797697991132736206e-01 -1.420998275279998779e-01 -2.718716859817504883e-02 3.982163593173027039e-02 -1.560529321432113647e-01 -1.436196081340312958e-02 -9.373027086257934570e-02 -1.825929731130599976e-01 -1.418643631041049957e-02 1.307722628116607666e-01 -4.581789253279566765e-04 5.634889006614685059e-03 -4.382037371397018433e-02 2.882005274295806885e-02 6.165505573153495789e-02 -4.551127552986145020e-02 -8.928197622299194336e-02 6.122863665223121643e-02 -4.781375452876091003e-02 1.125845778733491898e-02 8.595111221075057983e-02 -1.788580566644668579e-01 4.449111968278884888e-02 -1.939176954329013824e-02 3.772377222776412964e-02 9.955207258462905884e-02 -9.747509658336639404e-02 4.183929786086082458e-02 2.846047841012477875e-02 -4.266398772597312927e-02 -6.997983157634735107e-02 -3.072994574904441833e-02 1.994574069976806641e-02 9.861882776021957397e-03 -3.467828407883644104e-02 5.763202533125877380e-02 7.341548055410385132e-02 6.719947606325149536e-02 -9.090939164161682129e-02 5.582972243428230286e-02 -1.995099708437919617e-02 -3.553211316466331482e-02 -5.235005542635917664e-02 -4.410023987293243408e-02 -5.154875665903091431e-02 8.538080006837844849e-02 9.298183023929595947e-02 2.575593069195747375e-02 -2.900643832981586456e-02 4.163691028952598572e-02 3.670449182391166687e-02 -5.993028730154037476e-02 -7.459680736064910889e-02 -2.368124015629291534e-02 -2.381327562034130096e-02 1.289622336626052856e-01 -4.343490581959486008e-03 -2.897890657186508179e-02 -8.303560316562652588e-02 -1.382625848054885864e-01 2.706201560795307159e-02 2.550811320543289185e-02 2.106636576354503632e-02 -4.214238747954368591e-02 1.747895497828722000e-03 1.188162267208099365e-01 -5.335323885083198547e-02 1.446354985237121582e-01 -3.394972067326307297e-03 -6.578686088323593140e-02 -7.593745831400156021e-04 1.527313143014907837e-01 1.999667845666408539e-02 2.138615250587463379e-01 1.947274990379810333e-02 -6.959109753370285034e-02 3.773364424705505371e-02 2.727814950048923492e-02 1.468214988708496094e-01 2.335965260863304138e-02 -1.044685300439596176e-02 6.819998472929000854e-02 5.522288382053375244e-02 -2.645045518875122070e-03 -1.045553013682365417e-01 -9.211923182010650635e-02 -1.134685520082712173e-02 1.165793687105178833e-01 1.158048212528228760e-01 1.057994440197944641e-01 -1.903280615806579590e-01 2.466120757162570953e-02 -6.425778567790985107e-02 -1.490728110074996948e-01 -1.433514505624771118e-01 -3.079123236238956451e-02 8.185435086488723755e-02 2.221293374896049500e-02 1.324534863233566284e-01 2.773606451228260994e-03 9.636352956295013428e-02 -1.413349211215972900e-01 -5.861344188451766968e-02 -1.043821964412927628e-02 -1.143015921115875244e-01 -2.361683640629053116e-03 4.062312468886375427e-02 1.063267290592193604e-01 -1.144445613026618958e-01 -1.549498885869979858e-01 9.100985527038574219e-02 -5.692251399159431458e-02 -1.358953565359115601e-01 -5.218956992030143738e-02 1.816085875034332275e-01 -5.833459645509719849e-02 -6.289705634117126465e-02 3.786255046725273132e-02 1.705033630132675171e-01 7.736542075872421265e-02 -1.274627284146845341e-03 7.200415432453155518e-02 -6.332222372293472290e-02 -7.248678244650363922e-03 -1.908010244369506836e-01 -9.128926694393157959e-02 -6.743769347667694092e-02 1.018870696425437927e-01 -3.120384924113750458e-02 -6.409225612878799438e-02 6.712717562913894653e-02 -1.283217370510101318e-01 -7.134660333395004272e-02 -1.855911612510681152e-01
1.301158219575881958e-01 8.171696215867996216e-02 6.424488127231597900e-02 1.559332162141799927e-01 1.603764481842517853e-02 -2.636175975203514099e-02 1.328418552875518799e-01 -1.207049340009689331e-01 -1.970828473567962646e-01 7.299636304378509521e-02 5.721966922283172607e-02 -1.157767549157142639e-01 1.381608545780181885e-01 -2.220564708113670349e-02 -3.060721606016159058e-02 -7.254886440932750702e-03 5.805178359150886536e-02 -2.044758498668670654e-01 3.348185122013092041e-02 3.565455228090286255e-02 -1.818750239908695221e-02 2.580643445253372192e-02 -4.193890467286109924e-02 -2.923217974603176117e-02 1.211579144001007080e-02 5.335558578372001648e-02 1.437740959227085114e-02 -1.350563252344727516e-04 -1.709193736314773560e-02 9.714772459119558334e-04 -4.228109121322631836e-02 3.793266415596008301e-02 1.119781937450170517e-02 6.151657551527023315e-03 -9.719706326723098755e-02 -5.185051634907722473e-02 -1.235899999737739563e-01 -5.775504559278488159e-02 -2.071349322795867920e-02 -9.218437597155570984e-03 -1.529554426670074463e-01 -4.059198498725891113e-02 2.338353544473648071e-02 -3.139617547276429832e-05 1.031599193811416626e-01 -1.125549450516700745e-01 -6.061006709933280945e-02 -4.850856587290763855e-02 -7.370841223746538162e-03 4.997834563255310059e-02 -5.189483612775802612e-02 1.290094405412673950e-01 6.783311069011688232e-02 1.617325246334075928e-01 -1.465271264314651489e-01 -6.243604235351085663e-03 -1.031632050871849060e-01 3.580858558416366577e-02 -2.195547223091125488e-01 -9.814113378524780273e-02 -2.570446953177452087e-02 -3.887265175580978394e-02 -2.378640174865722656e-01 -1.740039587020874023e-01 4.093102738261222839e-02 -3.451479598879814148e-02 -9.202052652835845947e-02 9.432990103960037231e-02 -4.390625283122062683e-02 1.916348189115524292e-02 1.291410718113183975e-02 2.167410701513290405e-01 -6.364558637142181396e-02 -9.882743656635284424e-02 1.159187629818916321e-01 -2.975464984774589539e-02 -1.633867807686328888e-02 8.824004232883453369e-02 3.216528519988059998e-02 1.018376834690570831e-02 3.977827355265617371e-02 -9.899714961647987366e-03 4.842825978994369507e-02 3.543077781796455383e-02 1.048282831907272339e-01 -5.653065070509910583e-02 1.360134482383728027e-01 7.596173323690891266e-03 -2.258115820586681366e-02 8.774906746111810207e-04 2.290058328071609139e-04 -1.123645678162574768e-01 -7.395053748041391373e-03 -8.969283103942871094e-02 8.334074914455413818e-02 1.884794682264328003e-01 3.818432614207267761e-02 2.371322922408580780e-02 -2.061839774250984192e-02 -6.004262715578079224e-02 1.065152883529663086e-01 8.893929421901702881e-02 -9.365537017583847046e-02 1.481827050447463989e-01 -1.882877945899963379e-02 -4.427273571491241455e-02 -5.695163458585739136e-02 -1.680912673473358154e-01 1.313234958797693253e-02 3.491979464888572693e-02 8.541721105575561523e-02 2.239782735705375671e-02 2.322820574045181274e-02 1.792734414339065552e-01 7.442521303892135620e-02 -8.015347272157669067e-02 -1.205679476261138916e-01 -3.404952213168144226e-02 4.262326285243034363e-03 -1.998587548732757568e-01 -6.702619045972824097e-02 3.675477951765060425e-02 2.541023120284080505e-02 9.940318763256072998e-02 -1.555889993906021118e-01 4.816396534442901611e-02 -6.808280199766159058e-02 -6.795375049114227295e-02 1.306257396936416626e-01 -8.135166950523853302e-03 1.062718592584133148e-02 1.106946989893913269e-01 -1.175252050161361694e-01 -1.828528754413127899e-02 7.668542861938476562e-02 6.357136182487010956e-03 -1.035013496875762939e-01 3.586569055914878845e-02 -8.740505576133728027e-02 -9.279701113700866699e-02 -7.408756762742996216e-02 5.994440615177154541e-02 1.250165998935699463e-01 -2.908353321254253387e-02 -4.549011588096618652e-02 4.666265100240707397e-02 -1.101850047707557678e-01 -6.820157170295715332e-02 1.930865198373794556e-01 1.712352782487869263e-01 2.441784366965293884e-03 1.469038277864456177e-01 7.733243703842163086e-02 -5.390802025794982910e-02 3.337634727358818054e-02 1.131577324122190475e-02 1.351365894079208374e-01 -4.281006753444671631e-02 4.481492191553115845e-02 -5.890952050685882568e-02 -1.301682442426681519e-01 -1.272043138742446899e-01 -3.087734337896108627e-03 -5.462366156280040741e-03 -5.658551678061485291e-02 -8.556453138589859009e-02 -6.194863095879554749e-02 1.172230020165443420e-01 6.772396713495254517e-02 -3.169827535748481750e-02 8.143884688615798950e-02 2.778815627098083496e-01 1.192863378673791885e-02 -1.010211855173110962e-01 -1.129808276891708374e-01 3.556638956069946289e-02 -2.640062272548675537e-01 -4.422114044427871704e-02 -1.901392787694931030e-01 -4.019392281770706177e-02 -7.425846159458160400e-02 -1.819613873958587646e-01 2.007090719416737556e-03 -6.823381781578063965e-02 5.071128904819488525e-02 -1.302058901637792587e-02 1.248598285019397736e-02 1.149817369878292084e-02 2.252055853605270386e-01 -3.759039565920829773e-02 -1.172721385955810547e-01 3.535116836428642273e-02 -2.191280871629714966e-01 1.420353055000305176e-01 6.201118975877761841e-02 -4.964931309223175049e-02 -5.015518888831138611e-02 1.027832925319671631e-01 1.402990892529487610e-03 1.478342921473085880e-03 2.626593038439750671e-02 3.182841837406158447e-01 -1.323240902274847031e-02 4.219466447830200195e-02 -1.816239766776561737e-02 5.104988813400268555e-02 1.274207979440689087e-01 -7.684497535228729248e-02 -4.136119037866592407e-02 3.152846544981002808e-02 -4.564949125051498413e-02 -3.856351599097251892e-02 -5.515192821621894836e-02 2.806554362177848816e-02 1.077800840139389038e-01 1.157611683011054993e-01 -6.005605217069387436e-03 -1.159925982356071472e-01 6.534141302108764648e-02 7.696053385734558105e-02 2.245142683386802673e-02 1.244368776679039001e-02 -1.065606176853179932e-01 -1.805920898914337158e-02 -7.632649689912796021e-02 -1.149269789457321167e-01 -2.178866788744926453e-02 7.401587069034576416e-02 -1.225642487406730652e-02 4.339481890201568604e-02 -4.514760896563529968e-02 6.966415047645568848e-02 1.259152144193649292e-01 1.241131275892257690e-01 -2.414262481033802032e-02 3.122280724346637726e-02 1.175120919942855835e-01
1.242374107241630554e-01 -4.849185794591903687e-02 -2.433251589536666870e-02 9.563075751066207886e-02 -6.387537717819213867e-02 4.659590497612953186e-02 -9.258536994457244873e-02 -4.185093566775321960e-02 -4.027620330452919006e-02 -3.122971951961517334e-02 1.664728373289108276e-01 -4.301944002509117126e-02 -8.701774477958679199e-02 4.990957304835319519e-02 -5.354598537087440491e-02 -1.397450733929872513e-02 -2.387849427759647369e-02 -7.848748005926609039e-03 4.452085494995117188e-02 -2.781746536493301392e-02 4.359112307429313660e-02 -6.342067569494247437e-02 1.202456746250391006e-02 -1.541213504970073700e-02 5.263101309537887573e-02 -1.166482418775558472e-01 8.524277061223983765e-02 -5.242929980158805847e-02 1.525551676750183105e-01 2.649511583149433136e-02 7.961585186421871185e-03 -2.330997772514820099e-02 1.557952538132667542e-02 2.735262387432157993e-04 1.036689355969429016e-01 -1.549233589321374893e-02 1.118705272674560547e-01 8.276341110467910767e-02 -5.593034625053405762e-02 8.445207029581069946e-02 -5.051511898636817932e-02 4.268051311373710632e-02 -1.962250322103500366e-01 3.877835348248481750e-02 -3.680750727653503418e-02 -1.500648539513349533e-02 8.168801665306091309e-02 1.192914601415395737e-02 -1.539974361658096313e-01 -1.218031570315361023e-01 5.175096541643142700e-02 1.770406365394592285e-01 -7.148177921772003174e-02 5.080972984433174133e-02 6.328633427619934082e-02 -7.695216219872236252e-03 2.524403929710388184e-01 -2.468979358673095703e-02 1.012236922979354858e-01 7.320127636194229126e-02 -5.451042205095291138e-02 -2.541350759565830231e-02 3.068727068603038788e-02 -3.121559694409370422e-02 1.535649299621582031e-01 1.426566541194915771e-01 1.122873649001121521e-01 -3.709520772099494934e-02 -4.605633765459060669e-02 1.224167197942733765e-01 4.219039157032966614e-02 3.785282373428344727e-02 -4.055287688970565796e-02 3.757362067699432373e-02 9.236440807580947876e-02 1.734112650156021118e-01 -2.344988100230693817e-02 -2.309960573911666870e-01 -3.727521002292633057e-02 2.290667295455932617e-01 9.361447766423225403e-03 1.608755290508270264e-01 1.242675781250000000e-01 7.406683266162872314e-02 3.686338290572166443e-02 -7.257571816444396973e-02 -1.655458658933639526e-01 1.366888135671615601e-01 -1.078740805387496948e-01 -1.907196454703807831e-02 1.742807477712631226e-01 -7.429556548595428467e-02 -2.225148305296897888e-02 -2.100180863635614514e-04 -6.077347695827484131e-02 -8.249343186616897583e-02 -3.573465347290039062e-02 -7.940471917390823364e-02 2.189786732196807861e-01 2.065202444791793823e-01 -5.362373590469360352e-02 -7.312081754207611084e-02 5.588049441576004028e-02 8.476775139570236206e-02 9.410899132490158081e-02 2.171077951788902283e-02 -1.403984576463699341e-01 3.720079362392425537e-02 -3.700895980000495911e-02 -1.697757467627525330e-02 1.125392690300941467e-01 1.360108405351638794e-01 -1.735710203647613525e-01 -7.457470148801803589e-02 -3.432047739624977112e-02 -5.631471052765846252e-03 2.204338647425174713e-02 1.176076084375381470e-01 -2.260020188987255096e-02 9.463490545749664307e-02 -5.565612390637397766e-02 -8.407598733901977539e-02 -1.805526390671730042e-02 -7.334883511066436768e-02 -1.351696206256747246e-03 -1.230520308017730713e-01 6.672845035791397095e-02 -6.407716870307922363e-02 -6.946095079183578491e-02 -9.077793918550014496e-03 -4.745625331997871399e-02 9.016647189855575562e-02 -1.655234210193157196e-02 -9.911508858203887939e-02 5.935376510024070740e-02 8.157866448163986206e-02 -2.614613436162471771e-02 -5.825937911868095398e-02 1.169750764966011047e-01 1.520747244358062744e-01 -6.110546737909317017e-02 9.883502125740051270e-02 1.507067233324050903e-01 -2.774548530578613281e-02 -1.107285148464143276e-03 3.756935149431228638e-02 -4.096229095011949539e-04 -7.785932719707489014e-02 5.441183969378471375e-02 4.363330453634262085e-02 1.722457110881805420e-01 1.152506768703460693e-01 3.977066278457641602e-02 1.684013158082962036e-01 -3.304961696267127991e-02 9.390334598720073700e-03 1.186363250017166138e-01 -7.848773151636123657e-02 2.701649665832519531e-01 -6.291045248508453369e-02 3.976207226514816284e-03 7.242478430271148682e-02 5.829512700438499451e-02 3.811521828174591064e-02 2.075160667300224304e-02 -1.968079991638660431e-02 5.933012068271636963e-02 -1.002704128623008728e-01 9.635749459266662598e-02 1.468397304415702820e-02 -3.441903367638587952e-02 -7.246482372283935547e-02 6.214407831430435181e-02 3.273143991827964783e-02 3.287778049707412720e-02 -1.323268841952085495e-02 5.580541491508483887e-02 3.068605065345764160e-02 -1.037534251809120178e-01 -9.556208550930023193e-02 -1.721841990947723389e-01 -1.854589730501174927e-01 1.456473320722579956e-01 -3.101312927901744843e-02 1.243516504764556885e-01 1.326431054621934891e-02 4.845879226922988892e-02 6.232110783457756042e-02 -2.887604944407939911e-02 -3.442615643143653870e-02 -6.882749497890472412e-02 -1.694149523973464966e-01 -1.984266638755798340e-01 3.020782023668289185e-02 -4.493854939937591553e-02 -4.334470629692077637e-02 1.950076371431350708e-01 -9.363318234682083130e-02 6.548247486352920532e-02 -2.207940444350242615e-02 -1.113202422857284546e-01 1.733327805995941162e-01 1.918804831802845001e-02 7.529997080564498901e-02 -5.217916145920753479e-02 7.714574038982391357e-02 3.930772095918655396e-02 6.856136769056320190e-02 -6.344537436962127686e-02 1.556948293000459671e-02 -3.764600306749343872e-02 1.411613225936889648e-01 -4.485926404595375061e-02 1.114925965666770935e-01 -9.728413075208663940e-02 -1.362229734659194946e-01 -1.612284034490585327e-01 -5.796344205737113953e-02 1.666379719972610474e-01 1.161552267149090767e-03 7.362967729568481445e-02 2.809634432196617126e-03 -9.407575428485870361e-02 7.473846524953842163e-02 -5.481365323066711426e-02 -7.914196699857711792e-02 3.731043264269828796e-02 4.037706181406974792e-02 -1.422140933573246002e-02 5.991876497864723206e-02 -3.792063146829605103e-02 7.723914086818695068e-02 -1.072648316621780396e-01 -4.699198994785547256e-03 -4.037658870220184326e-02 -8.526669442653656006e-02 1.052148453891277313e-02
8.417020738124847412e-02 -1.110195815563201904e-01 1.881870068609714508e-02 -6.421459466218948364e-02 1.713449060916900635e-01 5.033708363771438599e-02 -3.035967238247394562e-02 -3.965299203991889954e-02 -1.828150302171707153e-01 7.386597245931625366e-02 -1.485475748777389526e-01 -1.559139937162399292e-01 2.663290128111839294e-02 1.309713125228881836e-01 -5.161242932081222534e-02 3.202032297849655151e-02 1.199884563684463501e-01 -9.782223403453826904e-02 -3.406984359025955200e-02 -4.567813873291015625e-02 -7.980884984135627747e-03 -1.695475727319717407e-02 2.144533544778823853e-01 2.617903649806976318e-01 7.539732009172439575e-02 -2.910107187926769257e-02 -1.463638544082641602e-01 5.246715620160102844e-02 -6.869232282042503357e-03 1.216574087738990784e-01 8.008085936307907104e-02 3.655130043625831604e-02 -4.534760490059852600e-02 -6.482989992946386337e-03 -1.809907145798206329e-02 -1.295671612024307251e-02 -7.389663718640804291e-03 1.951919198036193848e-01 -1.472870707511901855e-01 3.243050724267959595e-02 6.696221977472305298e-02 -4.956717137247323990e-03 3.617293760180473328e-02 1.123139187693595886e-01 -9.114997088909149170e-02 -4.161322489380836487e-02 -1.982332393527030945e-02 -9.598405659198760986e-02 -7.665630429983139038e-02 -9.497734159231185913e-02 4.361936822533607483e-02 -8.218953758478164673e-02 2.792938612401485443e-02 4.432686045765876770e-02 8.004532195627689362e-03 -1.094177961349487305e-01 2.023969776928424835e-02 -9.917807579040527344e-02 -6.425765901803970337e-02 -3.214271739125251770e-02 -1.680431701242923737e-02 4.238481819629669189e-02 7.681332528591156006e-02 -3.094148635864257812e-02 -1.504838000982999802e-04 3.840301930904388428e-02 8.615503460168838501e-02 -1.054700165987014771e-01 1.297840327024459839e-01 2.040707878768444061e-02 1.535572558641433716e-01 8.452633023262023926e-02 3.506284207105636597e-02 7.971333712339401245e-02 4.311864823102951050e-02 -7.609761506319046021e-02 4.135868325829505920e-02 -1.161007359623908997e-01 -1.133412271738052368e-01 -1.417322158813476562e-01 2.849702164530754089e-02 -4.466978088021278381e-02 3.656660020351409912e-02 9.708169847726821899e-02 -5.035415291786193848e-02 -2.665554173290729523e-02 2.471604943275451660e-02 3.209935873746871948e-02 -5.247149989008903503e-02 -7.444842159748077393e-02 1.773135513067245483e-01 9.040873497724533081e-02 -2.922707423567771912e-02 7.216686755418777466e-02 8.848299086093902588e-02 1.259279251098632812e-01 1.791737158782780170e-03 2.809835784137248993e-02 -1.990723423659801483e-02 -3.319101035594940186e-02 9.003824740648269653e-02 -1.687169424258172512e-03 1.340246945619583130e-01 -8.275932073593139648e-02 -1.905632019042968750e-02 -4.382919147610664368e-02 -7.357105612754821777e-02 -3.291229903697967529e-02 1.043020337820053101e-01 -3.296764334663748741e-03 -8.555998653173446655e-02 6.923981755971908569e-02 -8.352290838956832886e-02 -1.737458705902099609e-01 4.481245204806327820e-02 -8.423994481563568115e-02 7.620584219694137573e-02 4.260764643549919128e-02 -9.768363088369369507e-02 -7.518572360277175903e-02 -4.132161661982536316e-02 -9.169375896453857422e-02 2.629116736352443695e-02 -4.297891259193420410e-02 8.573364466428756714e-02 -1.750289835035800934e-02 -1.920523121953010559e-02 -7.054927945137023926e-02 -8.449330180883407593e-02 -2.621428668498992920e-01 3.125480562448501587e-02 -5.237709358334541321e-02 -9.406512975692749023e-02 -7.810437679290771484e-02 -4.344141483306884766e-02 6.415867805480957031e-02 6.999436765909194946e-02 5.530626326799392700e-02 9.433311223983764648e-02 1.692119538784027100e-01 1.089767143130302429e-01 1.533450484275817871e-01 -9.787639230489730835e-02 -2.252575568854808807e-02 -5.905496329069137573e-02 -7.643351703882217407e-02 -5.422690138220787048e-02 1.885661855340003967e-02 -3.987177833914756775e-02 -3.279262781143188477e-01 6.656718999147415161e-02 -9.784018993377685547e-02 4.555975645780563354e-02 -5.490740761160850525e-02 -1.427287459373474121e-01 2.374797686934471130e-02 3.712836280465126038e-02 1.209656521677970886e-01 7.591684162616729736e-02 -2.510473690927028656e-02 6.279432028532028198e-02 1.231787577271461487e-01 2.883190754801034927e-03 -1.761921793222427368e-01 1.231876295059919357e-02 -8.083605207502841949e-03 -1.226537227630615234e-01 2.188573777675628662e-02 -6.578429043292999268e-02 -5.745754390954971313e-02 1.239807158708572388e-01 -1.009656582027673721e-02 4.369157925248146057e-02 1.289383391849696636e-03 -1.506078173406422138e-03 1.771023124456405640e-01 6.801418960094451904e-02 8.732876181602478027e-02 -3.203222900629043579e-02 3.578713536262512207e-02 -1.510286610573530197e-02 -1.249751448631286621e-01 5.169056355953216553e-02 -3.298919275403022766e-02 4.993627220392227173e-02 1.333013474941253662e-01 -7.442043721675872803e-02 -8.488443563692271709e-04 9.686970710754394531e-02 -1.513985395431518555e-01 4.809687286615371704e-02 -1.423258036375045776e-01 1.030241549015045166e-01 -1.384356766939163208e-01 -7.596362382173538208e-02 -9.217286482453346252e-03 -1.445439830422401428e-02 -5.650272592902183533e-02 3.176772966980934143e-02 -9.707838296890258789e-03 5.322247743606567383e-02 6.085542961955070496e-02 1.354207843542098999e-01 -9.829995781183242798e-02 -1.536074876785278320e-01 2.774739265441894531e-01 1.075497344136238098e-01 -2.061146683990955353e-02 -6.673461943864822388e-02 -1.159550175070762634e-01 -2.352722547948360443e-02 -2.175308763980865479e-02 -2.168775498867034912e-01 -9.494315087795257568e-02 1.806259751319885254e-01 -8.388634771108627319e-02 -1.779121579602360725e-03 1.330952644348144531e-01 -1.126813963055610657e-01 -1.058455333113670349e-01 3.567760065197944641e-02 -1.651048362255096436e-01 6.736851483583450317e-02 -3.930392488837242126e-02 -8.485475927591323853e-02 3.448579832911491394e-02 1.143350638449192047e-02 1.304940730333328247e-01 9.476613998413085938e-02 -2.080005109310150146e-01 8.380698412656784058e-02 -9.978868067264556885e-03 -5.626176483929157257e-03 7.321581244468688965e-02 1.622952073812484741e-01 1.384246945381164551e-01 4.612075537443161011e-02
