4.014286398887634277e-01
1.652507185935974121e-01
2.262158244848251343e-01
2.063663452863693237e-01
3.109469413757324219e-01
1.669299006462097168e-01
2.050748765468597412e-01
1.607038080692291260e-01
-1.901661157608032227e-01
2.202915996313095093e-01
1.221418455243110657e-01
-1.254798620939254761e-01
2.580037117004394531e-01
2.231052666902542114e-01
1.655744165182113647e-01
1.973921209573745728e-01
2.265523970127105713e-01
1.304150819778442383e-01
-4.119367897510528564e-01
4.652439430356025696e-02
3.935649693012237549e-01
1.739047467708587646e-01
1.362558305263519287e-01
-1.537563949823379517e-01
3.739214539527893066e-01
3.277691006660461426e-01
3.559834361076354980e-01
2.294926792383193970e-01
2.062990367412567139e-01
4.705364704132080078e-01
5.121292546391487122e-02
-4.619587659835815430e-01
-1.176121085882186890e-01
4.107090830802917480e-01
7.142514921724796295e-03
-2.852302491664886475e-01
-2.768318057060241699e-01
3.263366520404815674e-01
1.229453925043344498e-02
1.898211687803268433e-01
2.081105411052703857e-01
-1.320616453886032104e-01
-3.217264413833618164e-01
-1.207970902323722839e-01
8.666241168975830078e-02
-5.490896757692098618e-03
4.174621403217315674e-01
2.954743802547454834e-01
2.465159893035888672e-01
2.885338068008422852e-01
-3.197326660156250000e-01
-2.219823151826858521e-01
-2.452685385942459106e-01
1.722952723503112793e-01
3.024027347564697266e-01
1.559011638164520264e-03
3.305819928646087646e-01
1.199586987495422363e-01
-4.952036589384078979e-02
1.825102567672729492e-01
1.714428961277008057e-01
1.663989573717117310e-01
6.670867651700973511e-02
2.007327377796173096e-01
-5.637040734291076660e-02
1.937153786420822144e-01
1.808013021945953369e-01
6.472603976726531982e-02
1.316345334053039551e-01
-1.212015673518180847e-01
4.792951047420501709e-02
3.623731136322021484e-01
6.418123096227645874e-02
1.419811397790908813e-01
2.456978261470794678e-01
1.765827983617782593e-01
3.195053637027740479e-01
-2.557056769728660583e-02
1.101889908313751221e-01
2.949767708778381348e-01
1.103219017386436462e-01
-1.829766035079956055e-01
3.533833920955657959e-01
2.417581342160701752e-02
2.263366132974624634e-01
-3.948959112167358398e-01
-1.676077395677566528e-01
1.324980258941650391e-01
3.676081299781799316e-01
1.902038007974624634e-01
2.790693938732147217e-01
1.203795969486236572e-01
-2.035008557140827179e-02
2.419161796569824219e-01
-5.975941196084022522e-02
1.467947959899902344e-01
4.280374944210052490e-01
2.559744417667388916e-01
2.580023101472761482e-05
-7.004736363887786865e-02
1.963632553815841675e-01
-1.113565787672996521e-01
3.568351566791534424e-01
-1.403388101607561111e-02
1.989056766033172607e-01
3.530480563640594482e-01
6.551838666200637817e-02
2.598334252834320068e-01
-2.405716106295585632e-02
1.235538497567176819e-01
-5.681743100285530090e-02
2.129486352205276489e-01
6.449589878320693970e-02
6.564784049987792969e-02
1.576379835605621338e-01
9.602440148591995239e-02
1.469434946775436401e-01
4.382516145706176758e-01
2.009909451007843018e-01
2.076561897993087769e-01
1.982851624488830566e-01
8.929268270730972290e-02
9.820947796106338501e-02
-2.068433612585067749e-01
6.744752824306488037e-02
8.628715574741363525e-02
-1.187800690531730652e-01
1.371467113494873047e-01
2.890070676803588867e-01
2.034091949462890625e-01
4.224329590797424316e-01
2.135960161685943604e-01
2.223530597984790802e-02
-2.498706243932247162e-02
1.094428300857543945e-01
1.247838735580444336e-01
3.340767025947570801e-01
2.801989614963531494e-01
7.141203619539737701e-03
4.351172745227813721e-01
7.746151532046496868e-04
7.640949636697769165e-02
-1.701816469430923462e-01
7.534855604171752930e-02
-5.780787207186222076e-03
8.067022077739238739e-03
1.020040512084960938e-01
-2.477993071079254150e-01
1.385971903800964355e-02
3.165175616741180420e-01
-1.150146964937448502e-02
-1.225655972957611084e-01
4.147063493728637695e-01
2.140305638313293457e-01
3.066610097885131836e-01
4.093224108219146729e-01
8.181793987751007080e-02
1.637701690196990967e-01
3.190006315708160400e-01
1.627486050128936768e-01
1.055579409003257751e-01
3.734910190105438232e-01
2.106844037771224976e-01
6.312692910432815552e-02
2.857633829116821289e-01
-3.200252950191497803e-01
2.332453578710556030e-01
6.377901136875152588e-02
-1.079391017556190491e-01
-5.496924370527267456e-02
-6.905962526798248291e-02
3.371146917343139648e-01
-2.594524063169956207e-02
8.038831502199172974e-02
3.064222931861877441e-01
1.435784846544265747e-01
-8.862036466598510742e-02
5.781608447432518005e-02
3.061632215976715088e-01
-1.000868007540702820e-01
-4.202516376972198486e-02
-8.678200095891952515e-02
3.414429128170013428e-01
3.226121664047241211e-01
-8.493211120367050171e-02
4.171906113624572754e-01
3.324244869872927666e-03
1.209192499518394470e-01
4.869586229324340820e-02
-1.236706413328647614e-02
5.747875198721885681e-02
2.100440561771392822e-01
1.297696977853775024e-01
1.172032281756401062e-01
7.105170190334320068e-02
1.843635290861129761e-01
-2.442457973957061768e-01
-3.680879771709442139e-01
2.024705857038497925e-01
2.953538894653320312e-01
9.519013017416000366e-02
-3.293180093169212341e-02
2.677155435085296631e-01
3.536495566368103027e-01
-1.655431240797042847e-01
-2.031733244657516479e-01
-2.988394796848297119e-01
2.983385026454925537e-01
4.365293383598327637e-01
-1.641958504915237427e-01
-2.566379010677337646e-01
2.789774835109710693e-01
2.390971183776855469e-01
1.072952821850776672e-01
-1.276809349656105042e-02
2.530828416347503662e-01
9.275569766759872437e-02
2.531268894672393799e-01
2.234003990888595581e-01
2.804215848445892334e-01
-1.501286178827285767e-01
5.819581449031829834e-02
1.568463891744613647e-01
9.377381205558776855e-02
-3.996841609477996826e-03
4.444486796855926514e-01
-8.079931885004043579e-02
-1.869058609008789062e-02
-1.115427911281585693e-01
2.201764434576034546e-01
5.102942511439323425e-02
2.518565654754638672e-01
1.551018357276916504e-01
2.789733745157718658e-02
-2.540748007595539093e-02
3.817197382450103760e-01
3.576923012733459473e-01
1.079224795103073120e-02
-1.127510890364646912e-01
1.811989396810531616e-01
-4.916943982243537903e-02
1.675066351890563965e-01
-2.923933565616607666e-01
3.517051041126251221e-01
1.138729155063629150e-01
-3.205010294914245605e-01
3.445110023021697998e-01
-1.428294777870178223e-01
2.843692898750305176e-01
2.488706633448600769e-02
-2.822796441614627838e-02
3.411008715629577637e-01
1.510727852582931519e-01
-1.431415528059005737e-01
1.748574525117874146e-01
2.432846128940582275e-01
