8.584725856781005859e-01 -1.297772526741027832e+00 -3.984961032867431641e+00 -9.436886310577392578e-01 6.865152120590209961e-01 1.743215203285217285e+00 4.300482273101806641e+00 2.509303331375122070e+00 -8.670819401741027832e-01 9.992844462394714355e-01 -6.532937526702880859e+00 5.431011319160461426e-01 1.660103678703308105e+00 9.721369743347167969e-01 -5.939054012298583984e+00 3.343013525009155273e-01 -1.599950551986694336e+00 8.747557997703552246e-01 2.336670637130737305e+00 1.608278155326843262e+00 -1.067505240440368652e+00 -8.625807762145996094e+00 9.254082679748535156e+00 -1.825042605400085449e+00 6.318643689155578613e-01 6.485959887504577637e-01 1.280934453010559082e+00 1.977812528610229492e+00 8.457231521606445312e-01 6.343797445297241211e-01 6.089678406715393066e-01 1.702019214630126953e+00 4.037951946258544922e+00 1.041988372802734375e+00 2.003049373626708984e+00 1.755659818649291992e+00 -2.542235612869262695e+00 6.956394910812377930e-01 -2.763095855712890625e+00 2.793408393859863281e+00 4.072791934013366699e-01 2.363559246063232422e+00 -1.741972684860229492e+00 -9.450914263725280762e-01 -2.843418121337890625e+00 7.979506850242614746e-01 6.490719914436340332e-01 -1.110932469367980957e+00 1.336928009986877441e+00 2.138097763061523438e+00 -1.889759063720703125e+00 2.805950164794921875e+00 -2.449815988540649414e+00 7.244635820388793945e-01 -5.802015304565429688e+00 1.653355717658996582e+00 7.396503686904907227e-01 1.413372278213500977e+00 1.982435464859008789e+00 1.350091576576232910e+00 -1.479556798934936523e+00 7.091258764266967773e-01 6.179456114768981934e-01 8.819169998168945312e-01 9.258717894554138184e-01 -1.387175202369689941e+00 4.010936319828033447e-01 -4.536358833312988281e+00 9.084705114364624023e-01 1.711796879768371582e+00 3.402162790298461914e-01 8.613473176956176758e-01 -1.543012261390686035e+00 -2.472488164901733398e+00 1.444949507713317871e+00 -9.945595264434814453e-01 -4.289304733276367188e+00 -2.603837490081787109e+00 -3.596095561981201172e+00 -1.754238605499267578e+00 5.236494541168212891e-01 -7.900655865669250488e-01 9.953646063804626465e-01 1.038909673690795898e+00 1.390714883804321289e+00 4.599785804748535156e-01 5.707181692123413086e-01 -8.102945685386657715e-01 4.944236576557159424e-01 2.217827290296554565e-01 1.116102099418640137e+00 2.782485485076904297e-01 1.363479137420654297e+00 9.712772369384765625e-01 -5.030009269714355469e+00 -4.542482852935791016e+00 -3.396357059478759766e+00 8.694978952407836914e-01 1.048814415931701660e+00 -1.525589942932128906e+00 8.060299754142761230e-01 1.442244768142700195e+00 -7.874575257301330566e-01 -7.856956005096435547e+00 1.140241980552673340e+00 -1.065176129341125488e+00 4.880482554435729980e-01 -1.006962537765502930e+00 1.390478372573852539e+00 1.047382950782775879e+00 -4.164761543273925781e+00 -4.225727558135986328e+00 -4.603244781494140625e+00 -1.400728130340576172e+01 2.090563297271728516e+00 -2.294733285903930664e+00 1.008951783180236816e+00 1.240998029708862305e+00 3.726701438426971436e-01 7.775426506996154785e-01 5.824318528175354004e-01 9.899201393127441406e-01 4.331501424312591553e-01 -1.115010738372802734e+00 3.484438419342041016e+00 8.165012598037719727e-01 -6.030283451080322266e+00 -3.689055144786834717e-02 1.060158491134643555e+00 2.610760450363159180e+00 3.948340892791748047e+00 -3.576688766479492188e+00 2.881047248840332031e+00 -1.791407942771911621e+00 -7.565433382987976074e-01 2.297862529754638672e+00 7.836328148841857910e-01 8.817492723464965820e-01 3.957362771034240723e-01 1.235652685165405273e+00 7.806077003479003906e-01 2.881806612014770508e+00 1.598580360412597656e+00 -5.442699909210205078e+00 3.586217403411865234e+00 1.361917257308959961e+00 5.260589599609375000e+00 -3.432378292083740234e+00 2.504565000534057617e+00 -4.087609648704528809e-01 1.383867383003234863e+00 4.642476558685302734e+00 6.044235229492187500e-01 9.076907634735107422e-01 -7.429462075233459473e-01 -1.357966661453247070e+00 1.426627278327941895e+00 -1.144596457481384277e+00 9.322776794433593750e-01 1.279746890068054199e+00 3.452144384384155273e+00 1.808042645454406738e+00 1.059198856353759766e+00 2.773064374923706055e-01 -2.242597579956054688e+00 -3.577052354812622070e+00 5.068588256835937500e-01 -1.813620567321777344e+01 4.745951175689697266e+00 8.344806432723999023e-01 1.021159291267395020e+00 1.177054643630981445e+00 -9.672514796257019043e-01 7.482703924179077148e-01 5.752567648887634277e-01 -1.337369155883789062e+01 3.793731212615966797e+00 1.510137557983398438e+00 3.591640889644622803e-01 -1.053886318206787109e+01 2.228572845458984375e+00 -1.111110210418701172e+00 5.107170939445495605e-01 5.664954781532287598e-01 8.001884818077087402e-01 5.347602367401123047e-01 -4.010344505310058594e+00 1.574500918388366699e+00 2.561920166015625000e+00 8.978201746940612793e-01 -1.152064204216003418e+00 -2.925279617309570312e+00 4.504166245460510254e-01 -1.783559679985046387e+00 1.222848534584045410e+00 -3.797337293624877930e+00 6.597175598144531250e-01 6.261478066444396973e-01 -1.194684314727783203e+01 6.189143061637878418e-01 -9.896523952484130859e-01 4.480745792388916016e+00 -7.070908546447753906e-01 5.978592038154602051e-01 2.075401306152343750e+00 1.293341517448425293e+00 -1.724230575561523438e+01 -1.304102063179016113e+00 8.593085408210754395e-01 -9.428164958953857422e-01 5.657419562339782715e-01 2.230123519897460938e+00 1.776792764663696289e+00 1.940403342247009277e+00 1.287886857986450195e+00 4.966515004634857178e-01 -2.090598583221435547e+00 7.933771014213562012e-01 -2.936022996902465820e+00 -4.049479484558105469e+00 1.091126561164855957e+00 1.495230555534362793e+00 5.278570175170898438e+00 -3.742775201797485352e+00 -9.706047177314758301e-01 -1.998212623596191406e+01 -3.169934511184692383e+00 2.444751024246215820e+00 -3.342598676681518555e+00 -4.860180377960205078e+00 2.627536535263061523e+00 8.541865944862365723e-01 4.371533393859863281e-01 1.072364687919616699e+00 1.191108822822570801e+00 8.189954161643981934e-01 7.469629645347595215e-01 1.166254758834838867e+00 1.302711606025695801e+00 6.070820689201354980e-01 -1.182236075401306152e+00 3.810911774635314941e-01 2.805289328098297119e-01 3.718224465847015381e-01 6.716927886009216309e-01 -2.509657382965087891e+00 -1.897851943969726562e+00 5.288449525833129883e-01 -3.644348621368408203e+00 -6.379069805145263672e+00 -3.316535234451293945e+00 -1.235639691352844238e+00 5.687947869300842285e-01 7.602952122688293457e-01 -1.851490855216979980e+00 4.003670811653137207e-01
